0.9841412068855371 0.7005425507609666 -0.23323881475704514 -1.2945030148871035 0.5458341975027173 0.46646862517141113 0.8921567413991349 0.057557181020081866 0.8113502631450098 1.3757646822679586 0.7355922747856494 -0.8345257573678999 -0.8412307064536193 0.7504069012949627 -0.005040916652605583 -0.9609921615397224 
0.7723759817610036 -1.1631731329175934 0.10085866188731471 1.564495842659582 0.3821146982825221 0.6034390072058343 1.5206569996395856 0.8080551826397134 -0.7206535507857859 0.3165289305158544 -0.6379339315726794 0.08480246090686547 0.45094470574810525 0.22967012215083218 -0.5801617914710573 0.7163468441530206 
-0.9021807137068473 1.2602299254101335 -1.9541099536497255 -0.11642024781479743 -0.3153112935128704 1.1222211107864735 0.44755007211025427 1.2067989433494777 1.1570964168721156 0.7867250085615783 0.6393380145801824 0.8537316945425913 0.6860890066072978 0.5533971370388265 -0.30665043661815294 0.410710953817454 
0.054630280649396144 0.14228112996074668 -0.44966527850070287 -0.28278267095513915 -0.8659020184030095 1.0275850902021126 0.2138994786342689 -0.6600126198533115 -1.0536924286356255 0.7093626672397777 0.9043365954726954 0.34837496040078775 -0.03950371904641415 -1.0850329599043502 0.5777583771211894 0.6637160413961822 
0.7331928425650529 -0.24706841804459942 -1.3015736332486438 0.7458663760263939 -0.858646795587219 -1.270659934210972 -1.5032263189976918 -0.6835807367966756 -2.193169713052645 -2.462328452990699 0.3948247311989056 1.0810229191765885 0.8950543051662286 -0.5755872905610228 -0.7409700543146236 1.3972612452218909 
-1.9489475957476385 0.06457933975241714 0.3000653577729829 0.6356319065746062 -0.3451777008094795 -0.08447521380274155 -1.1365894414867383 -1.067953384089046 -0.36900669826315047 0.8706063951374295 -1.2325229041516603 1.2529083194977648 0.36414135730803754 1.5178788979042308 0.962408236285107 -1.2511235883055187 
2.950016914842507 0.4504277786252712 -1.413542786733918 -0.9557690141247901 0.007820433355498832 0.10428550460177866 -0.1283468823276533 0.35149622899049365 -0.959111341718561 0.10137512684339973 1.1832417723504904 -0.2254808461394521 0.5005548699613531 -0.6671809103236562 0.5579673873799372 -0.6911148837449502 
0.5883441095141542 0.3532021047252855 1.891969065711653 2.3742299789707046 -0.08972363662324942 -0.527752606038109 -0.6339587214443763 -0.38402461148576444 1.677879775387579 -0.779031512993229 -1.5634694487657899 0.6965040809753763 -0.646227783999636 -2.075432874506391 -0.44341620065609455 0.023140185939580525 
0.466284276562262 -0.20766331682874428 -0.13811680480181981 0.5822317159656026 -0.12493328969069992 0.5754139704375345 0.21215036117265243 0.7691527153643423 -0.5685824217604967 1.004997377918507 -1.0489873421592326 -0.24751555203846 -0.8822619699315369 -0.1579176586692545 -1.191106914839995 -0.23031043061939097 
-0.5059081830620638 1.026814333741039 -0.6449618297846194 0.7426712705233895 0.9413824927605805 1.1833167366283974 1.5893240896550063 -0.8225691578607691 0.47895296194135645 -1.3218572331575351 -0.5711845569720448 -0.6233494741501998 1.576916590995878 -0.9254597738739876 0.001324934201055109 -1.0718571140122166 
-0.9014766494186588 -0.4018477568380134 0.9567176695184959 0.23084125687829318 0.053842551856991744 -1.086547138739349 -0.012497448633953285 -1.067360110800258 -0.9358810030545868 -1.2927829220115665 -0.41205961447115724 -1.5072086186486853 0.8316562931571183 2.521328541931543 -0.5750559839835916 0.17098565871363533 
0.9495672317431397 1.0207240402109212 1.1762686467147454 -0.9843557204611546 1.1586442660112626 0.8684681667508857 -0.6565509038097226 -0.1218098699847115 0.8562499432027798 1.1172507881954052 0.3850801694861088 0.7098499917992773 0.1219686059582551 -0.960226126941974 0.5476867872318972 -0.8630326148665208 
0.654185682277457 -0.9786290449501803 -0.4067315093092662 0.9538139668814639 -0.6439057894670261 -0.7613464724942016 -0.7034235801824202 0.8899758933163611 0.200524055405093 1.274599567422533 1.3398554153260278 1.0231135878342636 -0.0014610491561445602 -1.9717313136765786 1.1075310212968126 0.3490392525303318 
2.300269809213052 -0.8128646307748897 -0.08250830397116038 -0.06938633099181098 0.8777912969752101 1.1279804572379302 1.3516034906937067 -0.6692326302087528 0.10005506275171322 -0.5896207135411049 -0.5016934851328263 -1.2144386436390635 1.0517260875541856 -1.4248858385220555 -0.5751301358785444 -0.48828730567764606 
-0.17354146888719554 -0.20633893945431395 -0.6925898968191331 -0.3680553534848774 0.9942493168968688 0.5318112877010869 -0.910812907784477 0.9769103104794921 1.7192791708929525 -0.3626884580311615 -0.4003823074697748 -0.8739009296247763 -0.6075010210668654 0.8537414735510437 -0.8795177504049004 -0.03694424112436131 
-1.0268394009658866 -0.6010991751621512 1.8189432657333948 0.48131454786820066 -0.1058238057314838 -0.06633717996452279 0.5471146986281599 0.05509126658373786 1.3529188776024348 1.3551094775617223 -0.09611244909412399 0.36482108680716496 1.4539331212030053 1.4064234588616076 -0.15273558128190445 0.48712208620410496 

0.9855089627468074 0.7043385406599277 -0.23332416361597494 -1.2849888974491224 0.5444045184642768 0.4649636103066708 0.8811733500486751 -0.058307959848091485 0.8255765565852279 1.3882251727509776 0.7871592723180881 -0.8326815904060793 -0.8412307064536193 0.7653036425785097 -0.005221891280319471 -0.940434993070226 
0.7490572280807325 -1.1599083581452287 0.09755723212710349 1.546064332136961 0.3843460464118345 0.6034390072058343 1.5407324973115077 0.8068554015461159 -0.724136748506525 0.3141319868176405 -0.6325289452443348 0.08480246090686547 0.46518627348077224 0.2323240412291425 -0.5762712952925088 0.7048315231803258 
-0.9080450544953382 1.2499008997279464 -2.010479517564525 -0.11642024781479743 -0.3230425616817844 1.097975024962449 0.44755007211025427 1.184408502950623 1.1719205713016985 0.7822582469559065 0.6520116867331252 0.8329382573883525 0.6860890066072978 0.5523721107106468 -0.30665043661815294 0.410710953817454 
0.054630280649396144 0.14518649518539858 -0.44966527850070287 -0.28330125493001646 -0.8726892655095092 1.0373283763286327 0.21446343720347402 -0.6654541372044476 -1.0111624510020856 0.7003489867457589 0.8898125676005146 0.34837496040078775 0.0395635847581364 -1.0813752581176028 0.5706715445449227 0.6362172597081872 
0.7205293198721834 -0.24506181386520384 -1.3248630446667793 0.7612371192888359 -0.8540321082240397 -1.2771201197936835 -1.5273901507098102 -0.6873339518523858 -2.238761563215558 -2.462328452990699 0.40498808564610983 1.1085881730633325 0.9116177009762607 -0.5671653131383609 -0.7409700543146236 1.3893576816089324 
-1.9258171971487865 -0.06394071956874767 0.2983815267715644 0.6356319065746062 -0.3572132136947064 -0.08383684903622773 -1.1090686814914008 -1.0504461148715005 -0.3689778727340526 0.8431376479223183 -1.2514957016246633 1.2675874805148106 0.28114248100438766 1.5178788979042308 0.9641532778561354 -1.2511235883055187 
2.84168763065033 0.4610400086723019 -1.434776691826267 -0.9557690141247901 0.007880527225408466 0.10604950503290397 -0.12926937843174616 0.35213274117543125 -0.9488778416152537 0.10137512684339973 1.1672957759340516 -0.2341076378229312 0.49517130238436463 -0.6671809103236562 0.5769021902340502 -0.6962273633344702 
0.6079518465551375 0.3505144532972815 1.9219117797356475 2.3742299789707046 -0.09111488977827657 -0.5405066430863941 -0.6273546111349928 -0.3797514507310264 1.6763340524373214 -0.7911881733125252 -1.5467797271598074 0.6875119264312649 -0.6176216611452565 -2.0768724051706178 -0.44798931637068656 0.02337365107779464 
0.46393437072234156 -0.20587420549966193 -0.13696865714045842 0.5833976662863058 -0.12448018635128026 0.5829149904472858 0.21665775422369038 0.7620362163165921 -0.5705806649041902 1.0795398188560679 -1.0915770039310437 -0.2438711233233344 -0.8817343062516647 -0.16110618771099422 -1.2076369211133957 -0.23031043061939097 
-0.516678714405552 1.030655999992339 -0.6517860281109654 0.7721822844318956 0.9408378358629328 1.1949028175430318 1.5893240896550063 -0.8182783929416703 0.4747339492816382 -1.3445455461915676 -0.576999354933149 -0.6449968673646929 1.5173551436075206 -0.9432895017462943 0.0013321839860180407 -1.065695971982662 
-0.8999492491947251 -0.4024937393473595 0.9778892547893354 0.23084125687829318 0.05320333510498754 -1.125623349432566 0.012497448633953285 -1.0527930657077225 -0.9538270198317538 -1.2681299983846461 -0.41706761175005325 -1.4948232160501196 0.8553740852416317 2.521328541931543 -0.5870536089670059 0.17066033515824994 
0.9704356722224599 1.0220924265481626 1.176422342742295 -0.9770841170083129 1.1596130982717678 0.9254349908520222 -0.647076228123344 -0.12147249456225243 0.8666257744998528 1.1347914468569398 1.115238866331277 0.7021841192747952 0.1194631400515866 -0.9645528573409909 0.55588973101009 -0.8554817587480765 
0.654185682277457 -0.9894953071553839 -0.4035114801055069 0.9413931104689649 -0.6544847583065996 -0.7613464724942016 -0.7079977077356285 0.8899758933163611 0.20120818741848515 1.274599567422533 1.3557713327947623 1.0037493990842805 -0.0014439589440310731 -1.991827434608406 1.1099462579874664 0.3493047080436609 
2.2723177230536917 -0.7671496004675238 -0.08009726210127227 0.06720360263073613 0.8777912969752101 1.1433087522670606 1.358140868754088 0.6723355604163097 0.09887548467314689 -0.577516785599309 -0.5016934851328263 -1.2125302931308932 1.070896945503596 -1.415418112134956 -0.589288459923087 -0.49249140737098673 
-0.17243461136599095 -0.20881290385645607 -0.7003063744828874 -0.36957909342052825 1.0041377537676197 0.5466733467630276 -0.8975078542312687 0.9725054398800922 1.7192791708929525 -0.3623187500395321 -0.40225466475281907 -0.8666614435372614 -0.5947178191754166 0.85791026925882 -0.8795177504049004 0.03700492475632436 
-1.0268394009658866 -0.6027508622339878 1.8830381588423466 0.4811687411918752 -0.10688885321883812 -0.06595588472481036 0.5456491897702528 0.05419282994543882 1.3335615489588721 1.3650858236055317 -0.09821592939353403 0.3691350740436437 1.434199333022209 1.4381644018169353 -0.1578545832377403 0.48187338349164466 

0.988438587199746 0.7020529703326299 -0.23644925953862458 -1.292541112264598 0.5430780817477391 0.457901536649621 0.9093658064068942 -0.05683896039513421 0.8139381610566291 1.3794328895941512 0.782063390736976 -0.8345257573678999 -0.841235940811611 0.7502789793907503 0.005221891280319471 -0.9609921615397224 
0.7490572280807325 -1.1599083581452287 0.10006661289254422 1.564495842659582 0.3821146982825221 0.6101663908826479 1.5678037215042195 0.8080551826397134 -0.7040140108094823 0.3188845667330786 -0.6276231210687595 0.08573252823224918 0.4597822792025115 0.22509173997979728 -0.5801617914710573 0.705784184476364 
-0.9100542075442662 1.2499008997279464 -1.9849084567799764 -0.11473216429247436 -0.3190623832988593 1.125376600288572 0.4545332010004146 1.184408502950623 1.1740456300312596 0.7785931046214563 0.6465798943377518 0.8329382573883525 0.6808538232118052 0.5572015485012642 -0.30159815578156235 0.410710953817454 
-0.055290846732046706 0.14147463812324443 -0.4417949106218871 -0.28251838053664363 -0.8532770360643516 1.045334521816215 0.2138994786342689 -0.6654541372044476 -0.9943860597230714 0.7093626672397777 0.8988210413447185 0.3497382745043767 -0.04004884123079129 -1.0850329599043502 0.5726981505017715 0.6580398473900834 
0.7236659793747816 -0.2435845404612026 -1.2940788940878718 0.750594301989391 -0.8597766968155506 -1.2771201197936835 -1.5205828379869586 -0.674910020650424 -2.238761563215558 -2.4979879040731316 0.3888932955811311 1.101059588940881 0.8873140337092187 -0.5671653131383609 -0.7405098358843036 1.4055681713802937 
-1.9785975294971578 0.06266792375851848 0.3045696988492419 0.6442341194790564 -0.34716216718266485 -0.08447521380274155 -1.1365894414867383 -1.04890795743197 -0.369716958490505 0.8431376479223183 -1.2325229041516603 1.2579651880845444 0.36414135730803754 1.5055255084707162 0.9433330780185835 -1.2511235883055187 
2.900066502783144 0.4564428056994858 -1.434776691826267 -0.96098305003046 0.007820433355498832 0.10604950503290397 -0.12817602409542853 0.35213274117543125 -0.978588831324529 0.10172570620101316 1.1672957759340516 -0.226057846050986 0.4981885576927493 -0.6926527335978276 0.5640927507341189 -0.6846278798794228 
0.5914181990112263 0.35466785789163213 1.891969065711653 2.3742299789707046 -0.09111488977827657 -0.527752606038109 -0.640389738794485 -0.3776193056213307 1.717144412654406 -0.779031512993229 -1.5534595667726068 0.6949795405500515 -0.6185168116470403 -2.075432874506391 -0.44798931637068656 0.02337365107779464 
0.4585745368003447 -0.2039163153399196 -0.13811680480181981 0.5842233652535933 -0.12498141462280114 0.5825416681817686 0.2200922541066715 0.7665203962491127 -0.5782145261136656 1.10528829488692 -1.0489873421592326 -0.24352842692052515 -0.8842073446626559 -0.16320415010955358 -1.190152444612598 -0.22680282118719208 
-0.516678714405552 1.030655999992339 -0.6555392486970245 0.7721822844318956 0.9309320210015314 1.1833167366283974 1.5886850057592903 -0.8072418163146918 0.4747339492816382 -1.3158098229104318 -0.5909791876786501 -0.6290430759559099 1.5173551436075206 -0.9254597738739876 -0.0013408722179820418 -1.0678403892179498 
-0.9114245322866446 -0.4122820026179141 0.9658152891480987 0.2314568500032833 0.05320333510498754 -1.1041097835249278 0.012456250856285225 -1.078600172255832 -0.9472532639120292 -1.2681299983846461 -0.4121646148928616 -1.4948232160501196 0.8512169204846696 2.521328541931543 -0.5899045232169159 0.17098565871363533 
0.9565586276067918 1.017786611195637 1.1784317049933126 -0.9654506753167437 1.1596130982717678 0.8684681667508857 -0.6489223016667163 -0.12147249456225243 0.8756831760222487 1.117305840688545 0.3890425379671196 0.6935510865077511 0.1194631400515866 -0.9634641668061641 0.5524244832200197 -0.8637831159555265 
0.6566696553443765 -1.0029755957939182 -0.4035114801055069 0.9413931104689649 -0.6544847583065996 -0.7613464724942016 -0.725706314728171 0.8787454148400996 0.1989597078316203 1.2641245125412586 1.3557042187037205 1.006522166327217 -0.0014610491561445602 -2.0069355274606413 1.115077438848366 0.3493047080436609 
2.2723177230536917 -0.793814021247594 -0.08130845402337898 0.06720360263073613 0.882555767161005 1.150792302811634 1.358140868754088 -0.6797807864059295 0.10070502411098199 -0.577516785599309 -0.49946561748027346 -1.2063172904308577 1.0745479075457842 -1.4089885976385006 -0.5840231553051892 -0.49246463996491363 
-0.1706818656280572 -0.20655603946248519 -0.6930151888389132 -0.3680553534848774 1.0041377537676197 0.5308921855359041 -0.910812907784477 0.9725054398800922 1.7192791708929525 -0.3748750288933073 -0.40225466475281907 -0.8666614435372614 -0.6106853549498167 0.85791026925882 -0.8940713639940988 -0.03694424112436131 
-1.0172139348318086 -0.6067905628171636 1.851273595379718 0.4805734060628732 -0.1082813553328564 0.06595588472481036 0.5391235378425817 0.05419282994543882 1.336161007439289 1.348595457329483 -0.09737418662846178 0.36415095658771907 1.421425244003644 1.4164425660998472 -0.15392311733108135 0.49411868784392426 

0.9778019485037125 0.7020529703326299 -0.23644925953862458 -1.292541112264598 0.5363621890683252 0.457901536649621 0.9093658064068942 -0.05683896039513421 0.8184968898623409 1.3794328895941512 0.782063390736976 -0.8345257573678999 -0.841235940811611 0.740051295572732 0.005221891280319471 -0.9609921615397224 
0.7490572280807325 -1.164053359467891 0.10006661289254422 1.564495842659582 0.3821146982825221 0.6034390072058343 1.5678037215042195 0.8080551826397134 -0.6930073772242116 0.3188845667330786 -0.6276231210687595 0.08578027895608181 0.4597822792025115 0.22509173997979728 -0.5801617914710573 0.6966917912460833 
-0.9100542075442662 1.2499008997279464 -2.0003366025624234 -0.11473216429247436 -0.3229643840077406 1.119139060187452 0.4545332010004146 1.184408502950623 1.1740456300312596 0.7785931046214563 0.6454208481117792 0.8329382573883525 0.6970954549999668 0.5572015485012642 -0.30649753890967046 0.410710953817454 
0.056104778615264486 0.14147463812324443 -0.44077757448017657 -0.28278267095513915 -0.8532770360643516 1.045334521816215 0.21038627739301707 -0.6654541372044476 -0.9943860597230714 0.7093626672397777 0.8985946611354548 0.3497382745043767 -0.04004884123079129 -1.0850329599043502 0.5726981505017715 0.6637160413961822 
0.7236659793747816 -0.2435845404612026 -1.3015736332486438 0.750594301989391 -0.8465617265347644 -1.2771201197936835 -1.5028761076886967 -0.6835807367966756 -2.238761563215558 -2.4979879040731316 0.3888932955811311 1.101059588940881 0.8873140337092187 -0.5755872905610228 -0.7405098358843036 1.4055681713802937 
-1.9785975294971578 0.062482176723014836 0.3045696988492419 0.6318404917416587 -0.34716216718266485 -0.08447521380274155 -1.1365894414867383 -1.04890795743197 -0.369716958490505 0.8431376479223183 -1.2377086935212802 1.2579651880845444 0.36414135730803754 1.5055255084707162 0.9489450862189198 -1.2511235883055187 
2.864817542707289 0.4564428056994858 -1.434776691826267 -0.96098305003046 -0.007820433355498832 0.10666359814249594 -0.12817602409542853 0.35213274117543125 -0.9488778416152537 0.10044397605395154 1.1672957759340516 -0.226057846050986 0.4981885576927493 -0.6926527335978276 0.5640927507341189 -0.6846278798794228 
0.5914181990112263 0.35466785789163213 1.891969065711653 2.2987720809556578 -0.09111488977827657 -0.5200551164146086 -0.6442938347721772 -0.3714704654705056 1.717144412654406 -0.779031512993229 -1.5534595667726068 0.6949795405500515 -0.6185168116470403 -2.075432874506391 -0.44421932560942845 0.02337365107779464 
0.4585745368003447 -0.2039163153399196 -0.14007699706561402 0.5842233652535933 -0.12498141462280114 0.5825416681817686 0.2200922541066715 0.7620362163165921 -0.5782145261136656 1.10528829488692 -1.0489873421592326 -0.24352842692052515 -0.8842073446626559 -0.16320415010955358 -1.190152444612598 -0.22680282118719208 
-0.516678714405552 1.030655999992339 -0.6555392486970245 0.7721822844318956 0.9408378358629328 1.1699540593444437 1.5893240896550063 -0.8072418163146918 0.4747339492816382 -1.3158098229104318 -0.5909791876786501 -0.6290430759559099 1.5173551436075206 -0.9254597738739876 -0.0013408722179820418 -1.0678403892179498 
-0.9025009420228702 -0.4122820026179141 0.9550561959588906 0.2314568500032833 0.05330717315135839 -1.1157051380997027 0.012456250856285225 -1.067360110800258 -0.9472532639120292 -1.2681299983846461 -0.40573528650415436 -1.4948232160501196 0.8512169204846696 2.521328541931543 -0.5899045232169159 0.17098565871363533 
0.9565586276067918 1.017786611195637 1.1784317049933126 -0.9654506753167437 1.1596130982717678 0.8859006423446213 -0.6489223016667163 -0.12147249456225243 0.8756831760222487 1.117305840688545 0.3890425379671196 0.7056028581289513 0.1194631400515866 -0.9634641668061641 0.5524244832200197 -0.8637831159555265 
0.6566696553443765 -0.9966734304062586 -0.4035114801055069 0.9506035046800833 -0.6552097443135512 -0.7613464724942016 -0.725706314728171 0.8787454148400996 0.1989597078316203 1.2641245125412586 1.3557042187037205 1.006522166327217 -0.0014610491561445602 -2.012089983522061 1.115077438848366 -2.052444153728303 
2.2723177230536917 -0.7821416528653943 -0.08130845402337898 -0.06720360263073613 0.882555767161005 1.150792302811634 1.358140868754088 -0.6797807864059295 0.10070502411098199 -0.5896207135411049 -0.49946561748027346 -1.2063172904308577 1.0745479075457842 -1.4089885976385006 -0.586078700950363 -0.49246463996491363 
-0.1706818656280572 -0.20545931925587896 -0.6930151888389132 -0.3680553534848774 1.0041377537676197 0.5321412570659749 -0.910812907784477 0.9725054398800922 1.7192791708929525 -0.3748750288933073 -0.40225466475281907 -0.8666614435372614 -0.6106853549498167 0.85791026925882 -0.8940713639940988 -0.03694424112436131 
-1.0172139348318086 -0.6067905628171636 1.8455568389346593 0.4864625952741155 -0.1082813553328564 0.06595588472481036 0.5400820122789538 0.05419282994543882 1.3324440961232815 1.3341728947625746 -0.0966058188333834 0.36415095658771907 1.421425244003644 1.4164425660998472 -0.15359940928495405 0.49411868784392426 

0.9995844093157109 0.7016838344249403 -0.23356457031058286 -1.2945030148871035 0.5528124890051194 0.4617128784087893 0.9093658064068942 -0.05757688277771454 0.8139381610566291 1.3882251727509776 0.7549531422007447 -0.8319240809431625 -0.8412307064536193 0.74137255935034 -0.005163960352263903 -0.9431894591714213 
0.7433147571131442 -1.1599083581452287 0.10061812221723822 1.564495842659582 0.3821146982825221 0.619819858047333 1.5738786759729984 0.8203425938662269 -0.7160317801406513 0.31467210730433115 -0.6497455527877637 0.0820726855876951 0.45082397131926444 0.22422611669430056 -0.5953521793206289 0.7170314753200403 
-0.932142795417829 1.2735276851058472 -1.9913362969815067 -0.11747496769037193 -0.316369841781404 1.1284866729106613 0.44937804189051633 1.2129794251056891 1.1822373055759878 0.7785931046214563 0.6367135997864941 0.85696551002609 0.6860890066072978 0.5574529680784222 -0.3036483195232041 0.410710953817454 
-0.05439397744928324 0.1424100380298267 -0.44007719247264704 -0.2880144176951775 -0.8726892655095092 1.0217267548342372 0.2138994786342689 -0.6740148232986644 -1.040489966381525 0.6969842950003639 0.9004621282695552 0.34837496040078775 -0.03973737378851442 -1.0850329599043502 0.5723198136879041 0.6440564551872412 
0.7419599534806891 -0.24104974523633507 -1.2940788940878718 0.7530532330779254 -0.8597766968155506 -1.270659934210972 -1.468478513851549 -0.6949530393070606 -2.171059147806472 -2.4979879040731316 0.4142973000055479 1.1130208924927458 0.9040301865567619 -0.5814358860450421 -0.7405098358843036 1.4055681713802937 
-2.004195323994994 -0.06356258263030105 0.29781031420432297 0.6356319065746062 -0.34716216718266485 -0.08447521380274155 -1.1365894414867383 -1.0372605068596052 -0.37173123814766457 0.8483243599698972 -1.2354347040438225 1.2529083194977648 0.36414135730803754 1.5295168465503592 0.9454437122765146 -1.2352666927910205 
2.950016914842507 0.4499045147046177 -1.4454420908007808 -0.96098305003046 -0.007686007010233183 0.10529416426025309 -0.13120695380109731 0.3512268936157714 -0.9635733353481609 0.10131878451103991 1.1908884199490721 -0.22454976804203783 0.49229309191332443 -0.6884290554595434 0.5845332789929598 -0.6864342348164868 
0.583850406484731 0.35497490703110346 1.891969065711653 2.3742299789707046 -0.09111488977827657 -0.5219311080636497 -0.6306283585073196 -0.3800067752511154 1.7140982459817344 -0.7707310661441212 -1.5511807260526478 0.6965040809753763 -0.6287404209574837 -2.0924711835965377 -0.44915525845587556 -0.023806736785366253 
0.466284276562262 -0.20587420549966193 -0.13811680480181981 0.579834513546214 -0.12464857849705244 0.5807837123373144 0.21941659241492556 0.7637519471639111 -0.5705806649041902 1.0868648239700474 -1.0759101397216277 -0.2465625473235884 -0.8854355416052875 -0.16320415010955358 -1.1958359640391996 -0.23737652397696518 
-0.5017513139857657 1.0498541593879227 -0.6506224304688248 0.7339891848299438 0.9461890662522104 1.1833167366283974 1.5798212387400288 -0.8279091388118556 0.4747339492816382 -1.3299289251531006 -0.5909791876786501 -0.622682368151069 1.5984669692104472 -0.9478987554008612 -0.0013117786601489416 -1.0678403892179498 
-0.8999492491947251 -0.4098743318084139 0.9941816395700949 0.2314568500032833 0.05320333510498754 -1.099345700186511 0.012643816214278939 -1.067360110800258 -0.9472532639120292 -1.2681299983846461 -0.41566362635763415 -1.4948232160501196 0.8548457752767837 2.481979780157708 -0.5804046903919036 0.16995438818597342 
0.959349411326404 1.0207240402109212 1.1784317049933126 -0.9702048862465579 1.1586442660112626 0.8754887129385912 -0.6489223016667163 -0.12147249456225243 0.853053603706012 1.1086466905998593 0.3908379673137268 0.6994895129776946 0.1194631400515866 -0.9593200838824236 0.5584199418576682 -0.8688266887598884 
0.661215535000368 -0.9842134334576343 -0.4035114801055069 0.9529214963663193 -0.6544847583065996 -0.751610542031657 -0.7144152334429483 0.8612595829189627 0.20417946042996032 1.263694615632115 1.3749086978118936 1.0231135878342636 -0.0014627621852887664 -1.996592075553569 1.1116665386071924 -2.0439540351057945 
2.2811496743235904 -0.7999366021910044 -0.08130845402337898 -0.06864935942766483 0.882555767161005 1.150792302811634 1.3141156549207402 0.6766296673049154 0.10070502411098199 -0.6044849245252283 -0.5016934851328263 -1.1978783403161235 1.0874928174732792 -1.4089885976385006 -0.586078700950363 -0.48709801681870457 
-0.172906377415833 -0.20633893945431395 -0.7003063744828874 -0.36974254607809215 1.0041377537676197 0.5466733467630276 -0.8746157508309063 0.9475565443226402 1.7416197994738625 -0.36477008378379766 -0.4084359195120375 -0.8739009296247763 -0.6106853549498167 0.8584085834395535 -0.8853528025691827 -0.03762733939347522 
-1.0311995983472981 -0.6027508622339878 1.790472439259195 0.4811687411918752 -0.10674308448630801 0.06451646364704353 0.5390828744240052 -0.05419282994543882 1.3655928942364213 1.3416478159955723 -0.09676546420253981 0.36415095658771907 1.4235577260639116 1.4288450091088734 -0.15147130407400808 0.48187338349164466 

0.988438587199746 0.7020529703326299 -0.23644925953862458 -1.2985745006807987 0.5438967209067751 0.45067012413190566 0.8978190888792738 -0.05683896039513421 0.8116355796965855 1.4005369508380205 0.782063390736976 -0.8275138229749144 -0.841235940811611 0.7502789793907503 0.005270448833499008 -0.9609921615397224 
0.7490572280807325 -1.1599083581452287 0.10122190334797657 1.564495842659582 0.3879901108280858 0.6102392006779923 1.5678037215042195 0.8036488055835151 -0.7318445704790286 0.3188845667330786 -0.6276231210687595 0.08573252823224918 0.45645144555861616 0.22754176712899377 -0.5801617914710573 0.705784184476364 
-0.8973916582188738 1.2790832153841174 -1.9849084567799764 -0.11586054680884993 -0.3190623832988593 1.092995148848528 0.4516028696450948 1.1888354318119474 1.1921006200391828 0.7785931046214563 0.6465798943377518 0.8329382573883525 0.6808538232118052 0.5572015485012642 -0.30665043661815294 0.410710953817454 
-0.055290846732046706 0.14232978005988262 -0.43830338362329613 -0.28251838053664363 -0.858681151961538 1.0397717066167524 0.21698189535228107 -0.6654541372044476 -0.9943860597230714 0.711701559896475 0.8988210413447185 0.3497382745043767 -0.04004884123079129 -1.0850329599043502 0.5726981505017715 0.6580398473900834 
0.7261153130239678 -0.23983359237885207 -1.2940788940878718 0.7530532330779254 -0.8597766968155506 -1.2771201197936835 -1.5205828379869586 -0.674910020650424 -2.226894725522864 -2.5272818960559 0.3888932955811311 1.101059588940881 0.8985184768503237 -0.5678714636084721 -0.7405098358843036 1.3930244176784599 
-1.9785975294971578 0.06199654805643833 0.3045696988492419 0.62865476280388 -0.34716216718266485 -0.08447521380274155 -1.100532958672889 -1.0504461148715005 -0.369716958490505 0.8793333518199742 -1.2325229041516603 1.2579651880845444 0.36214668668225936 1.5344863870161418 0.953040202523801 -1.2511235883055187 
2.950016914842507 0.4564428056994858 -1.434776691826267 -0.96098305003046 0.007820433355498832 0.10562791162993579 -0.12777605025926714 0.35763805019964995 -0.9700588581518264 0.10172570620101316 1.1672957759340516 -0.226057846050986 0.4981885576927493 -0.6819085426130213 0.5640927507341189 -0.6907865792864091 
0.5914181990112263 0.35466785789163213 1.891969065711653 2.3742299789707046 -0.09207609040130135 -0.527752606038109 -0.6381102796787793 -0.3776193056213307 1.717144412654406 -0.779031512993229 -1.5920499012040732 0.7050248416112328 -0.6185168116470403 -2.075432874506391 -0.44798931637068656 0.02337365107779464 
0.4606102580101721 -0.20571924667538719 -0.13690950079010938 0.5842233652535933 -0.12382471466194794 0.5694138075968674 0.2200922541066715 0.7564068814902368 -0.5703567212643436 1.10528829488692 -1.057889334228235 -0.24352842692052515 -0.8654718610927813 -0.16320415010955358 -1.190152444612598 -0.22680282118719208 
-0.516678714405552 1.030655999992339 -0.6488410147338924 0.7618104493122245 0.9309320210015314 1.1764385005537972 1.570044172936494 -0.8028456894773104 0.4747339492816382 -1.3158098229104318 -0.580521783662551 -0.6290430759559099 1.5173551436075206 -0.9282890618601594 -0.0013408722179820418 -1.0678403892179498 
-0.9114245322866446 -0.4122820026179141 0.9658152891480987 0.23084125687829318 -0.05320333510498754 -1.1041097835249278 -0.012752131185865495 -1.078600172255832 -0.9472532639120292 -1.2514429255945294 -0.4156112924355753 -1.4972873558668987 -0.6891584476967426 2.5811487308262104 -0.5933164594868351 0.17098565871363533 
0.9565586276067918 1.0275901693047869 1.176422342742295 -0.9654506753167437 1.1586442660112626 0.8684681667508857 -0.6489223016667163 -0.11978235084202973 0.8756831760222487 1.1030237372514666 0.3890425379671196 0.6935510865077511 0.12034252799951665 -0.980889796967162 0.5524244832200197 -0.8637831159555265 
0.6566696553443765 -1.0029755957939182 -0.4137251481883782 0.9413931104689649 -0.6601371504007694 -0.7613464724942016 -0.7244998953032573 0.884949767724663 0.1989368692470059 1.2641245125412586 1.3557042187037205 1.006522166327217 0.0014827192966595387 -2.016737838491597 1.128437875998851 0.3493047080436609 
2.2723177230536917 -0.7837471768312386 -0.08130845402337898 0.06720360263073613 0.8933269183363873 1.1142664584526953 1.3516034906937067 -0.6797807864059295 0.10146426624726858 -0.577516785599309 -0.49946561748027346 -1.2227957056123888 1.0874928174732792 -1.4089885976385006 -0.5840231553051892 -0.485360152271526 
-0.1720161672141004 -0.21243253984837765 -0.6930151888389132 -0.3680553534848774 1.0041377537676197 0.5308921855359041 -0.9159885177764835 0.9725054398800922 1.7192791708929525 -0.36312772930911175 -0.4157416042713426 -0.8666614435372614 -0.6058216344839059 0.8748081774040397 -0.8845975522410823 -0.03694424112436131 
-1.0172139348318086 -0.6096393717396202 1.851273595379718 0.48050929668587566 -0.1082813553328564 0.06595588472481036 0.5511789916218887 0.054381510041740556 1.379148811299278 1.3694955519075134 -0.09737418662846178 0.36415095658771907 1.3986681735838395 1.4164425660998472 -0.15392311733108135 0.4897593660455259 

0.9995844093157109 0.7016838344249403 -0.23356457031058286 -1.2945030148871035 0.5528124890051194 0.4617128784087893 0.9093658064068942 0.058307959848091485 0.818767102531485 1.4032629320999785 0.7549531422007447 -0.8319240809431625 -0.8412307064536193 0.7437922012351694 -0.005163960352263903 -0.9431894591714213 
0.7787078153092786 -1.1491844290334277 0.09947903264634608 1.564495842659582 0.3821146982825221 0.6006730854182026 1.5738786759729984 0.8203425938662269 -0.707151391597899 0.31467210730433115 -0.6497455527877637 0.0820726855876951 0.45082397131926444 0.22422611669430056 -0.5946253799335308 0.6966917912460833 
-0.9097089660624219 1.2602299254101335 -1.9913362969815067 -0.11747496769037193 -0.3153112935128704 1.1222211107864735 0.44937804189051633 1.2067989433494777 1.1822373055759878 0.7785931046214563 0.6367135997864941 0.85696551002609 0.6916939927648557 0.5574529680784222 -0.3036483195232041 0.40903226856905905 
0.054863240840420734 0.1444022223612188 -0.44007719247264704 -0.2880144176951775 -0.8627376078507414 1.0217267548342372 0.2138994786342689 -0.6688945502473087 -1.0413403711191394 0.6969842950003639 0.9043365954726954 0.34837496040078775 -0.03950371904641415 -1.0850329599043502 0.5723198136879041 0.6637160413961822 
0.7419599534806891 -0.24104974523633507 -1.3090338325816444 0.7530532330779254 -0.8597766968155506 -1.270659934210972 -1.4737938213878459 -0.6949530393070606 -2.171059147806472 -2.4979879040731316 0.3948247311989056 1.1156333007867925 0.9040301865567619 -0.5814358860450421 -0.7405098358843036 1.4055681713802937 
-1.9509382060993834 -0.06356258263030105 0.29781031420432297 0.6356319065746062 -0.34716216718266485 -0.08447521380274155 -1.1365894414867383 -1.034130787927359 -0.36900669826315047 0.8483243599698972 -1.2462708796129816 1.2529083194977648 0.36414135730803754 1.5178788979042308 0.9454437122765146 -1.2352666927910205 
2.950016914842507 0.4499045147046177 -1.4454420908007808 -0.9557690141247901 -0.007686007010233183 0.10529416426025309 -0.13120695380109731 0.3512268936157714 -0.9635733353481609 0.10131878451103991 1.1908884199490721 -0.2341076378229312 0.49229309191332443 -0.6795328096381643 0.5845332789929598 -0.6864342348164868 
0.583850406484731 0.35497490703110346 1.891969065711653 2.3742299789707046 -0.09111488977827657 -0.527752606038109 -0.6306283585073196 -0.38203173754979275 1.7140982459817344 -0.7707310661441212 -1.5511807260526478 0.6965040809753763 -0.6296102705537431 -2.0924711835965377 -0.44341620065609455 -0.023806736785366253 
0.466284276562262 -0.2039163153399196 -0.13811680480181981 0.579834513546214 -0.12464857849705244 0.5807837123373144 0.21941659241492556 0.7637519471639111 -0.5831919537775574 1.004997377918507 -1.0896489671336553 -0.2465625473235884 -0.8854355416052875 -0.16320415010955358 -1.1958359640391996 -0.23737652397696518 
-0.5017513139857657 1.026814333741039 -0.6506224304688248 0.7339891848299438 0.9413824927605805 1.1833167366283974 1.5798212387400288 -0.8279091388118556 0.4747339492816382 -1.3218572331575351 -0.5909791876786501 -0.622682368151069 1.5984669692104472 -0.9478987554008612 -0.0013117786601489416 -1.0678403892179498 
-0.8999492491947251 -0.4098743318084139 1.001403181677826 0.2314568500032833 0.05320333510498754 -1.099345700186511 0.012643816214278939 -1.067360110800258 -0.9472532639120292 -1.2681299983846461 -0.41566362635763415 -1.4948232160501196 0.8316562931571183 2.481979780157708 -0.5750559839835916 0.16995438818597342 
0.9495672317431397 1.0207240402109212 1.1762686467147454 -0.9702048862465579 1.1586442660112626 0.8754887129385912 -0.6489223016667163 -0.12147249456225243 0.853053603706012 1.1172507881954052 0.3850801694861088 0.6994895129776946 0.11922712381883595 -0.9625657797045649 0.5584199418576682 -0.8688266887598884 
0.661215535000368 -0.9842134334576343 -0.4035114801055069 0.9529214963663193 -0.6544847583065996 -0.7613464724942016 -0.7034235801824202 0.8612595829189627 0.20417946042996032 1.263694615632115 1.3617583385068757 1.0231135878342636 -0.0014627621852887664 -1.996592075553569 1.1116665386071924 -2.0439540351057945 
2.271055758283623 -0.7999366021910044 -0.08130845402337898 -0.06864935942766483 0.8777912969752101 1.1510951498928303 1.364434644891842 0.6766296673049154 0.10070502411098199 -0.6044849245252283 -0.5016934851328263 -1.1978783403161235 1.0517260875541856 -1.4089885976385006 -0.586078700950363 -0.48828730567764606 
-0.17354146888719554 -0.20633893945431395 -0.7003063744828874 -0.3680553534848774 0.9920034871881043 0.5467528698461043 -0.8746157508309063 0.9803926559276053 1.7416197994738625 -0.36477008378379766 -0.4068294526043806 -0.8864074200439894 -0.6045041243129665 0.8668594585148238 -0.8853528025691827 -0.03762733939347522 
-1.0311995983472981 -0.6010991751621512 1.8189432657333948 0.4811687411918752 -0.10674308448630801 0.06451646364704353 0.5390828744240052 -0.05419282994543882 1.3529188776024348 1.3416478159955723 -0.09676546420253981 0.36415095658771907 1.4235577260639116 1.4288450091088734 -0.15147130407400808 0.48187338349164466 

0.988438587199746 0.7020529703326299 -0.23644925953862458 -1.292541112264598 0.5475209934492732 0.457901536649621 0.9093658064068942 -0.056685810077201824 0.8139381610566291 1.4021692803420127 0.7766677096087896 -0.8345257573678999 -0.8453181597125242 0.7502789793907503 -0.005221891280319471 -0.964872915498964 
0.7490572280807325 -1.1599083581452287 0.10005516006351135 1.564495842659582 0.3821146982825221 0.6034390072058343 1.5254836526098652 0.8080551826397134 -0.7160317801406513 0.3188845667330786 -0.6124079119870773 0.08652292133431794 0.45306434498962594 0.22509173997979728 -0.5812362822194672 0.705784184476364 
-0.900526043639826 1.2499008997279464 -1.9849084567799764 -0.11473216429247436 -0.3190623832988593 1.125376600288572 0.4545332010004146 1.2067989433494777 1.1745859966094605 0.7785931046214563 0.6465798943377518 0.8397759341730476 0.6723300193810169 0.5572015485012642 -0.30159815578156235 0.410710953817454 
-0.055290846732046706 0.14147463812324443 -0.449594414420451 -0.28251838053664363 -0.8626629489352075 1.045334521816215 0.2138994786342689 -0.6654541372044476 -1.0074015484907548 0.7093626672397777 0.8988210413447185 0.35471708774003025 0.03929127431287599 -1.0850329599043502 0.5726981505017715 0.6537033984670629 
0.7361984794632521 -0.24241576798210654 -1.277505390222007 0.7522719141061106 -0.8597766968155506 -1.2898154771513801 -1.5337947755326262 -0.6719724678309545 -2.238761563215558 -2.516997145894846 0.4012269188182937 1.101059588940881 0.9102395297289245 -0.5755872905610228 -0.7391822889845818 1.400369667197999 
-1.9769568591813085 0.06394071956874767 0.3045696988492419 0.6170424715738921 -0.34716216718266485 -0.08445083117256835 -1.1365894414867383 -1.04890795743197 -0.3647688195441924 0.8495136445143721 -1.2462708796129816 1.2579651880845444 0.36414135730803754 1.5295168465503592 0.9433330780185835 -1.2511235883055187 
2.900066502783144 0.4564428056994858 -1.434776691826267 -0.96098305003046 0.007880527225408466 0.10604950503290397 -0.1291317017172747 0.35213274117543125 -0.978588831324529 0.10172570620101316 1.1769497786619032 -0.22454976804203783 0.4981885576927493 -0.6926527335978276 0.5640927507341189 -0.6893764319966071 
0.5900387026865809 0.3505144532972815 1.904670272956082 2.3742299789707046 -0.09111488977827657 -0.527752606038109 -0.640389738794485 -0.3776193056213307 1.717144412654406 -0.779031512993229 -1.5534595667726068 0.6843967276067304 -0.6150369576473348 -2.0845754078369834 -0.4481491227003923 -0.023607141555351735 
0.4585745368003447 -0.20404981203129563 -0.3358390761811498 0.5848215702974976 -0.1239238272617927 0.5850222106227738 0.2200922541066715 0.7665203962491127 -0.5800549511139255 1.1148670112091805 -1.0489873421592326 -0.24352842692052515 -0.8842073446626559 -0.16320415010955358 -1.190152444612598 -0.22680282118719208 
-0.5233226875937521 1.026814333741039 -0.6517860281109654 0.7721822844318956 0.9309320210015314 1.1833167366283974 1.5886850057592903 -0.8162093553720521 0.4747339492816382 -1.3218572331575351 -0.5909791876786501 -0.6290430759559099 1.5173551436075206 -0.9143148523648081 0.0013408722179820418 -1.0794432666726272 
-0.9127378630315555 -0.39802195413579844 0.9658152891480987 0.2314568500032833 0.05320333510498754 -1.1119119380438456 0.012456250856285225 -1.067360110800258 -0.949557117336507 -1.2681299983846461 -0.4103689816632493 -1.4898518630573494 0.8380259118882077 2.521328541931543 -0.5899045232169159 0.17098565871363533 
0.9565586276067918 1.0263792538995202 1.1784317049933126 -0.9724674223464678 1.1586442660112626 0.8684681667508857 -0.6489223016667163 -0.1218098699847115 0.8648437669026481 1.117305840688545 0.3890425379671196 0.6935510865077511 0.1194631400515866 -0.9634641668061641 0.5524244832200197 -0.8456047249326806 
0.6566696553443765 -0.9769106904182007 -0.4035114801055069 0.9443072385968488 -0.6544847583065996 -0.7675190167340229 -0.7144272715695829 0.8787454148400996 0.19991270280064385 1.2711636484459647 1.3411157275434373 1.006522166327217 -0.0014171905529627338 -1.9717313136765786 1.1099462579874664 0.3493047080436609 
2.2723177230536917 -0.793814021247594 -0.08130845402337898 0.06742862506169907 0.882555767161005 1.1214234531097587 1.358140868754088 -0.6797807864059295 0.10070502411098199 -0.577516785599309 -0.49946561748027346 -1.2063172904308577 1.0745479075457842 -1.415418112134956 -0.5840231553051892 -0.49051340767131957 
-0.172906377415833 -0.21149111955019317 -0.6930151888389132 -0.3680553534848774 1.0041377537676197 0.5308921855359041 -0.8746157508309063 0.9815032248486213 1.7192791708929525 -0.36462724090495996 -0.40225466475281907 -0.879168781946667 -0.6246894905594728 0.8537564848216869 -0.8907356356061649 -0.03700492475632436 
-1.0030767501801565 -0.6067905628171636 1.8830381588423466 0.4805734060628732 -0.10538176950415569 0.06595588472481036 0.5456491897702528 -0.05419282994543882 1.336161007439289 1.367679674579584 -0.09737418662846178 0.36415095658771907 1.421425244003644 1.4199624631573207 -0.15392311733108135 0.48187338349164466 

0.9722512072350922 0.6934460141595726 -0.23323881475704514 -1.2945030148871035 0.5430780817477391 0.46646862517141113 0.8715879092250963 -0.05810879342799657 0.8139381610566291 1.3794328895941512 0.7798611129596993 -0.8345257573678999 -0.8305251363345636 0.7363989268633534 -0.005221891280319471 -0.95540843453193 
0.7499876097954074 -1.1599083581452287 0.09755723212710349 1.564495842659582 0.3821146982825221 0.6034390072058343 1.5678037215042195 0.8080551826397134 -0.7160317801406513 0.3083755394814616 -0.6124079119870773 0.08480246090686547 0.4597822792025115 0.22600288184998793 -0.5946253799335308 0.6966917912460833 
-0.932142795417829 1.2602299254101335 -1.970475844312987 -0.1151453231236587 -0.3153112935128704 1.1255224930766485 0.43688391391712406 1.2067989433494777 1.176205839353071 0.7822582469559065 0.6520116867331252 0.8403157508608422 0.6963113773993738 0.5574529680784222 -0.30665043661815294 0.410710953817454 
-0.054630280649396144 0.1444022223612188 -0.44966527850070287 -0.2937265064679138 -0.8696450447205704 1.0373283763286327 0.2115587131440293 -0.6740148232986644 -1.0111624510020856 0.6969842950003639 0.8898125676005146 0.3519481419133328 0.039215625629989634 -1.0850329599043502 0.5777583771211894 0.6562259771473551 
0.7316905737396955 -0.23962930681449954 -1.3015736332486438 0.7532410595710521 -0.8588526633523309 -1.270659934210972 -1.468478513851549 -0.6835807367966756 -2.221243932477984 -2.4979879040731316 0.4044436779218591 1.1085881730633325 0.8950543051662286 -0.5671653131383609 -0.7409700543146236 1.4073880695930017 
-1.9462686809413152 0.06501595704917644 0.2967182208238616 0.6253015175658413 -0.3497619137107167 -0.08572940794759748 -1.1374290845844295 -1.0413526569972134 -0.3711334562451642 0.8551928065281994 -1.2647016638175135 1.2529083194977648 0.35990866867774807 1.5353910005047966 0.9641532778561354 -1.2511235883055187 
2.950016914842507 0.4442862775848032 -1.434776691826267 -0.96098305003046 0.007880527225408466 0.10692058771737804 -0.12817602409542853 0.3512268936157714 -0.959111341718561 0.10137512684339973 1.1832417723504904 -0.22454976804203783 0.5025370483627367 -0.6644910604577284 0.5579673873799372 -0.6900476127424491 
0.5883441095141542 0.35907103808310736 1.8633269257775174 2.4124164923459537 -0.09111488977827657 -0.527752606038109 -0.6505354218352815 -0.3903636762027555 1.6763340524373214 -0.7883686350513237 -1.5648404237542677 0.6949795405500515 -0.6150369576473348 -2.0845754078369834 -0.4410668963030274 0.023166722874879052 
0.4585745368003447 -0.20788624527379512 -0.3370570010018712 0.5883893262560665 -0.12464857849705244 0.5825416681817686 0.21665775422369038 0.752861495280995 -0.5831919537775574 1.0123288072217163 -1.0704988718979083 -0.24919104072591594 -0.8624085903658747 -0.16110618771099422 -1.1868687037460994 -0.2324462067299217 
-0.516678714405552 1.030655999992339 -0.6453012188030599 0.7339891848299438 0.9413824927605805 1.1833167366283974 1.5727066050103662 -0.8072418163146918 0.4747339492816382 -1.3218572331575351 -0.5711845569720448 -0.6305638770552127 1.6354026172819163 -0.9248134179508877 0.001316130209444327 -1.0887916382432608 
-0.892515038605414 -0.39983382397078954 0.9941816395700949 0.2314568500032833 -0.053187877712143616 -1.099345700186511 -0.012285543912311531 -1.0544918447263887 -0.949557117336507 -1.2681299983846461 -0.4103689816632493 -1.4825637895480794 0.8435961529381437 2.5679887324767376 -0.5863504837274798 0.1704283306505088 
0.9565586276067918 1.017786611195637 1.1593680830083481 -0.9553008860242239 1.172117068374114 0.86837471122733 -0.6489223016667163 -0.12147249456225243 0.853053603706012 1.0918494950495363 0.3882256671954432 0.701177020537767 0.1219686059582551 -0.9645528573409909 0.5524244832200197 -0.8456047249326806 
0.654185682277457 -0.9769106904182007 -0.4067315093092662 0.9413931104689649 -0.6439057894670261 -0.7613464724942016 -0.7144272715695829 0.8787454148400996 0.20148261832478975 1.2641245125412586 1.3557042187037205 1.00896090144751 -0.0014439589440310731 -1.9717313136765786 1.1075310212968126 -2.0439540351057945 
2.3504474607084616 -0.7999366021910044 -0.08009726210127227 0.06900016504656431 0.8777912969752101 1.1214234531097587 1.3516034906937067 0.6669595660790885 0.10070502411098199 -0.577516785599309 -0.5072557068978812 -1.1978783403161235 1.049636181322108 -1.4263008786405147 -0.584655626578083 -0.487356690550888 
-0.1750474826411077 -0.20633893945431395 -0.6930151888389132 -0.36974254607809215 1.0041377537676197 0.5308921855359041 -0.9004945041269954 0.9725054398800922 1.7020911442580935 -0.3638429421409802 -0.3961122467580099 -0.879168781946667 -0.6045041243129665 0.8584085834395535 -0.8795177504049004 -0.03694424112436131 
-1.0172139348318086 -0.2787694146680784 1.8830381588423466 0.4811687411918752 -0.10572675190616118 -0.06700716844658962 0.5456491897702528 -0.05419083743007375 1.3520298203714172 1.3551435696435794 -0.09821592939353403 0.36218125395579537 1.4168838811953965 0.6668008774621675 -0.1558195174484306 0.48187338349164466 

0.988438587199746 0.6934460141595726 -0.23644925953862458 -1.2900821854978812 0.5475209934492732 0.45067012413190566 0.9125284467104726 0.05757688277771454 0.8139381610566291 1.4005369508380205 0.782063390736976 -0.8345257573678999 -0.841235940811611 0.7605577619612979 0.005270448833499008 -0.9609921615397224 
0.7490572280807325 -1.163341917837082 0.09664652879719893 1.564495842659582 0.38213191983707173 0.6174046469984341 1.5678037215042195 0.8160936718384693 -0.7160317801406513 0.31625141619545205 -0.6276231210687595 0.08387730353498507 0.45645144555861616 0.2227859325670512 -0.5831956692249606 0.705784184476364 
-0.9100542075442662 1.2790832153841174 -1.9849084567799764 -0.11642024781479743 -0.31939571807945544 1.092995148848528 0.4516028696450948 1.184408502950623 1.1725717793127726 0.7785931046214563 0.6465798943377518 0.8245230340283201 0.6808538232118052 0.5572015485012642 -0.30665043661815294 0.410710953817454 
-0.055290846732046706 0.14232978005988262 -0.4371258399279024 -0.28251838053664363 -0.8696450447205704 1.0275850902021126 0.21698189535228107 -0.6654541372044476 -1.007559887200541 0.7093626672397777 0.8988210413447185 0.3497382745043767 -0.04004884123079129 -1.0850329599043502 0.5709751261238432 0.6580398473900834 
0.7258562743322352 -0.23983359237885207 -1.3129359355774686 0.7530532330779254 -0.8597766968155506 -1.2898154771513801 -1.5033728348280697 -0.6956054383796251 -2.2413979496250356 -2.5272818960559 0.3993739526753529 1.101059588940881 0.8985184768503237 -0.5607277415179024 -0.7405098358843036 1.3930244176784599 
-1.9552833377082508 0.0628327795431593 0.3045696988492419 0.62865476280388 -0.362610833466184 -0.08502172351978812 -1.100532958672889 -1.0413526569972134 -0.3647688195441924 0.8547915275489045 -1.2325229041516603 1.24443051593634 0.37083334890898634 1.5216741896413328 0.953040202523801 -1.2511235883055187 
2.9093647724644636 0.46051827222789704 -1.434776691826267 -0.96098305003046 0.007820433355498832 0.10428550460177866 -0.12900530406547725 0.35149622899049365 -0.978588831324529 0.10172570620101316 1.1672957759340516 -0.22480804380531136 0.4811211241814435 -0.6819085426130213 0.5640927507341189 -0.6846278798794228 
0.5914181990112263 0.35466785789163213 1.891969065711653 2.3526303349777278 -0.09207609040130135 -0.5196998244207789 -0.6381102796787793 -0.3776193056213307 1.7453368162227016 -0.779031512993229 -1.5920499012040732 0.7050248416112328 -0.6185168116470403 -2.075432874506391 -0.44798931637068656 -0.02287881354416676 
0.4606102580101721 -0.20587420549966193 -0.13690950079010938 0.5842233652535933 -0.12218463817118198 0.5825416681817686 0.2200922541066715 0.7564068814902368 -0.5703567212643436 1.004997377918507 -1.0648894206311588 -0.24352842692052515 -0.8618648160335898 -0.16320415010955358 -1.185069314072805 -0.23491053796928515 
-0.516678714405552 1.0252835057991128 -0.6488410147338924 0.7618104493122245 0.9309320210015314 1.1833167366283974 1.5807011347221147 -0.8028456894773104 0.4747339492816382 -1.3158098229104318 -0.580521783662551 -0.6278668830553829 1.5984669692104472 -0.9279783022957742 0.0013408722179820418 -1.0794432666726272 
-0.9114245322866446 -0.4119604135123962 0.9558833294765037 0.23084125687829318 0.05320333510498754 -1.1163718451948674 -0.012752131185865495 -1.078600172255832 -0.9472532639120292 -1.253990059366734 -0.4091278553519282 -1.4948232160501196 -0.6896365833580981 2.6214038809377143 -0.5933164594868351 0.17098565871363533 
0.9565586276067918 1.0263792538995202 1.1836085755465893 -0.9654506753167437 1.1586442660112626 0.8684681667508857 -0.6489223016667163 -0.1218098699847115 0.8756831760222487 1.1030237372514666 0.3943500802610083 0.701177020537767 0.1194631400515866 -0.9581476583151767 0.5466314929223158 -0.8637831159555265 
0.6566696553443765 -0.991513218664322 -0.4067315093092662 0.9413931104689649 -0.6601371504007694 -0.7613464724942016 -0.725706314728171 0.8736316209022662 0.20148261832478975 1.2625174119943314 1.3636323102151764 1.006522166327217 0.0014827192966595387 -2.016737838491597 1.128437875998851 0.3493047080436609 
2.2723177230536917 -0.7837471768312386 -0.0831365940567401 0.06720360263073613 0.8933269183363873 1.1142664584526953 1.3516034906937067 -0.6797807864059295 0.09936606248251051 -0.577516785599309 -0.49946561748027346 -1.2227957056123888 1.0874928174732792 -1.4089885976385006 -0.5840231553051892 -0.485360152271526 
-0.172906377415833 -0.2095673990617083 -0.6844461566381206 -0.3680553534848774 1.0041377537676197 0.5308921855359041 -0.910812907784477 0.9725054398800922 1.7192791708929525 -0.36312772930911175 -0.4003823074697748 -0.8658531858929529 -0.6004804686014805 0.8691509360782508 -0.8845975522410823 -0.03694424112436131 
-1.0172139348318086 -0.6096393717396202 1.851273595379718 0.4872352370316492 -0.1082813553328564 0.06593972717394024 0.5511789916218887 0.05419282994543882 1.379148811299278 1.3560706466050874 -0.09737418662846178 0.36415095658771907 1.3986681735838395 1.4164425660998472 -0.15392311733108135 0.49411868784392426 

0.9890215515038443 0.6934460141595726 -0.23691684732589308 -1.2945030148871035 0.5430780817477391 0.47321801351685083 0.9125284467104726 -0.05757688277771454 0.8113502631450098 1.3794328895941512 0.7766677096087896 -0.8027622961848139 -0.8332248932456884 0.7504069012949627 -0.005040916652605583 -0.9645056817890238 
0.7777110306760724 -1.1614044335302367 0.09755723212710349 1.505047836899969 0.3821146982825221 0.6034390072058343 1.5206569996395856 0.8080551826397134 -0.7147543653974694 0.3170847582704767 -0.6379339315726794 0.08387730353498507 0.45094470574810525 0.2256106092304082 -0.5801617914710573 0.7163468441530206 
-0.8821900226468562 1.2602299254101335 -1.9697760853457762 -0.11642024781479743 -0.31939571807945544 1.1038028830114566 0.44086054939088704 1.2067989433494777 1.1740456300312596 0.7704063313613089 0.6393380145801824 0.8612920802955298 0.6860890066072978 0.5532237912962445 -0.30665043661815294 0.410710953817454 
0.054630280649396144 0.14323176595707432 -0.449594414420451 -0.28278267095513915 -0.8533733957466042 1.04159257176097 0.2138994786342689 -0.6600126198533115 -1.003264410749241 0.7092042326969463 0.9043365954726954 0.3446290067243048 0.03929127431287599 -1.0850329599043502 0.5723198136879041 0.6403586258358817 
0.7361984794632521 -0.2435845404612026 -1.2957538312194776 0.7403454464402763 -0.8597766968155506 -1.2701711493102483 -1.5259964421900225 -0.6850220251511442 -2.1798524538751916 -2.5222450254031648 0.3993739526753529 1.1044589412719759 0.9139821039560369 -0.5814358860450421 -0.7409700543146236 1.400369667197999 
-1.9489475957476385 0.06408794083948346 0.3000653577729829 0.6170424715738921 -0.3451777008094795 -0.08500559869317928 -1.1365894414867383 -1.0504461148715005 -0.36900669826315047 0.8651835570475684 -1.2325229041516603 1.2514707613597091 0.36414135730803754 1.5295168465503592 0.9510605589409494 -1.2511235883055187 
2.8770463384026335 0.46051827222789704 -1.4182418598508038 -0.96098305003046 0.007820433355498832 0.10428550460177866 -0.12731245004313166 0.3462812490537677 -0.9547207443398144 0.10012667562683499 1.1832417723504904 -0.2270042629445381 0.4811211241814435 -0.6868357336250784 0.5579673873799372 -0.6911148837449502 
0.5883441095141542 0.3532021047252855 1.8502081690242798 2.3742299789707046 -0.09072106282538399 -0.527752606038109 -0.6379129728783876 -0.38402461148576444 1.717144412654406 -0.779031512993229 -1.574580609071671 0.6843967276067304 -0.646227783999636 -2.075432874506391 -0.4481491227003923 -0.023607141555351735 
0.466284276562262 -0.2028779876002431 -0.3370570010018712 0.579834513546214 -0.1247161622667251 0.5754139704375345 0.21797170983025033 0.7691527153643423 -0.5782145261136656 1.004997377918507 -1.0489873421592326 -0.24751555203846 -0.8756631850028872 -0.1579176586692545 -1.2282899049461915 -0.23491053796928515 
-0.5092063001296959 1.026814333741039 -0.6686682882360057 0.7504413852759774 0.9413824927605805 1.1833167366283974 1.5893240896550063 -0.8225691578607691 0.47594998804994526 -1.3218572331575351 -0.5820032386486332 -0.6233494741501998 1.5762143177716113 -0.9254597738739876 -0.0013408722179820418 -1.092130844449305 
-0.8867965540898908 -0.40523736225116347 0.9658152891480987 0.22546401479126074 -0.052191759189954334 -1.1041097835249278 -0.012497448633953285 -1.0544918447263887 -0.9472532639120292 -1.2681299983846461 -0.41205961447115724 -1.4933273483282838 0.8442797677668269 2.521328541931543 -0.5750559839835916 0.17096443800827615 
0.9498815897487517 1.0207240402109212 1.1762686467147454 -0.9724674223464678 1.156315529389144 0.9005249529908647 -0.6574833389544583 -0.12147249456225243 0.8562499432027798 1.117305840688545 1.0678274410838435 0.7098499917992773 0.1214002389515084 -0.9677374064205098 0.5524244832200197 -0.841840972626746 
0.654185682277457 -0.9842134334576343 -0.4065676651123328 0.9554434028388508 -0.6439057894670261 -0.7551101539347468 -0.7034235801824202 0.8899758933163611 0.20386409625273402 1.2838435002872517 1.3241598291660424 1.01918396502325 -0.0014226630032792237 -1.9717313136765786 1.115077438848366 -2.052444153728303 
2.3266684946024636 -0.7943917806280634 -0.08130845402337898 -0.06938633099181098 0.8777912969752101 1.135229019870288 1.3516034906937067 -0.6692326302087528 0.10302628733021435 -0.5796261136938206 -0.5081397037131674 -1.2410040199781658 1.0874928174732792 -1.4248858385220555 -0.5912510390464152 -0.48828730567764606 
-0.172906377415833 -0.20633893945431395 -0.6930151888389132 -0.3680553534848774 0.9942493168968688 0.5318112877010869 -0.910812907784477 0.9753235786867416 1.7048277342328895 -0.367312731841812 -0.4003823074697748 -0.8721946635094379 -0.6075010210668654 0.8537564848216869 -0.8901627197658714 -0.03762733939347522 
-1.0268394009658866 -0.28488243065542423 1.8189432657333948 0.48131454786820066 -0.1058238057314838 -0.06633717996452279 0.5471146986281599 0.05509126658373786 1.301901392068422 1.341419879806097 -0.09611244909412399 0.362376824778109 1.4168838811953965 1.4164425660998472 -0.15160603520594576 0.487169391349685 

0.9841412068855371 0.7060283896086927 -0.23323881475704514 -1.2737873317987503 0.5458341975027173 0.46646862517141113 0.8921567413991349 0.057557181020081866 0.8113502631450098 1.3717981575237865 0.7355922747856494 -0.8345257573678999 -0.8412307064536193 0.7504069012949627 0.005221891280319471 -0.9609921615397224 
0.7723759817610036 -1.1631731329175934 0.09755723212710349 1.564495842659582 0.3821146982825221 0.6034390072058343 1.5678037215042195 0.8080551826397134 -0.7206535507857859 0.3165289305158544 -0.6379339315726794 0.08480246090686547 0.45094470574810525 0.22509173997979728 -0.5801617914710573 0.6966917912460833 
-0.9021807137068473 1.2602299254101335 -2.0003366025624234 -0.11642024781479743 -0.3153112935128704 1.1222211107864735 0.4463775716445591 1.2067989433494777 1.1740456300312596 0.7785931046214563 0.6393380145801824 0.8537316945425913 0.6860890066072978 0.5572015485012642 -0.30665043661815294 0.410710953817454 
0.054630280649396144 0.14228112996074668 -0.44077757448017657 -0.28278267095513915 -0.8659020184030095 1.0275850902021126 0.2138994786342689 -0.6654541372044476 -1.0144357717916554 0.7093626672397777 0.9043365954726954 0.34837496040078775 0.03929127431287599 -1.0850329599043502 0.5777583771211894 0.6637160413961822 
0.7331928425650529 -0.24706841804459942 -1.3200852512201628 0.7458663760263939 -0.858646795587219 -1.270659934210972 -1.5028761076886967 -0.6840116868150115 -2.193169713052645 -2.495423950291013 0.3948247311989056 1.0657795057823747 0.8981354566141642 -0.5755872905610228 -0.7409700543146236 1.3972612452218909 
-1.9489475957476385 -0.06457933975241714 0.3000653577729829 0.6318404917416587 -0.3451777008094795 -0.08447521380274155 -1.1365894414867383 -1.067953384089046 -0.36900669826315047 0.8706063951374295 -1.2325229041516603 1.2529083194977648 0.36414135730803754 1.5178788979042308 0.9489450862189198 -1.2511235883055187 
2.950016914842507 0.4461617049357065 -1.434776691826267 -0.96098305003046 -0.007820433355498832 0.10428550460177866 -0.1283468823276533 0.35149622899049365 -0.959111341718561 0.10137512684339973 1.1832417723504904 -0.2254808461394521 0.5005548699613531 -0.6671809103236562 0.5579673873799372 -0.6911148837449502 
0.5914181990112263 0.3536594285905447 1.891969065711653 2.4353432735517964 -0.08972363662324942 -0.5200551164146086 -0.6442938347721772 -0.38402461148576444 1.717144412654406 -0.7910088355243523 -1.5634694487657899 0.6949795405500515 -0.6185168116470403 -2.075432874506391 -0.44341620065609455 -0.02316455719609929 
0.4585745368003447 -0.20587420549966193 -0.13939640651089938 0.5822317159656026 -0.12493328969069992 0.5785074499769133 0.21215036117265243 0.7691527153643423 -0.5782145261136656 1.10528829488692 -1.0607041494768492 -0.24352842692052515 -0.8842073446626559 -0.16320415010955358 -1.191106914839995 -0.22680282118719208 
-0.514356787144901 1.026814333741039 -0.6568646328919637 0.7546957340715954 0.9413824927605805 1.1833167366283974 1.6030180245613455 -0.8005421052512229 0.47895296194135645 -1.3158098229104318 -0.5711845569720448 -0.6233494741501998 1.576916590995878 -0.9254597738739876 0.0013408722179820418 -1.0718571140122166 
-0.9014766494186588 -0.4018477568380134 0.9567176695184959 0.23084125687829318 0.053842551856991744 -1.086547138739349 0.012456250856285225 -1.067360110800258 -0.9358810030545868 -1.2927829220115665 -0.41205961447115724 -1.5072086186486853 0.8316562931571183 2.521328541931543 -0.5804046903919036 0.17159588089900074 
0.9495672317431397 1.0207240402109212 1.1762686467147454 -0.9654506753167437 1.1738350415291308 0.8684681667508857 -0.6565509038097226 -0.1218098699847115 0.8562499432027798 1.1172507881954052 0.3850801694861088 0.7056028581289513 0.12081335127802252 -0.960226126941974 0.5476867872318972 -0.8637831159555265 
0.6566696553443765 -0.9966734304062586 -0.4067315093092662 0.9438770268543776 -0.6439057894670261 -0.7613464724942016 -0.7034235801824202 0.8899758933163611 0.1989597078316203 1.2625174119943314 1.3398554153260278 1.0231135878342636 -0.0014610491561445602 -1.987149870606597 1.1075310212968126 0.3490392525303318 
2.300269809213052 -0.7821416528653943 -0.08009726210127227 -0.06938633099181098 0.882555767161005 1.1279804572379302 1.358140868754088 -0.6797807864059295 0.10005506275171322 -0.5896207135411049 -0.49946561748027346 -1.2063172904308577 1.0517260875541856 -1.4248858385220555 -0.5908315857460669 -0.4896829196133137 
-0.1706818656280572 -0.20633893945431395 -0.7003063744828874 -0.3680553534848774 1.0041377537676197 0.5318112877010869 -0.910812907784477 0.9769103104794921 1.7192791708929525 -0.3623187500395321 -0.3961122467580099 -0.8615109917935518 -0.6075010210668654 0.85791026925882 -0.8795177504049004 0.03694424112436131 
-1.0268394009658866 -0.6048491502245489 1.8455568389346593 0.48131454786820066 -0.1082813553328564 -0.06559106756817784 0.5532533199317652 0.053715969186853965 1.3324440961232815 1.3551094775617223 -0.09612247911681969 0.36482108680716496 1.4539331212030053 1.4164425660998472 -0.15233943145804163 0.49411868784392426 

0.9841412068855371 0.7016838344249403 -0.23332416361597494 -1.2873880060661957 0.5444045184642768 0.45494815411852463 0.9093658064068942 -0.05757688277771454 0.8182116074627129 1.4118564460367196 0.7871592723180881 -0.8283291738004224 -0.8412307064536193 0.7535978836958265 0.005056961027309708 -0.938298943049497 
0.7433147571131442 -1.1591954314875195 0.10169286315380062 1.564495842659582 0.3821146982825221 0.619819858047333 1.5755960220279337 0.8080551826397134 -0.7063845737218899 0.3170847582704767 -0.6379339315726794 0.08255498324666384 0.45509094740198214 0.2323240412291425 -0.5831956692249606 0.6879058495911948 
-0.9100542075442662 1.2499008997279464 -1.9546584330321848 -0.11473216429247436 -0.31939571807945544 1.1038028830114566 0.44268919642941346 1.184408502950623 1.1822373055759878 0.7809278313599602 0.6379788808694066 0.8329382573883525 0.6860890066072978 0.5574529680784222 -0.30929361186287946 0.410710953817454 
0.05531150864103528 0.14518649518539858 -0.44077757448017657 -0.284245692334047 -0.8662489918069203 1.0275850902021126 0.21038627739301707 -0.6670298166486451 -1.0111624510020856 0.6969842950003639 0.9021016980095569 0.3497382745043767 -0.03924734447418749 -1.0850329599043502 0.575830672247217 0.6637160413961822 
0.7236659793747816 -0.24506181386520384 -1.3248630446667793 0.763437275989367 -0.8465617265347644 -1.2771201197936835 -1.501365579781063 -0.6949530393070606 -2.171059147806472 -2.516997145894846 0.3888932955811311 1.0970351082848366 0.9040301865567619 -0.5814358860450421 -0.7406755896992296 1.4055681713802937 
-2.004195323994994 -0.06356258263030105 0.29763073796897577 0.6356319065746062 -0.34716216718266485 -0.08383684903622773 -1.1051243905782897 -1.0736502300036348 -0.37173123814766457 0.8562552267804874 -1.2325229041516603 1.2579651880845444 0.36414135730803754 1.5276211595838873 0.9712002060719416 -1.2511235883055187 
2.9141451431877337 0.45395578428672756 -1.4203824338994895 -0.96098305003046 0.007686007010233183 0.10382631764381903 -0.12731245004313166 0.3512268936157714 -0.9635733353481609 0.10131878451103991 1.1798141992142488 -0.226057846050986 0.49229309191332443 -0.6926527335978276 0.5769021902340502 -0.6846278798794228 
0.5883441095141542 0.35445006342347557 1.8502081690242798 2.3261336656983818 -0.09111488977827657 -0.5153666643627152 -0.6312264692718929 -0.38942392677585136 1.7164624559318813 -0.7707310661441212 -1.576854925862193 0.6843967276067304 -0.6272248117050928 -2.0432493837040178 -0.4425134581727489 -0.023547341185534372 
0.466284276562262 -0.20587420549966193 -0.3370570010018712 0.5883893262560665 -0.12464085474939159 0.5742100246167006 0.22085249241625896 0.7637519471639111 -0.5695366679870143 1.10528829488692 -1.0489873421592326 -0.2467694754805408 -0.8752173056794897 -0.16320415010955358 -1.1928330427419849 -0.23737652397696518 
-0.5059081830620638 1.026814333741039 -0.6453012188030599 0.7339891848299438 0.9461890662522104 1.1699540593444437 1.5883858502598225 -0.8072418163146918 0.4747339492816382 -1.3299289251531006 -0.5711845569720448 -0.6305638770552127 1.5173551436075206 -0.9254597738739876 0.0013329099671663303 -1.0747138709449664 
-0.9102539038131803 -0.40545141720627587 0.9905724265916356 0.22546401479126074 0.05320333510498754 -1.099345700186511 0.012456250856285225 -1.0544918447263887 -0.9472532639120292 -1.2681299983846461 -0.41205961447115724 -1.4948232160501196 0.8435961529381437 2.5370740643007075 -0.5804046903919036 0.17029232575840345 
0.9378943371476561 1.017786611195637 1.1763625653185654 -0.9654506753167437 1.1586442660112626 0.8848834547332627 -0.6489223016667163 -0.12317822287835326 0.8756831760222487 1.117305840688545 1.123788651970333 0.6935510865077511 0.11940668211838486 -0.9438865457501832 0.5524244832200197 -0.8708340617541853 
0.6566696553443765 -0.9842134334576343 -0.40957711534146035 0.9538139668814639 -0.6552097443135512 -0.7488161893751248 -0.7034235801824202 0.8612595829189627 0.200524055405093 1.2625174119943314 1.3749086978118936 1.00896090144751 0.0015030276893187567 -1.9428555270860925 1.1116665386071924 -2.052444153728303 
2.300269809213052 -0.7821416528653943 -0.0793424578989544 0.06789132489580495 0.8777912969752101 1.1609597370515148 1.358140868754088 -0.6797807864059295 0.10070502411098199 -0.5896207135411049 -0.5016934851328263 -1.2166213383862816 1.0874928174732792 -1.4089885976385006 -0.586078700950363 -0.5057807983206125 
-0.172906377415833 -0.20655603946248519 -0.7003063744828874 -0.3808994027271008 1.0041377537676197 0.5466733467630276 -0.8761122586884359 0.9661837385573446 1.7416197994738625 -0.36477008378379766 -0.4003823074697748 -0.8856804379269712 -0.6246894905594728 0.8625308077744845 -0.9048773778793316 -0.03694424112436131 
-1.0172139348318086 -0.6010991751621512 1.8455568389346593 0.4811687411918752 -0.10522827314759757 -0.06593972717394024 0.5365564042806388 -0.05386880144988452 1.336161007439289 1.3416478159955723 -0.09676546420253981 0.36415095658771907 1.4428557120474075 1.4288450091088734 -0.1545963822910937 0.47805226449644583 

0.9887494748689871 0.7020529703326299 -0.2307557084335815 -1.2945030148871035 0.5430780817477391 0.46646862517141113 0.9093658064068942 -0.05607214358967007 0.8113502631450098 1.3794328895941512 0.7549739508165367 -0.8221355629516236 -0.8412307064536193 0.7607404610924922 0.005205055386731821 -0.9609921615397224 
0.7490572280807325 -1.1581810209874195 0.10006661289254422 1.5539402883101858 0.38630940124135427 0.6108027224450027 1.5678037215042195 0.7922391743205335 -0.7040140108094823 0.3188845667330786 -0.6276231210687595 0.08516056758374586 0.4597822792025115 0.22509173997979728 -0.5801617914710573 0.705784184476364 
-0.9116158879534956 1.2499008997279464 -1.9849084567799764 -0.11473216429247436 -0.319299124686103 1.125376600288572 0.44903213475722487 1.191424902282037 1.1740456300312596 0.7785931046214563 0.649663263160711 0.8329382573883525 0.6963113773993738 0.5574529680784222 -0.2984189361631911 0.410710953817454 
0.055290846732046706 0.1444022223612188 -0.4417949106218871 -0.28251838053664363 -0.8532770360643516 1.045334521816215 0.21733828249174234 -0.670297843955637 -0.9943860597230714 0.6946391711163487 0.8988210413447185 0.3497382745043767 -0.04004884123079129 -1.0682819746166095 0.5766127187459914 0.63846264787505 
0.7236659793747816 -0.24482898067201894 -1.2940788940878718 0.750594301989391 -0.8597766968155506 -1.2771201197936835 -1.5249606265792532 -0.674910020650424 -2.193169713052645 -2.4979879040731316 0.4103812146518403 1.101059588940881 0.8873140337092187 -0.5766272432977352 -0.7405098358843036 1.393805705310252 
-1.9785975294971578 0.06266792375851848 0.2938606779269956 0.6442341194790564 -0.3419600095560072 -0.08477403771258112 -1.1090686814914008 -1.0193325422302393 -0.37173123814766457 0.8431376479223183 -1.2325229041516603 1.2579651880845444 0.36414135730803754 1.5055255084707162 0.9433330780185835 -1.2511235883055187 
2.933404906458699 0.4607840774580391 -1.434776691826267 -0.9617412075124327 -0.007820433355498832 0.10552494982688869 -0.12860158493607515 0.35213274117543125 -0.9534185521047042 0.10172570620101316 1.1672957759340516 -0.22361998035169645 0.49784453302281334 -0.6938293970134181 0.5579673873799372 -0.6894676733819871 
0.5914181990112263 0.3560261759015743 1.892701410626442 2.3742299789707046 -0.09111488977827657 -0.527752606038109 -0.640389738794485 -0.3776193056213307 1.717144412654406 -0.779031512993229 -1.5551961435472315 0.6949795405500515 -0.6460133922482874 -2.075432874506391 -0.44798931637068656 0.02337365107779464 
0.4585745368003447 -0.2039163153399196 -0.13811680480181981 0.5842233652535933 -0.1237250321629919 0.5825416681817686 0.2196998388793155 0.7691527153643423 -0.5782145261136656 1.10528829488692 -1.0489873421592326 -0.24352842692052515 -0.8822619699315369 -0.16499016690116974 -1.1958359640391996 -0.2304961892499104 
-0.5059081830620638 1.026814333741039 -0.6453012188030599 0.7721822844318956 0.9309320210015314 1.1833167366283974 1.5886850057592903 -0.8072418163146918 0.4747339492816382 -1.2776535231257142 -0.5909791876786501 -0.6290430759559099 1.5173551436075206 -0.9254597738739876 -0.0013397217051800104 -1.0678403892179498 
-0.9114245322866446 -0.4122820026179141 0.9658152891480987 0.23503961416451596 0.05320333510498754 -1.1041097835249278 0.012497448633953285 -1.0544918447263887 -0.9472532639120292 -1.2681299983846461 -0.4121646148928616 -1.4948232160501196 0.8435961529381437 2.6032200716584653 -0.5899045232169159 0.16998816893442753 
0.9707294627790577 1.017786611195637 1.1784317049933126 -0.9654506753167437 1.1551675681908429 0.8684681667508857 -0.6489223016667163 -0.12147249456225243 0.8756831760222487 1.1093339912548597 0.39059982363956613 0.6935510865077511 0.1194631400515866 -0.9483245055075933 0.5524244832200197 -0.8637831159555265 
0.6566696553443765 -1.0029755957939182 -0.4035114801055069 0.9413931104689649 -0.6544847583065996 -0.7613464724942016 -0.725706314728171 0.8787454148400996 0.20417946042996032 1.2611612464966535 1.3751653503339203 1.006522166327217 -0.0014610491561445602 -2.0069355274606413 1.115077438848366 0.3493047080436609 
2.2723177230536917 -0.793814021247594 -0.08035667466559174 -0.06938633099181098 0.8725564646877119 1.150792302811634 1.358140868754088 -0.6797807864059295 0.1006856047993711 -0.584530767258198 -0.49946561748027346 -1.2063172904308577 1.0745479075457842 -1.40945272269602 -0.5847688092208543 -0.4956630768480217 
-0.17328304198684188 -0.20655603946248519 -0.7003063744828874 -0.36974254607809215 1.0041377537676197 0.5292891389500041 -0.910812907784477 0.9911650401554876 1.7192791708929525 -0.36312772930911175 -0.41666004338655993 -0.861527813823047 -0.6106853549498167 0.85791026925882 -0.8940713639940988 -0.03762733939347522 
-1.0173943698630636 -0.6067905628171636 1.8189432657333948 0.48265574248184095 -0.10821813324934047 0.06595588472481036 0.5391235378425817 0.05419282994543882 1.3243118737758355 1.3551435696435794 -0.09737418662846178 0.36415095658771907 1.4235577260639116 1.4164425660998472 -0.1578395366422638 0.49411868784392426 

0.9841412068855371 0.7020529703326299 -0.23644925953862458 -1.2985745006807987 0.5444045184642768 0.46646862517141113 0.9093658064068942 -0.05757688277771454 0.8083559762992781 1.4005369508380205 0.782063390736976 -0.8345257573678999 -0.841235940811611 0.7502789793907503 -0.005221891280319471 -0.946620759980446 
0.7490572280807325 -1.1565688324491172 0.09755723212710349 1.564495842659582 0.3879901108280858 0.608470012375276 1.5057593820077917 0.8080551826397134 -0.7318445704790286 0.3188845667330786 -0.6276231210687595 0.08573252823224918 0.4581329155203353 0.22754176712899377 -0.6020885180546562 0.7048315231803258 
-0.9100542075442662 1.2499008997279464 -1.9849084567799764 -0.11586054680884993 -0.316369841781404 1.125376600288572 0.43688391391712406 1.1874607520521265 1.1626501379287613 0.780066424070813 0.6520116867331252 0.8329382573883525 0.6942891965732548 0.5572015485012642 -0.30159815578156235 0.4055145764797477 
0.05508590956039091 0.1444022223612188 -0.4427253833600055 -0.2828662996367597 -0.8726892655095092 1.0378247873514213 0.2138994786342689 -0.6740148232986644 -1.0536924286356255 0.7093626672397777 0.9052374331010393 0.3503734520296377 0.03929127431287599 -1.0850329599043502 0.5777583771211894 0.6580398473900834 
0.7261153130239678 -0.2385832772541461 -1.3032239366358211 0.7432662122272577 -0.8465617265347644 -1.2771201197936835 -1.505750395574509 -0.6835807367966756 -2.213992453346935 -2.5272818960559 0.4049553676731141 1.101670338751152 0.9116177009762607 -0.5766272432977352 -0.7405098358843036 1.3930244176784599 
-1.9785975294971578 0.06199654805643833 0.29763073796897577 0.62865476280388 -0.34716216718266485 -0.08447521380274155 -1.1365894414867383 -1.0504461148715005 -0.3689778727340526 0.8540987770410753 -1.2824829995148508 1.2582549181692197 0.3648762486737745 1.5344863870161418 0.953040202523801 -1.2533814779102166 
2.9093647724644636 0.4564428056994858 -1.434776691826267 -0.96098305003046 0.007820433355498832 0.1036237051839628 -0.12777605025926714 0.35213274117543125 -0.959111341718561 0.10172570620101316 1.200785023068951 -0.226057846050986 0.5032673056165928 -0.6819085426130213 0.5640927507341189 -0.6893764319966071 
0.5914181990112263 0.3505144532972815 1.891969065711653 2.368450176702922 -0.09111488977827657 -0.527752606038109 -0.6381102796787793 -0.3776193056213307 1.7293853483162482 -0.7873428904018206 -1.55014972623878 0.6912612504520368 -0.6150369576473348 -2.058117876793462 -0.4417137171740971 -0.023362781161859424 
0.4606102580101721 -0.2080134689437272 -0.3399494728569797 0.5822317159656026 -0.12382471466194794 0.5850222106227738 0.21665775422369038 0.7620362163165921 -0.5829149334026477 1.015523624404849 -1.0653406065361768 -0.24352842692052515 -0.8779417290582047 -0.16189349071964368 -1.1868687037460994 -0.23031043061939097 
-0.516678714405552 1.030655999992339 -0.6488410147338924 0.7721822844318956 0.9418933661001021 1.188044336349203 1.570044172936494 -0.8028456894773104 0.4809428797469163 -1.3218572331575351 -0.5631395460214171 -0.6505747202172726 1.6354026172819163 -0.9291862391106896 -0.0013408722179820418 -1.0759928491421469 
-0.8999492491947251 -0.4122820026179141 0.9654857779142532 0.23084125687829318 -0.052373139714323655 -1.1041097835249278 -0.012447422214662945 -1.078600172255832 -0.9472532639120292 -1.2681299983846461 -0.4103689816632493 -1.4948232160501196 0.8553740852416317 2.5811487308262104 -0.5708370667332289 0.17066033515824994 
0.9498815897487517 1.0275901693047869 1.176422342742295 -0.9654506753167437 1.1551561292840822 0.8880079166191577 -0.6489223016667163 -0.12196910288437975 0.8756831760222487 1.0902697074732195 0.3914966370056949 0.6935510865077511 0.12086799367344625 -0.9581476583151767 0.5480131295268593 -0.8519458140318964 
0.6566696553443765 -1.0029755957939182 -0.4067315093092662 0.9294274638376565 -0.6601371504007694 -0.7497535090475703 -0.7144272715695829 0.884949767724663 0.1989368692470059 1.2641245125412586 1.3368291160516057 1.009309049431475 -0.0014610491561445602 -2.0069355274606413 1.1099462579874664 -2.052444153728303 
2.2910415638831347 -0.7837471768312386 -0.08130845402337898 0.06979886337712066 0.8777912969752101 1.1279804572379302 1.358140868754088 -0.6797807864059295 0.10070502411098199 -0.5812756871566686 -0.49946561748027346 -1.2433449149663969 1.0745479075457842 -1.4263008786405147 -0.5840231553051892 -0.48642087130478984 
-0.1771602244971233 -0.21243253984837765 -0.6925898968191331 -0.3620728866021607 1.0041377537676197 0.54840912741477 -0.9159885177764835 0.9725054398800922 1.7192791708929525 -0.3638429421409802 -0.4157416042713426 -0.879168781946667 -0.6145570506369042 0.8584085834395535 -0.8845975522410823 0.03734531989823943 
-1.0172139348318086 -0.28145955214287693 1.8184211840727835 0.47871594035272935 -0.10728241496778745 -0.06602973226124455 0.5511789916218887 -0.05419282994543882 1.340391160875653 1.3694955519075134 -0.09737418662846178 0.36415095658771907 1.4197407735928818 1.4188994814771583 -0.15392311733108135 0.48187338349164466 

0.9995844093157109 0.7041648763891848 -0.23644925953862458 -1.3053892068218989 0.5434603609432279 0.46778347331906 0.894904850438937 -0.0581339122309097 0.8139381610566291 1.4021692803420127 0.7549531422007447 -0.8089972122436468 -0.8412307064536193 0.7502789793907503 0.005221891280319471 -0.938298943049497 
0.7490572280807325 -1.1565688324491172 0.09909758404472165 1.5317555259945892 0.3840828912739009 0.6034390072058343 1.5517603909001885 0.8200721867168574 -0.7160317801406513 0.3188845667330786 -0.6466921336273203 0.08104481035867778 0.45094470574810525 0.2253914699055397 -0.5953521793206289 0.6929955872648669 
-0.9259992720519891 1.2602299254101335 -1.970475844312987 -0.11642024781479743 -0.316369841781404 1.1136671299936771 0.44937804189051633 1.184408502950623 1.1755280420927385 0.7780100215490862 0.6342437627808643 0.8329382573883525 0.6963113773993738 0.5616464008852711 -0.30306251454541483 0.410710953817454 
0.05430862339914106 0.1424100380298267 -0.449594414420451 -0.28278267095513915 -0.8626629489352075 1.0275850902021126 0.2138994786342689 -0.6654541372044476 -1.010632625527913 0.7093626672397777 0.8943639343153289 0.34837496040078775 0.03985097681594141 -1.0784003537798366 0.5726981505017715 0.6537033984670629 
0.7419599534806891 -0.24104974523633507 -1.3129359355774686 0.7530532330779254 -0.8576732734005469 -1.289494790834466 -1.5274200745600304 -0.6949530393070606 -2.170610244378529 -2.516997145894846 0.3993739526753529 1.101059588940881 0.9128758508857241 -0.5814358860450421 -0.7409700543146236 1.393805705310252 
-2.004195323994994 0.06266792375851848 0.29781031420432297 0.6356319065746062 -0.34716216718266485 -0.08447521380274155 -1.1361365649116073 -1.0413526569972134 -0.3604665395115872 0.8697029620273614 -1.2601856771946869 1.2519521163000524 0.36690171027485385 1.518734070751978 0.9591375178275418 -1.2511235883055187 
2.855790615554239 0.4564428056994858 -1.4454420908007808 -0.9784915179542234 0.007808677475154228 0.10428550460177866 -0.13120695380109731 0.3532592886163043 -0.9262017353054887 0.10012667562683499 1.1854002197433384 -0.22832949102478564 0.49229309191332443 -0.6926527335978276 0.5567928953394568 -0.6911148837449502 
0.5861482417347285 0.35301469003879626 1.891969065711653 2.3742299789707046 -0.08973234249205275 -0.5246692314127587 -0.640389738794485 -0.38626624279680677 1.6524270957722915 -0.758406272333385 -1.530727859292462 0.6949795405500515 -0.6287404209574837 -2.0845754078369834 -0.44915525845587556 -0.023607141555351735 
0.4585745368003447 -0.206648284801588 -0.3370570010018712 0.5842233652535933 -0.12498141462280114 0.5825416681817686 0.21336908028479393 0.7578390679821043 -0.561342178352404 1.0987772752504654 -1.0794375483539531 -0.2465625473235884 -0.8822619699315369 -0.16413848721997418 -1.237562172427431 -0.2281630145144125 
-0.5092063001296959 1.0242780724270115 -0.6578947887416745 0.7427409037290192 0.9378074690704253 1.1833167366283974 1.5883858502598225 -0.8162093553720521 0.4747339492816382 -1.3412194335774827 -0.5876218945613126 -0.6364559864782686 1.605485598904167 -0.9248134179508877 -0.0013357727911551304 -1.0794432666726272 
-0.9127378630315555 -0.39983382397078954 1.0020570957929953 0.23244780213150826 -0.052608005112093556 -1.1139969580854612 0.012751788200864544 -1.06649822943353 -0.9523543770313428 -1.2830878257589535 -0.4105186122235371 -1.515291822191776 0.833826886785695 2.481979780157708 -0.5738255747840687 0.17518776431426106 
0.9565586276067918 1.0263792538995202 1.1593680830083481 -0.9724674223464678 1.1586442660112626 0.8754887129385912 -0.6565509038097226 -0.1237665576185829 0.8756831760222487 1.1061480179128025 0.38763303620698214 0.6935510865077511 0.1219686059582551 -0.9448827715883025 0.5539004347085025 -0.8575199133554655 
0.661215535000368 -0.9777031593340255 -0.4065676651123328 0.9413312369250862 -0.6374794317539706 -0.7613464724942016 -0.7117184543636933 0.8612595829189627 0.20148261832478975 1.2522821435327298 1.3784954775214917 1.006522166327217 0.0014627621852887664 -2.012089983522061 1.1116665386071924 0.3450330258805147 
2.300269809213052 -0.7721058521380064 -0.08053968760221579 0.06720360263073613 0.8611068430430382 1.150792302811634 1.3516034906937067 0.6693798512428306 0.10070502411098199 -0.599773003235876 -0.4913583494574544 -1.2268361954062608 1.0613944028909235 -1.3713515644338876 -0.586078700950363 -0.49246463996491363 
-0.172906377415833 -0.21134823685509982 -0.6925898968191331 -0.36286556447976354 0.9722890883795686 0.5308921855359041 -0.8932432105263933 0.9753235786867416 1.7416197994738625 -0.3623187500395321 -0.4084359195120375 -0.8696598917048306 -0.6001902507063196 0.8443476980959662 -0.8853528025691827 -0.037797372788337766 
-1.0337916305612778 -0.6006657607687179 1.8541205592044199 0.47876566679443244 -0.10688885321883812 -0.06545296287304765 0.5402319725552465 0.05419282994543882 1.301901392068422 1.3416478159955723 -0.09676546420253981 0.3450218872225891 1.4235577260639116 1.3917940309007362 -0.15365437038550026 0.487169391349685 

0.988438587199746 0.7020529703326299 -0.23644925953862458 -1.2683837407963285 0.5475209934492732 0.457901536649621 0.9093658064068942 -0.056685810077201824 0.8139381610566291 1.4021692803420127 0.7872272534953907 -0.8263899032958772 -0.8453181597125242 0.7528459441824523 -0.005221891280319471 -0.964872915498964 
0.7490572280807325 -1.141799684491397 0.10006661289254422 1.564495842659582 0.3821146982825221 0.6034390072058343 1.5254836526098652 0.7956041717005263 -0.7258105960471076 0.3183340886560379 -0.6124079119870773 0.08652292133431794 0.45306434498962594 0.22509173997979728 -0.5812362822194672 0.705784184476364 
-0.900526043639826 1.2856348032547538 -1.9849084567799764 -0.11473216429247436 -0.3190623832988593 1.125376600288572 0.43513278593664506 1.2067989433494777 1.187279320922062 0.7867250085615783 0.6465798943377518 0.8397759341730476 0.6723300193810169 0.5572015485012642 -0.30159815578156235 0.410710953817454 
-0.055290846732046706 0.14147463812324443 -0.449594414420451 -0.28251838053664363 -0.8714679922907924 1.0250074282042867 0.2138994786342689 -0.6654541372044476 -1.0074015484907548 0.7093626672397777 0.9004621282695552 0.35471708774003025 0.03929127431287599 -1.088445320488589 0.5726981505017715 0.6637160413961822 
0.7361984794632521 -0.24241576798210654 -1.277505390222007 0.7403454464402763 -0.8597766968155506 -1.2946431634825006 -1.5032263189976918 -0.6719724678309545 -2.238761563215558 -2.516997145894846 0.4012269188182937 1.0991012161026685 0.9102395297289245 -0.5755872905610228 -0.7391822889845818 1.400369667197999 
-1.9769568591813085 0.06394071956874767 0.3045696988492419 0.6192971272537006 -0.34716216718266485 -0.08443596727253375 -1.1365894414867383 -1.055749957404573 -0.37173123814766457 0.8804295801647436 -1.2462708796129816 1.2579651880845444 0.3686285739886464 1.5227639320100999 0.9433330780185835 -1.2511235883055187 
2.900066502783144 0.4442566196194304 -1.434776691826267 -0.96098305003046 -0.007880527225408466 0.10428550460177866 -0.1291317017172747 0.3510962235554447 -0.9448230794227525 0.10172570620101316 1.1617065937539364 -0.22454976804203783 0.4981885576927493 -0.6926527335978276 0.571575402034371 -0.6893764319966071 
0.5886140751365114 0.3505144532972815 1.904670272956082 2.3742299789707046 -0.09111488977827657 -0.5171314687386113 -0.640389738794485 -0.38402461148576444 1.677879775387579 -0.779031512993229 -1.5594857602014174 0.6843967276067304 -0.6150369576473348 -2.0840689942184802 -0.4481491227003923 -0.023607141555351735 
0.4585745368003447 -0.2070793574452768 -0.3358390761811498 0.5848215702974976 -0.12384414198374587 0.5850222106227738 0.21723969937087123 0.7665203962491127 -0.5800549511139255 1.1148670112091805 -1.0489873421592326 -0.24352842692052515 -0.8842073446626559 -0.16320415010955358 -1.190152444612598 -0.22680282118719208 
-0.5092063001296959 1.026814333741039 -0.6517860281109654 0.7660999035828029 0.9536428486487499 1.1833167366283974 1.5807011347221147 -0.8162093553720521 0.4747339492816382 -1.3218572331575351 -0.5909791876786501 -0.6290430759559099 1.605012160709573 -0.9143148523648081 0.0013357727911551304 -1.0794432666726272 
-0.9127378630315555 -0.39802195413579844 0.9658152891480987 0.2314568500032833 0.05320333510498754 -1.1119119380438456 0.012456250856285225 -1.067360110800258 -0.949557117336507 -1.2681299983846461 -0.4035715344384941 -1.4898518630573494 0.8380259118882077 2.521328541931543 -0.5899045232169159 0.17286772695726857 
0.9565586276067918 1.0263792538995202 1.1784317049933126 -0.9724674223464678 1.1586442660112626 0.8684681667508857 -0.6590534754874707 -0.1218098699847115 0.8648437669026481 1.117305840688545 0.3890425379671196 0.7023093539625987 0.1194631400515866 -0.960226126941974 0.5524244832200197 -0.8540827872297155 
0.6427934919716806 -0.9769106904182007 -0.4035114801055069 0.9443072385968488 -0.6544847583065996 -0.7613464724942016 -0.7155227656882079 0.8787454148400996 0.19991270280064385 1.2426508775026253 1.3411157275434373 1.006522166327217 -0.0014171905529627338 -1.9717313136765786 1.115077438848366 0.3493047080436609 
2.2723177230536917 -0.793814021247594 -0.08130845402337898 0.0684807490431326 0.882555767161005 1.1214234531097587 1.358140868754088 -0.6797807864059295 0.10146183317127797 -0.577516785599309 -0.49946561748027346 -1.2326360609484877 1.0745479075457842 -1.4250522620993833 -0.5843167929243077 -0.4960121080295966 
-0.172906377415833 -0.21149111955019317 -0.7006785962220851 -0.37184070662612034 0.9818349043132142 0.5310385787625911 -0.8745543871723167 0.9725054398800922 1.7407123180811892 -0.36462724090495996 -0.40225466475281907 -0.879168781946667 -0.6246894905594728 0.8625308077744845 -0.8907356356061649 0.03700492475632436 
-1.0030767501801565 -0.6073700377070201 1.8015516232473103 0.4805734060628732 -0.10538176950415569 -0.06586822695712484 0.5456491897702528 -0.05419282994543882 1.336161007439289 1.367679674579584 -0.0974892096125232 0.36415095658771907 1.3961166311017676 1.4199624631573207 -0.15474928373387328 0.48187338349164466 

0.9733133014679177 0.7020529703326299 -0.23644925953862458 -1.2737873317987503 0.5430780817477391 0.4540853665865434 0.9014520570345274 0.056672883216946524 0.8139381610566291 1.3794328895941512 0.782063390736976 -0.8345257573678999 -0.828816444539478 0.7520889239735236 0.005270448833499008 -0.9609921615397224 
0.7490572280807325 -1.1705642913449443 0.09755723212710349 1.564495842659582 0.3821146982825221 0.6101663908826479 1.590467962886244 0.8106490448557585 -0.7160317801406513 0.3113602001245279 -0.6276231210687595 0.08652292133431794 0.45509094740198214 0.22016290040938807 -0.5831956692249606 0.705784184476364 
-0.8973916582188738 1.2499008997279464 -2.0003366025624234 -0.11586054680884993 -0.3190623832988593 1.092995148848528 0.4552545773369774 1.184408502950623 1.1668413246728957 0.7822582469559065 0.6465798943377518 0.8235323161554514 0.6808538232118052 0.5572015485012642 -0.30159815578156235 0.410710953817454 
0.054013143092885865 0.14232978005988262 -0.449594414420451 -0.284245692334047 -0.8532770360643516 1.045334521816215 0.2138994786342689 -0.6654541372044476 -1.0536924286356255 0.7093626672397777 0.8988210413447185 0.3497382745043767 0.03929127431287599 -1.0850329599043502 0.5766127187459914 0.6734435551099462 
0.7261153130239678 -0.2435845404612026 -1.3129359355774686 0.7530532330779254 -0.8597766968155506 -1.2771201197936835 -1.5149594479802817 -0.674910020650424 -2.238761563215558 -2.5272818960559 0.3888932955811311 1.101059588940881 0.8985184768503237 -0.5721628582743209 -0.7415941129840927 1.388414290481184 
-1.9785975294971578 0.06266792375851848 0.3045696988492419 0.6170424715738921 -0.34716216718266485 -0.08447521380274155 -1.1365894414867383 -1.0352195455391715 -0.37086913515442627 0.8573387496416747 -1.2570209167921873 1.2579651880845444 0.3648762486737745 1.5096807737474205 0.9433330780185835 -1.2511235883055187 
2.900066502783144 0.4564428056994858 -1.434776691826267 -0.96098305003046 -0.007758229680062108 0.10604950503290397 -0.12777605025926714 0.35763805019964995 -0.978588831324529 0.10252731994210773 1.1672957759340516 -0.226057846050986 0.48749665286994526 -0.6881318902913419 0.5705964617514965 -0.6893764319966071 
0.5900387026865809 0.35466785789163213 1.8523402071332258 2.3526303349777278 -0.09156004990540437 -0.5255086716553312 -0.6514439225953261 -0.3776193056213307 1.6864074851995638 -0.779031512993229 -1.5871438599341277 0.6949795405500515 -0.6185168116470403 -2.0863979397280628 -0.44798931637068656 0.02324455019068364 
0.4585745368003447 -0.20587420549966193 -0.3370570010018712 0.5848215702974976 -0.12448018635128026 0.5694138075968674 0.2228516955950891 0.776208343216263 -0.5652196081027723 1.0868648239700474 -1.082567750334585 -0.2438711233233344 -0.8654718610927813 -0.16320415010955358 -1.1868687037460994 -0.22680282118719208 
-0.5061154431709516 1.026814333741039 -0.6488410147338924 0.7426712705233895 0.9309320210015314 1.1764385005537972 1.5886850057592903 -0.8028456894773104 0.4747339492816382 -1.3158098229104318 -0.580521783662551 -0.6505747202172726 1.5330130895971905 -0.9254597738739876 -0.0013408722179820418 -1.0678403892179498 
-0.9114245322866446 -0.39983382397078954 0.9658152891480987 0.23211563672823973 -0.05320333510498754 -1.1041097835249278 0.012653882122773767 -1.067360110800258 -0.9327238963967012 -1.2514429255945294 -0.4187502755642717 -1.4995634972219594 -0.6891584476967426 2.521328541931543 -0.5701805499904526 0.17098565871363533 
0.9498815897487517 1.0275901693047869 1.1768549210961854 -0.9654506753167437 1.1596130982717678 0.8684681667508857 -0.647076228123344 -0.12147249456225243 0.853053603706012 1.1015364765391062 0.3890425379671196 0.6935510865077511 0.12034252799951665 -0.9645528573409909 0.5524244832200197 -0.8569791115779477 
0.6510393296572086 -1.0029755957939182 -0.4035114801055069 0.9413931104689649 -0.6445184370689063 -0.7613464724942016 -0.7244998953032573 0.884949767724663 0.20148261832478975 1.2641245125412586 1.3557042187037205 1.006522166327217 0.0014827192966595387 -2.003261059338317 1.1099462579874664 0.3493047080436609 
2.2723177230536917 -0.7721058521380064 -0.08130845402337898 0.06720360263073613 0.8680303669206593 1.1118669611687915 1.358140868754088 -0.6649447242660008 0.10070502411098199 -0.5896207135411049 -0.49946561748027346 -1.2063172904308577 1.080550730748874 -1.406920404221433 -0.5861205961384609 -0.4987906183939712 
-0.172906377415833 -0.20716365861861585 -0.6930151888389132 -0.3680553534848774 1.0196712494166595 0.5308921855359041 -0.910812907784477 0.9725054398800922 1.7192791708929525 -0.36149908325090063 -0.40225466475281907 -0.8666614435372614 -0.5830116625545239 0.8748081774040397 -0.8845975522410823 0.03694424112436131 
-1.0172139348318086 -0.6096393717396202 1.851273595379718 0.4809358796852622 -0.10688885321883812 0.06595588472481036 0.5402319725552465 -0.05419282994543882 1.379148811299278 1.348595457329483 -0.0974892096125232 0.36415095658771907 1.3986681735838395 1.4164425660998472 -0.153565767775073 0.48187338349164466 

0.988438587199746 0.6934460141595726 -0.23644925953862458 -1.2900821854978812 0.5475209934492732 0.45067012413190566 0.9093658064068942 -0.056685810077201824 0.8139381610566291 1.4021692803420127 0.782063390736976 -0.8345257573678999 -0.841235940811611 0.7605577619612979 -0.005221891280319471 -0.9609921615397224 
0.7490572280807325 -1.163341917837082 0.09664652879719893 1.564495842659582 0.3821146982825221 0.6034390072058343 1.5254836526098652 0.8080551826397134 -0.7100830451847233 0.3188845667330786 -0.6124079119870773 0.08634160343938604 0.45645144555861616 0.22509173997979728 -0.5831956692249606 0.705784184476364 
-0.9100542075442662 1.2499008997279464 -1.9849084567799764 -0.11680217654309367 -0.32235998243118263 1.125376600288572 0.4545332010004146 1.184408502950623 1.1745859966094605 0.7785931046214563 0.6465798943377518 0.8245230340283201 0.6808538232118052 0.5572015485012642 -0.30159815578156235 0.410710953817454 
-0.055290846732046706 0.14147463812324443 -0.449594414420451 -0.28251838053664363 -0.8530787876998084 1.045334521816215 0.21698189535228107 -0.6654541372044476 -1.007559887200541 0.7093626672397777 0.8988210413447185 0.35471708774003025 -0.03929127431287599 -1.0850329599043502 0.5726981505017715 0.6580398473900834 
0.7258562743322352 -0.24241576798210654 -1.3129359355774686 0.7522719141061106 -0.8597766968155506 -1.2898154771513801 -1.5103298902966424 -0.6719724678309545 -2.238761563215558 -2.516997145894846 0.3993739526753529 1.101059588940881 0.9102395297289245 -0.5607277415179024 -0.7391822889845818 1.3930244176784599 
-1.9769568591813085 0.06394071956874767 0.3045696988492419 0.6170424715738921 -0.34716216718266485 -0.08445083117256835 -1.1365894414867383 -1.04890795743197 -0.3660703461393884 0.8547915275489045 -1.2325229041516603 1.2579651880845444 0.36414135730803754 1.5295168465503592 0.9433330780185835 -1.2511235883055187 
2.8710292203705414 0.46051827222789704 -1.434776691826267 -0.96098305003046 0.007820433355498832 0.10604950503290397 -0.1291317017172747 0.35213274117543125 -0.978588831324529 0.10172570620101316 1.1769497786619032 -0.22480804380531136 0.4981885576927493 -0.6926527335978276 0.5640927507341189 -0.6893764319966071 
0.5900387026865809 0.3505144532972815 1.904670272956082 2.372114572714275 -0.09207609040130135 -0.527752606038109 -0.640389738794485 -0.3776193056213307 1.72052417366726 -0.779031512993229 -1.5534595667726068 0.6796362289781762 -0.6150369576473348 -2.0960822702778805 -0.4481491227003923 -0.023607141555351735 
0.4585745368003447 -0.20587420549966193 -0.3358390761811498 0.5842233652535933 -0.1239238272617927 0.5850222106227738 0.2200922541066715 0.7665203962491127 -0.5800549511139255 1.1148670112091805 -1.0489873421592326 -0.24352842692052515 -0.8618648160335898 -0.16320415010955358 -1.1802097206840019 -0.22680282118719208 
-0.5177981628592107 1.026814333741039 -0.6488410147338924 0.7721822844318956 0.9237907252910964 1.194500951518213 1.5886850057592903 -0.8162093553720521 0.4747339492816382 -1.3218572331575351 -0.5909791876786501 -0.6290430759559099 1.5173551436075206 -0.9279783022957742 0.0013408722179820418 -1.0794432666726272 
-0.9127378630315555 -0.39802195413579844 0.9658152891480987 0.23084125687829318 0.05320333510498754 -1.1163718451948674 -0.012752131185865495 -1.067360110800258 -0.949557117336507 -1.2681299983846461 -0.4103689816632493 -1.4898518630573494 0.8380259118882077 2.6214038809377143 -0.5933164594868351 0.17098565871363533 
0.9565586276067918 1.0263792538995202 1.1784317049933126 -0.9724674223464678 1.1586442660112626 0.8684681667508857 -0.6489223016667163 -0.1218098699847115 0.8648437669026481 1.1030237372514666 0.3890425379671196 0.7127048791318522 0.1194631400515866 -0.9634641668061641 0.5466314929223158 -0.8456047249326806 
0.6566696553443765 -0.9753442430203798 -0.4035114801055069 0.9443072385968488 -0.6544847583065996 -0.7675190167340229 -0.7144272715695829 0.8736316209022662 0.19991270280064385 1.2711636484459647 1.3411157275434373 1.002470473796326 0.0014827192966595387 -2.016737838491597 1.1099462579874664 0.3493047080436609 
2.2723177230536917 -0.793814021247594 -0.08130845402337898 0.06742862506169907 0.882555767161005 1.1214234531097587 1.358140868754088 -0.6850260835818196 0.09785806301919843 -0.577516785599309 -0.49946561748027346 -1.2063172904308577 1.0874928174732792 -1.3987424236375532 -0.5840231553051892 -0.49051340767131957 
-0.17066295252071528 -0.21149111955019317 -0.6844461566381206 -0.3680553534848774 1.0041377537676197 0.5308921855359041 -0.910812907784477 0.9815032248486213 1.7192791708929525 -0.36462724090495996 -0.4003823074697748 -0.879535660736779 -0.6246894905594728 0.8537564848216869 -0.8907356356061649 -0.03700492475632436 
-1.0030767501801565 -0.6096393717396202 1.8830381588423466 0.4805734060628732 -0.1082813553328564 0.06595588472481036 0.5456491897702528 -0.05419282994543882 1.336161007439289 1.367679674579584 -0.09737418662846178 0.36415095658771907 1.4122683363716033 1.4164425660998472 -0.15392311733108135 0.48187338349164466 

0.989785524099112 0.7016838344249403 -0.230122102431095 -1.2868227808938741 0.5449925858343942 0.46599574303314956 0.9093658064068942 0.05757688277771454 0.8139381610566291 1.386942671456706 0.7554132503705316 -0.8345257573678999 -0.8305251363345636 0.7363989268633534 0.005056961027309708 -0.9431894591714213 
0.7618279228432012 -1.1599083581452287 0.09725382885411211 1.564495842659582 0.37650462362832815 0.6101756852315356 1.5678037215042195 0.7970536834184564 -0.7176129960044839 0.3198887770316251 -0.6276231210687595 0.08480246090686547 0.4540712795360268 0.22600288184998793 -0.6009365928548888 0.7170314753200403 
-0.9046865112173897 1.2602299254101335 -2.0003366025624234 -0.1151453231236587 -0.3153112935128704 1.1255224930766485 0.43688391391712406 1.2067989433494777 1.1740456300312596 0.7785931046214563 0.6465798943377518 0.8403157508608422 0.6963113773993738 0.5531437380784539 -0.3036483195232041 0.40630631740526363 
-0.054823999149603814 0.14486899854844085 -0.44966527850070287 -0.2799390011474597 -0.8726892655095092 1.0373283763286327 0.2153586750082062 -0.6847522801633935 -1.0277584633159662 0.6969842950003639 0.9004621282695552 0.3503734520296377 0.03929127431287599 -1.0809600829392525 0.5725064854034707 0.6634534457705393 
0.7419599534806891 -0.23962930681449954 -1.3129359355774686 0.7458663760263939 -0.847043095551353 -1.2771201197936835 -1.505750395574509 -0.6835807367966756 -2.171059147806472 -2.4956456044354187 0.4044436779218591 1.1130208924927458 0.8950543051662286 -0.5766272432977352 -0.7409700543146236 1.4055681713802937 
-2.0374021544104846 0.06501595704917644 0.29781031420432297 0.6215795403270459 -0.3497619137107167 -0.08572940794759748 -1.1312617255146478 -1.0372605068596052 -0.3711334562451642 0.8482323035881664 -1.220525649606289 1.2529083194977648 0.36414135730803754 1.5172955150187923 0.9454437122765146 -1.2352666927910205 
2.950016914842507 0.4442862775848032 -1.434776691826267 -0.96098305003046 0.007820433355498832 0.10692058771737804 -0.12817602409542853 0.34645528753770405 -0.959111341718561 0.10131878451103991 1.1908884199490721 -0.22552911924184335 0.5011512674247125 -0.6884290554595434 0.5640927507341189 -0.6962273633344702 
0.5883441095141542 0.35907103808310736 1.8502081690242798 2.4124164923459537 -0.09111488977827657 -0.5289975252415687 -0.6306283585073196 -0.3800067752511154 1.6763340524373214 -0.779031512993229 -1.5624842002194776 0.6949795405500515 -0.634929854644961 -2.075432874506391 -0.44915525845587556 0.023429020996813057 
0.4650290296990864 -0.20788624527379512 -0.3370570010018712 0.5883893262560665 -0.12464857849705244 0.5825416681817686 0.21665775422369038 0.7497337123597531 -0.570627251937203 1.0916221980004133 -1.0607069865069605 -0.23899770875566914 -0.8829077803388938 -0.16155139267362245 -1.1934210544347046 -0.2324462067299217 
-0.5008483473169776 1.026814333741039 -0.6506224304688248 0.7339891848299438 0.944662587283557 1.1827666191033832 1.5920318025798195 -0.810762854884801 0.4747339492816382 -1.3088295293059151 -0.5909791876786501 -0.6364559864782686 1.5984669692104472 -0.9248134179508877 0.0013126295070063773 -1.0788189071090173 
-0.891813884002377 -0.39983382397078954 0.9779363788132772 0.2314568500032833 -0.053842551856991744 -1.099345700186511 -0.012093522370340422 -1.0544918447263887 -0.9357529786767437 -1.2681299983846461 -0.41566362635763415 -1.4825637895480794 0.8517089071250987 2.5679887324767376 -0.5804046903919036 0.1731438078903664 
0.959349411326404 1.019657784828225 1.1593680830083481 -0.9553008860242239 1.1753843867753722 0.86837471122733 -0.64858119799106 -0.12147249456225243 0.853053603706012 1.117305840688545 0.3882256671954432 0.6994895129776946 0.1194631400515866 -0.9656449479159309 0.5584199418576682 -0.8668432732014181 
0.6586506367752624 -0.9842134334576343 -0.4035114801055069 0.9381180503296952 -0.6544847583065996 -0.7613464724942016 -0.7225541108220732 0.8787454148400996 0.20148261832478975 1.2641245125412586 1.3557713327947623 1.006522166327217 -0.001439922502019816 -1.9855626932745014 1.1109861824855365 -2.0439540351057945 
