-0.2812315928699554 -0.4499592161010449 0.9396970237570251 -0.25928326599938384 1.2128128139836678 -0.22494262870610449 0.5079309908707251 0.03950738111169259 -1.6458483878272012 1.5753375405678876 0.9158174840261156 0.18523482446815046 1.678565362636032 0.4290528283854726 -0.09398404512652818 -2.04032647983265 
-0.41204993917737714 -1.7295790561395947 -0.6348781580011823 -1.3933725348700947 -0.7327976468404322 -0.9248399531023953 -2.1436334634927063 2.699214948328925 -1.6827515240975761 0.833628431219592 0.6179007046655263 -0.9112380746947695 -0.21213285046012356 1.0308895432083078 1.5634453032627795 -0.05234169231883263 
-0.41334125026899216 0.9254047663239587 0.10079744521721644 0.37652557978004175 2.027929069009867 -1.567029336174966 0.1749713979264728 -0.6675387759978623 -1.4145992956558644 -0.6629179550009439 -0.1626620978144753 -0.6422321829169014 -1.0616112392230397 -0.02550546637488596 -0.03160758953042295 0.83100068531665 
-0.019868009761704334 -0.13065960012445865 -2.4586589371645493 0.08270036114041343 -0.1204534418764454 0.5589078140638438 0.5432252672440023 1.4573929935872831 -0.5499179230352771 0.02378070825199183 -0.6232385717654255 0.8528189604604162 1.7945962217974305 1.9451402870590122 1.4230253845661993 -0.8105697101512251 
0.09698554389020843 -0.8590507580409221 0.21883960458802518 0.6587906988379989 1.570636367461007 -1.0535807450277284 -1.044033584579449 0.2751911612031177 -1.179452937321977 3.3443338553826623 -1.4163618006936212 1.891520466326383 0.3983228427789102 0.9433915849243125 0.771979559353141 -1.5541226156646308 
1.2461006621696709 0.6315778914666387 0.4127280016897451 0.1204105716542972 1.2378071937846793 -0.4299279900049948 0.8748592189334449 0.060608779698952085 -1.0230741092452027 -0.7540683958362414 -0.3153682528420912 -0.8263332822470801 -1.1199297938923551 -0.5252882388218739 0.6592487570507625 0.10135938254894332 
-0.34706493631453983 -0.5128726391567354 0.72168982396544 1.1248644998673507 1.4259576813239645 0.2139292786612024 0.3114441113555886 -0.031859691756707 -0.7910988668007604 -0.6431050523819208 1.7117016404415106 0.12631384224500647 -0.6338512472467449 1.0864686053071377 1.9399426545707175 -0.7492159009874708 
-0.21685441141596182 -1.175962656381504 -0.8166276938323125 -0.5888980188637596 1.3842946578164772 1.5552620993752841 0.53166878626375 0.33867471634326146 2.1895318274427 -1.066101863243324 -2.1648536946639796 0.9838479502111273 -0.2800812367068212 -0.29077717543151704 0.3696844879509334 -0.8550584969910565 
0.5582345681165387 -0.3557809409536399 0.0628362340304181 -0.9757557084203404 1.7200214497008546 -0.033516808006572384 0.4334193447482809 -0.49823886032876935 -1.059739276864225 0.9504550213314694 0.1672804813527803 -1.0540318543183982 -0.7927524512177395 -0.8671896426214133 -1.3791949888094983 0.908760580013222 
0.6394204026347933 -0.2554674841170183 -0.5584149570028004 1.0154490203994067 -0.2879377486085028 -1.031126394667826 -1.348183947966432 0.6003660080083463 -0.17596468145209057 -1.1330575327200134 -2.8063143594302287 0.5240638206390607 -0.9583839345235483 0.9770979717592072 0.5520812065544426 -0.6190019449501517 
1.1262820034527377 0.5982178017411418 -0.9239652263686116 0.26902913217288066 -0.10144899860886772 0.9941316752094403 1.116186385363823 0.3515763244495701 -1.093958922108967 0.1479599238546941 0.03051480757347679 -0.7292443432620083 0.24731819674792715 0.1180944918602169 -1.317835450541743 -0.7077190748813479 
0.5799314006306338 0.364000244263188 2.1541265083538175 -0.4455686161826095 0.5028397450014527 -0.7159170622760013 -0.17693812184362728 0.28654070140280585 -0.49051570906972713 -0.5297031238263844 1.2533730764528646 0.005207786316731304 -0.9508668597844216 0.029323029266711306 0.5020311835152009 -0.2519218361483303 
-0.7486220493084667 0.15534815710080485 1.4136472917344973 0.5643274323507473 0.060971563981297765 0.7749976269797062 -0.47624597515324324 -1.1327032695351409 -0.9046367932901804 0.20280774513153477 -1.6659066812622756 -0.16808793259877933 -0.8306012873554526 0.7138916491142177 -1.941449346473175 -1.6516530340205111 
2.48107915757957 -0.2673715171398964 -1.451225879009447 0.8588946567414989 0.1125946485714025 0.6813091695700867 0.08930923332917132 -1.449133199149382 -0.6506861135454637 2.0122792319263247 0.24685726671405245 0.34377996956845813 1.8412373218407914 -2.3283289666294777 -1.19141799587343 -0.49283848190057916 
0.7949343991638771 -1.5028282064677927 0.8245392900600835 -1.2144383037587512 0.6960649552916373 0.08019312557848596 -0.5105306732372537 -1.4421195684276793 -0.7113076585255842 1.0439526859960049 1.595955305073296 0.1587436322917777 1.2915224624152717 1.692398037494053 0.327757500783877 -0.6942667176240058 
1.597669470158745 1.2761232401635794 -0.9349294493780884 -2.358599362550732 0.09004785181319831 -1.442398059835209 1.1693293864669096 1.2673498049746534 0.4205743498941281 0.5255932536470719 -0.4408386760869301 -0.6399402587487705 -0.6875196093106876 1.1376246972973292 -1.7286996446440792 -1.2347077308370005 

-0.2812315928699554 -0.43780701158814306 0.9041947928973612 -0.25729422132496094 1.1980299824111202 -0.2216833524952617 0.5069947434315931 -0.040161320396826454 -1.6458483878272012 1.5561491831073073 0.9158174840261156 0.18123952702999993 1.6910337679360123 0.4240014195405195 -0.09442369837567831 -1.999704564420211 
-0.4146409324203204 -1.7623395228260164 -0.6343680006808726 -1.3905155096027084 -0.7257710557576609 -0.9198930143653558 -2.089884202696559 2.7588059978287873 -1.6887269166114662 0.8331897454748981 0.6179007046655263 -0.9042412939973328 -0.21267402821021375 1.0286704066475971 1.5673525182567236 0.05441578384364697 
-0.41381157659192885 0.9349387975354579 0.10079744521721644 0.36877234582809343 2.012421730351823 -1.5847255670228177 0.17622902997822645 -0.6653993179704706 -1.431786184274402 -0.6629179550009439 -0.16322943116057015 -0.6253009919786392 -1.048772937022288 -0.025290246353466703 0.03160758953042295 0.83100068531665 
-0.019789002242389178 -0.1283068442424737 -2.4607974785814637 0.0819786830451581 -0.11905380725769128 0.5619282755739875 0.5576537898022252 1.4573929935872831 -0.5477304259200634 -0.023881379266387857 -0.6272787922334502 0.8528189604604162 1.8489342066038243 1.9451402870590122 1.4107234106630135 -0.8191111706219825 
0.09705338881643785 -0.8590507580409221 0.2182168710725259 0.6496849187498648 1.5509441821378886 -1.0298258460826715 -1.044033584579449 0.2788476771094413 -1.1631876076196128 3.3443338553826623 -1.4248431116889757 1.8699871671315913 0.40398691820611154 0.9261263176414639 0.7796792029565601 -1.5541226156646308 
1.2544000390778316 0.6485975796737461 0.40953135397131035 0.12446726159466052 1.2705618036208464 -0.43517658264014625 0.8748592189334449 0.06029825628701491 -1.0393332472681203 -0.742643910837202 -0.31555239293404286 -0.8217973869328448 -1.1017079202046767 -0.5252882388218739 0.66065356637214 0.10366247768578898 
-0.33930803067818954 -0.505865079296926 0.7102772460380444 1.1231721076543686 1.4126937493799117 0.21394690094241578 0.30995343281388643 0.03266262314864904 -0.7834704511503399 -0.6362532487103063 1.6952146262330563 0.1282540656574178 -0.6502464322631649 1.0719540678771962 1.9399426545707175 -0.7732993710874624 
-0.21793950638668047 -1.1839859629265073 -0.8259808490834961 -0.5937301674774926 1.3295094267685605 1.5535273833013872 0.5204973352376064 0.3451526111280714 2.1559852814498903 -1.0315702692436597 -2.1648536946639796 0.9946128384779909 -0.28473238066585993 -0.2942964862398578 0.3749047058931201 -0.8400824324479865 
0.5589126841787141 -0.35559276761054043 0.0628362340304181 -0.9757557084203404 1.657149007851433 -0.033693411422864306 0.43590888182106885 -0.49823886032876935 -1.070845112035349 0.9521515411884861 0.1672804813527803 -1.0762953092972707 -0.7927524512177395 -0.8529550071193341 -1.4030275063130075 0.89506892797372 
0.642732474467381 -0.2552732934961465 -0.5591066139005919 0.9803965175800907 -0.28476092199416236 -1.012548430521865 -1.348183947966432 0.5907000342807651 -0.17497551547137064 -1.1805459040478838 -2.7880130414587376 0.5253942036543102 -0.9670018657732663 0.9781175658836866 0.5411275445764667 -0.6190019449501517 
1.1451354922591201 0.622448758534143 -0.8941216181717578 0.26757962251834744 -0.10389018857238373 1.0012901818090578 1.0733450469711885 0.35101924626059844 -1.093958922108967 0.14888151056766574 0.030316536404419878 -0.7616944528492218 0.24731819674792715 0.1180944918602169 -1.3086582236411417 -0.7077190748813479 
0.5830251437189626 0.364000244263188 2.130659708938752 -0.45704436758593514 0.5072180912751493 -0.7013791110067613 -0.1741550624539649 0.28539962148524484 -0.49526235632197485 -0.5218603091124324 1.2447462591159737 -0.005219590842673741 -0.9788056416620744 -0.029105806564940388 0.49058503847790397 -0.24444963028561423 
-0.7461731547434065 0.15530720113279023 1.4347626762590573 0.5617271569048019 0.0612349999614527 0.8074418140789686 -0.47450288553174974 -1.1306266414776849 -0.9011188546704914 0.20421323527709337 -1.61588578914453 -0.16697257887003575 -0.8378872953123104 0.712626958434313 -1.9105107561956713 -1.6516530340205111 
2.4777664820888807 -0.27871681449375335 -1.45051166585739 0.8465506518825614 0.11156819200379298 0.694083452711817 0.0905367304595039 -1.4009726466804262 -0.6425618320354669 2.0107973063492026 0.24665038349590424 0.34613039047324745 1.8499665758059474 -2.3283289666294777 -1.194775832664004 -0.5056873014398211 
0.7763071329867514 -1.488481975392594 0.8330130945971301 -1.198951847191175 0.6917042379440129 0.08028998719312323 -0.49881299813981744 -1.4714453859177752 -0.7024772787642464 1.0768305562264893 1.62824858936636 0.15665567717788656 1.2524641519430024 1.7158369297434393 0.327757500783877 -0.6942667176240058 
1.5582794360039034 1.2887275147103567 -0.9349294493780884 -2.3793684193377045 0.08904758770810131 -1.4125530437967018 1.1309262223846341 1.2415022306584054 0.4205743498941281 0.5119365753676427 -0.4468429386786435 -0.6189845862597366 -0.6924267000765828 1.128731704217421 -1.7696912427959106 -1.2347077308370005 

-0.2812315928699554 -0.43780701158814306 0.9041947928973612 -0.25729422132496094 1.1980299824111202 -0.2216833524952617 0.5069947434315931 -0.040161320396826454 -1.6458483878272012 1.5561491831073073 0.9158174840261156 0.18123952702999993 1.6910337679360123 0.4240014195405195 -0.09442369837567831 -1.999704564420211 
-0.4146409324203204 -1.7623395228260164 -0.6343680006808726 -1.3905155096027084 -0.7257710557576609 -0.9198930143653558 -2.089884202696559 2.7588059978287873 -1.6887269166114662 0.8331897454748981 0.6179007046655263 -0.9042412939973328 -0.21267402821021375 1.0286704066475971 1.5673525182567236 0.05441578384364697 
-0.41381157659192885 0.9349387975354579 0.10079744521721644 0.36877234582809343 2.012421730351823 -1.5847255670228177 0.17622902997822645 -0.6653993179704706 -1.431786184274402 -0.6629179550009439 -0.16322943116057015 -0.6253009919786392 -1.048772937022288 -0.025290246353466703 0.03160758953042295 0.83100068531665 
-0.019789002242389178 -0.1283068442424737 -2.4607974785814637 0.0819786830451581 -0.11905380725769128 0.5619282755739875 0.5576537898022252 1.4573929935872831 -0.5477304259200634 -0.023881379266387857 -0.6272787922334502 0.8528189604604162 1.8489342066038243 1.9451402870590122 1.4107234106630135 -0.8191111706219825 
0.09705338881643785 -0.8590507580409221 0.2182168710725259 0.6496849187498648 1.5509441821378886 -1.0298258460826715 -1.044033584579449 0.2788476771094413 -1.1631876076196128 3.3443338553826623 -1.4248431116889757 1.8699871671315913 0.40398691820611154 0.9261263176414639 0.7796792029565601 -1.5541226156646308 
1.2544000390778316 0.6485975796737461 0.40953135397131035 0.12446726159466052 1.2705618036208464 -0.43517658264014625 0.8748592189334449 0.06029825628701491 -1.0393332472681203 -0.742643910837202 -0.31555239293404286 -0.8217973869328448 -1.1017079202046767 -0.5252882388218739 0.66065356637214 0.10366247768578898 
-0.33930803067818954 -0.505865079296926 0.7102772460380444 1.1231721076543686 1.4126937493799117 0.21394690094241578 0.30995343281388643 0.03266262314864904 -0.7834704511503399 -0.6362532487103063 1.6952146262330563 0.1282540656574178 -0.6502464322631649 1.0719540678771962 1.9399426545707175 -0.7732993710874624 
-0.21793950638668047 -1.1839859629265073 -0.8259808490834961 -0.5937301674774926 1.3295094267685605 1.5535273833013872 0.5204973352376064 0.3451526111280714 2.1559852814498903 -1.0315702692436597 -2.1648536946639796 0.9946128384779909 -0.28473238066585993 -0.2942964862398578 0.3749047058931201 -0.8400824324479865 
0.5589126841787141 -0.35559276761054043 0.0628362340304181 -0.9757557084203404 1.657149007851433 -0.033693411422864306 0.43590888182106885 -0.49823886032876935 -1.070845112035349 0.9521515411884861 0.1672804813527803 -1.0762953092972707 -0.7927524512177395 -0.8529550071193341 -1.4030275063130075 0.89506892797372 
0.642732474467381 -0.2552732934961465 -0.5591066139005919 0.9803965175800907 -0.28476092199416236 -1.012548430521865 -1.348183947966432 0.5907000342807651 -0.17497551547137064 -1.1805459040478838 -2.7880130414587376 0.5253942036543102 -0.9670018657732663 0.9781175658836866 0.5411275445764667 -0.6190019449501517 
1.1451354922591201 0.622448758534143 -0.8941216181717578 0.26757962251834744 -0.10389018857238373 1.0012901818090578 1.0733450469711885 0.35101924626059844 -1.093958922108967 0.14888151056766574 0.030316536404419878 -0.7616944528492218 0.24731819674792715 0.1180944918602169 -1.3086582236411417 -0.7077190748813479 
0.5830251437189626 0.364000244263188 2.130659708938752 -0.45704436758593514 0.5072180912751493 -0.7013791110067613 -0.1741550624539649 0.28539962148524484 -0.49526235632197485 -0.5218603091124324 1.2447462591159737 -0.005219590842673741 -0.9788056416620744 -0.029105806564940388 0.49058503847790397 -0.24444963028561423 
-0.7461731547434065 0.15530720113279023 1.4347626762590573 0.5617271569048019 0.0612349999614527 0.8074418140789686 -0.47450288553174974 -1.1306266414776849 -0.9011188546704914 0.20421323527709337 -1.61588578914453 -0.16697257887003575 -0.8378872953123104 0.712626958434313 -1.9105107561956713 -1.6516530340205111 
2.4777664820888807 -0.27871681449375335 -1.45051166585739 0.8465506518825614 0.11156819200379298 0.694083452711817 0.0905367304595039 -1.4009726466804262 -0.6425618320354669 2.0107973063492026 0.24665038349590424 0.34613039047324745 1.8499665758059474 -2.3283289666294777 -1.194775832664004 -0.5056873014398211 
0.7763071329867514 -1.488481975392594 0.8330130945971301 -1.198951847191175 0.6917042379440129 0.08028998719312323 -0.49881299813981744 -1.4714453859177752 -0.7024772787642464 1.0768305562264893 1.62824858936636 0.15665567717788656 1.2524641519430024 1.7158369297434393 0.327757500783877 -0.6942667176240058 
1.5582794360039034 1.2887275147103567 -0.9349294493780884 -2.3793684193377045 0.08904758770810131 -1.4125530437967018 1.1309262223846341 1.2415022306584054 0.4205743498941281 0.5119365753676427 -0.4468429386786435 -0.6189845862597366 -0.6924267000765828 1.128731704217421 -1.7696912427959106 -1.2347077308370005 

-0.2812315928699554 -0.4499592161010449 0.9260406387416118 -0.25729422132496094 1.2128128139836678 -0.2248035311080202 0.5072300113042935 0.038905394460969044 -1.6405746168566206 1.5561491831073073 0.9158174840261156 0.18585660904988832 1.678565362636032 0.4290528283854726 -0.09497192293564734 -2.04032647983265 
-0.4125374725899612 -1.7295790561395947 -0.6348781580011823 -1.3806294575482203 -0.7310046181499456 -0.9243263054968545 -2.1436334634927063 2.730628051661421 -1.695632986998778 0.833628431219592 0.6232418274350101 -0.9112380746947695 -0.21479486740984896 1.0496313825722778 1.6062790919478434 -0.05343462899753084 
-0.41334125026899216 0.9514366400763683 0.10079744521721644 0.37524595526638466 1.9996303579782448 -1.6048368941019824 0.1749713979264728 -0.682768507077991 -1.4212101266587442 -0.6749694562649272 -0.16147097171445396 -0.6503976544575052 -1.048772937022288 -0.02550546637488596 0.03145359405337246 0.83100068531665 
0.0193434394716468 -0.13065960012445865 -2.4449956977257825 0.0807627549179826 -0.11985958378906356 0.5614504678853302 0.5432252672440023 1.4573929935872831 -0.5569590156536631 -0.02374877447375159 -0.6232385717654255 0.8437548111565495 1.829749133810141 1.8840659996622795 1.4083124883794604 -0.7942806177960277 
0.09698554389020843 -0.8584860883758935 0.2181288205440217 0.6587906988379989 1.575795242915983 -1.0535807450277284 -1.044033584579449 0.28123863837693897 -1.1833416658938167 3.390803928392874 -1.4020557113310745 1.8800285789691658 0.40907188161762875 0.9537094662766697 0.7796792029565601 -1.5679242452803623 
1.2422198060298761 0.6315778914666387 0.3967225348200813 0.12025382199971138 1.2426062293250226 -0.4299279900049948 0.8748592189334449 0.060608779698952085 -1.0230741092452027 -0.7465116142087498 -0.3153682528420912 -0.8263332822470801 -1.1199297938923551 -0.5252882388218739 0.6603203301871664 0.10439552291739156 
-0.34706493631453983 -0.5092961573668238 0.7092578581315675 1.125050806868298 1.4259576813239645 0.21231760353179838 0.3081325903667523 -0.031859691756707 -0.7910988668007604 -0.6431050523819208 1.7117016404415106 0.12686568643748003 -0.6481895675399096 1.0864686053071377 1.9399426545707175 -0.7397322026864416 
-0.21863562138174325 -1.175962656381504 -0.8186243289360166 -0.586656015662235 1.3837455767515083 1.5644373564432974 0.5229777940301993 0.3482732372858467 2.1574455265631935 -1.037332560867524 -2.1648536946639796 0.9807724260463884 -0.2800812367068212 -0.2904929442971194 0.37295064656218335 -0.8676935298923464 
0.5597065906890727 -0.3557809409536399 -0.0628362340304181 -0.9757557084203404 1.7200214497008546 0.033516808006572384 0.43457395647096525 -0.49823886032876935 -1.061970661073901 0.9504550213314694 0.1672804813527803 -1.0540318543183982 -0.8045467694835654 -0.8671896426214133 -1.3831741794443138 0.89506892797372 
0.6409479815538879 -0.2584337005643247 -0.5584149570028004 1.0062104841734376 -0.2859208730519311 -1.0288276497825612 -1.3612641369234504 0.5884660438881096 -0.1740707524740028 -1.1437869741501048 -2.768823662429247 0.5074445309354428 -0.9670018657732663 0.9893631483921146 0.5411275445764667 -0.6167880298223756 
1.1262820034527377 0.604935605993365 -0.9153103902666689 0.26902913217288066 -0.10298919261953335 1.0002964733607032 1.1167368926540406 0.3515763244495701 -1.0820028682710268 0.151072467449999 0.03046831013244136 -0.7378803278247087 0.24731819674792715 0.1180944918602169 -1.317835450541743 -0.7077190748813479 
0.5799314006306338 0.35933584876794245 2.1541265083538175 -0.4455686161826095 0.5145228354899068 -0.7159170622760013 -0.17693812184362728 0.28654070140280585 -0.4979862190477412 -0.5365260721129576 1.2533730764528646 0.005207786316731304 -0.9508668597844216 0.029105806564940388 0.5020311835152009 -0.2519218361483303 
-0.7486220493084667 0.15534815710080485 1.4347626762590573 0.5616805109688568 0.06066926560683705 0.7821651215643446 -0.47624597515324324 -1.1327032695351409 -0.9046367932901804 0.20570922125401694 -1.6659066812622756 -0.16808793259877933 -0.8336613587158999 0.7105752865772258 -1.941449346473175 -1.657954604771864 
2.493872864585916 -0.26686140701568595 -1.4518289416193233 0.8789599379423029 0.1125946485714025 0.6813091695700867 0.09239275962051796 -1.4691609469405082 -0.6483321859865112 2.039342782980245 0.24685726671405245 0.3401584333450739 1.8521604837545635 -2.3283289666294777 -1.2037617409898715 -0.49581090342645273 
0.7872114258002086 -1.5028282064677927 0.8296294462645425 -1.2092590172856907 0.6947463975521038 0.07900499883404978 -0.5046666580052246 -1.4421195684276793 -0.7043292119647014 1.0853166728528008 1.6047974703328403 0.1519787404194258 1.2811047007091512 1.737668510303776 0.32587498246080865 -0.6942667176240058 
1.597669470158745 1.281260321059777 -0.9287341356197154 -2.358599362550732 0.08973795477541822 -1.4532674084128478 1.1581399813658262 1.2673498049746534 0.4205743498941281 0.5172579620032716 -0.4408386760869301 -0.6294696521501097 -0.6905484850600926 1.1384788207359955 -1.7138624243807141 -1.2651706396014444 

-0.278625666837077 -0.4425080384150697 0.905024968908721 -0.25729422132496094 1.1980299824111202 -0.2216833524952617 0.5069947434315931 0.040161320396826454 -1.641093644505138 1.582022645768321 0.9124359377232691 0.18123952702999993 1.6910337679360123 0.4247720046033003 -0.09442369837567831 -2.0225882181640733 
-0.4146409324203204 -1.7146877431922145 -0.6343680006808726 -1.3905155096027084 -0.7282614622368987 -0.9243263054968545 -2.089884202696559 2.7588059978287873 -1.6887269166114662 0.8410875320740746 0.6179007046655263 -0.9042412939973328 -0.21267402821021375 1.0308895432083078 1.541311079299425 -0.05441578384364697 
-0.41334125026899216 0.9349387975354579 0.10001941418807558 0.36877234582809343 2.012421730351823 -1.5628722071094818 0.17622902997822645 -0.6653993179704706 -1.431786184274402 -0.6579749846582079 -0.16322943116057015 -0.6385412204814815 -1.0317760833573548 -0.025290246353466703 0.03160758953042295 0.83100068531665 
0.019789002242389178 -0.1283068442424737 -2.4819530253310003 0.0828876905365516 -0.12025784819792343 0.5619282755739875 0.5489369024275336 1.4573929935872831 -0.5477304259200634 0.02373671242108641 -0.6243120641686992 0.8528189604604162 1.8243175197458052 1.904995137198712 1.4327434050688423 -0.8317993825768007 
0.09705338881643785 -0.8478746722819868 0.2182168710725259 0.6529632980267123 1.5688763533022165 -1.0298258460826715 -1.0593347785012015 0.2788476771094413 -1.1631876076196128 3.3443338553826623 -1.4248431116889757 1.8699871671315913 0.40398691820611154 0.9235254438746643 0.7470787818298198 -1.528565688350397 
1.2192915276835259 0.6382036779713337 0.40529380597999 0.12446726159466052 1.2705618036208464 -0.4299279900049948 0.881021006304736 0.06029825628701491 -1.0393332472681203 -0.742643910837202 -0.31555239293404286 -0.8385848883970549 -1.1064865551379368 -0.5318412684827157 0.66065356637214 0.10366247768578898 
-0.33930803067818954 -0.505865079296926 0.7102772460380444 1.1231721076543686 1.4126937493799117 0.2139292786612024 0.3089635250449333 0.03175838343796856 -0.7834704511503399 -0.6362532487103063 1.7441118350484122 0.1277567147076859 -0.6579526208700966 1.0719540678771962 1.9399426545707175 -0.7715449879985391 
-0.21793950638668047 -1.1821253851350846 -0.818926853706854 -0.5937301674774926 1.3295094267685605 1.5535273833013872 0.5204973352376064 0.3465663401105718 2.1504253947524394 -1.0315702692436597 -2.1648536946639796 0.9901448217338555 -0.2844519015899636 -0.28948023716785753 0.3749047058931201 -0.8400824324479865 
0.563509734773773 -0.35559276761054043 0.0628362340304181 -0.9775150636504158 1.684710415106682 0.03325049122698427 0.43590888182106885 -0.49526669068991375 -1.070845112035349 0.9504550213314694 0.1672804813527803 -1.0762953092972707 -0.794000895365591 -0.8546468687125758 -1.3723388946572315 0.89506892797372 
0.6332488149044811 -0.2552732934961465 -0.5591066139005919 0.9803965175800907 -0.28476092199416236 -1.012548430521865 -1.3299033788100099 0.5907000342807651 -0.17497551547137064 -1.168413634394424 -2.7880130414587376 0.5287162882089083 -0.9670018657732663 0.9781175658836866 0.5385053244537821 -0.6137886609761993 
1.1451354922591201 0.6137183662102409 -0.895870751814422 0.26757962251834744 -0.10389018857238373 0.9997696743879988 1.0733450469711885 0.35101924626059844 -1.085571511332281 0.14913865198920923 -0.030506199880469122 -0.7378803278247087 0.24731819674792715 0.12054998321163157 -1.3086582236411417 -0.7077190748813479 
0.5830251437189626 0.35933584876794245 2.1541265083538175 -0.45704436758593514 0.5072180912751493 -0.7013791110067613 -0.1741550624539649 0.28539962148524484 -0.49526235632197485 -0.5218603091124324 1.2447462591159737 -0.005219590842673741 -0.9796495949833695 -0.029105806564940388 0.5077066233430638 -0.24444963028561423 
-0.7461731547434065 0.15530720113279023 1.4347626762590573 0.5617271569048019 0.060971563981297765 0.8020615479735403 -0.47450288553174974 -1.1306266414776849 -0.9011188546704914 0.20280774513153477 -1.61588578914453 -0.16697257887003575 -0.8378872953123104 0.7102570948014899 -1.9282093286957027 -1.6516530340205111 
2.4777664820888807 -0.276191001436589 -1.45051166585739 0.8588946567414989 0.11156819200379298 0.694083452711817 0.0905367304595039 -1.4691609469405082 -0.6538336762707845 2.037404327555035 0.24665038349590424 0.3446582395867931 1.8561928077947856 -2.257164205911417 -1.194775832664004 -0.5056873014398211 
0.7750074774079793 -1.488481975392594 0.8164263763422126 -1.198951847191175 0.6917042379440129 0.08028998719312323 -0.4970848930287416 -1.4714453859177752 -0.6922744654315042 1.0768305562264893 1.6134558332722415 0.15665567717788656 1.290569813973315 1.7158369297434393 0.327757500783877 -0.6942667176240058 
1.5493094917403718 1.2887275147103567 -0.9267809455950863 -2.357292604167421 0.08904758770810131 -1.4125530437967018 1.1530195518257296 1.2571294135669355 0.43156622465484396 0.5119365753676427 -0.4468429386786435 -0.6239895559742208 -0.6924267000765828 1.1287582984593671 -1.7696912427959106 -1.2379414473838513 

-0.28037607075464704 -0.4425080384150697 0.8931843824371918 -0.25729422132496094 1.1980299824111202 -0.2168650458748483 0.5072782902090033 0.040161320396826454 -1.636972563859245 1.5336159607782975 0.921249881572889 0.18348183985749053 1.6910337679360123 0.423216058615257 -0.09497192293564734 -2.0291240182522174 
-0.4142850910139329 -1.7564864861943643 -0.6383346241208647 -1.3821806401063157 -0.7257710557576609 -0.9243263054968545 -2.1436334634927063 2.7588059978287873 -1.6845083342038647 0.8511888869034999 0.6179007046655263 -0.9112380746947695 -0.21267402821021375 1.020634549743385 1.565329430653789 -0.05447459826159236 
-0.41334125026899216 0.9254047663239587 0.09920818881420622 0.3753427904950218 2.016651658205395 -1.5628722071094818 0.17622902997822645 -0.6657096761036995 -1.4552875050927634 -0.6579749846582079 -0.16147097171445396 -0.6317662060986478 -1.0317760833573548 -0.02536880256480274 0.03157586758922561 0.83100068531665 
0.019789002242389178 -0.12494251017318331 -2.449274812363623 0.0828876905365516 -0.12025784819792343 0.5556607437411224 0.5489369024275336 1.4466728419571044 -0.5508198433581922 0.023455054210216708 -0.6322612369091921 0.844473547013391 1.8020705255298086 1.904995137198712 1.4202528108872063 -0.8091077125500598 
0.0967409287283065 -0.8627008998919449 0.2182168710725259 0.654165874341434 1.5688763533022165 -1.0473204371574725 -1.0471631123098686 0.2788476771094413 -1.1678645048398804 3.3770743796282305 -1.4220668655967064 1.909579847880111 0.40297091391194717 0.9235254438746643 0.7351079112591253 -1.5621137442664081 
1.2472760668691167 0.6307214935662274 0.40529380597999 0.11962734558903247 1.2382035539715124 -0.4299279900049948 0.8806157908576406 0.06059005795917147 -1.0370551785595177 -0.742643910837202 -0.3176972763231347 -0.8263332822470801 -1.1185192371814654 -0.5256071596620958 0.6662920667528606 0.10366247768578898 
-0.34706493631453983 -0.5107953321381615 0.7144455311338465 1.1177486974606898 1.4469310736602463 0.21192655604070865 0.30309890082921687 0.03204379004648648 -0.7832324735570291 -0.6431050523819208 1.7143433159414385 0.12491512531390742 -0.6493966865215411 1.0836912319150094 1.9399426545707175 -0.7715449879985391 
-0.21501115739460727 -1.193154319656576 -0.818926853706854 -0.5853132946469498 1.2997404368449368 1.5193906785486895 0.5288308868823698 0.3442928308128923 2.1895318274427 -1.0285360360619646 -2.1648536946639796 0.9901448217338555 -0.2844519015899636 -0.28948023716785753 0.3692964655537912 -0.8400824324479865 
0.576811873130656 -0.36146692160428284 -0.06326160060940855 -0.9717028152102227 1.684710415106682 0.03325049122698427 0.43590888182106885 -0.49526669068991375 -1.0608192919679529 0.9571099756408693 0.1672804813527803 -1.0735134894762366 -0.783767872875678 -0.8706731815857303 -1.379719267093539 0.89506892797372 
0.6298708921242344 -0.2552732934961465 -0.5619713246878725 1.0154490203994067 -0.2859208730519311 -1.0126117050505854 -1.3683465092214468 0.5963308138350111 -0.17339560138205973 -1.142077923491953 -2.8063143594302287 0.5198753875135932 -0.9478239278972632 0.9772282807820453 0.5371827161425009 -0.6225276128532607 
1.1563160857867834 0.6042734491013247 -0.9161750667015418 0.25799795149426924 -0.10389018857238373 0.9941316752094403 1.1167368926540406 0.3568718781687192 -1.1014420702738517 0.14633861579072133 0.030677366319543046 -0.7373189568491002 0.24731819674792715 0.12054998321163157 -1.3086582236411417 -0.7077190748813479 
0.5736849123775941 0.35933584876794245 2.1224574244889056 -0.45704436758593514 0.5145228354899068 -0.7085389250090516 -0.1741550624539649 0.28654070140280585 -0.49526235632197485 -0.5325620385986943 1.2447462591159737 -0.005207786316731304 -0.9691347468402625 -0.029570999293653505 0.5038568315179173 -0.24760545332516576 
-0.7486220493084667 0.15627582246988916 1.4176506900059058 0.5643274323507473 0.060971563981297765 0.8020615479735403 -0.47450288553174974 -1.1311152220309164 -0.9063708871694132 0.20280774513153477 -1.61588578914453 -0.1651412747848206 -0.8336613587158999 0.7161801537702961 -1.941449346473175 -1.657954604771864 
2.4777664820888807 -0.265564935800076 -1.45051166585739 0.8686675453413711 0.11337806922669237 0.6902029432099733 0.09030495463382826 -1.4691609469405082 -0.6529401502367536 2.0034270506243708 0.24685726671405245 0.3446582395867931 1.8481340489775429 -2.3134268385407886 -1.2082598270096347 -0.4920946581855211 
0.7808227538021391 -1.488481975392594 0.8265835167895028 -1.2006696242605974 0.6903173069741316 0.08075115520467369 -0.5080145309079515 -1.4714453859177752 -0.6884356695840792 1.0768305562264893 1.6134558332722415 0.15818426464258292 1.2595010901321246 1.7158369297434393 0.3208254212623997 -0.6881155485109606 
1.6061801630395953 1.2719072752000748 -0.9142957113635689 -2.340716837283654 0.08973795477541822 -1.4125530437967018 1.1662609104686337 1.2892256018555601 0.42913588143239956 0.515611649718412 -0.44684370017131847 -0.6333623324443087 -0.67522252410959 1.109334544966694 -1.7331948775667636 -1.2403602345551827 

-0.2812580005617091 -0.43239969534512684 0.9371710695013703 -0.2546757301944067 1.2427763760785415 -0.2223295338712814 0.5072782902090033 -0.039916250003674804 -1.6763013835950762 1.5561491831073073 0.9228541548106087 0.18365724812028916 1.650500327987671 0.42315510128462624 -0.09497192293564734 -2.0225882181640733 
-0.41268887680238897 -1.7533729267861833 -0.6406443421550907 -1.3806263072944287 -0.7282614622368987 -0.9243263054968545 -2.0831816280718187 2.676725639909216 -1.6827515240975761 0.8353375048629834 0.617987674100383 -0.914746992035662 -0.21237936754643327 1.024965031507061 1.565329430653789 0.05414296347576946 
-0.4002758595991821 0.9446616281880293 0.09929929778334694 0.37254931127327506 2.027929069009867 -1.5628722071094818 0.17942708151805764 -0.6712594110012391 -1.4284415782386928 -0.6629179550009439 -0.16008143337359068 -0.6317662060986478 -1.048601969836083 -0.025402914534911007 0.03169419840551539 0.8264461996220278 
0.020050093836707368 -0.13079048988506944 -2.449274812363623 0.0828876905365516 -0.11961010427191256 0.5556607437411224 0.5426346013477402 1.4466728419571044 -0.5527439847158339 0.02374877447375159 -0.6296387866450935 0.8528189604604162 1.8020705255298086 1.9494414087347163 1.4327434050688423 -0.8317993825768007 
0.0978821733692226 -0.8590507580409221 0.2182168710725259 0.6496849187498648 1.5792041316641214 -1.0588959741586035 -1.044033584579449 0.2788476771094413 -1.179452937321977 3.3770743796282305 -1.4172229787212354 1.9117407606184071 0.40297091391194717 0.9305603380760139 0.7591013401437515 -1.5343387953365706 
1.2499843160869941 0.6315964625728261 0.4104367619106155 0.11962734558903247 1.2382035539715124 -0.4299279900049948 0.8798175416279432 0.06127248680991899 -1.0489961379844999 -0.742643910837202 -0.3139842569505302 -0.8263332822470801 -1.1040952338442314 -0.525402501134496 0.6652931856290006 0.10130569167863705 
-0.33930803067818954 -0.5124600003054395 0.7144455311338465 1.1231721076543686 1.4303432026759113 0.2139292786612024 0.3089635250449333 -0.03204379004648648 -0.7910988668007604 -0.6435528973413928 1.7143433159414385 0.12491512531390742 -0.6424983810183449 1.0836912319150094 1.9369977755492105 -0.759676551920097 
-0.21219630610543191 -1.202754711307812 -0.8259808490834961 -0.5937301674774926 1.3462543853987734 1.5597272480078523 0.5229777940301993 0.34156432889732347 2.1277591094423864 -1.0285360360619646 -2.142562372891607 0.9901448217338555 -0.28157116436295015 -0.2970332898955992 0.37562296407184126 -0.8484023076708944 
0.5717476381181141 -0.3557809409536399 -0.06326160060940855 -0.9973962917738332 1.7200214497008546 0.03325049122698427 0.430511056836875 -0.502861383911917 -1.0788952839567243 0.9246851978323359 0.1679345981144404 -1.0783871754356695 -0.7927524512177395 -0.8700911442663991 -1.3723388946572315 0.89506892797372 
0.6272893750425834 -0.2558699120276285 -0.5591066139005919 1.0154490203994067 -0.28476092199416236 -1.0126117050505854 -1.3902492152973498 0.5920233827931418 -0.17339560138205973 -1.1440480898773184 -2.8063143594302287 0.5202918519095403 -0.9670018657732663 0.9845851488848608 0.5463364388003144 -0.6190019449501517 
1.1451354922591201 0.6099261397728805 -0.9153103902666689 0.26757962251834744 -0.10442320287754202 0.9997696743879988 1.1034081359075307 0.352536598523276 -1.0820028682710268 0.1464843713947267 0.03045884983551381 -0.7469345004116266 0.2506861521284718 0.1180944918602169 -1.3093112698801035 -0.7029817029187986 
0.5849261841183455 0.35933584876794245 2.1714367192686477 -0.4534895149611417 0.4968578724121573 -0.7013791110067613 -0.17368915609063212 0.2842564008684408 -0.49526235632197485 -0.5238613567385119 1.2566065155181976 -0.005207786316731304 -0.9508668597844216 0.029105806564940388 0.5020311835152009 -0.24368128697851862 
-0.7476600718425763 0.15638482221077135 1.4176506900059058 0.5717482819709832 0.06057528296947102 0.7685661821526734 -0.47450288553174974 -1.1293187289791387 -0.9063708871694132 0.20280774513153477 -1.61588578914453 -0.16930267332854265 -0.8414416027995409 0.7161801537702961 -1.941449346473175 -1.655504989198753 
2.4777664820888807 -0.2689712230912335 -1.4290464092158004 0.8736740569704068 0.1125946485714025 0.6837466017832196 0.09239275962051796 -1.449133199149382 -0.6506861135454637 2.0122792319263247 0.24685726671405245 0.35537286781076116 1.8561928077947856 -2.2870755713860853 -1.2055644775840229 -0.49052694375275596 
0.7750074774079793 -1.5028282064677927 0.8265835167895028 -1.2286841722276802 0.6810541822844975 0.07978726143632608 -0.5008627623190077 -1.502022899360186 -0.6954405857258725 1.0663313872771678 1.5643498520745012 0.15665567717788656 1.2567373255349648 1.692398037494053 0.3248068166518726 -0.6942667176240058 
1.6061801630395953 1.282012120999124 -0.9287341356197154 -2.340716837283654 0.08973795477541822 -1.404023833340621 1.1530195518257296 1.268264300768319 0.41891426330463377 0.5187736020616539 -0.43549566666099 -0.6399402587487705 -0.688863912920553 1.139764805662636 -1.725548443811447 -1.274087036372656 

-0.27957135177146863 -0.4460708541552804 0.905024968908721 -0.25928326599938384 1.2279419922785844 -0.23029281496134302 0.5072782902090033 -0.039910339999983495 -1.6417973356926159 1.5527036163109875 0.9308150871698629 0.18348183985749053 1.6361225092607135 0.4235870222819494 -0.0956937440935982 -2.0225882181640733 
-0.41178081889964746 -1.7295790561395947 -0.630832927372269 -1.369567067785516 -0.7257710557576609 -0.9160757984913718 -2.1913656059430844 2.6605018140508565 -1.6940939169909817 0.8497554571591475 0.6088961959890068 -0.9112380746947695 -0.21522045058073744 1.0496313825722778 1.5634453032627795 -0.05441578384364697 
-0.41334125026899216 0.9446960837796172 0.0979062005953099 0.37524595526638466 2.0236060529809414 -1.6118384749289212 0.176978229980513 -0.6598749739484333 -1.4212101266587442 -0.6627854251497222 -0.1618200577196485 -0.640390161569707 -1.0208021871387722 -0.02550546637488596 -0.031189075431997608 0.83100068531665 
0.019789002242389178 -0.12882258782242773 -2.451098897612974 0.0828876905365516 -0.120895209777035 0.5556607437411224 0.5432252672440023 1.4692143416640564 -0.5564510887281549 0.02374877447375159 -0.6232385717654255 0.8437548111565495 1.8130765899457697 1.8831207586437941 1.4295632598792565 -0.8401467225218106 
0.09787507467633638 -0.8478746722819868 0.22137131529832577 0.6553628334434168 1.5792041316641214 -1.0463716345928666 -1.0431800314427981 0.2788476771094413 -1.1967878503986489 3.3323178242562235 -1.4297445692888624 1.891520466326383 0.40297091391194717 0.9414083251967142 0.7796792029565601 -1.5510265503040381 
1.2499843160869941 0.6307214935662274 0.4096220157211643 0.12025382199971138 1.2382035539715124 -0.4299279900049948 0.8806157908576406 0.05968224215458773 -1.0393332472681203 -0.7535939239630068 -0.3176972763231347 -0.8332327187295303 -1.1127151649812852 -0.5319310712884847 0.66065356637214 0.10117883685255774 
-0.34706493631453983 -0.5107953321381615 0.7092578581315675 1.12924821852206 1.4303432026759113 0.21432233471746368 0.3081325903667523 -0.03204379004648648 -0.7832324735570291 -0.6436228635265265 1.7012363476197598 0.12704400549882772 -0.6481895675399096 1.0733269243178962 1.9399426545707175 -0.744421615792239 
-0.2229096706517699 -1.1740435535718323 -0.8186243289360166 -0.5768559228546982 1.3684473648994544 1.5635759586122995 0.5264897881571635 0.3442928308128923 2.1781399071494922 -1.0450186979600555 -2.1504569531895426 0.9901448217338555 -0.28072180625712895 -0.29077717543151704 0.36667427672281555 -0.8400824324479865 
0.563509734773773 -0.35578073974372587 -0.06379253720209195 -0.9909077051674303 1.684710415106682 -0.033516808006572384 0.43590888182106885 -0.49823886032876935 -1.059739276864225 0.9572231874314492 0.1672804813527803 -1.070790653556816 -0.794000895365591 -0.8700911442663991 -1.3831741794443138 0.89506892797372 
0.6332488149044811 -0.2544626335311016 -0.5591066139005919 1.0062104841734376 -0.2859208730519311 -1.0154395483145364 -1.3683465092214468 0.5884660438881096 -0.17515231877340223 -1.142077923491953 -2.8063143594302287 0.5202918519095403 -0.9577061939318995 0.9845851488848608 0.5468161762232178 -0.6225276128532607 
1.1451354922591201 0.6042734491013247 -0.8923606578618741 0.25799795149426924 -0.10236302869390305 1.0002964733607032 1.1167368926540406 0.34477692486568956 -1.0820028682710268 0.14913865198920923 -0.030677366319543046 -0.7378803278247087 0.24426467191041681 0.1180944918602169 -1.3116811138407474 -0.7077190748813479 
0.5818383171262608 0.35933584876794245 2.1541265083538175 -0.45704436758593514 0.5071291246027038 -0.6934731355503212 -0.17368915609063212 0.2811374056991608 -0.49526235632197485 -0.5325620385986943 1.2551455186740013 -0.005217062740707994 -0.9654618716477623 -0.029368039966652493 0.5020311835152009 -0.24700282943718693 
-0.7483968931579349 0.15991381755325493 1.4176506900059058 0.5617271569048019 0.060971563981297765 0.7950922229694565 -0.47843465571153215 -1.1306266414776849 -0.9252862307786058 0.2084436427673507 -1.6260276112272043 -0.16275644229811326 -0.8414416027995409 0.7195279154359631 -1.941449346473175 -1.657954604771864 
2.4777664820888807 -0.2671640470846209 -1.4518289416193233 0.8686675453413711 0.11141169911605829 0.694936740554758 0.09153516270644867 -1.4536369447457547 -0.6530344400101131 2.039342782980245 0.24665038349590424 0.3409684835722574 1.8521604837545635 -2.3512394227823035 -1.2355091149484292 -0.49581090342645273 
0.7862834088608632 -1.5028282064677927 0.8131561697304832 -1.2286841722276802 0.6947463975521038 0.08163846469912876 -0.490499858311845 -1.4955886815872348 -0.6887551179066577 1.0644001055619283 1.6134558332722415 0.15887934065212797 1.2811047007091512 1.6920076757492988 0.327757500783877 -0.6942667176240058 
1.5775693215470705 1.2622730887355895 -0.9349294493780884 -2.358599362550732 0.08944910423090392 -1.4510070450997192 1.1530195518257296 1.2673498049746534 0.43156622465484396 0.5172579620032716 -0.44684370017131847 -0.613762914411068 -0.688863912920553 1.1446339892916346 -1.7331948775667636 -1.2811013199162222 

-0.2817073478906795 -0.4532495561485743 0.9260406387416118 -0.2572731381875044 1.2192544667760317 -0.2312575415173526 0.5069947434315931 -0.03972210219690786 -1.6458483878272012 1.5430318219027128 0.9169739584086649 0.18348183985749053 1.678565362636032 0.4240014195405195 -0.09497192293564734 -2.04032647983265 
-0.4079453401961841 -1.7295790561395947 -0.6263714312297654 -1.4005910308480507 -0.7257710557576609 -0.9248399531023953 -2.0961709467477303 2.6663238182863735 -1.6570649770491594 0.8419943406509233 0.6184617412291815 -0.9112380746947695 -0.2119534909004183 1.0308895432083078 1.5634453032627795 -0.052922486414758524 
-0.41608620436607874 0.939049637337271 0.10079744521721644 0.3741868738154989 2.027929069009867 -1.5654420944606187 0.17220032229462623 -0.6731839002840957 -1.3982168701020583 -0.6612567949464753 -0.16008143337359068 -0.6299663126153472 -1.0227832533333725 0.02550546637488596 0.032122574731668914 0.83100068531665 
-0.019789002242389178 -0.12976200260631238 -2.4586589371645493 0.08244118347492815 -0.11961010427191256 0.5614504678853302 0.5432252672440023 1.4466728419571044 -0.5423237090834473 0.02374877447375159 -0.6272787922334502 0.833819359510845 1.791553995829775 1.9451402870590122 1.4107234106630135 -0.8105697101512251 
0.09698554389020843 -0.8590507580409221 0.22170649905448475 0.6510763955909096 1.5476191080127992 -1.0473204371574725 -1.0593347785012015 0.2751911612031177 -1.179452937321977 3.310947706806312 -1.4326153213197865 1.891520466326383 0.3983228427789102 0.9433915849243125 0.7796792029565601 -1.5510265503040381 
1.2499843160869941 0.6307214935662274 0.40953135397131035 0.1204105716542972 1.2378071937846793 -0.4299279900049948 0.8748592189334449 0.060608779698952085 -1.0095194703905759 -0.7465116142087498 -0.3176972763231347 -0.820012828172901 -1.118490577394006 -0.5296973506815676 0.6787545735548255 0.10117883685255774 
-0.34706493631453983 -0.5204634063808381 0.7102772460380444 1.1194159119529175 1.4469248861409085 0.2139292786612024 0.31406993204261446 -0.031859691756707 -0.7609455739911589 -0.6431050523819208 1.6995419739627482 0.12631384224500647 -0.6424983810183449 1.0864686053071377 1.9624245976509602 -0.759676551920097 
-0.21640105891033729 -1.1740435535718323 -0.8166276938323125 -0.591632381887245 1.3721064860005918 1.571166769780827 0.5229777940301993 0.3442928308128923 2.1504253947524394 -1.0732844953550154 -2.1648536946639796 0.9946128384779909 -0.2844519015899636 -0.29077717543151704 0.36565308885111025 -0.8618897772568517 
0.5582345681165387 -0.35559276761054043 -0.06204308994889257 -0.9978387516382882 1.7054479462493377 0.03325049122698427 0.43191489071917516 -0.49823886032876935 -1.061970661073901 0.9599329060611576 0.1672804813527803 -1.0307293336966494 -0.794000895365591 -0.8671896426214133 -1.3723388946572315 0.89506892797372 
0.6323192621288514 -0.2554674841170183 -0.5591066139005919 1.0010114600119175 -0.2879377486085028 -1.0288276497825612 -1.348183947966432 0.599229285273727 -0.17488120503068136 -1.1330575327200134 -2.84669176478584 0.5202918519095403 -0.9583839345235483 0.9989495531202314 0.5520812065544426 -0.6190019449501517 
1.1451354922591201 0.6073555889098816 -0.9161750667015418 0.26902913217288066 -0.10046048735674956 0.9978184293350154 1.0786726665115334 0.3420588291961283 -1.0820028682710268 0.1484638897938789 0.03051480757347679 -0.7299615858759309 0.24426467191041681 0.1180944918602169 -1.317835450541743 -0.7077190748813479 
0.5944446916540772 0.35573976518498684 2.1619845069732424 -0.45704436758593514 0.5209575571642081 -0.7159170622760013 -0.1757752573400603 0.28654070140280585 -0.4979862190477412 -0.5335370268981863 1.2533730764528646 0.005207786316731304 -0.9653461012137763 0.02932936088815072 0.4980954084964632 -0.24368128697851862 
-0.7568954911473513 0.15374345429801858 1.4176506900059058 0.5643274323507473 -0.060971563981297765 0.8074418140789686 -0.4808252326803585 -1.1351150687201002 -0.9046367932901804 0.20812906991206928 -1.6659066812622756 -0.16808793259877933 -0.8228813163369887 0.712626958434313 -1.941449346473175 -1.6516530340205111 
2.453791370970925 -0.2700425891238111 -1.451225879009447 0.8588946567414989 0.1113272795110002 0.6866063244015307 0.09030495463382826 -1.3916061995286113 -0.6571145735276249 2.028478644871755 0.24685726671405245 0.3439158940271832 1.8416514097786076 -2.3134268385407886 -1.2082598270096347 -0.49617996222063193 
0.7949343991638771 -1.5028282064677927 0.8166672177072853 -1.2144383037587512 0.6903173069741316 0.08103336638381022 -0.4985083441392438 -1.421577874130507 -0.7113076585255842 1.0566152249746807 1.6134558332722415 0.15530337456365303 1.2567373255349648 1.7158369297434393 0.33103798046275146 -0.7081198290720103 
1.6302685393490226 1.269775639783751 -0.9287341356197154 -2.358599362550732 0.09004785181319831 -1.4532674084128478 1.1693293864669096 1.2699660004814566 0.41386315038545507 0.5255932536470719 -0.45050577395427993 -0.6294696521501097 -0.6822056278375362 1.1376246972973292 -1.725548443811447 -1.2347077308370005 

-0.28037607075464704 -0.4425080384150697 0.8931843824371918 -0.25729422132496094 1.1980299824111202 -0.2168650458748483 0.5072782902090033 0.040161320396826454 -1.636972563859245 1.5336159607782975 0.921249881572889 0.18348183985749053 1.6910337679360123 0.423216058615257 -0.09497192293564734 -2.0291240182522174 
-0.4142850910139329 -1.7564864861943643 -0.6383346241208647 -1.3821806401063157 -0.7257710557576609 -0.9243263054968545 -2.1436334634927063 2.7588059978287873 -1.6845083342038647 0.8511888869034999 0.6179007046655263 -0.9112380746947695 -0.21267402821021375 1.020634549743385 1.565329430653789 -0.05447459826159236 
-0.41334125026899216 0.9254047663239587 0.09920818881420622 0.3753427904950218 2.016651658205395 -1.5628722071094818 0.17622902997822645 -0.6657096761036995 -1.4552875050927634 -0.6579749846582079 -0.16147097171445396 -0.6317662060986478 -1.0317760833573548 -0.02536880256480274 0.03157586758922561 0.83100068531665 
0.019789002242389178 -0.12494251017318331 -2.449274812363623 0.0828876905365516 -0.12025784819792343 0.5556607437411224 0.5489369024275336 1.4466728419571044 -0.5508198433581922 0.023455054210216708 -0.6322612369091921 0.844473547013391 1.8020705255298086 1.904995137198712 1.4202528108872063 -0.8091077125500598 
0.0967409287283065 -0.8627008998919449 0.2182168710725259 0.654165874341434 1.5688763533022165 -1.0473204371574725 -1.0471631123098686 0.2788476771094413 -1.1678645048398804 3.3770743796282305 -1.4220668655967064 1.909579847880111 0.40297091391194717 0.9235254438746643 0.7351079112591253 -1.5621137442664081 
1.2472760668691167 0.6307214935662274 0.40529380597999 0.11962734558903247 1.2382035539715124 -0.4299279900049948 0.8806157908576406 0.06059005795917147 -1.0370551785595177 -0.742643910837202 -0.3176972763231347 -0.8263332822470801 -1.1185192371814654 -0.5256071596620958 0.6662920667528606 0.10366247768578898 
-0.34706493631453983 -0.5107953321381615 0.7144455311338465 1.1177486974606898 1.4469310736602463 0.21192655604070865 0.30309890082921687 0.03204379004648648 -0.7832324735570291 -0.6431050523819208 1.7143433159414385 0.12491512531390742 -0.6493966865215411 1.0836912319150094 1.9399426545707175 -0.7715449879985391 
-0.21501115739460727 -1.193154319656576 -0.818926853706854 -0.5853132946469498 1.2997404368449368 1.5193906785486895 0.5288308868823698 0.3442928308128923 2.1895318274427 -1.0285360360619646 -2.1648536946639796 0.9901448217338555 -0.2844519015899636 -0.28948023716785753 0.3692964655537912 -0.8400824324479865 
0.576811873130656 -0.36146692160428284 -0.06326160060940855 -0.9717028152102227 1.684710415106682 0.03325049122698427 0.43590888182106885 -0.49526669068991375 -1.0608192919679529 0.9571099756408693 0.1672804813527803 -1.0735134894762366 -0.783767872875678 -0.8706731815857303 -1.379719267093539 0.89506892797372 
0.6298708921242344 -0.2552732934961465 -0.5619713246878725 1.0154490203994067 -0.2859208730519311 -1.0126117050505854 -1.3683465092214468 0.5963308138350111 -0.17339560138205973 -1.142077923491953 -2.8063143594302287 0.5198753875135932 -0.9478239278972632 0.9772282807820453 0.5371827161425009 -0.6225276128532607 
1.1563160857867834 0.6042734491013247 -0.9161750667015418 0.25799795149426924 -0.10389018857238373 0.9941316752094403 1.1167368926540406 0.3568718781687192 -1.1014420702738517 0.14633861579072133 0.030677366319543046 -0.7373189568491002 0.24731819674792715 0.12054998321163157 -1.3086582236411417 -0.7077190748813479 
0.5736849123775941 0.35933584876794245 2.1224574244889056 -0.45704436758593514 0.5145228354899068 -0.7085389250090516 -0.1741550624539649 0.28654070140280585 -0.49526235632197485 -0.5325620385986943 1.2447462591159737 -0.005207786316731304 -0.9691347468402625 -0.029570999293653505 0.5038568315179173 -0.24760545332516576 
-0.7486220493084667 0.15627582246988916 1.4176506900059058 0.5643274323507473 0.060971563981297765 0.8020615479735403 -0.47450288553174974 -1.1311152220309164 -0.9063708871694132 0.20280774513153477 -1.61588578914453 -0.1651412747848206 -0.8336613587158999 0.7161801537702961 -1.941449346473175 -1.657954604771864 
2.4777664820888807 -0.265564935800076 -1.45051166585739 0.8686675453413711 0.11337806922669237 0.6902029432099733 0.09030495463382826 -1.4691609469405082 -0.6529401502367536 2.0034270506243708 0.24685726671405245 0.3446582395867931 1.8481340489775429 -2.3134268385407886 -1.2082598270096347 -0.4920946581855211 
0.7808227538021391 -1.488481975392594 0.8265835167895028 -1.2006696242605974 0.6903173069741316 0.08075115520467369 -0.5080145309079515 -1.4714453859177752 -0.6884356695840792 1.0768305562264893 1.6134558332722415 0.15818426464258292 1.2595010901321246 1.7158369297434393 0.3208254212623997 -0.6881155485109606 
1.6061801630395953 1.2719072752000748 -0.9142957113635689 -2.340716837283654 0.08973795477541822 -1.4125530437967018 1.1662609104686337 1.2892256018555601 0.42913588143239956 0.515611649718412 -0.44684370017131847 -0.6333623324443087 -0.67522252410959 1.109334544966694 -1.7331948775667636 -1.2403602345551827 

-0.2826306596590566 -0.4532495561485743 0.9229974600897193 -0.2572731381875044 1.2128128139836678 -0.22494262870610449 0.5079309908707251 0.03950738111169259 -1.6658422203561918 1.5753375405678876 0.9158174840261156 0.18528359974787187 1.678565362636032 0.4289069136797774 -0.09497192293564734 -1.9689128776599982 
-0.4079453401961841 -1.7295790561395947 -0.6311958227387592 -1.3933725348700947 -0.7327976468404322 -0.9243263054968545 -2.1436334634927063 2.699214948328925 -1.6634783709431424 0.833628431219592 0.6242232117615207 -0.9112380746947695 -0.21213285046012356 1.0308895432083078 1.5634453032627795 -0.05234169231883263 
-0.41334125026899216 0.9254047663239587 0.09882595459152428 0.37652557978004175 2.027929069009867 -1.5572795214226385 0.176978229980513 -0.6675387759978623 -1.4145992956558644 -0.6689445014362737 -0.1626620978144753 -0.6299663126153472 -1.0227832533333725 -0.02550546637488596 0.03160758953042295 0.8312989871577219 
-0.019868009761704334 -0.12918626945009745 -2.4586589371645493 0.08270036114041343 -0.11961010427191256 0.5556607437411224 0.5432252672440023 1.4466728419571044 -0.5635958955517607 0.02378070825199183 -0.6206039813513974 0.8528189604604162 1.7945962217974305 1.9451402870590122 1.4138094671087131 -0.8105697101512251 
0.09698554389020843 -0.8590507580409221 0.21883960458802518 0.6510763955909096 1.560108735426402 -1.039749001891753 -1.044033584579449 0.2749976087971596 -1.179452937321977 3.3833402352646393 -1.4163618006936212 1.888087072958269 0.3993906104338562 0.9418775060287321 0.7796792029565601 -1.5541226156646308 
1.2499843160869941 0.6243666527534116 0.4127280016897451 0.1204105716542972 1.2378071937846793 -0.4318032407763449 0.881021006304736 -0.060608779698952085 -1.0230741092452027 -0.7540683958362414 -0.31960001886229855 -0.8217973869328448 -1.1151879091209702 -0.5252882388218739 0.6787545735548255 0.10135938254894332 
-0.34259427991054126 -0.5120933509164995 0.7269639383563654 1.1248644998673507 1.4162215923429413 0.21544566044973612 0.3114441113555886 -0.031996438814029166 -0.7910988668007604 -0.6431050523819208 1.7117016404415106 0.1282540656574178 -0.6509797585201956 1.049788360707433 1.9421006749809986 -0.759676551920097 
-0.219562263308811 -1.1740435535718323 -0.8259808490834961 -0.591632381887245 1.3842946578164772 1.5508449245161227 0.5194023094465549 0.33867471634326146 2.1895318274427 -1.066101863243324 -2.1648536946639796 0.9946128384779909 -0.2800812367068212 -0.29077717543151704 0.3696844879509334 -0.8550584969910565 
0.5582345681165387 -0.3557809409536399 -0.06204308994889257 -0.9909077051674303 1.7200214497008546 -0.033516808006572384 0.4334193447482809 -0.49823886032876935 -1.061970661073901 0.9504550213314694 0.1672804813527803 -1.0540318543183982 -0.7927524512177395 -0.8610929287137816 -1.3614926105143708 0.89506892797372 
0.6394204026347933 -0.2560451696003598 -0.5591066139005919 1.0154490203994067 -0.2839777715987704 -1.0213625761322325 -1.30810421085318 0.599229285273727 -0.17335755688695256 -1.1445932711028972 -2.801398645813221 0.5202918519095403 -0.9670018657732663 0.9770979717592072 0.5520812065544426 -0.6190019449501517 
1.1502388893195687 0.6073555889098816 -0.9161750667015418 0.26902913217288066 -0.10144899860886772 0.9909065193806285 1.116186385363823 0.34723487384472423 -1.0820028682710268 0.1484638897938789 0.03051480757347679 -0.7344189367465281 0.24426467191041681 0.1180944918602169 -1.317835450541743 -0.7077190748813479 
0.5799314006306338 0.364000244263188 2.1619845069732424 -0.45212848098086045 0.5132519327046603 -0.7159321271174056 -0.1785266880914057 0.28654070140280585 -0.49051570906972713 -0.5297031238263844 1.2566065155181976 -0.005163386432104761 -0.9699917290424144 -0.028981189787084326 0.5028867350867907 -0.2519218361483303 
-0.7568954911473513 0.15840328440304352 1.4176506900059058 0.5643274323507473 0.060971563981297765 0.7821651215643446 -0.47624597515324324 -1.1306266414776849 -0.8975567713852076 0.20280774513153477 -1.6659066812622756 -0.16532496256842805 -0.8209788810577276 0.7138916491142177 -1.941449346473175 -1.6516530340205111 
2.48107915757957 -0.2673715171398964 -1.451225879009447 0.8588946567414989 0.1125946485714025 0.6866063244015307 0.0915548588237505 -1.3916061995286113 -0.6530344400101131 2.016855829585636 0.24685726671405245 0.3460093330870199 1.8849271474987983 -2.3283289666294777 -1.19141799587343 -0.4905236942840474 
0.7949343991638771 -1.4874637382922928 0.8245392900600835 -1.2144383037587512 0.6932946587411437 0.08019312557848596 -0.5101878561832411 -1.4415023754609861 -0.6823227194834203 1.0439526859960049 1.578919876487381 0.15530337456365303 1.2915224624152717 1.6920493616986274 0.327757500783877 -0.6853562482950485 
1.5896034299714197 1.252248729768391 -0.9349294493780884 -2.358599362550732 0.08973795477541822 -1.421342926720043 1.1693293864669096 1.2673498049746534 0.4198900919676811 0.5255932536470719 -0.4408386760869301 -0.6399402587487705 -0.6875196093106876 1.1446339892916346 -1.7286996446440792 -1.2347077308370005 

-0.28037607075464704 -0.4425080384150697 0.8931843824371918 -0.25729422132496094 1.219352617298717 -0.2168650458748483 0.5072782902090033 0.03978733650962401 -1.636972563859245 1.5598773005452231 0.9099226656351033 0.18348183985749053 1.6594129716666084 0.4247720046033003 -0.09348388079602736 -2.0284275634580022 
-0.4142850910139329 -1.7295790561395947 -0.6343680006808726 -1.3905155096027084 -0.7257710557576609 -0.9337923549348071 -2.1301810092234645 2.7588059978287873 -1.6851057864953138 0.8410875320740746 0.6179007046655263 -0.9244046951008632 -0.21522045058073744 1.044832626302507 1.53742355430046 -0.0530774938040755 
-0.41334125026899216 0.9390083641901751 0.09920818881420622 0.3753427904950218 2.016651658205395 -1.5628722071094818 0.17622902997822645 -0.6657096761036995 -1.4552875050927634 -0.636868926774535 -0.16342469858245834 -0.6385412204814815 -1.0317760833573548 -0.02507009685834759 0.03126284808661796 0.8285469672610937 
0.019789002242389178 -0.12494251017318331 -2.4626756165625525 0.08165060076146369 -0.12224052735373653 0.5614504678853302 0.5432252672440023 1.4777188874409335 -0.5477304259200634 0.02378070825199183 -0.6367138647782885 0.8527875942146393 1.7900743472461633 1.8790089207678433 1.4327434050688423 -0.8184143614685617 
0.09705338881643785 -0.8478746722819868 0.2182168710725259 0.6549986054837662 1.5673002803649458 -1.0473204371574725 -1.0471631123098686 0.2788476771094413 -1.167758774227412 3.3770743796282305 -1.4220668655967064 1.884130193687579 0.40398691820611154 0.9235254438746643 0.7394935470875987 -1.528565688350397 
1.2192915276835259 0.6382036779713337 0.40529380597999 0.1220820606813038 1.2382035539715124 -0.4299279900049948 0.8806157908576406 0.06029825628701491 -1.056150911109631 -0.742643910837202 -0.3176972763231347 -0.836695888052316 -1.1185192371814654 -0.5319310712884847 0.6608872583109034 0.10366247768578898 
-0.34706493631453983 -0.5107953321381615 0.7102772460380444 1.1177486974606898 1.4469310736602463 0.21432233471746368 0.30309890082921687 0.03137940448359314 -0.7834704511503399 -0.6431050523819208 1.7441118350484122 0.1273889356567038 -0.6493966865215411 1.069355749091705 1.9399426545707175 -0.7638601325004669 
-0.21501115739460727 -1.193154319656576 -0.818926853706854 -0.5937301674774926 1.337247898027469 1.5535273833013872 0.5288308868823698 0.3442928308128923 2.1895318274427 -1.0581159642211957 -2.1648536946639796 0.9952799385598844 -0.28863497955050765 -0.28948023716785753 0.3692964655537912 -0.8400824324479865 
0.5663432496981043 -0.36146692160428284 0.0628362340304181 -0.9717028152102227 1.684710415106682 -0.033693411422864306 0.43590888182106885 -0.49526669068991375 -1.0866705627277295 0.9455248405902995 0.1672804813527803 -1.0700769535081773 -0.794000895365591 -0.8700911442663991 -1.379719267093539 0.89506892797372 
0.6373821818209557 -0.2552732934961465 -0.5591066139005919 1.0062104841734376 -0.28476092199416236 -0.9997232080682378 -1.3299033788100099 0.5963308138350111 -0.17474397195367722 -1.168413634394424 -2.7880130414587376 0.5253010572128739 -0.9478239278972632 0.9772282807820453 0.5371827161425009 -0.6247777128464356 
1.1584852739586997 0.5987535965909146 -0.9161750667015418 0.26757962251834744 -0.10389018857238373 0.9997696743879988 1.1167368926540406 0.3568718781687192 -1.1014420702738517 0.15113243198585039 0.030677366319543046 -0.7378803278247087 0.24731819674792715 0.1180944918602169 -1.3086582236411417 -0.7077190748813479 
0.5898845185253186 0.35933584876794245 2.1541265083538175 -0.4585100071690407 0.5145228354899068 -0.7085389250090516 -0.1741550624539649 0.28654070140280585 -0.5070113050461534 -0.5218603091124324 1.2447462591159737 0.005212103265356352 -0.9691347468402625 -0.029105806564940388 0.5046659352451688 -0.24760545332516576 
-0.7486220493084667 0.15549545622142125 1.4176506900059058 0.5617271569048019 0.060971563981297765 0.8057498406849639 -0.4809210712359421 -1.1311152220309164 -0.9252862307786058 0.20046409246767788 -1.61588578914453 -0.16697257887003575 -0.8336613587158999 0.7161801537702961 -1.941449346473175 -1.657954604771864 
2.4777664820888807 -0.262016331273689 -1.45051166585739 0.8680237393155574 0.11337806922669237 0.6904024771629883 0.09087736332773798 -1.4691609469405082 -0.6538336762707845 2.0034270506243708 0.24665038349590424 0.3446582395867931 1.8481340489775429 -2.2843024903719926 -1.2082598270096347 -0.5079183717305028 
0.7808227538021391 -1.488481975392594 0.8265835167895028 -1.216735697011133 0.6903173069741316 0.08075115520467369 -0.5110406631315615 -1.4714453859177752 -0.6954405857258725 1.0768305562264893 1.6134558332722415 0.1555575085925245 1.290569813973315 1.7158369297434393 0.33215824914885195 -0.6942667176240058 
1.5964532075016906 1.2719072752000748 -0.9335609678917407 -2.358599362550732 0.08904758770810131 -1.3926444765561692 1.1662609104686337 1.2892256018555601 0.43156622465484396 0.5037570442346485 -0.4442504337084757 -0.6239895559742208 -0.6891282633007896 1.1287582984593671 -1.7459418235304498 -1.2403602345551827 

-0.28037607075464704 -0.4425080384150697 0.8931843824371918 -0.25729422132496094 1.2061593794669507 -0.2197970604212374 0.5072782902090033 0.040161320396826454 -1.636972563859245 1.5336159607782975 0.921249881572889 0.18348183985749053 1.6910337679360123 0.423216058615257 -0.09497192293564734 -2.0291240182522174 
-0.4142850910139329 -1.7564864861943643 -0.6451546818615853 -1.3749242437556728 -0.7257710557576609 -0.9243263054968545 -2.1436334634927063 2.7588059978287873 -1.6845083342038647 0.833628431219592 0.6179007046655263 -0.9042412939973328 -0.21267402821021375 1.0286704066475971 1.565329430653789 -0.05460459585055842 
-0.41334125026899216 0.9254047663239587 0.1006531444709616 0.36925419556362943 2.0054775442167796 -1.5628722071094818 0.17622902997822645 -0.6657096761036995 -1.4552875050927634 -0.6579749846582079 -0.1639752848406646 -0.6317662060986478 -1.048772937022288 -0.025269019774746198 0.03157586758922561 0.83100068531665 
0.019789002242389178 -0.1283545374212571 -2.4545082510634617 0.0828876905365516 -0.12025784819792343 0.5614504678853302 0.5432252672440023 1.4466728419571044 -0.5537825735533491 0.023455054210216708 -0.6322612369091921 0.844473547013391 1.8020705255298086 1.9494414087347163 1.4202528108872063 -0.8091077125500598 
0.09806861726395998 -0.8590507580409221 0.2162533168902429 0.654165874341434 1.5768319819845327 -1.0463716345928666 -1.0471631123098686 0.2791441742117002 -1.2058396320584064 3.3770743796282305 -1.4184411522649483 1.909579847880111 0.40297091391194717 0.9235254438746643 0.7351079112591253 -1.5621137442664081 
1.2472760668691167 0.6323847767420696 0.40529380597999 0.1204105716542972 1.2382035539715124 -0.4299279900049948 0.8806157908576406 0.060608779698952085 -1.0370551785595177 -0.742643910837202 -0.3176972763231347 -0.8263332822470801 -1.1185192371814654 -0.526703876728157 0.6662920667528606 0.10366247768578898 
-0.34706493631453983 -0.5107953321381615 0.7102772460380444 1.1177486974606898 1.4455713393771839 0.21192655604070865 0.30309890082921687 0.03204379004648648 -0.7832324735570291 -0.6431050523819208 1.7143433159414385 0.12491512531390742 -0.6493966865215411 1.0836912319150094 1.9399426545707175 -0.7715449879985391 
-0.21501115739460727 -1.193154319656576 -0.818926853706854 -0.5940202612369299 1.2997404368449368 1.5193906785486895 0.5288308868823698 0.3437024100519782 2.1895318274427 -1.0285360360619646 -2.1648536946639796 0.9901448217338555 -0.2844519015899636 -0.28948023716785753 0.3692964655537912 -0.8400824324479865 
0.576811873130656 -0.36146692160428284 -0.06326160060940855 -0.9717028152102227 1.7200214497008546 0.03325049122698427 0.43590888182106885 -0.49526669068991375 -1.0608192919679529 0.9571099756408693 0.16537157739878408 -1.0360589443003907 -0.7927524512177395 -0.8706731815857303 -1.379719267093539 0.89506892797372 
0.6298708921242344 -0.25664125601459314 -0.5575009518147048 1.0154490203994067 -0.28688683205071047 -1.0126117050505854 -1.3683465092214468 0.5963308138350111 -0.17339560138205973 -1.142077923491953 -2.8063143594302287 0.5198029585372034 -0.9478239278972632 0.9772282807820453 0.5345920844251962 -0.6225276128532607 
1.1563160857867834 0.6042734491013247 -0.9175095503582619 0.2613672249502935 -0.10424166506240876 0.9941316752094403 1.1167368926540406 0.35125470540560105 -1.1014420702738517 0.14633861579072133 0.030677366319543046 -0.7373189568491002 0.24731819674792715 0.12054998321163157 -1.310824114037416 -0.7077190748813479 
0.5736849123775941 0.35853923426205414 2.155161663532066 -0.4548311080745635 0.5145228354899068 -0.7013791110067613 -0.1716954519307644 0.289708326131376 -0.49526235632197485 -0.5325620385986943 1.2447462591159737 -0.005207786316731304 -0.9691347468402625 0.029105806564940388 0.5038568315179173 -0.24570221837236147 
-0.7486220493084667 0.15300316264792357 1.4347626762590573 0.5617271569048019 -0.060971563981297765 0.8020615479735403 -0.4794125613231149 -1.1311152220309164 -0.9063708871694132 0.20280774513153477 -1.6170705316831158 -0.16786614546229395 -0.8336613587158999 0.7161801537702961 -1.941449346473175 -1.657954604771864 
2.453791370970925 -0.2728232228911151 -1.45051166585739 0.8588946567414989 0.1125946485714025 0.706770506492018 0.09030495463382826 -1.4691609469405082 -0.6438923640083458 2.0034270506243708 0.2456166248608397 0.3446582395867931 1.8561928077947856 -2.3341961456797904 -1.2082598270096347 -0.5079183717305028 
0.7707063074996836 -1.496373519429183 0.8265835167895028 -1.2006696242605974 0.6903173069741316 0.08082744156002988 -0.5080145309079515 -1.4714453859177752 -0.6884356695840792 1.0768305562264893 1.6134558332722415 0.15818426464258292 1.2595010901321246 1.7128893028369025 0.3208254212623997 -0.6881155485109606 
1.6061801630395953 1.2719072752000748 -0.9287341356197154 -2.340716837283654 0.08973795477541822 -1.4144210335865337 1.1662609104686337 1.2542734792421764 0.42913588143239956 0.515611649718412 -0.44684370017131847 -0.6239895559742208 -0.6914924465052803 1.109334544966694 -1.7331948775667636 -1.2403602345551827 

-0.2812315928699554 -0.4498178533432268 0.9142231618070507 -0.25729422132496094 1.2171805693478916 -0.2223295338712814 0.5072782902090033 -0.040400799015275886 -1.6527222864948319 1.5561491831073073 0.9239110145156293 0.18348183985749053 1.667321904636806 0.42717693647712207 -0.09661378828532191 -2.0291240182522174 
-0.41268887680238897 -1.7521919610953307 -0.6174414732896812 -1.4005910308480507 -0.7257710557576609 -0.9247411215035193 -2.0796795725921053 2.69088927517799 -1.7184662172458343 0.8485214897550241 0.6179007046655263 -0.9112380746947695 -0.21522045058073744 1.0496313825722778 1.565329430653789 -0.052922486414758524 
-0.41381157659192885 0.947108925643512 0.10001941418807558 0.373102451530081 2.027929069009867 -1.5572795214226385 0.17682436377067093 -0.6731839002840957 -1.4212101266587442 -0.6641229063029885 -0.1618200577196485 -0.6299663126153472 -1.0639495916207844 -0.025203788298016148 0.032200040868279385 0.83100068531665 
-0.019899551969185053 -0.13173612886692346 -2.4904069798387214 0.08201225270346413 -0.11985958378906356 0.5614504678853302 0.5432252672440023 1.4422545243925748 -0.5592518482635261 0.023068412191859528 -0.6272787922334502 0.8469276570985551 1.820092155773405 1.9763179468189465 1.42023034620021 -0.8317993825768007 
0.0967409287283065 -0.8594408960907299 0.22137131529832577 0.6576651298573313 1.570636367461007 -1.039749001891753 -1.0369472380856315 0.2788476771094413 -1.179452937321977 3.310947706806312 -1.4071800113186614 1.8670405843284419 0.40297091391194717 0.9537094662766697 0.769474578129435 -1.5541226156646308 
1.2544000390778316 0.6315964625728261 0.4127345015828466 0.12025382199971138 1.2610564275594223 -0.4332187657391696 0.8748592189334449 0.060608779698952085 -1.0468167441950633 -0.7443241271396592 -0.3210179372220561 -0.8263332822470801 -1.1288928697697962 -0.5252882388218739 0.6700251022059808 0.10302674366806319 
-0.34706493631453983 -0.5107953321381615 0.6996976323495664 1.1194159119529175 1.423270586586624 0.21544566044973612 0.3089635250449333 -0.03195983819671793 -0.7923455913272344 -0.64395579340892 1.7123087877249783 0.1282540656574178 -0.6424983810183449 1.0836912319150094 1.9399426545707175 -0.7557231594322199 
-0.21965197256003507 -1.1740435535718323 -0.8186243289360166 -0.5853132946469498 1.3971576622544268 1.553475502338728 0.5229777940301993 0.3451526111280714 2.1895318274427 -1.0285360360619646 -2.1326525637864187 0.9946128384779909 -0.28157116436295015 -0.2904929442971194 0.37295064656218335 -0.8498526758765882 
0.5597065906890727 -0.3520195792320677 -0.061450690131354575 -0.9804649660980604 1.7200214497008546 0.033693411422864306 0.43590888182106885 -0.49823886032876935 -1.0497193858103215 0.9346833714358036 0.1693219541703239 -1.0615760357064357 -0.794000895365591 -0.8700911442663991 -1.4030275063130075 0.89506892797372 
0.6426151267250036 -0.2552732934961465 -0.5591066139005919 1.0062104841734376 -0.2859208730519311 -1.012548430521865 -1.3683465092214468 0.5884660438881096 -0.17596468145209057 -1.1599024266538307 -2.8063143594302287 0.5231575811113395 -0.9670018657732663 0.976847902977327 0.5411275445764667 -0.6225276128532607 
1.1584852739586997 0.6042734491013247 -0.9153103902666689 0.26902913217288066 -0.10144899860886772 0.9941316752094403 1.0786726665115334 0.352536598523276 -1.1112501168580342 0.1484638897938789 -0.030677366319543046 -0.7561357535896295 0.24731819674792715 0.1180944918602169 -1.317835450541743 -0.7077190748813479 
0.5799314006306338 0.364000244263188 2.1541265083538175 -0.4395056638438354 0.5126596390144225 -0.6934731355503212 -0.17693812184362728 0.28654070140280585 -0.49526235632197485 -0.5335370268981863 1.24546854881405 -0.005277434579281689 -0.962682645785312 -0.02872470801373877 0.5020802182033482 -0.2466236780799483 
-0.7495287097483756 0.1556400380164116 1.417316640595958 0.5619037163063823 -0.060971563981297765 0.8020615479735403 -0.4779982597224702 -1.1306266414776849 -0.9046367932901804 0.20483280218094393 -1.6763319471074833 -0.16750316520356923 -0.8184569949742844 0.7175025995629315 -1.937002083379789 -1.657954604771864 
2.4777664820888807 -0.26980825259914304 -1.4713288765541601 0.8789599379423029 0.11287993531292279 0.6773900541995542 0.09239275962051796 -1.4562656559451068 -0.6530344400101131 2.0107973063492026 0.24420400936651324 0.3460093330870199 1.8412373218407914 -2.3144292793814265 -1.201129624936887 -0.5166482420191927 
0.7749927491247491 -1.5050619221104888 0.8297335281786576 -1.2206762416278252 0.6932946587411437 0.07900499883404978 -0.5027022562600642 -1.4731454992313475 -0.7113076585255842 1.0636760476731757 1.595955305073296 0.1587436322917777 1.2567373255349648 1.6866784802787003 0.327757500783877 -0.7059745125394826 
1.5952661940245734 1.2822471532424318 -0.9258116630675293 -2.358599362550732 0.09018562059619684 -1.4532674084128478 1.1431122611063398 1.2477561902636451 0.4151115697235527 0.5158491456364881 -0.44684370017131847 -0.6290992209678498 -0.688863912920553 1.1446339892916346 -1.7441927774821535 -1.2504223738982208 

-0.278625666837077 -0.433694614201364 0.905024968908721 -0.25729422132496094 1.1980299824111202 -0.22652984732010645 0.5069947434315931 0.040161320396826454 -1.641093644505138 1.5561491831073073 0.9124359377232691 0.18421982238184823 1.6910337679360123 0.4247720046033003 -0.09621265156764555 -2.04032647983265 
-0.41204993917737714 -1.7247157773454576 -0.6348137492405943 -1.3845220884932168 -0.7152256998750057 -0.9248399531023953 -2.1436334634927063 2.7588059978287873 -1.6887269166114662 0.8410875320740746 0.6179007046655263 -0.9112380746947695 -0.21267402821021375 1.0308895432083078 1.541311079299425 -0.05441578384364697 
-0.41169887373913716 0.9254047663239587 0.09872734677937474 0.36877234582809343 2.012421730351823 -1.5628722071094818 0.17456728925946818 -0.6731839002840957 -1.431786184274402 -0.6629179550009439 -0.16194772096844606 -0.6316443681931119 -1.048601969836083 0.02561654094585255 0.03160758953042295 0.83100068531665 
0.019514131749837564 -0.12927342319826446 -2.4819530253310003 0.08193825358785692 -0.11985958378906356 0.5619282755739875 0.5432252672440023 1.4573929935872831 -0.5477304259200634 0.02378070825199183 -0.6243120641686992 0.8528189604604162 1.8243175197458052 1.856371218144817 1.4327434050688423 -0.8123704079567549 
0.09553080773391902 -0.8478746722819868 0.2182168710725259 0.6529632980267123 1.5688763533022165 -1.0298258460826715 -1.0593347785012015 0.2788476771094413 -1.1631876076196128 3.3810105304113245 -1.4275340369628593 1.9007132216547649 0.3983228427789102 0.9235254438746643 0.7470787818298198 -1.528565688350397 
1.2394498897637087 0.6307214935662274 0.4123072905770398 0.12511161257204667 1.2378071937846793 -0.4299279900049948 0.8923992685128846 0.060144867500345964 -1.0468167441950633 -0.7307625071881805 -0.3207829627418631 -0.836695888052316 -1.117068066758609 -0.5252882388218739 0.6608872583109034 0.10135938254894332 
-0.3372247505929086 -0.505865079296926 0.7102772460380444 1.124949977672586 1.4333627907967548 0.2139292786612024 0.3089635250449333 0.03175838343796856 -0.7910988668007604 -0.6459665145515985 1.7628002889489092 0.1273889356567038 -0.6445522489478033 1.0627637899488798 1.9341638677408644 -0.7633538241597765 
-0.21501115739460727 -1.1821253851350846 -0.818926853706854 -0.5937301674774926 1.3307603753986623 1.5491798819616418 0.53166878626375 0.34953184514716396 2.1895318274427 -1.0732844953550154 -2.1504569531895426 0.9901448217338555 -0.2844519015899636 -0.2872700098037697 0.3749047058931201 -0.8400824324479865 
0.576811873130656 -0.3557809409536399 -0.0628362340304181 -0.9850502422467595 1.7200214497008546 -0.03298497323627255 0.4431454164991128 -0.491829478228962 -1.0721205983373585 0.9475593102765888 0.1669361754047504 -1.087840259126458 -0.7927524512177395 -0.8546468687125758 -1.3723388946572315 0.9018750193009256 
0.6492042647201451 -0.2552732934961465 -0.5591066139005919 1.0154490203994067 -0.28476092199416236 -1.030414344898527 -1.350610046595651 0.5981880534910263 -0.17339560138205973 -1.1445932711028972 -2.8063143594302287 0.5198753875135932 -0.9670018657732663 0.9845851488848608 0.5371827161425009 -0.6225276128532607 
1.1535448235220909 0.6137183662102409 -0.9153103902666689 0.26757962251834744 -0.10389018857238373 0.9959925907932081 1.1167368926540406 0.352536598523276 -1.085571511332281 0.14916943272919386 0.030337415421548313 -0.7378803278247087 0.24426467191041681 0.12054998321163157 -1.3120340306278446 -0.7077190748813479 
0.5829041514669598 0.35933584876794245 2.1541265083538175 -0.4583825584321527 0.5227873435093332 -0.737290686128925 -0.17693812184362728 0.28539962148524484 -0.4875927801580795 -0.5325620385986943 1.2454378509504986 -0.005219590842673741 -0.9508668597844216 -0.029105806564940388 0.5020311835152009 -0.24760545332516576 
-0.75720257269375 0.15534815710080485 1.4136472917344973 0.5617271569048019 0.060971563981297765 0.8020615479735403 -0.47882693452420505 -1.1306266414776849 -0.8888077512330081 0.20602234261356467 -1.6676414645120663 -0.16697257887003575 -0.8492978252149044 0.7108079374833635 -1.9375516123786358 -1.664980427212749 
2.4777664820888807 -0.2673715171398964 -1.426887099544268 0.8625175363787199 0.11156819200379298 0.694083452711817 0.0905367304595039 -1.4691609469405082 -0.6434882722479243 2.037404327555035 0.24489154291015322 0.3446582395867931 1.8561928077947856 -2.257164205911417 -1.2082598270096347 -0.5056873014398211 
0.7750074774079793 -1.5028282064677927 0.8265835167895028 -1.198951847191175 0.6903173069741316 0.07927665317074449 -0.511998806368324 -1.478195179632637 -0.6922744654315042 1.0663313872771678 1.595955305073296 0.15665567717788656 1.290569813973315 1.7158369297434393 0.327757500783877 -0.6942667176240058 
1.597669470158745 1.2719072752000748 -0.9377009433887924 -2.358599362550732 0.0880967548337707 -1.4532674084128478 1.1693293864669096 1.2571294135669355 0.4198523978593286 0.5119365753676427 -0.45310853210648266 -0.6239895559742208 -0.6927030092655767 1.139764805662636 -1.7696912427959106 -1.223262952260024 

-0.2812315928699554 -0.4360192125737351 0.9396970237570251 -0.25928326599938384 1.2128128139836678 -0.22494262870610449 0.5069947434315931 0.0402776574489259 -1.6458483878272012 1.5753375405678876 0.9158174840261156 0.18523482446815046 1.678565362636032 0.4290528283854726 -0.09398404512652818 -2.033795481033574 
-0.41204993917737714 -1.7295790561395947 -0.6263714312297654 -1.3933725348700947 -0.7327976468404322 -0.9248399531023953 -2.1436334634927063 2.7624759964735555 -1.686348108142764 0.833628431219592 0.6179007046655263 -0.9113591905671822 -0.21213285046012356 1.0308895432083078 1.6062790919478434 -0.053036037293062326 
-0.41334125026899216 0.9514366400763683 0.10079744521721644 0.37652557978004175 1.9942323487635292 -1.567029336174966 0.1789135758901505 -0.6668151757585599 -1.431786184274402 -0.6629179550009439 -0.16133290413843915 -0.6422321829169014 -1.0616112392230397 -0.025618115170899437 -0.03160758953042295 0.83100068531665 
-0.019868009761704334 -0.12777142444450224 -2.442853515169807 0.08270036114041343 -0.1204534418764454 0.5589078140638438 0.5432252672440023 1.4573929935872831 -0.5499179230352771 0.02378070825199183 -0.6232385717654255 0.8528189604604162 1.7775674658070388 1.8831207586437941 1.4230253845661993 -0.8105697101512251 
0.09698554389020843 -0.8590507580409221 0.22170649905448475 0.6496849187498648 1.570636367461007 -1.0242255300193144 -1.044033584579449 0.2777836640602275 -1.1734983704604611 3.357375334712685 -1.4163618006936212 1.891520466326383 0.3983228427789102 0.9401868619621702 0.7727426871465551 -1.5541226156646308 
1.2461006621696709 0.6315778914666387 0.4127280016897451 0.12263990393113934 1.2378071937846793 -0.4299279900049948 0.8879720754252105 0.061439095376147494 -1.0230741092452027 -0.7540683958362414 -0.3153682528420912 -0.8263332822470801 -1.1199297938923551 -0.5252882388218739 0.6592487570507625 0.10135938254894332 
-0.34706493631453983 -0.5128726391567354 0.7175069673995164 1.1248644998673507 1.4358633846120137 0.2139292786612024 0.3114441113555886 -0.031859691756707 -0.7910988668007604 -0.6431050523819208 1.7117016404415106 0.12423867852475952 -0.6338512472467449 1.0864686053071377 1.9399426545707175 -0.7492159009874708 
-0.21837557657188605 -1.175962656381504 -0.8166276938323125 -0.5888980188637596 1.3842946578164772 1.5552620993752841 0.53166878626375 0.3337243516884098 2.1277591094423864 -1.04156252547215 -2.1648536946639796 0.9838479502111273 -0.2800812367068212 -0.29304742451095045 0.36376763979832927 -0.8639910617315896 
0.5616826171480045 -0.3557809409536399 0.06355082387577887 -0.9757557084203404 1.7200214497008546 0.03325049122698427 0.4334193447482809 -0.49823886032876935 -1.059739276864225 0.9504550213314694 0.16915223015491454 -1.0540318543183982 -0.7927524512177395 -0.8596229623822728 -1.3791949888094983 0.908760580013222 
0.6332488149044811 -0.2554674841170183 -0.5584149570028004 1.0154490203994067 -0.2879377486085028 -1.031126394667826 -1.348183947966432 0.5963308138350111 -0.17596468145209057 -1.1330575327200134 -2.8063143594302287 0.5209371764846371 -0.9583839345235483 0.9845851488848608 0.5520812065544426 -0.614310686712907 
1.1262820034527377 0.6073555889098816 -0.9239652263686116 0.26902913217288066 -0.10144899860886772 0.9941316752094403 1.116186385363823 0.34848632448159034 -1.093958922108967 0.15262820439856345 0.03051480757347679 -0.7292443432620083 0.24451983053895945 0.1180944918602169 -1.317835450541743 -0.7077190748813479 
0.5824997828972408 0.364000244263188 2.1541265083538175 -0.4455686161826095 0.4988755218829649 -0.7159170622760013 -0.17625228060149645 0.28539962148524484 -0.49051570906972713 -0.5297031238263844 1.2447462591159737 0.005207786316731304 -0.9508668597844216 0.029323029266711306 0.5020311835152009 -0.2519218361483303 
-0.7486220493084667 0.15534815710080485 1.4347626762590573 0.5616805109688568 0.060971563981297765 0.7749976269797062 -0.476604975475651 -1.1327032695351409 -0.9185219417943316 0.20280774513153477 -1.6659066812622756 -0.16697257887003575 -0.8171508589423887 0.7223513725557156 -1.941449346473175 -1.6516530340205111 
2.48107915757957 -0.2673715171398964 -1.451225879009447 0.8588946567414989 0.1125946485714025 0.6813091695700867 0.0905367304595039 -1.4453223421105938 -0.6522896407091228 2.0332777732925678 0.24685726671405245 0.34377996956845813 1.8521604837545635 -2.3283289666294777 -1.20441079416769 -0.49283848190057916 
0.7949343991638771 -1.4943293285599495 0.8164263763422126 -1.2144383037587512 0.699809444453583 0.08019312557848596 -0.5105306732372537 -1.4421195684276793 -0.6822258803802099 1.0746167554227752 1.612019594113411 0.15665567717788656 1.2915224624152717 1.692398037494053 0.3247636818929463 -0.6915524523207734 
1.5941375946563277 1.2761232401635794 -0.9335609678917407 -2.358599362550732 0.09021996957202263 -1.442398059835209 1.1702993022852022 1.2673498049746534 0.4205743498941281 0.5255932536470719 -0.4408386760869301 -0.6318337346968463 -0.6875196093106876 1.1376246972973292 -1.7286996446440792 -1.2347077308370005 

-0.2835440011666329 -0.4498178533432268 0.9238617973391744 -0.25807259673832234 1.2077300014569279 -0.22494262870610449 0.4933144222053328 0.04027231405341712 -1.6458483878272012 1.5561491831073073 0.9099226656351033 0.18547257861896535 1.6361225092607135 0.4240014195405195 -0.09398404512652818 -2.0185724838358685 
-0.4125374725899612 -1.7040723113279819 -0.6550658966217382 -1.3739842817808974 -0.7310046181499456 -0.9248399531023953 -2.116733609856976 2.6599456431798023 -1.7032239408755132 0.8216113468271848 0.6098203135874481 -0.9112380746947695 -0.21522045058073744 1.032909944129464 1.5763581775060633 0.05376142218555037 
-0.41325134946136655 0.9390083641901751 0.09979963421337545 0.3728709113557173 2.027929069009867 -1.5925201756890868 0.176978229980513 -0.6776696382609935 -1.4212101266587442 -0.6612567949464753 -0.16066388269834625 -0.6422321829169014 -1.0269004903695673 -0.02545407597026843 -0.03160758953042295 0.83100068531665 
-0.019789002242389178 -0.12985668250346802 -2.4212656470619676 0.0828876905365516 -0.11985958378906356 0.5614504678853302 0.5432252672440023 1.4582645258578986 -0.5499179230352771 -0.02374877447375159 -0.6156884309886352 0.833870324891198 1.829749133810141 1.9375249672907118 1.4107234106630135 -0.8161167117763641 
0.09859958652974916 -0.8590507580409221 0.22170649905448475 0.6483142938136812 1.5460112648320679 -1.0366741308436567 -1.0365056517051519 0.2820113837161478 -1.1886093187813214 3.3443338553826623 -1.4163618006936212 1.891520466326383 0.39831225250285457 0.9358792917401753 0.7939711540446834 -1.5285986527549746 
1.24402484728238 0.6509195638762779 0.4104367619106155 0.12446726159466052 1.3093803017354373 -0.42952352243941955 0.8748592189334449 0.060608779698952085 -1.0468167441950633 -0.7465116142087498 -0.3139842569505302 -0.8329654877057785 -1.1199297938923551 -0.5319310712884847 0.6692929404301128 0.10135938254894332 
-0.34410778165361705 -0.5107953321381615 0.7102772460380444 1.1334703116330116 1.4490037634340895 0.21449587049886437 0.31177182239011414 -0.031859691756707 -0.7996648084115298 -0.6518646786149226 1.6995419739627482 0.12631384224500647 -0.6374860025598499 1.0864686053071377 1.9624245976509602 -0.7549108404217445 
-0.22201417058872794 -1.185292452705808 -0.8244181580206492 -0.576063048565517 1.3950506533847815 1.5552620993752841 0.5313969090056084 0.343487632789261 2.1895318274427 -1.0450186979600555 -2.1417219269611256 0.9838479502111273 -0.2819240377158594 -0.2942964862398578 0.3777885484771322 -0.8736204287241898 
0.563509734773773 -0.3557809409536399 -0.0628362340304181 -0.9808534956519447 1.7093882818485286 -0.033617588052232764 0.43453176587623416 -0.4902316924800798 -1.075037087285498 0.9417357035708537 0.1672804813527803 -1.0510687534160277 -0.7964048357279497 -0.8546468687125758 -1.4030275063130075 0.89506892797372 
0.6332488149044811 -0.2552732934961465 -0.5584149570028004 1.0154490203994067 -0.2859208730519311 -1.0000337982935938 -1.3304577125760517 0.6021073944077936 -0.1770636596984625 -1.1206564911804016 -2.8063143594302287 0.5196933264341017 -0.9675761193008038 0.9893631483921146 0.5578543158975399 -0.6184068542973793 
1.1262820034527377 0.6055243496694367 -0.9156661222434745 0.2734964965587651 -0.10298533092210232 0.9941316752094403 1.1034190155147614 0.3515763244495701 -1.0821394735840941 0.1472079418963477 -0.030506199880469122 -0.7433946980600195 0.24901863748551184 0.1180944918602169 -1.287220014283397 -0.7122070476675879 
0.570528762187834 0.364000244263188 2.1541265083538175 -0.4548311080745635 0.5028397450014527 -0.7013791110067613 -0.17484054206105742 0.28654070140280585 -0.5035240701381986 -0.5292665661990527 1.2533730764528646 0.005277434579281689 -0.9696996014878942 0.0290844671924203 0.5020311835152009 -0.2519218361483303 
-0.7538821914235525 0.15656228534272698 1.4351720495385742 0.5684189411250629 0.060971563981297765 0.8020583227394364 -0.47450288553174974 -1.1306266414776849 -0.9227261717764392 0.20280774513153477 -1.6615088635896513 -0.17048118096047069 -0.8259747982615392 0.7097943115585006 -1.964203513483732 -1.6239287643860405 
2.516044931684406 -0.26571405790096586 -1.451225879009447 0.8698047261449976 0.1125946485714025 0.6895348457572276 0.09239275962051796 -1.449133199149382 -0.6546617318894935 2.037404327555035 0.24633318493713188 0.3466028072115999 1.8428190998879383 -2.315376285353135 -1.2082598270096347 -0.5039022146916977 
0.7808227538021391 -1.5016288441119527 0.8245392900600835 -1.2197485327645003 0.6986528841664957 0.08019312557848596 -0.5046666580052246 -1.4245064361149655 -0.6964142553544558 1.058212692457387 1.595955305073296 0.16214704252581807 1.2915224624152717 1.737668510303776 0.3245716440402583 -0.6848463004672448 
1.5895553839867895 1.2633358280336002 -0.925505899425572 -2.358599362550732 0.08973795477541822 -1.441789598611271 1.1672193119823593 1.2715760356351324 0.43156622465484396 0.5158491456364881 -0.45722013555020974 -0.6142490497641604 -0.688863912920553 1.1446339892916346 -1.7441927774821535 -1.2347077308370005 

-0.2748458668956333 -0.4532495561485743 0.9229974600897193 -0.2572731381875044 1.2128128139836678 -0.2248035311080202 0.5069947434315931 0.038905394460969044 -1.6405746168566206 1.5561491831073073 0.907814782677962 0.18585660904988832 1.678565362636032 0.4290528283854726 -0.09497192293564734 -2.0369102854502104 
-0.4125374725899612 -1.7295790561395947 -0.6348781580011823 -1.3806294575482203 -0.7310046181499456 -0.9243263054968545 -2.1436334634927063 2.699060103235958 -1.695632986998778 0.8419943406509233 0.6232418274350101 -0.9112380746947695 -0.21213285046012356 1.0496313825722778 1.6062790919478434 -0.053465912679058626 
-0.41334125026899216 0.9466011624461976 0.09882595459152428 0.37524595526638466 2.027929069009867 -1.6048368941019824 0.1749713979264728 -0.682768507077991 -1.4212101266587442 -0.6749694562649272 -0.1626620978144753 -0.6503976544575052 -1.048772937022288 -0.02550546637488596 0.031766566076998466 0.83100068531665 
0.0193434394716468 -0.1283545374212571 -2.4449956977257825 0.0807627549179826 -0.11985958378906356 0.5556607437411224 0.5496999972675206 1.4573929935872831 -0.5569590156536631 -0.023433243861332744 -0.6232385717654255 0.8437548111565495 1.829749133810141 1.8840659996622795 1.4083124883794604 -0.7942806177960277 
0.09698554389020843 -0.8584860883758935 0.2181288205440217 0.6509603566450907 1.550174253189766 -1.0535807450277284 -1.044033584579449 0.2783269921197432 -1.1833416658938167 3.310947706806312 -1.4020557113310745 1.8800285789691658 0.40297091391194717 0.9537094662766697 0.7796792029565601 -1.5510265503040381 
1.2422198060298761 0.6315778914666387 0.3967225348200813 0.12025382199971138 1.2315790356940002 -0.4299279900049948 0.8835218158637927 0.060608779698952085 -1.0095194703905759 -0.7465116142087498 -0.3151493960768906 -0.8263332822470801 -1.1199297938923551 -0.5252882388218739 0.6673670548791287 0.10439552291739156 
-0.34706493631453983 -0.5120933509164995 0.7102772460380444 1.1177486974606898 1.4259576813239645 0.21231760353179838 0.3031426784396128 -0.031859691756707 -0.7609455739911589 -0.64812576064756 1.6995419739627482 0.12631384224500647 -0.6481895675399096 1.049788360707433 1.9624245976509602 -0.7397322026864416 
-0.219562263308811 -1.1740435535718323 -0.8186243289360166 -0.591632381887245 1.3633629973238963 1.571166769780827 0.5229777940301993 0.3482732372858467 2.1895318274427 -1.0461196619704969 -2.1648536946639796 0.9807724260463884 -0.2800812367068212 -0.2904929442971194 0.37295064656218335 -0.8618897772568517 
0.5597065906890727 -0.35855863575308167 -0.06204308994889257 -0.9757557084203404 1.7200214497008546 -0.033516808006572384 0.43457395647096525 -0.49823886032876935 -1.0612688766704257 0.9504550213314694 0.1672804813527803 -1.0540318543183982 -0.8045467694835654 -0.8671896426214133 -1.3831741794443138 0.89506892797372 
0.6419346748970144 -0.2560451696003598 -0.5584149570028004 1.0010114600119175 -0.2873299130665045 -1.0288276497825612 -1.30810421085318 0.5954073813306017 -0.1755508140879085 -1.1437869741501048 -2.768823662429247 0.5074445309354428 -0.9584056917710446 0.9893631483921146 0.5415810565063554 -0.6190019449501517 
1.1346965394031465 0.604935605993365 -0.9153103902666689 0.26902913217288066 -0.10298919261953335 0.9909065193806285 1.1167368926540406 0.3420588291961283 -1.0820028682710268 0.151072467449999 0.03046831013244136 -0.7344189367465281 0.24731819674792715 0.1180944918602169 -1.317835450541743 -0.7154503323243123 
0.5799314006306338 0.35933584876794245 2.1619845069732424 -0.4455686161826095 0.5145228354899068 -0.7159170622760013 -0.17693812184362728 0.28654070140280585 -0.4979862190477412 -0.5365260721129576 1.2533730764528646 -0.005207786316731304 -0.9508668597844216 0.02919196501735097 0.5020311835152009 -0.2519218361483303 
-0.7486220493084667 0.15534815710080485 1.4347626762590573 0.5616805109688568 0.06066926560683705 0.7821651215643446 -0.4808252326803585 -1.1327032695351409 -0.9007569400506485 0.20570922125401694 -1.6659066812622756 -0.16808793259877933 -0.8336613587158999 0.7105752865772258 -1.941449346473175 -1.657954604771864 
2.493872864585916 -0.26686140701568595 -1.451225879009447 0.8789599379423029 0.1125946485714025 0.6813091695700867 0.09030495463382826 -1.4691609469405082 -0.6530344400101131 2.016855829585636 0.24685726671405245 0.3401584333450739 1.8521604837545635 -2.3283289666294777 -1.2037617409898715 -0.49581090342645273 
0.7949343991638771 -1.5028282064677927 0.8245392900600835 -1.2144383037587512 0.6947463975521038 0.07900499883404978 -0.5028328022832994 -1.494500999976424 -0.6823227194834203 1.0853166728528008 1.6047974703328403 0.1523743440212288 1.2811047007091512 1.737668510303776 0.327757500783877 -0.6942667176240058 
1.58401042090087 1.281260321059777 -0.9287341356197154 -2.358599362550732 0.08973795477541822 -1.4532674084128478 1.1581399813658262 1.2673498049746534 0.41380240901427995 0.5255932536470719 -0.4518942272076324 -0.6294696521501097 -0.6813777144418278 1.1376246972973292 -1.7138624243807141 -1.2651706396014444 

-0.27902651626259783 -0.4425080384150697 0.9052271471626855 -0.26331283233225306 1.2264210788316794 -0.2216833524952617 0.5120800589002789 -0.03972210219690786 -1.6362922626302336 1.5527036163109875 0.9169739584086649 0.18461569769620645 1.6361225092607135 0.4240014195405195 -0.09579603537610842 -2.0225882181640733 
-0.4141422463478141 -1.7295790561395947 -0.6263714312297654 -1.3617520141726125 -0.7257710557576609 -0.9198930143653558 -2.1436334634927063 2.6697004709038814 -1.697971791869286 0.833628431219592 0.6079031643742719 -0.9039792391665774 -0.21479486740984896 1.0196066620869304 1.5668167333913836 -0.05414296347576946 
-0.41381157659192885 0.9626582422060295 0.09941088462111926 0.36877234582809343 1.9996303579782448 -1.5662415840858412 0.1694641864922336 -0.6731839002840957 -1.4070923761340917 -0.6612567949464753 -0.16594335198092344 -0.6371519827429951 -1.048772937022288 0.025588359236607662 -0.032264305991631534 0.8341759755799149 
-0.01935678368919908 -0.1288024834461072 -2.4636096682117525 0.08379045425244569 -0.12104655883250236 0.5565921850144712 0.5489369024275336 1.4466728419571044 -0.5499179230352771 0.023825216024788345 -0.6272148021314529 0.8437548111565495 1.820092155773405 1.964549931438273 1.4107234106630135 -0.8267061504378259 
0.09624700364300773 -0.8752866131438256 0.21809341785248643 0.6496849187498648 1.560108735426402 -1.0482465115588182 -1.0677426122065086 0.28123863837693897 -1.1918096192913272 3.390803928392874 -1.4220668655967064 1.891520466326383 0.4036441957499889 0.9235254438746643 0.7903956535776532 -1.5621137442664081 
1.2499843160869941 0.6307214935662274 0.4104367619106155 0.1204105716542972 1.2705618036208464 -0.4357538301753379 0.8806157908576406 -0.059704418026015026 -1.0393332472681203 -0.7450036000337349 -0.3210179372220561 -0.8243335950068825 -1.1151879091209702 -0.5341511090211444 0.6787545735548255 0.10117883685255774 
-0.34706493631453983 -0.5105644010040281 0.7102772460380444 1.1301070237746722 1.4490037634340895 0.2139292786612024 0.30551589341173063 -0.03314216014006333 -0.7950238577923934 -0.6459665145515985 1.6995419739627482 0.1282540656574178 -0.6334045499468448 1.0740221243311945 1.9138175088926428 -0.7508290000161257 
-0.21412561956690668 -1.1821253851350846 -0.8259808490834961 -0.5853132946469498 1.3389347074494466 1.5685218526864273 0.5288308868823698 0.3423712151378659 2.1504253947524394 -1.0450186979600555 -2.142562372891607 0.978960593303489 -0.2844519015899636 -0.2942964862398578 0.37295064656218335 -0.8445717130296008 
0.563509734773773 -0.3570617589343698 0.06079226949029812 -0.9775150636504158 1.7033370832735366 0.03325049122698427 0.42985285182568983 -0.49823886032876935 -1.061970661073901 0.9474117595356631 0.16755359623833754 -1.0560705458045547 -0.794000895365591 -0.8682052382709643 -1.3723388946572315 0.9090490166204035 
0.6426151267250036 -0.2584337005643247 -0.5591066139005919 1.0040598383976165 -0.2839777715987704 -1.0213625761322325 -1.3612641369234504 0.599229285273727 -0.1755508140879085 -1.1445932711028972 -2.8063143594302287 0.5074445309354428 -0.9515282525950046 0.9865259801412299 0.5324448825274739 -0.6190019449501517 
1.1584852739586997 0.5956816027044829 -0.895870751814422 0.25799795149426924 -0.10326831912726868 0.9997696743879988 1.1167368926540406 0.352536598523276 -1.093958922108967 0.14913865198920923 0.030575035249275354 -0.7261946827185718 0.24395987653150566 0.11491386881441358 -1.317835450541743 -0.7029817029187986 
0.5734758466134477 0.364000244263188 2.2044687884212375 -0.448423228734074 0.51402408441162 -0.7069037745652402 -0.17693812184362728 0.2811374056991608 -0.49526235632197485 -0.524715462693639 1.24546854881405 -0.005163630273994291 -0.9813582814426047 0.029105806564940388 0.5051216700150394 -0.24798258523893368 
-0.7483467374435556 0.1577555555547669 1.4032049643386388 0.5602584066105908 -0.060971563981297765 0.7942399355501248 -0.4767540633080525 -1.1327032695351409 -0.9227261717764392 0.20167948062860624 -1.61588578914453 -0.16532496256842805 -0.8330327207122378 0.7049282381552935 -1.941449346473175 -1.655504989198753 
2.458675534762286 -0.26686140701568595 -1.4286018919230385 0.8588946567414989 0.11038220373401395 0.6837466017832196 0.09123387906318924 -1.449133199149382 -0.6478625830507856 2.0107973063492026 0.24665038349590424 0.3460093330870199 1.8849271474987983 -2.315376285353135 -1.2082598270096347 -0.5216530054290436 
0.7750074774079793 -1.499923147660783 0.8265835167895028 -1.2418639930707267 0.6903173069741316 0.08023331574312836 -0.5111028142540129 -1.4731454992313475 -0.7026381487808133 1.0732819469007253 1.63673696250498 0.15665567717788656 1.2716620738934499 1.6920076757492988 0.3248068166518726 -0.6988906988996361 
1.5895553839867895 1.2511101639011828 -0.9349294493780884 -2.3714385283597155 0.09074574904393816 -1.4010426311510034 1.1530195518257296 1.2673498049746534 0.41039548367423667 0.5132668139112004 -0.4593367676256599 -0.632665620759603 -0.6810025991589106 1.1156360769178475 -1.7699860579089692 -1.274087036372656 

-0.27902651626259783 -0.4425080384150697 0.8931843824371918 -0.25729422132496094 1.1980299824111202 -0.21339245602897497 0.5005216272548151 0.03950738111169259 -1.636972563859245 1.5561491831073073 0.921249881572889 0.18348183985749053 1.6910337679360123 0.4189689667432864 -0.09497192293564734 -2.0225882181640733 
-0.39687235724200637 -1.7295790561395947 -0.6383346241208647 -1.3845220884932168 -0.7257710557576609 -0.9243263054968545 -2.1436334634927063 2.6706394883891895 -1.6845083342038647 0.8511888869034999 0.6179007046655263 -0.8962891667895876 -0.21197602551664935 1.0308895432083078 1.565329430653789 0.052952195440270085 
-0.410197039684679 0.9320068629153313 0.10035018531379725 0.3695211764417617 2.0419188070641563 -1.5877601757207014 0.17622902997822645 -0.6657096761036995 -1.4552875050927634 -0.6597406329806924 -0.1638190488986143 -0.6345525464371319 -1.0317760833573548 -0.02536880256480274 -0.031189075431997608 0.8186118408161709 
0.019789002242389178 -0.12494251017318331 -2.449274812363623 0.08244118347492815 -0.12025784819792343 0.5556607437411224 0.5365463601581137 1.4466728419571044 -0.5508198433581922 0.023460554912279812 -0.6322612369091921 0.8381000095597121 1.829749133810141 1.9451402870590122 1.431026368130417 -0.8091077125500598 
0.09625871206045744 -0.8584860883758935 0.22252288152561403 0.6587906988379989 1.5688763533022165 -1.0473204371574725 -1.036593864664788 0.280337343499063 -1.1790565367162522 3.3770743796282305 -1.4041675250925827 1.8699871671315913 0.40297091391194717 0.9365164623463151 0.7351079112591253 -1.5621137442664081 
1.2472760668691167 0.6542408574033427 0.40529380597999 0.1204105716542972 1.2645694158111995 -0.4311345084476992 0.8806157908576406 0.060144867500345964 -1.0393332472681203 -0.7465116142087498 -0.3153682528420912 -0.8263332822470801 -1.1064865551379368 -0.52500311112891 0.6666376326933385 0.10366247768578898 
-0.34168419891697704 -0.5107953321381615 0.7144455311338465 1.1194159119529175 1.4469310736602463 0.21192655604070865 0.3115942782234565 0.03204379004648648 -0.7910988668007604 -0.6518244603668059 1.7143433159414385 0.12491512531390742 -0.6493966865215411 1.0864686053071377 1.9506629793136652 -0.7715449879985391 
-0.21410517754911432 -1.193154319656576 -0.828781461436294 -0.5752909013314451 1.318662085460174 1.548725411772157 0.5255254175753455 0.34774176119988653 2.1895318274427 -1.0285360360619646 -2.121865840409661 0.9901448217338555 -0.2844519015899636 -0.28948023716785753 0.37295064656218335 -0.8400824324479865 
0.576811873130656 -0.36146692160428284 -0.06326160060940855 -0.9775150636504158 1.6955373323151617 -0.033516808006572384 0.4268398984013182 -0.49526669068991375 -1.070845112035349 0.9504550213314694 0.16748515699770056 -1.0735134894762366 -0.794000895365591 -0.8713785365651832 -1.4003899798417923 0.8953029263700963 
0.6238920281755008 -0.2552732934961465 -0.5584149570028004 1.0154490203994067 -0.2877310844491123 -1.0329977480983452 -1.348183947966432 0.5963308138350111 -0.17596468145209057 -1.1756774321089893 -2.7526011985647925 0.5253835635854854 -0.9547345227222533 0.9772282807820453 0.5371827161425009 -0.6137886609761993 
1.1308975713178533 0.6068039454672861 -0.8923606578618741 0.25799795149426924 -0.10389018857238373 0.9992169244030835 1.1239550744995814 0.35099946030819973 -1.0868470760358413 0.14727077053839907 0.030677366319543046 -0.7373189568491002 0.24731819674792715 0.12054998321163157 -1.3263518040423883 -0.7077190748813479 
0.5799314006306338 0.35933584876794245 2.1224574244889056 -0.45750603199907974 0.5145228354899068 -0.7249934668601753 -0.1741550624539649 0.2818928567755223 -0.4872097833097016 -0.5207750151633442 1.2447462591159737 0.005207786316731304 -0.9508668597844216 0.028720063376710483 0.5038568315179173 -0.2415426932672188 
-0.7486220493084667 0.15627582246988916 1.417630558643019 0.5643274323507473 0.060971563981297765 0.803993550955535 -0.4789381331153646 -1.1306266414776849 -0.9249935851863557 0.19968680693053273 -1.61588578914453 -0.16697257887003575 -0.8414416027995409 0.7161801537702961 -1.9711118301571398 -1.657954604771864 
