0.8040354973740506 -0.8141333004605437 0.015383761748407122 1.0829790081486064 -3.1503806698378325 0.031801889404327474 -0.383899992171134 1.8821089785246707 1.0076659808072814 -0.6829449469922434 -0.360970920414145 0.4384135654956247 -1.0324620107579408 -1.4428551395749944 0.70325487840472 2.738810855558915 
-0.8223914832561706 0.8177861135098787 1.3054803288986117 -0.8215300736338526 -0.5459178811176266 0.1451670134412654 -0.447732636447906 -0.9560841077971829 -0.14876644586588444 0.6033097822593135 1.8340066646667499 -0.33490042269925274 0.11097516580845941 -1.823811867038343 -1.6442005389806196 -0.1627570512150549 
-0.45746030127854026 1.4006161278747558 0.6804602719910464 0.20501164988552423 -1.8718384273074808 0.7144893928616264 0.8218045558393628 -1.2420228053808444 0.44634172378778997 0.9132070930622421 -2.166355824790454 -1.6370821016742911 0.4530377421776787 -0.292151310886001 0.822437571334271 0.40431395895435046 
0.46523532056584826 -1.084349405776474 -0.7128144932373062 -1.5904201434514296 -1.3032293584925068 -0.8666180036346508 1.0785385619502774 -1.3063654959407605 -1.1140919194867973 -0.17527092529955668 0.8125107513835015 0.9771478489523873 1.3282624557860836 -0.9973238452524782 -0.4098224339411729 -0.7653701030663722 
-0.24713264341088545 0.9550856457243811 0.7597702690227265 0.19901852228867112 0.6835694913092074 1.2283901168460976 -0.5948558755479034 -0.5650155386222401 0.24847195641092548 0.22369969259282907 -0.13009124533695127 -0.5071865087919802 -1.5792831134920138 -2.091367107531861 0.9328941795532155 -1.0291646776339454 
0.9602699728416186 0.2611371182973875 0.38252550396045953 1.6004400429176535 -0.9675351134612783 -0.9274367077212862 -0.8398057747197587 0.7974836528003444 0.020278000850744795 -0.41738017782084413 0.9943998401440247 0.5158655934069927 1.4803050524863517 1.7252522709084182 -0.9242888074180905 -0.9845503934771602 
0.5887023590007399 1.0004513287638945 -1.1547032305616167 1.5483206466297876 -1.1743083140450532 1.6059476025951631 -0.28005394059381117 0.003660807441000278 -0.5887016731741719 0.8533785700455446 -0.24992919344942807 2.703927303310921 -0.41190518876394033 -0.06742061614570666 0.546465789599582 -0.31795475474048285 
0.8028062157924274 0.53728713862503 0.49915616444584565 2.8617933575096153 -1.0979570334311028 0.6342883346440192 -0.7120005106546354 -0.7765529671284047 1.3662441899898055 -2.0423165939087107 -0.1185642019430765 0.2130482292983193 1.064386739676126 2.157661389851279 -0.7536632363370157 0.30209775683302303 
0.09371504804497295 -0.681401764872492 0.05951480282517545 -1.1360452917316688 0.6864397050468398 0.2093315393475265 -0.10985541445309137 -0.7787614759967694 -0.5287880748746646 1.4699723524368506 -1.513878225425962 -0.31114759971095257 0.32890425757238073 1.5239576937727406 0.616222417743519 -0.3344421336668674 
1.0293072438620794 0.10329010602907426 -0.616088617918 0.05924490769385737 -0.6011354979642607 -1.609710666125387 -0.1390158989576266 -1.352624938933395 1.4522610002055154 -1.0270469519467198 -0.36893146560232 -1.2697879182200613 -0.24102399827198523 -0.6780408006219772 1.4274180091545623 -1.3594897628700289 
1.1569074402358748 1.3772399787598828 1.404591350614773 0.2955391123288283 -0.7476205470075495 -0.579479897399276 -0.515475260477507 -0.30497147686461845 -0.1462941829766606 -0.4162683355093841 -1.2434739465026836 -0.7016422412934309 -0.7471037495829889 0.542275091905468 -1.2604894009629009 1.2295333760539466 
-0.05904689855441575 1.479255205809281 0.21870118539402175 -0.45451840012623174 -1.238081681058789 -1.1485610538314206 -0.23425368191429013 0.6238164284344148 -1.0414953847640647 -0.9467865665417897 -0.4802612278642777 0.49617900477003435 -0.7755898587169001 -0.1642844643709694 -1.496338324660578 -0.08150257976020443 
0.295974566447995 -1.2122093391896884 0.7123950971688192 -1.2385117888717108 -0.05552252164253487 1.3789569624352176 0.6482953103772598 1.3314860300869011 0.025067575704533548 -0.9751425474482851 -0.1885399341193324 0.36642130435530446 -0.8027652134984464 0.25073896378227317 -0.5846025489317532 0.03746331797445652 
-2.4114635302921332 -1.7123955764821663 -1.706721844556169 0.3518694932371923 0.8919445743538293 0.19886839248802213 -0.23675207415736346 -1.8665351478047025 -1.8158100282121237 -0.10372979344759545 -0.3293293334352977 0.9292090220512843 -1.4443831838804768 0.39771660936901576 0.04111959876292593 0.04494439554923509 
-0.4463400474099086 -1.5910282320229259 -0.30267110361283484 1.1625666435997772 1.8397448591243366 -2.1788686416419027 -0.6007877161138564 -1.526487909327675 0.8882965047230974 1.235018663218255 1.976794530819887 0.49184387159887366 0.7123427106092711 0.03135073872635842 -1.050541772374011 -0.734063526052361 
0.0690765778179194 0.6299770207729753 0.5995525296049434 -1.4235119359595745 -2.0458349642619136 0.23260680165987843 1.7197987323077168 -1.3384411979398658 -0.5901676475254888 -0.16693098512547766 -0.49954612502905593 -0.8690244130177042 -0.9806491650949012 0.9099649134268437 0.5132785515094528 2.0708818360614214 

0.77416115511935 -0.8193707996811158 0.01577203837981266 1.0763595049086847 -3.1309949954936442 -0.032792376623527145 -0.38790285725858137 1.8968684634680668 1.013151474771248 -0.6810692316704847 -0.36116445582275614 0.4402474137694218 -1.0182057390403227 -1.45450845237187 0.712538542053006 2.7022687491690762 
-0.8223914832561706 0.8183087708433492 1.3158834198143545 -0.8282584165203494 -0.5455069060702572 0.14800632633389152 -0.4479182078759656 -0.9752843211414258 -0.14397857066249684 0.6190529321203665 1.817841984134457 -0.33490042269925274 0.11042565901469459 -1.8360956439311202 -1.6438275429473759 -0.16140014295856375 
-0.44625038764439956 1.3561067569038556 0.6869128292600111 0.2105475295596016 -1.8718384273074808 0.7063715574038395 0.8356853402024605 -1.2487832247653108 0.4403600939476002 0.912735916043476 -2.166355824790454 -1.6378265119827984 0.45154505100136066 -0.2915648000185548 0.8259174285204793 0.40431395895435046 
0.4769617865867207 -1.0859616048940044 -0.7196080265693027 -1.5988298779141301 -1.303264637348592 -0.882161631620093 1.0811898568688694 -1.3063654959407605 -1.1451313701779113 -0.17049365934230135 0.7952789055465459 0.958182623501433 1.3168475399983104 -0.983217510910451 -0.4140664727080523 -0.7653701030663722 
-0.24802537810846725 0.9546154816936092 0.7711508391766821 0.1965814113716785 0.6835694913092074 1.2283901168460976 -0.5844301122920494 -0.574510835535472 0.24638229833427885 0.2202218240259245 -0.13189779513040734 -0.5109802134305969 -1.5792831134920138 -2.0863823977003277 0.9277388883532026 -1.0376057389041216 
0.9602699728416186 0.2611371182973875 0.3793612857306683 1.5862381314559455 -0.9667027750874548 -0.9251716191260941 -0.8349202403887465 0.7921131983601991 -0.020325395035792365 -0.4164484506866693 1.0073571204333653 0.5116791977006009 1.4803050524863517 1.7525396364762116 -0.9152600889454592 -0.9643833125976169 
0.5774725408445268 1.015593589595554 -1.1534358517585876 1.5483206466297876 -1.184793107387655 1.6059476025951631 -0.2846094286186858 -0.0036028356982741295 -0.5887016731741719 0.8645680885501835 -0.24992919344942807 2.7316514963213168 -0.41819710309455926 0.06718002862587023 0.546465789599582 -0.316931719626334 
0.8039529424568694 0.53728713862503 0.505341546576903 2.8902044661600903 -1.0979570334311028 0.6341436984154354 -0.7011760780197508 -0.7780855837864121 1.3795828609769694 -2.0602064483531985 -0.1183661275349977 0.21413456087736468 1.0697122524933773 2.114225137139187 -0.7392674018783049 0.2995237094948193 
0.09239953763118468 -0.6735688120287251 -0.05974600910266679 -1.1390681925544308 0.6812773797179826 0.21068119382463504 -0.10897798212593691 -0.7933453779643462 -0.5386187626523002 1.4965163697517048 -1.4891412128151251 -0.31114759971095257 0.32446697134515895 1.5884009781628052 0.6017008074456209 -0.336886231750868 
1.030712374215852 0.10183967479299441 -0.6232748929661477 -0.05847276939111515 -0.6062291510808485 -1.6254513747816066 -0.14130118031050665 -1.352624938933395 1.4634433280621357 -1.011221855738958 -0.3679121999468853 -1.2505937953323025 -0.24379402797223942 -0.6831688339554475 1.4119701940616611 -1.388380470850106 
1.1811333016080527 1.3772399787598828 1.3971225527001232 0.2872526190640394 -0.7551854061044295 -0.5896943934719256 -0.516935478219132 -0.3059385564215546 -0.15055194073923042 -0.41167504362240503 -1.2638332936142223 -0.7006384888123608 -0.7647638460600992 0.5631493916239224 -1.2901439216066877 1.2175967814799733 
-0.05937096165051299 1.4435313398058485 0.21786522427633978 -0.45270926300850195 -1.2317668367688035 -1.1393687926056708 -0.23374944654561575 0.6331090036719699 -1.0174054661484766 -0.9502574511664206 -0.4897712632447323 0.4982083135518723 -0.7755898587169001 -0.16139283825981174 -1.478161123936993 -0.07990479317287846 
0.29599466616513087 -1.2030333125107537 0.7078615816833275 -1.2440445305565726 -0.05569496713736206 1.41057036398402 0.6478697443399419 1.3385969810538711 -0.025086130097613592 -0.9754527191016497 -0.18624313994124186 0.3657562388779191 -0.8327133331249861 0.24845187407907238 -0.5850727430349271 -0.037190251995808166 
-2.384076170575526 -1.7123955764821663 -1.7159780250993235 0.36274990042773886 0.8919445743538293 0.19886839248802213 -0.2341582683808794 -1.8586443580006236 -1.8158100282121237 -0.10124634617254155 -0.3293293334352977 0.9232835411782616 -1.488449719857249 0.4005048943916204 -0.0413856214614946 0.04476828023126904 
-0.45433912257396286 -1.5938707300592048 -0.3018314256841581 1.1625666435997772 1.8397448591243366 -2.1788686416419027 -0.6123179069765369 -1.5182423569635293 0.8822805164513806 1.25104483236936 2.0163836092827365 0.4880021144217056 0.7045518679713773 -0.029980350487091426 -1.0306065985738888 -0.7506204362153616 
0.07036169031527596 0.6159791187784228 0.5811433123258395 -1.44409032826802 -2.0159047674651545 0.23756649117318354 1.744930012554418 -1.3708558074270758 -0.5901676475254888 -0.16811776185548144 -0.4993037505139122 -0.8550643250750434 -0.9806491650949012 0.9111860189238001 0.5162534434460395 2.0708818360614214 

0.8040354973740506 -0.8193707996811158 0.01575325166470784 1.0411183605484111 -3.156591623481755 -0.0318452038728115 -0.39084292674543514 1.8853072078920519 0.9929335806491763 -0.6694303157425855 -0.35206040724351667 0.4409867777299294 -1.039275444012595 -1.417844428766651 0.7130861641199602 2.7056608456416718 
-0.8223914832561706 0.815590987830457 1.276770064357377 -0.8119144426590393 -0.5459178811176266 0.14739995080978874 -0.4479182078759656 -0.9999023518691604 -0.1488500097082804 0.6190529321203665 1.8057406060296253 -0.3253078044941759 0.11276068327794139 -1.8107490675473175 -1.6571972483247555 -0.1635523551376612 
-0.45567373264575156 1.3816016443848698 0.6697488181589993 0.20538436391523127 -1.8195646941898003 0.7144893928616264 0.8212647869153336 -1.259642373052978 0.4332605378596233 0.9307604908276522 -2.1667188955011016 -1.6466356157482795 0.4495389897431861 -0.2936761786888683 0.8231653312200183 0.41382471259925574 
0.47032817999449666 -1.084734332048124 -0.7057761881761422 -1.5904201434514296 -1.3115982979645135 -0.8697036067924733 1.0732472016963759 -1.2881068429821922 -1.1240770228247725 -0.17088455523423463 0.8000292938987911 0.958182623501433 1.2990707853098864 -1.0042401985043352 -0.4140664727080523 -0.7773574552505815 
-0.2574891837407303 0.9550856457243811 0.7462832298876458 0.20023255441991053 0.6835694913092074 1.2406660956540505 -0.5908439366698789 -0.5626057436166361 0.25005368496083236 0.2202218240259245 -0.1300846698111251 -0.5001518940105466 -1.59161595421565 -2.0706275194742365 0.9218519009131773 -1.0223815681380553 
0.9602699728416186 0.25759497879110327 0.3749370884089556 1.5925616594988061 -0.9878408454444125 -0.9274367077212862 -0.8489911267684758 0.8069371194773833 -0.020220130626428637 -0.41191625272752525 1.007356530574851 0.5125190580188143 1.4803050524863517 1.7252522709084182 -0.9266193262102458 -0.958387909438689 
0.5960578523890484 1.012683973419506 -1.1547032305616167 1.5483206466297876 -1.1934604574565357 1.6097266144698241 -0.28005394059381117 0.0036562780112944036 -0.5948673528250538 0.8562274487318418 -0.24992919344942807 2.6608118750998777 -0.41190518876394033 0.06648572849749879 0.546465789599582 -0.31690455660712014 
0.7895649832261409 0.5327928318646664 0.5083003291586717 2.8575059275165504 -1.0979570334311028 0.6361510693650624 -0.70192278633854 -0.7598164654210195 1.3795828609769694 -2.0370544709040512 -0.1183661275349977 0.2173193368514893 1.0639592542988008 2.055684247998669 -0.7645442949346268 0.3035388811771099 
0.09239953763118468 -0.6640306799285185 0.057732960657104065 -1.1390681925544308 0.6947153917159371 0.2088709653773909 -0.10815467258703582 -0.8052889629953992 -0.5475254214749519 1.4609279023608073 -1.5362990444417965 -0.31564848217634744 0.32554670483656223 1.5453110860620165 0.6157651256739884 -0.3328785983750654 
1.0565667413624578 0.10329010602907426 -0.6232748929661477 -0.0584453336150177 -0.6055206173461929 -1.6080136600340575 -0.13964163730514126 -1.352624938933395 1.4656780282095467 -1.009162154867187 -0.3679121999468853 -1.2505937953323025 -0.24429841046021178 -0.673789467418344 1.4340251879832497 -1.3522661394361781 
1.1549718342988593 1.3772399787598828 1.404591350614773 0.2872526190640394 -0.7553691999762976 -0.579479897399276 -0.5006300665584195 -0.3059385564215546 -0.15178903325236295 -0.41193306746096753 -1.2435199557955507 -0.7144747719288228 -0.7447618372114465 0.5446690934664506 -1.254811200022634 1.2250214350426523 
-0.06038433422176091 1.4537497386686362 0.21804255737958647 -0.447548925708958 -1.2473081443206306 -1.1441304297247419 -0.23267084406526414 0.6128243240557933 -1.020232516898202 -0.9422744403556664 -0.4753641786922716 0.4982083135518723 -0.7731371815048129 -0.1608156859550871 -1.5092616973548567 -0.07990479317287846 
0.29065278342350825 -1.2189782607545148 0.7056272982376646 -1.2385117888717108 0.05600995944099373 1.4073727017794457 0.6304812163192627 1.33432376054376 -0.02540420976056665 -0.9674140066815433 -0.18504773852655929 0.3699306849926602 -0.8027652134984464 0.2473560938284384 -0.5840745000826016 0.03767369431163477 
-2.384076170575526 -1.7114440136159652 -1.6860250561093193 0.36274990042773886 0.8901003930843028 0.20060231577204157 -0.23737901031501007 -1.8672942538930728 -1.7876980380735987 -0.10421845302636315 -0.3295951469345661 0.9447288632666049 -1.4443831838804768 0.4012642849863115 0.04217690065630037 0.044010285383509436 
-0.44694485682091656 -1.566751449067154 -0.30267110361283484 1.1668071470871355 1.8458996070212979 -2.2038583382985357 -0.6126502554708955 -1.526487909327675 0.8822805164513806 1.2681272169500564 2.0163836092827365 0.49688320669540703 0.6914711908420365 0.030122895474185462 -1.0368513532930321 -0.7308657840626969 
0.0690765778179194 0.6299770207729753 0.5917866357748672 -1.44409032826802 -2.0056054655874567 0.23860208133647395 1.7244216319557828 -1.3532690365533666 -0.5905875506966258 -0.16811776185548144 -0.49790515677449626 -0.8550643250750434 -0.9699894879713925 0.9244059455871713 0.5202699986685841 2.1308042362222968 

0.8040597890366116 -0.8246461513830352 -0.015501155312199148 1.0724968911144117 -3.1309949954936442 -0.031976583135189814 -0.38557892341986444 1.8935287376798877 1.019404604041548 -0.6810692316704847 -0.36116445582275614 0.4402474137694218 -1.0127115917695726 -1.423778217339442 0.7130861641199602 2.7285594957456194 
-0.8117604958464427 0.822961750030278 1.2548020269096438 -0.81562108597903 -0.5356384274006211 0.14800632633389152 -0.4479182078759656 -0.9706713665726 -0.14866343310766167 0.6190529321203665 1.8121187493355 -0.32522794903060176 0.10901255726683111 -1.8145546274576794 -1.6680053698037771 -0.16297394897759804 
-0.4488537549622129 1.3611649838641897 0.6665787962882036 0.20831484388510915 -1.8419867716386649 0.7029671816409327 0.8456012074150903 -1.2689490039688083 0.44059703584179616 0.9273461729652186 -2.2127500198283183 -1.6378265119827984 0.4528218326392892 -0.28620977435205686 0.8259174285204793 0.41034039074441764 
0.47032817999449666 -1.0694287386388357 -0.7308820465519711 -1.5988298779141301 -1.2667535212624808 -0.882161631620093 1.0785385619502774 -1.3215356491885315 -1.100968445511748 -0.17186393764286856 0.8045293354344745 0.9670878179454396 1.3168475399983104 -0.993427509545358 -0.4140664727080523 -0.7552978440814616 
-0.24802537810846725 0.9632557366786909 0.764821022495377 0.19934848865814278 0.6764109706500481 1.2231969814065857 -0.597256932010824 -0.5758728071885036 0.24752976907723948 0.2202218240259245 -0.13104265368298373 -0.5126875967273371 -1.60131271818039 -2.0645511117637536 0.9312459090946157 -1.0156534851788732 
0.9690488064273923 0.25800408974722794 0.3790857744866337 1.5925616594988061 -0.9667027750874548 -0.918199306065103 -0.8398057747197587 0.8073709987613673 -0.020220130626428637 -0.4181434235114285 1.0109101636631221 0.5116791977006009 1.5012613039635923 1.7160479882938064 -0.9192791626278619 -0.9845503934771602 
0.5743205431071171 1.012683973419506 -1.1929932588110361 1.5349858946589312 -1.1790710733317655 1.6059476025951631 -0.28005394059381117 0.003659400365247676 -0.5887016731741719 0.860484210036601 -0.23895620738888493 2.7316514963213168 -0.40942399109967825 -0.06899302664749747 0.5326727357125618 -0.32303467295305416 
0.795522609219644 0.53728713862503 0.5083003291586717 2.9308046345412495 -1.0990698993552062 0.6430483470925312 -0.6914022785282442 -0.7551372360684463 1.3795828609769694 -2.014943205962261 -0.11675752403391888 0.20924444231796183 1.064386739676126 2.1379699899239215 -0.7536632363370157 0.3131241425298371 
0.09239953763118468 -0.6679183799293485 0.05928747656907971 -1.1390681925544308 0.6723734740890263 0.2088709653773909 -0.10674173671964157 -0.8052889629953992 -0.5296798996977827 1.4609279023608073 -1.4891412128151251 -0.31114759971095257 0.3293454121657883 1.5677358736221327 0.6167866027809409 -0.33277210631952553 
1.029249615157798 0.10304166322236019 -0.616088617918 -0.05839798289427227 -0.5937081919359665 -1.6238895988544466 -0.14240039537210764 -1.3543544212717147 1.4251563846885424 -1.0271247342489065 -0.36700528950988304 -1.2505937953323025 -0.24379402797223942 -0.670081684793214 1.429198216992943 -1.4299263196396088 
1.149343788392421 1.3755317520235948 1.3840685153982852 0.2872526190640394 -0.7407744676893828 -0.5933770405198767 -0.5026287705091511 -0.3103357176975651 -0.1494536860911766 -0.4273615437415959 -1.245884138934885 -0.7041600461754132 -0.7447618372114465 0.542275091905468 -1.275114605300324 1.2244204188694974 
-0.06038433422176091 1.4582840093577725 0.21440741133115157 -0.4596620329811301 -1.2407364594193253 -1.1441304297247419 -0.23374944654561575 0.6173572525213733 -1.0156793772118677 -0.9460277389137831 -0.4691299661864192 0.49719879868383193 -0.7685362675099902 -0.16181806175506855 -1.5409507705739052 -0.08067514529801115 
0.2891807477221459 -1.1938842318055705 0.683708278575946 -1.2440445305565726 0.05640382256879622 1.4024347148774945 0.6523509624552511 1.3314860300869011 0.0248323905276017 -0.9624883440558334 -0.18504773852655929 0.3699306849926602 -0.7906994544716968 0.2446892603060522 -0.5840745000826016 -0.037190251995808166 
-2.3944220174550086 -1.718600724205602 -1.6851202770725633 0.36274990042773886 0.8870828224566437 0.20085957673284888 -0.23737901031501007 -1.8665351478047025 -1.8095339419601164 -0.10131408440304442 -0.3188437853998421 0.9292090220512843 -1.488449719857249 0.4005048943916204 0.042006960306566636 0.04476828023126904 
-0.44780471002257183 -1.5274842126870811 -0.2995186705966116 1.1625666435997772 1.855478446227836 -2.169950909435418 -0.6126502554708955 -1.526487909327675 0.884569040605494 1.2681272169500564 1.976794530819887 0.49825557588574937 0.6890865627809419 -0.030387703846743046 -1.0434448546513504 -0.7562008999328668 
0.07036506947067947 0.619912822896257 0.5917866357748672 -1.4463701667284363 -2.0154944051239263 0.2382952284906262 1.784138043002136 -1.3684942901067294 -0.5905875506966258 -0.16715384824700075 -0.4993037505139122 -0.8360815214840804 -0.9699894879713925 0.9192459844146348 0.5203779194331672 2.0917506494081697 

0.8040354973740506 -0.8193707996811158 -0.015706043633463323 1.0646785178441511 -3.1309949954936442 -0.03211732538741664 -0.38557892341986444 1.870641223458381 1.019404604041548 -0.6759227758558011 -0.36670659959406615 0.4409867777299294 -1.0332191004464033 -1.417844428766651 0.7165066774545116 2.738810855558915 
-0.8168793961168056 0.8246413896191183 1.2929700845195955 -0.8373907523319597 -0.5467665539607979 0.1466435500144323 -0.4468615534309486 -0.96161646700774 -0.14939182629253084 0.6266161773587221 1.840180148027419 -0.3320833837825211 0.11233624540382242 -1.835540703640401 -1.667626337514555 -0.16089399121377454 
-0.45567373264575156 1.37800079916352 0.6900429533085477 0.20118814673014865 -1.8561439253847665 0.7144893928616264 0.8301241677709388 -1.2689490039688083 0.44849470316403056 0.9121529200894145 -2.199277914783165 -1.6466356157482795 0.4522861956534069 -0.2936761786888683 0.8113478716584015 0.40982430390047975 
0.45174865725932783 -1.0581958876164774 -0.7196080265693027 -1.5904201434514296 -1.303264637348592 -0.8832090551294381 1.0732472016963759 -1.3251577635594198 -1.141356767414046 -0.17060348409758125 0.8045293354344745 0.9764020557709477 1.3168475399983104 -0.9973238452524782 -0.4049619418998652 -0.7874945817521395 
-0.24748880776250912 0.9550856457243811 0.7651234314316466 0.1965814113716785 0.679380405828821 1.2379538806008212 -0.590312208158959 -0.5811901468443832 0.24668089086924258 0.2202218240259245 -0.1307582303239921 -0.5082323354374915 -1.5683531818841756 -2.0889653763770624 0.9418257805620215 -1.0208918173482822 
0.9695371518420081 0.2535007834617681 0.3822240827525966 1.5822233685840459 -0.9675351134612783 -0.9288785819821828 -0.8398057747197587 0.8057516376504046 -0.020325395035792365 -0.41296798402485296 1.0183718226250744 0.5149917201275453 1.4803050524863517 1.7935465692972268 -0.9296579424567993 -0.9864250577929234 
0.5803391593826104 0.9865191561810002 -1.150058212637341 1.5483206466297876 -1.1976256067713522 1.6059476025951631 -0.27128446368340087 0.0036678509812177206 -0.584423045157912 0.8735561137967418 -0.24992919344942807 2.7014270791930404 -0.41190518876394033 -0.06701711017815369 0.5326302906987479 -0.31892359566447276 
0.7954292953673389 0.5487728099778417 0.49915616444584565 2.856504317021075 -1.1038490651772508 0.6355503947802716 -0.6984512703749636 -0.7598164654210195 1.364500052874805 -2.014943205962261 -0.11767483033095504 0.21041651519860946 1.064386739676126 2.1890062245036916 -0.74178226493183 0.3131241425298371 
0.09331356856145435 -0.6679183799293485 0.05951480282517545 -1.1390681925544308 0.6827162972870932 0.20736497777958704 -0.10672835453308371 -0.7911619077970808 -0.5373646070290744 1.470873725926571 -1.49021757957615 -0.3063211501496016 0.3238987192487819 1.5487633935212552 0.6025422176562983 -0.3308864065063182 
1.033788225374938 0.10329010602907426 -0.6232748929661477 0.058181137549861005 -0.5915724936734755 -1.6080136600340575 -0.14130118031050665 -1.352624938933395 1.5033978060902107 -0.9945721953347939 -0.3627787859579676 -1.2477221997563523 -0.24832845098385414 -0.6620331641294276 1.4119701940616611 -1.3532592912197878 
1.149343788392421 1.3755317520235948 1.404591350614773 0.28231850599832026 -0.7645143460486277 -0.5796147168293874 -0.5130926207171084 -0.30757420605880775 -0.15095219474760393 -0.41289668829268283 -1.2423100153602697 -0.6961380090870606 -0.7411293524110538 0.5404313739453696 -1.275114605300324 1.2244204188694974 
0.058252933684529475 1.4450116146218042 0.2226151485275638 -0.4596620329811301 -1.2561165125107694 -1.1393687926056708 -0.2388945807883668 0.6180382617819933 -1.0049168162816688 -0.9473050719986842 -0.47083225428801356 0.49563233716079086 -0.7755898587169001 -0.1645621944789796 -1.4939041356919067 -0.07990479317287846 
0.2908527764375651 -1.1735650363080496 0.7018515823445203 -1.244845791477964 -0.05609815803465343 1.3753036404994257 0.6478697443399419 1.3099409217053195 -0.02516919711776953 -0.9674140066815433 -0.18751762351956933 0.3658337516910749 -0.8027652134984464 0.24567863151101446 -0.5913004326210608 0.03685755856418262 
-2.3964184748114308 -1.6875117665777981 -1.6809208778046196 0.3482600955884061 0.9090311939876863 0.20118451074800808 -0.23737901031501007 -1.846285079565417 -1.7913793025528113 -0.10484509448348135 -0.3239670212881826 0.9232835411782616 -1.4594808947228928 0.39834166891092837 -0.04073759687159788 -0.045119892010408426 
-0.44713215136293827 -1.6034002048618698 -0.30267110361283484 1.1766424613174467 1.8664087486801837 -2.1920217344055035 -0.609020481279312 -1.5205187313889528 0.8868826869435036 1.2384180551796198 1.976794530819887 0.49600822294992364 0.7012537552634119 -0.030442296911617428 -1.0434448546513504 -0.7506204362153616 
0.06804861447638057 0.6403543154073449 0.5917866357748672 -1.4633405480107995 -2.0056054655874567 0.23445351925188515 1.7159875017695274 -1.369614711594972 -0.5942949197356058 -0.17086276303197093 -0.49954612502905593 -0.8550643250750434 -0.9810593391547989 0.9192459844146348 0.5203779194331672 2.0796209062056175 

0.8040354973740506 -0.8143096218558088 0.015794859327076794 1.058590355771226 -3.1544386451180295 -0.03236121613771312 -0.39141864858950437 1.8956317299540262 0.9929335806491763 -0.6776963542095805 -0.34803226932905934 0.4409867777299294 -1.0335772102507925 -1.4428551395749944 0.7130861641199602 2.7022687491690762 
-0.8223914832561706 0.8183087708433492 1.283507463759598 -0.8282584165203494 -0.5455069060702572 0.14800632633389152 -0.45502054932288777 -0.9590548593467721 -0.1476363031369365 0.614081867120316 1.85420312301935 -0.33490042269925274 0.11233624540382242 -1.7876138166506732 -1.699297715596716 -0.16404626415522927 
-0.44381189261865134 1.3733042537689717 0.6869128292600111 0.20570695995458457 -1.8718384273074808 0.7144893928616264 0.8212647869153336 -1.252118995371422 0.4403600939476002 0.8982757663032954 -2.245965527741837 -1.6134927598486395 0.456514946813275 -0.2902046945421688 0.820383390784962 0.40431395895435046 
0.4769617865867207 -1.0859616048940044 -0.7196080265693027 -1.5988298779141301 -1.303264637348592 -0.8883590586793046 1.0724181239834945 -1.305785176136913 -1.100968445511748 -0.17049365934230135 0.7952789055465459 0.9826917138290314 1.3125708668340779 -0.9875362727125597 -0.4140664727080523 -0.7821168719074157 
-0.26343803850118047 0.9546154816936092 0.7716722498981939 0.19777280992976412 0.6835694913092074 1.2379538806008212 -0.5929061381584191 -0.5626057436166361 0.24668089086924258 0.2202218240259245 -0.1307582303239921 -0.5109802134305969 -1.5792831134920138 0.9890913771759636 0.9155873764839986 -1.029565047548322 
0.9690488064273923 0.25759497879110327 0.3793612857306683 1.5989302165416932 -0.9878408454444125 -0.939023918636712 -0.8450281134089523 0.803149918173416 0.020325395035792365 -0.4147377718772785 1.012200996843485 0.5086119315490469 1.4859874069355268 1.7525396364762116 -0.9152600889454592 -0.969291619150147 
0.5830585484789088 1.015593589595554 -1.1486045549207549 1.5483206466297876 -1.192481006809472 1.6059476025951631 -0.28005394059381117 0.0037085624662104733 -0.5958923265964607 0.8582799654444528 -0.23895620738888493 2.7009532403346057 -0.41190518876394033 0.06688206680334569 0.546465789599582 -0.32485900834099507 
0.8039529424568694 0.5453629102863926 0.505341546576903 2.9308046345412495 -1.0979570334311028 0.6406000183406528 -0.7011760780197508 -0.7780855837864121 1.3795828609769694 -2.014943205962261 -0.11772962284192111 0.21413456087736468 1.0583870456918656 2.1342365778794794 -0.7507813274180004 0.3165669039903021 
0.09485257747346683 -0.6679183799293485 -0.05974600910266679 -1.1304430345153818 0.6745985581508661 0.21326609168716928 -0.10815467258703582 -0.7811017412027659 -0.5471885820394294 1.4609279023608073 -1.4754757911946816 -0.3172625938737472 0.32554670483656223 1.5674519013970765 0.609022313814436 -0.3348852359060077 
1.0219168370264553 0.10329010602907426 -0.6232748929661477 0.05977246989517715 -0.6069717606527348 -1.6254513747816066 -0.14046040422075387 -1.378401512189602 1.418908542765206 -1.011221855738958 -0.3679121999468853 -1.2505937953323025 -0.24429841046021178 -0.6831688339554475 1.4119701940616611 -1.3522978079975787 
1.180084631261198 1.3772399787598828 1.3971225527001232 0.29095800055276977 -0.7517048576848766 -0.5896943934719256 -0.5058659789326301 -0.3059385564215546 -0.15023488073090527 -0.41167504362240503 -1.2435199557955507 -0.7020709459655615 -0.7447618372114465 0.5481080167531545 -1.2633547609802005 1.2175967814799733 
-0.06101238927919778 1.4471412849970984 0.21804255737958647 -0.45251246510154575 -1.2317668367688035 -1.1393687926056708 -0.23374944654561575 0.6364185118140736 -0.9867900608971999 -0.9473050719986842 -0.4838543656034663 0.49724671161095896 -0.792396736562178 -0.16139283825981174 -1.478161123936993 -0.07880946336334159 
0.29599466616513087 -1.2030333125107537 0.7174841493664809 -1.2464689534012414 -0.05569496713736206 1.41057036398402 0.6478697443399419 1.3314860300869011 -0.024834544584296146 -0.9754527191016497 -0.19159445711534326 0.372416067895731 -0.8087961678955099 0.24845187407907238 -0.5850727430349271 0.037221983311530905 
-2.384076170575526 -1.7123955764821663 -1.6723845678451135 0.36852259398013476 0.8919445743538293 0.19886839248802213 -0.2341582683808794 -1.8665351478047025 -1.8158100282121237 -0.1029520430126658 -0.3293293334352977 0.9283668688620953 -1.4630016168414037 0.40335582137243203 0.04173767451639322 -0.044593613537889 
-0.45433912257396286 -1.5910282320229259 -0.30192352431418507 1.1584652860165874 1.8363754444511393 -2.1788686416419027 -0.6123179069765369 -1.5182423569635293 0.8822805164513806 1.2301497892349194 2.0163836092827365 0.49688320669540703 0.7265096106741978 -0.03060526361703347 -1.028853454392442 -0.7392414751281118 
0.0679386158113566 0.6159791187784228 0.5779727988459186 -1.4623555697487092 -2.0159047674651545 0.23885190416532312 1.743583782908738 -1.3532690365533666 -0.5833114159226199 -0.16811776185548144 -0.5010830711147365 -0.8605817464630995 -0.9857277470186958 0.9111860189238001 0.5169978442267287 2.0833661032416324 

0.8040354973740506 -0.8141333004605437 -0.01575325166470784 1.0829790081486064 -3.1503806698378325 0.031801889404327474 -0.383899992171134 1.8740546959673792 0.9929335806491763 -0.6829449469922434 -0.360970920414145 0.4384135654956247 -1.0330706491339738 -1.417844428766651 0.7139147743171981 2.738810855558915 
-0.8119122943831443 0.8177861135098787 1.3054803288986117 -0.8058447952350203 -0.5459178811176266 0.1451670134412654 -0.447732636447906 -0.9560841077971829 -0.1476363031369365 0.6033097822593135 1.8340066646667499 -0.33490042269925274 0.11107364829984581 -1.8107490675473175 -1.6442005389806196 -0.1627570512150549 
-0.45746030127854026 1.4006161278747558 0.6701445711805512 0.20501164988552423 -1.8718384273074808 0.7144893928616264 0.8218045558393628 -1.2420228053808444 0.44634172378778997 0.9132070930622421 -2.1901703273524515 -1.6370821016742911 0.4530377421776787 -0.292151310886001 0.822437571334271 0.41382471259925574 
0.46523532056584826 -1.084349405776474 -0.7128144932373062 -1.5904201434514296 -1.3115982979645135 -0.8666180036346508 1.0785385619502774 -1.2881068429821922 -1.1140919194867973 -0.16710621836882078 0.8125107513835015 0.9771478489523873 1.3282624557860836 -0.9973238452524782 -0.4098224339411729 -0.7722198982228099 
-0.24713264341088545 0.9550856457243811 0.7697378768761617 0.19901852228867112 0.6835694913092074 1.2283901168460976 -0.5948558755479034 -0.5626057436166361 0.247774796766626 0.2202218240259245 -0.13009124533695127 -0.5084883966326033 -1.5792831134920138 -2.0839849429406723 0.9328941795532155 -1.0139758687038385 
0.9602699728416186 0.25725617667731165 0.38252550396045953 1.6004400429176535 -0.9878408454444125 -0.9274367077212862 -0.8398057747197587 0.8069371194773833 0.020220130626428637 -0.4184425011391063 1.008272886124002 0.5158655934069927 1.4845145794588066 1.7252522709084182 -0.9242888074180905 -0.9643833125976169 
0.5960578523890484 1.0004513287638945 -1.1547032305616167 1.5483206466297876 -1.1743083140450532 1.6059476025951631 -0.28005394059381117 0.003660807441000278 -0.5948673528250538 0.8562274487318418 -0.24992919344942807 2.703927303310921 -0.41190518876394033 -0.06742061614570666 0.546465789599582 -0.31795475474048285 
0.8028062157924274 0.53728713862503 0.49915616444584565 2.8331973598542652 -1.0979570334311028 0.6418534801247902 -0.7120005106546354 -0.7765529671284047 1.3795828609769694 -2.0423165939087107 -0.11734721607885838 0.21483968957947733 1.064386739676126 2.157661389851279 -0.7536632363370157 0.3035706734704719 
0.09331356856145435 -0.681401764872492 0.05951480282517545 -1.1360452917316688 0.6864397050468398 0.20736497777958704 -0.10815467258703582 -0.7787614759967694 -0.5475254214749519 1.4699723524368506 -1.513878225425962 -0.31114759971095257 0.32890425757238073 1.5239576937727406 0.616222417743519 -0.3328785983750654 
1.0565667413624578 0.10329010602907426 -0.6062043643775524 0.05924490769385737 -0.6072332522308798 -1.609710666125387 -0.1390158989576266 -1.352624938933395 1.4522610002055154 -1.011221855738958 -0.3679121999468853 -1.2309353311779427 -0.24563828012829497 -0.6780408006219772 1.4541405051765464 -1.3522661394361781 
1.1569074402358748 1.3772399787598828 1.404591350614773 0.2886447001300524 -0.7553691999762976 -0.579479897399276 -0.5058659789326301 -0.30777005799101853 -0.1462941829766606 -0.41193306746096753 -1.2434739465026836 -0.7016422412934309 -0.7447618372114465 0.542275091905468 -1.2604894009629009 1.2295333760539466 
-0.05904689855441575 1.4582840093577725 0.21804255737958647 -0.4454905776235649 -1.2723339728335856 -1.1485610538314206 -0.23425368191429013 0.6323452518548964 -1.0414953847640647 -0.9467865665417897 -0.4802612278642777 0.49766593773287776 -0.7828538259135225 -0.1642844643709694 -1.496338324660578 -0.08150257976020443 
0.295974566447995 -1.2122093391896884 0.7123950971688192 -1.238780195262087 -0.05484057663085596 1.3789569624352176 0.6482953103772598 1.3314860300869011 0.025067575704533548 -0.9751425474482851 -0.1885399341193324 0.36728194150170884 -0.8027652134984464 0.25073896378227317 -0.5840745000826016 0.03746331797445652 
-2.4114635302921332 -1.7123955764821663 -1.706721844556169 0.3518694932371923 0.8919445743538293 0.19886839248802213 -0.23675207415736346 -1.8665351478047025 -1.8158100282121237 -0.10372979344759545 -0.3295951469345661 0.9447288632666049 -1.4443831838804768 0.39771660936901576 0.04111959876292593 0.04494439554923509 
-0.44967384179098563 -1.5442064517872514 -0.30267110361283484 1.1625666435997772 1.8458996070212979 -2.2038583382985357 -0.6102083168430769 -1.5105111857904672 0.8882965047230974 1.2402654077779798 1.976794530819887 0.4880021144217056 0.6914711908420365 -0.03135073872635842 -1.050541772374011 -0.7308657840626969 
0.07036506947067947 0.6299770207729753 0.5995525296049434 -1.4235119359595745 -2.0458349642619136 0.2321093171140807 1.7028895323112794 -1.337033505016985 -0.5905875506966258 -0.16811776185548144 -0.49954612502905593 -0.8721748566270571 -0.9806491650949012 0.9099649134268437 0.5132785515094528 2.0708818360614214 

0.8040354973740506 -0.8141333004605437 0.015383761748407122 1.0829790081486064 -3.1503806698378325 0.031801889404327474 -0.383899992171134 1.8821089785246707 1.0076659808072814 -0.6829449469922434 -0.360970920414145 0.4384135654956247 -1.0324620107579408 -1.4428551395749944 0.70325487840472 2.738810855558915 
-0.8223914832561706 0.8177861135098787 1.3054803288986117 -0.8215300736338526 -0.5459178811176266 0.1451670134412654 -0.447732636447906 -0.9560841077971829 -0.14876644586588444 0.6033097822593135 1.8340066646667499 -0.33490042269925274 0.11097516580845941 -1.823811867038343 -1.6442005389806196 -0.1627570512150549 
-0.45746030127854026 1.4006161278747558 0.6804602719910464 0.20501164988552423 -1.8718384273074808 0.7144893928616264 0.8218045558393628 -1.2420228053808444 0.44634172378778997 0.9132070930622421 -2.166355824790454 -1.6370821016742911 0.4530377421776787 -0.292151310886001 0.822437571334271 0.40431395895435046 
0.46523532056584826 -1.084349405776474 -0.7128144932373062 -1.5904201434514296 -1.3032293584925068 -0.8666180036346508 1.0785385619502774 -1.3063654959407605 -1.1140919194867973 -0.17527092529955668 0.8125107513835015 0.9771478489523873 1.3282624557860836 -0.9973238452524782 -0.4098224339411729 -0.7653701030663722 
-0.24713264341088545 0.9550856457243811 0.7597702690227265 0.19901852228867112 0.6835694913092074 1.2283901168460976 -0.5948558755479034 -0.5650155386222401 0.24847195641092548 0.22369969259282907 -0.13009124533695127 -0.5071865087919802 -1.5792831134920138 -2.091367107531861 0.9328941795532155 -1.0291646776339454 
0.9602699728416186 0.2611371182973875 0.38252550396045953 1.6004400429176535 -0.9675351134612783 -0.9274367077212862 -0.8398057747197587 0.7974836528003444 0.020278000850744795 -0.41738017782084413 0.9943998401440247 0.5158655934069927 1.4803050524863517 1.7252522709084182 -0.9242888074180905 -0.9845503934771602 
0.5887023590007399 1.0004513287638945 -1.1547032305616167 1.5483206466297876 -1.1743083140450532 1.6059476025951631 -0.28005394059381117 0.003660807441000278 -0.5887016731741719 0.8533785700455446 -0.24992919344942807 2.703927303310921 -0.41190518876394033 -0.06742061614570666 0.546465789599582 -0.31795475474048285 
0.8028062157924274 0.53728713862503 0.49915616444584565 2.8617933575096153 -1.0979570334311028 0.6342883346440192 -0.7120005106546354 -0.7765529671284047 1.3662441899898055 -2.0423165939087107 -0.1185642019430765 0.2130482292983193 1.064386739676126 2.157661389851279 -0.7536632363370157 0.30209775683302303 
0.09371504804497295 -0.681401764872492 0.05951480282517545 -1.1360452917316688 0.6864397050468398 0.2093315393475265 -0.10985541445309137 -0.7787614759967694 -0.5287880748746646 1.4699723524368506 -1.513878225425962 -0.31114759971095257 0.32890425757238073 1.5239576937727406 0.616222417743519 -0.3344421336668674 
1.0293072438620794 0.10329010602907426 -0.616088617918 0.05924490769385737 -0.6011354979642607 -1.609710666125387 -0.1390158989576266 -1.352624938933395 1.4522610002055154 -1.0270469519467198 -0.36893146560232 -1.2697879182200613 -0.24102399827198523 -0.6780408006219772 1.4274180091545623 -1.3594897628700289 
1.1569074402358748 1.3772399787598828 1.404591350614773 0.2955391123288283 -0.7476205470075495 -0.579479897399276 -0.515475260477507 -0.30497147686461845 -0.1462941829766606 -0.4162683355093841 -1.2434739465026836 -0.7016422412934309 -0.7471037495829889 0.542275091905468 -1.2604894009629009 1.2295333760539466 
-0.05904689855441575 1.479255205809281 0.21870118539402175 -0.45451840012623174 -1.238081681058789 -1.1485610538314206 -0.23425368191429013 0.6238164284344148 -1.0414953847640647 -0.9467865665417897 -0.4802612278642777 0.49617900477003435 -0.7755898587169001 -0.1642844643709694 -1.496338324660578 -0.08150257976020443 
0.295974566447995 -1.2122093391896884 0.7123950971688192 -1.2385117888717108 -0.05552252164253487 1.3789569624352176 0.6482953103772598 1.3314860300869011 0.025067575704533548 -0.9751425474482851 -0.1885399341193324 0.36642130435530446 -0.8027652134984464 0.25073896378227317 -0.5846025489317532 0.03746331797445652 
-2.4114635302921332 -1.7123955764821663 -1.706721844556169 0.3518694932371923 0.8919445743538293 0.19886839248802213 -0.23675207415736346 -1.8665351478047025 -1.8158100282121237 -0.10372979344759545 -0.3293293334352977 0.9292090220512843 -1.4443831838804768 0.39771660936901576 0.04111959876292593 0.04494439554923509 
-0.4463400474099086 -1.5910282320229259 -0.30267110361283484 1.1625666435997772 1.8397448591243366 -2.1788686416419027 -0.6007877161138564 -1.526487909327675 0.8882965047230974 1.235018663218255 1.976794530819887 0.49184387159887366 0.7123427106092711 0.03135073872635842 -1.050541772374011 -0.734063526052361 
0.0690765778179194 0.6299770207729753 0.5995525296049434 -1.4235119359595745 -2.0458349642619136 0.23260680165987843 1.7197987323077168 -1.3384411979398658 -0.5901676475254888 -0.16693098512547766 -0.49954612502905593 -0.8690244130177042 -0.9806491650949012 0.9099649134268437 0.5132785515094528 2.0708818360614214 

0.8031657042930336 -0.8459265910762517 0.015305925469664911 1.0829790081486064 -3.1503806698378325 -0.0318452038728115 -0.38164587699823754 1.8821089785246707 1.0077370026850614 -0.6861219841306282 -0.360970920414145 0.4402474137694218 -1.0390197286975726 -1.4428551395749944 0.70325487840472 2.7429311813904853 
-0.8089624876682338 0.8292267777468556 1.2803024389232773 -0.8298277788587669 -0.5459178811176266 0.14739995080978874 -0.44794876025768665 -0.9623425108495027 -0.15016893898464165 0.6259085075211822 1.8340066646667499 -0.3306856873989668 0.11097516580845941 -1.825109813726122 -1.6442005389806196 -0.1630297290170722 
-0.45567373264575156 1.4006161278747558 0.6804602719910464 0.20501164988552423 -1.8718384273074808 0.7144893928616264 0.8212647869153336 -1.252118995371422 0.4403600939476002 0.9266153944421227 -2.166355824790454 -1.6400636115403513 0.4530377421776787 -0.2930377873563816 0.8299148614730536 0.4203349133501384 
0.4647019624837216 -1.084349405776474 -0.7083452239343502 -1.5870211185337793 -1.3032293584925068 -0.8666180036346508 1.0785385619502774 -1.3063654959407605 -1.1140919194867973 -0.17786975366182137 0.8200538465249906 0.976495939371035 1.33583614946425 -0.9973238452524782 -0.4164436308109578 -0.752095534942343 
-0.24713264341088545 0.9418296933662994 0.7597702690227265 0.19901852228867112 0.6835694913092074 1.2283901168460976 -0.5900240665138116 -0.5709179360049019 0.24847195641092548 0.22060364815338854 -0.13224648387049545 -0.5071865087919802 -1.59161595421565 -2.09904401207132 0.9328941795532155 -1.0186786940762214 
0.9694007558636359 0.25707081605282656 0.3790857744866337 1.5681841194853847 -0.9675351134612783 -0.9149842879794501 -0.8398057747197587 0.7930361254391427 0.020278000850744795 -0.4188092286037297 0.9943998401440247 0.5158655934069927 1.487524803277131 1.7252522709084182 -0.9483301630057034 -0.980583910609263 
0.5887023590007399 0.9918635414347633 -1.1698161749322185 1.5267818300136407 -1.1790710733317655 1.6282415564200983 -0.28005394059381117 -0.003660807441000278 -0.5887016731741719 0.847533390525396 -0.24151260856620083 2.700116201362467 -0.41190518876394033 -0.06742061614570666 0.5352156738051158 -0.32495576604517545 
0.817935829321516 0.5331316658385725 0.49915616444584565 2.8761188970910974 -1.0979570334311028 0.6372581598901397 -0.7120005106546354 -0.7611119511632397 1.3662441899898055 -2.014943205962261 -0.1185642019430765 0.2130482292983193 1.0416680136194023 2.1741405694861484 -0.7507813274180004 0.3061354351643957 
0.09485257747346683 -0.681401764872492 0.05951480282517545 -1.14163714663142 0.6864397050468398 0.20935557628014012 -0.10815467258703582 -0.7787614759967694 -0.5287880748746646 1.5034413570840857 -1.513878225425962 -0.31387753923243034 0.3219065993038832 1.5453110860620165 0.607963276972624 -0.3344421336668674 
1.0293072438620794 0.10329010602907426 -0.616088617918 0.05924490769385737 -0.5918377342257488 -1.6390226805130106 -0.14046040422075387 -1.352624938933395 1.5033978060902107 -1.0270469519467198 -0.3679121999468853 -1.2505937953323025 -0.23984870516350187 -0.6621209307142323 1.4269761525730602 -1.3545182718022335 
1.1569074402358748 1.399233533702315 1.404591350614773 0.2872526190640394 -0.7675795290972743 -0.579479897399276 -0.5081541223840791 -0.3059385564215546 -0.1462941829766606 -0.40957563853954576 -1.2609761117774894 -0.7006384888123608 -0.7563098173187108 0.542275091905468 -1.2901439216066877 1.2490951204545677 
0.058727405155441774 1.4661855314071013 0.21440741133115157 -0.45451840012623174 -1.2407364594193253 -1.153060781356672 -0.2315612925402483 0.6255615163474081 -1.0267705108389122 -0.9473050719986842 -0.4753641786922716 0.5035301502610958 -0.7768194952909494 -0.16109152240899252 -1.5074644778078048 -0.0797510212192818 
0.294568937137415 -1.2122093391896884 0.7097024425846837 -1.2188362579321683 -0.05552252164253487 1.3776061913205082 0.6564906440713854 1.3314860300869011 0.025067575704533548 -0.9643924655507696 -0.18704779316983602 0.3657562388779191 -0.8092131577471322 0.24567863151101446 -0.5943879602363955 0.037944286322091375 
-2.3767862766500323 -1.7123955764821663 -1.706721844556169 0.3518694932371923 0.885143848242971 0.20118451074800808 -0.23829906172699603 -1.8431961274678406 -1.8158100282121237 -0.10197179984597156 -0.3301027928718457 0.9191372951187453 -1.4611019095404594 0.39771660936901576 -0.04206586178819349 -0.04382525918184912 
-0.44967384179098563 -1.5910282320229259 -0.30267110361283484 1.1625666435997772 1.8528930683696418 -2.1547843636800557 -0.6371436208444082 -1.526487909327675 0.8882965047230974 1.2301497892349194 1.9915910482028485 0.499809637208288 0.7186931810097629 0.030631297546446244 -1.0681578077080043 -0.7401061035339036 
0.07036169031527596 0.6362443674993508 0.6151855914152663 -1.4528117179233024 -2.0159047674651545 0.23260680165987843 1.7430919417378137 -1.3384411979398658 -0.5833114159226199 -0.16693098512547766 -0.49957142541746724 -0.8609501836209488 -0.9969512580684209 0.9282419024444873 0.5203779194331672 2.0917506494081697 

0.8026251599529333 -0.8476714671108418 0.015921588151889456 1.0745992817773666 -3.138744436467231 -0.03220586309771152 -0.38941267202957025 1.8935287376798877 1.0101239217612545 -0.6757578350012085 -0.35512487098102896 0.4452526780744703 -1.0262129331940295 -1.4428551395749944 0.712903558858662 2.738810855558915 
-0.830878643860016 0.8095567391275579 1.268511944278604 -0.7814626884191737 -0.5549367661108003 0.14461636125645436 -0.4502048273949097 -0.9560841077971829 -0.1452552429479554 0.6266161773587221 1.8366418903536232 -0.3306856873989668 0.11178210956689492 -1.823811867038343 -1.670212770749852 -0.16174397022060416 
-0.4568245813628016 1.33495092105772 0.6900429533085477 0.20937471069670366 -1.8171692805816544 0.7144893928616264 0.8289185811451163 -1.252118995371422 0.44634172378778997 0.9273461729652186 -2.145664196143445 -1.6400636115403513 0.4528218326392892 -0.29263615284992434 0.8377462991069028 0.41034039074441764 
0.4577621894878144 -1.0585482372852395 -0.724347273424797 -1.5990052049405845 -1.3189599723140821 -0.8755953382736475 1.0732472016963759 -1.2777777512731308 -1.1105317107645576 -0.17039742258026996 0.8200538465249906 0.963878675400932 1.3168475399983104 -0.993427509545358 -0.412158945164666 -0.7879161219907295 
-0.24447991857051116 0.9668219216873759 0.7816883296187821 0.1967957287906409 0.6888495435392145 1.2409808195494056 -0.5913824040734016 -0.5626057436166361 0.24497664080674894 0.22029991627314569 -0.13104265368298373 -0.5126875967273371 -1.5687960674226613 -2.0594853774067077 0.9218519009131773 -1.0186786940762214 
0.9784988353037142 0.25390918313895605 0.3790857744866337 1.5862381314559455 -0.9638081743957235 -0.9310365404342917 -0.8349202403887465 0.7921131983601991 -0.020376349497232254 -0.4188092286037297 1.0225412609721238 0.5116791977006009 1.4803050524863517 1.700369066061489 -0.9296579424567993 -0.9921747847801214 
0.5740783484373151 1.0166190472797152 -1.1547032305616167 1.5483206466297876 -1.184793107387655 1.5623222668473578 -0.2824092462052259 0.003635273798280502 -0.584423045157912 0.8626245703824941 -0.24151260856620083 2.700116201362467 -0.4132590790171569 -0.06899302664749747 0.5326302906987479 -0.3205398058801848 
0.8056366813115339 0.5311622347670373 0.5083003291586717 2.8902044661600903 -1.0979570334311028 0.6430483470925312 -0.6914022785282442 -0.7621119508696319 1.382260740988655 -2.0370544709040512 -0.11772962284192111 0.2173193368514893 1.0535831034287946 2.1342365778794794 -0.7536632363370157 0.3061354351643957 
0.09152670563204701 -0.6710495280887421 0.05951480282517545 -1.1272202253736803 0.6864397050468398 0.2109800850831768 -0.10815467258703582 -0.7905986311122982 -0.5351189768193494 1.4609279023608073 -1.5484797262149428 -0.31114759971095257 0.3293454121657883 1.5358288311239405 0.6337659015205053 -0.3328785983750654 
1.033788225374938 0.10329010602907426 -0.615860712453324 0.05945865921394951 -0.5985846716765036 -1.633672369904455 -0.14339961668329057 -1.3544571009467363 1.4634433280621357 -1.0257458433921773 -0.3679121999468853 -1.2158073807729444 -0.24429841046021178 -0.6494158263970238 1.4353097375735264 -1.3522661394361781 
1.1549718342988593 1.3755317520235948 1.404591350614773 0.283089955229217 -0.7531116389689739 -0.5851951442825353 -0.5081541223840791 -0.30860534897992536 -0.15052108710626275 -0.4221281840515508 -1.2525411823667365 -0.7006384888123608 -0.7539065447106523 0.5368405922378167 -1.275114605300324 1.2244204188694974 
-0.05816869728795618 1.4582840093577725 0.2155096783799247 -0.4524665318765853 -1.247843599205819 -1.1393687926056708 -0.23859826511706636 0.6052188784675192 -1.015657578762298 -0.9502574511664206 -0.49507794595932125 0.4981743428063462 -0.7755898587169001 -0.1617001654092958 -1.478161123936993 -0.08048732818154888 
0.29514515800865265 -1.2212364047964572 0.6986665784026812 -1.2385117888717108 -0.05609815803465343 1.4024347148774945 0.6420596593504394 1.3314860300869011 0.024834544584296146 -0.9674140066815433 -0.18624313994124186 0.3657562388779191 -0.80809121913706 0.244357341170731 -0.5841031683329613 -0.038889060199792186 
-2.371942161926982 -1.7206430429330668 -1.702454028573421 0.3518694932371923 0.8905652774181992 0.20118451074800808 -0.2359361748333735 -1.8586443580006236 -1.8158100282121237 -0.10430189697711366 -0.3301027928718457 0.9447288632666049 -1.4443831838804768 0.39557787411130413 0.04188648598092559 0.044671547179597364 
-0.44967384179098563 -1.5910282320229259 -0.30203331680694634 1.1880190492763074 1.8528930683696418 -2.1911509941536114 -0.6273909375512208 -1.537473389614343 0.8822805164513806 1.256658978455795 1.9863840130686963 0.49688320669540703 0.7176249753660934 -0.030442296911617428 -1.036255353032881 -0.7347728813376085 
0.07036506947067947 0.6299770207729753 0.5862907821546208 -1.44409032826802 -2.011121217153722 0.23605212706868509 1.7335578344813234 -1.3757008795060768 -0.5875460327093185 -0.16693098512547766 -0.5038118704696685 -0.8550643250750434 -0.9857277470186958 0.9217604901937813 0.5200229932009606 2.0917506494081697 

0.7676123869803357 -0.8193707996811158 0.01575325166470784 1.0578201595462586 -3.1149237939555765 0.0316461212428093 -0.39084292674543514 1.8877273091770583 1.0076659808072814 -0.6694303157425855 -0.35610093301904727 0.4409867777299294 -1.038841882458254 -1.417844428766651 0.7139147743171981 2.750911689322439 
-0.8172529649288504 0.8095567391275579 1.2659631611119473 -0.8061883013270329 -0.5549367661108003 0.1451670134412654 -0.45201728577448863 -0.9749072010690366 -0.1476363031369365 0.611791460337755 1.840180148027419 -0.3311858148478597 0.11042565901469459 -1.825109813726122 -1.667626337514555 -0.16089098627157009 
-0.45567373264575156 1.3816016443848698 0.6900429533085477 0.20927317790761044 -1.8384402593473537 0.7144893928616264 0.8212647869153336 -1.2390686383458784 0.4474910204503761 0.9273461729652186 -2.1901703273524515 -1.618928796759828 0.4528218326392892 -0.2936761786888683 0.8259174285204793 0.4166521838112195 
0.45054008841616766 -1.0694287386388357 -0.7196080265693027 -1.5990052049405845 -1.3115982979645135 -0.8697036067924733 1.0732472016963759 -1.2838215619993254 -1.1240770228247725 -0.17320111752359066 0.7994616354636066 0.9590022184092812 1.3242341576971672 -0.993427509545358 -0.41099757679417304 -0.7667457208430086 
-0.25276633406336774 0.9683854020987236 0.7462832298876458 0.1965814113716785 0.6835694913092074 1.2422624680136898 -0.5937950534285137 -0.5626057436166361 0.247774796766626 0.2202218240259245 -0.13137344997269446 -0.5084883966326033 -1.5664055464225544 -2.0863823977003277 0.9277388883532026 -1.0353330553310824 
0.9784988353037142 0.2595352876598617 0.3790857744866337 1.5819790918922672 -0.9675351134612783 -0.9269585215430831 -0.8349202403887465 0.8062058878607715 0.020220130626428637 -0.417853152084487 1.008272886124002 0.5125190580188143 1.4803050524863517 1.7252522709084182 -0.9483301630057034 -0.9643833125976169 
0.593589872802565 0.9837114371068227 -1.1630448219525626 1.5483206466297876 -1.1934604574565357 1.6274051837118995 -0.2758357993783659 -0.0035997534487263827 -0.5865440788357669 0.8381265919262907 -0.24992919344942807 2.6608118750998777 -0.41190518876394033 -0.06648572849749879 0.5418108604095264 -0.31690455660712014 
0.8027619586548689 0.5311622347670373 0.5104869641332693 2.8841939562654044 -1.0869950396219865 0.637235956437904 -0.7047334645274381 -0.7544681738154805 1.3795828609769694 -2.014943205962261 -0.11772962284192111 0.21483968957947733 1.0755806202550455 2.1342365778794794 -0.7507813274180004 0.29389359428126055 
0.09331356856145435 -0.6640306799285185 -0.05810223263780793 -1.111044707081096 0.6947153917159371 0.20736497777958704 -0.10915896687004042 -0.7933453779643462 -0.5475254214749519 1.4865853306682364 -1.5255878416725197 -0.31564848217634744 0.3293454121657883 1.5453110860620165 0.607963276972624 -0.3328785983750654 
1.0702407381063448 0.10329010602907426 -0.6210874630884128 -0.05936667645973889 -0.593397219291381 -1.6080136600340575 -0.14033574157285253 -1.3544571009467363 1.507130479248529 -1.011221855738958 -0.3679121999468853 -1.2481812753486123 -0.24563828012829497 -0.673789467418344 1.406720945842866 -1.344141596167119 
1.180084631261198 1.3839838482686049 1.426280659589244 0.2872526190640394 -0.7535762025600246 -0.5736972674765823 -0.5081541223840791 -0.31052536077228415 -0.15178903325236295 -0.4146962901959559 -1.2435199557955507 -0.7006384888123608 -0.7447618372114465 0.5440097598688615 -1.2607402548608442 1.204328151238984 
-0.05902728160776922 1.4661855314071013 0.2155096783799247 -0.4524665318765853 -1.2407364594193253 -1.1287689723433114 -0.23564086535400636 0.6141744579036105 -1.040019990777446 -0.9384421660469712 -0.4897712632447323 0.4941252018681352 -0.7719044598938319 -0.1607639888433946 -1.4939041356919067 -0.07990479317287846 
0.2979245378679396 -1.2189782607545148 0.6782410718020121 -1.2609955774937642 0.05590267230048475 1.4100908683056608 0.6304812163192627 1.3080292967061031 -0.02508837985475464 -0.9710627024614977 -0.18384088830219972 0.3699306849926602 -0.8234782733098847 0.2446892603060522 -0.5943879602363955 0.037944286322091375 
-2.384076170575526 -1.677002267327371 -1.7428394990825433 0.36274990042773886 0.886777037679587 0.19998388732463396 -0.24012573477358515 -1.8665351478047025 -1.7913793025528113 -0.10421845302636315 -0.3295951469345661 0.9447288632666049 -1.4030957956057877 0.40862185102020504 -0.04188648598092559 0.044225836383032 
-0.4478667288879946 -1.6034002048618698 -0.30267110361283484 1.1625666435997772 1.8458996070212979 -2.1868122726959744 -0.6131489034225813 -1.49145431419303 0.8868826869435036 1.2402654077779798 2.0163836092827365 0.4880021144217056 0.6914711908420365 0.029573735139679373 -1.0486258110251745 -0.7347728813376085 
0.06900191152092937 0.6299770207729753 0.6080625261245318 -1.44409032826802 -2.0159047674651545 0.23705391289630712 1.7316172941890318 -1.3532690365533666 -0.5905875506966258 -0.16811776185548144 -0.49790515677449626 -0.8550643250750434 -0.9969512580684209 0.9469823954098409 0.5167464024768567 2.0965524774472373 

0.8040597890366116 -0.8143096218558088 0.015794859327076794 1.0724968911144117 -3.1309949954936442 0.031976583135189814 -0.3890287300654964 1.9095088376175107 1.005063220028144 -0.6907283075501585 -0.35512487098102896 0.4402474137694218 -1.0190753042163907 -1.4086220185971867 0.7130861641199602 2.566039376171275 
-0.8117604958464427 0.822961750030278 1.2997842569171572 -0.8339606890458683 -0.5508075100207094 0.14808499401312178 -0.44310701485643905 -0.9757770498683342 -0.1476363031369365 0.6190529321203665 1.8307208529816836 -0.333360810258841 0.11287669095284167 -1.8145546274576794 -1.7215934960499313 -0.16522977252247092 
-0.4488537549622129 1.3834122517988512 0.683277321770156 0.20831484388510915 -1.8715118511849025 0.7076849250323674 0.8456012074150903 -1.2689490039688083 0.44849470316403056 0.9273461729652186 -2.2127500198283183 -1.6480317435439376 0.456514946813275 -0.2887025893962495 0.8259174285204793 0.4109142507402263 
0.45054008841616766 -1.0585482372852395 -0.724347273424797 -1.5870211185337793 -1.3172380013166685 -0.882161631620093 1.0785385619502774 -1.3019258362040638 -1.11459595724875 -0.17186393764286856 0.8104004425952013 0.9670922996655255 1.3309578253256935 -0.983217510910451 -0.417682788959006 -0.7552978440814616 
-0.24802537810846725 0.9550856457243811 0.760245233708138 0.19934848865814278 0.6749274920288435 1.2231969814065857 -0.5900240665138116 -0.5626057436166361 0.24668089086924258 0.2202218240259245 -0.1307582303239921 -0.5126875967273371 -1.59161595421565 -2.081997068236125 0.9277388883532026 -1.0156534851788732 
0.9690488064273923 0.25800408974722794 0.3790857744866337 1.5862381314559455 -0.988572774554402 -0.9274367077212862 -0.8450281134089523 0.8095184993495539 0.020220130626428637 -0.4181434235114285 1.0109101636631221 0.5116791977006009 1.487524803277131 1.7389572082687337 -0.9462392500204966 -0.9823973450382729 
0.5711449355714665 1.012683973419506 -1.1738680013579248 1.5483206466297876 -1.1790710733317655 1.6059476025951631 -0.27766541416018686 0.003660807441000278 -0.5865440788357669 0.8582799654444528 -0.23895620738888493 2.7009532403346057 -0.39910499116051956 -0.06899302664749747 0.5326727357125618 -0.32303467295305416 
0.8083387802476151 0.53728713862503 0.5148991278492805 2.8649222757608444 -1.0990698993552062 0.6430483470925312 -0.7061654258929048 -0.7551372360684463 1.3795828609769694 -2.014943205962261 -0.11772962284192111 0.21434002884621686 1.0615247627936037 2.1448337233197865 -0.7536632363370157 0.3131241425298371 
0.09180751847719171 -0.6679183799293485 0.05928747656907971 -1.1390681925544308 0.6942273474163113 0.21215876178749574 -0.10674173671964157 -0.8052889629953992 -0.5303376845490608 1.4865853306682364 -1.5270034955046496 -0.31114759971095257 0.32310024182165714 1.5600833904635834 0.609022313814436 -0.33389490357528084 
1.0345901748764166 0.10304166322236019 -0.6152478656874694 -0.05839798289427227 -0.59896212650234 -1.6080136600340575 -0.14130118031050665 -1.3543544212717147 1.4259481997581847 -1.011221855738958 -0.35044693873521643 -1.2505937953323025 -0.24429841046021178 -0.670081684793214 1.4487350294968893 -1.3511054798483249 
1.180084631261198 1.381703737189203 1.3840685153982852 0.2872526190640394 -0.7476205470075495 -0.579479897399276 -0.5056308526483378 -0.3103357176975651 -0.15257555518911128 -0.4278534663375361 -1.256351512010259 -0.6962099938834517 -0.7447618372114465 0.5455943336882032 -1.2647880020934257 1.2250214350426523 
-0.06038433422176091 1.4594402140397995 0.21804255737958647 -0.44605649798599317 -1.2277490962340933 -1.1441304297247419 -0.242074077959723 0.6364185118140736 -1.0156793772118677 -0.9460277389137831 -0.473347124539862 0.495976949946231 -0.792396736562178 -0.1694511933561092 -1.5227790913698567 -0.08067514529801115 
0.2891807477221459 -1.2037285005270644 0.683708278575946 -1.2464689534012414 -0.05609815803465343 1.4024347148774945 0.6762294296999087 1.3314860300869011 -0.024834544584296146 -0.9624883440558334 -0.1885399341193324 0.3643502285857284 -0.7906994544716968 0.24809191012756976 -0.5936325985235709 -0.038028692585100485 
-2.3944220174550086 -1.718600724205602 -1.6851202770725633 0.36274990042773886 0.8919445743538293 0.20085957673284888 -0.23675207415736346 -1.8431961274678406 -1.8095339419601164 -0.1015733932959554 -0.3188437853998421 0.9292090220512843 -1.4443831838804768 0.4007818740548399 0.042103024948177234 0.045096155447618747 
-0.4501062430180396 -1.5274842126870811 -0.29932305999894987 1.1625666435997772 1.855478446227836 -2.1788686416419027 -0.602963177184835 -1.5428159810700768 0.8882965047230974 1.2525619370122032 2.017837889625292 0.49407226677359584 0.6890865627809419 -0.030442296911617428 -1.028853454392442 -0.7485732370429178 
-0.06804505032973282 0.619912822896257 0.5959720402302012 -1.4474073411781307 -2.0154944051239263 0.2382952284906262 1.7083315963068888 -1.3684942901067294 -0.5976137802797566 -0.16462166211233814 -0.4931919015853884 -0.8605817464630995 -0.9815245841671311 0.9283314883003935 0.5169978442267287 2.0917506494081697 

0.8040354973740506 -0.8143096218558088 -0.015794859327076794 1.0511208838872739 -3.1309949954936442 0.03220586309771152 -0.38164587699823754 1.8935287376798877 1.0077370026850614 -0.6863664328090552 -0.36120668952742696 0.4444157110003887 -1.019508248361573 -1.4345516889386118 0.7130861641199602 2.7022687491690762 
-0.8089624876682338 0.8183087708433492 1.2777160060103354 -0.8232440326637075 -0.5459178811176266 0.14800632633389152 -0.45502054932288777 -0.9623425108495027 -0.1494975213901788 0.614081867120316 1.8397536656376423 -0.3306856873989668 0.11245835205777976 -1.7876138166506732 -1.670212770749852 -0.16404626415522927 
-0.44873689584200693 1.3555408696594673 0.6725218979398014 0.20868315272877352 -1.8718384273074808 0.7144893928616264 0.81183018899357 -1.252118995371422 0.4474910204503761 0.9266153944421227 -2.166355824790454 -1.6287334236481914 0.456514946813275 -0.2902046945421688 0.8332457027802767 0.40431395895435046 
0.4577621894878144 -1.0859616048940044 -0.7196080265693027 -1.5870211185337793 -1.3115982979645135 -0.8660512949403835 1.0785385619502774 -1.305785176136913 -1.0874052048667489 -0.1698583788895027 0.7952789055465459 0.9678000911880444 1.3125708668340779 -0.9973238452524782 -0.4118299078243745 -0.7511700026970903 
-0.24802537810846725 0.9515054593955593 0.7676589681745212 0.1967957287906409 0.6884307949835826 1.2379538806008212 -0.5900240665138116 -0.5838981445930025 0.2571996828907325 0.21930104361861047 -0.13224648387049545 -0.5146453314677927 -1.59161595421565 -2.0863823977003277 0.9413579933991595 -1.0186786940762214 
0.9694007558636359 0.25707081605282656 0.3737417253636234 1.5681841194853847 -0.9580983494667452 -0.939023918636712 -0.8383334478779598 0.7965620742196653 0.020325395035792365 -0.4188092286037297 1.012200996843485 0.5021458105266703 1.487524803277131 1.7362382064682953 -0.9152600889454592 -0.980583910609263 
0.5711449355714665 0.9998156645901568 -1.1698161749322185 1.5483206466297876 -1.1900479597828242 1.5769211091784543 -0.28005394059381117 -0.003660807441000278 -0.5865440788357669 0.847533390525396 -0.24992919344942807 2.7009532403346057 -0.41190518876394033 0.06617430553684314 0.5352156738051158 -0.32485900834099507 
0.8039529424568694 0.5487728099778417 0.5148991278492805 2.9308046345412495 -1.0979570334311028 0.6428516637263113 -0.6917908211036085 -0.7613013784717514 1.3795828609769694 -2.014943205962261 -0.11703783519008129 0.21585306288975517 1.0615247627936037 2.157661389851279 -0.7507813274180004 0.3061354351643957 
0.09485257747346683 -0.6785687183136826 0.05951480282517545 -1.14163714663142 0.6943410606752052 0.21479372776713992 -0.10815467258703582 -0.7804490775074624 -0.5277852701293345 1.518766270765697 -1.469565460137839 -0.3172625938737472 0.32554670483656223 1.5674519013970765 0.607963276972624 -0.33389490357528084 
1.0536969884620482 0.10329010602907426 -0.6232748929661477 0.05977246989517715 -0.5960570395224826 -1.6517801183090797 -0.14046040422075387 -1.3376525167319493 1.418908542765206 -1.0257458433921773 -0.36546405160381623 -1.2698257905389376 -0.23984870516350187 -0.6831688339554475 1.4269761525730602 -1.3532592912197878 
1.180084631261198 1.3772399787598828 1.404591350614773 0.29095800055276977 -0.7572852090301954 -0.5896943934719256 -0.5081541223840791 -0.3059385564215546 -0.15023488073090527 -0.40957563853954576 -1.2609761117774894 -0.7006384888123608 -0.7411293524110538 0.5481080167531545 -1.2901439216066877 1.2490951204545677 
-0.06101238927919778 1.4471412849970984 0.21440741133115157 -0.45534934639977437 -1.2317668367688035 -1.1417762140603467 -0.23441288751578315 0.6255615163474081 -0.9867900608971999 -0.9473050719986842 -0.4753641786922716 0.4921525710793995 -0.792396736562178 -0.16109152240899252 -1.478161123936993 -0.07788145435854014 
0.294568937137415 -1.2232299586966517 0.7097024425846837 -1.2464689534012414 -0.05534800194049698 1.41057036398402 0.6478697443399419 1.3314860300869011 -0.024492579468181345 -0.9643924655507696 -0.18704779316983602 0.36126806952032964 -0.8092131577471322 0.2438741631194926 -0.5943879602363955 0.037944286322091375 
-2.3853626821999176 -1.7082478963787617 -1.706721844556169 0.3518694932371923 0.8919445743538293 0.20076162377644105 -0.2341582683808794 -1.8958337922820832 -1.8158100282121237 -0.10197179984597156 -0.3301027928718457 0.9292090220512843 -1.4498284566768236 0.4019756628266653 -0.04206586178819349 -0.044593613537889 
-0.44022877449567865 -1.5897817748738285 -0.3071944498750279 1.2099688820118235 1.8528930683696418 -2.18970285629585 -0.6371436208444082 -1.5182423569635293 0.8822805164513806 1.2301497892349194 1.9863840130686963 0.499809637208288 0.7265096106741978 0.03028232967282976 -1.0681578077080043 -0.7424893613955712 
0.07036169031527596 0.6443535301941494 0.6184448454470761 -1.4623555697487092 -2.0159047674651545 0.23860208133647395 1.7430919417378137 -1.3336782563448373 -0.5833114159226199 -0.16811776185548144 -0.4993037505139122 -0.8609501836209488 -0.9969512580684209 0.9111860189238001 0.5212328109988893 2.0917506494081697 

0.8031657042930336 -0.8507714031373096 0.015305925469664911 1.0730876326932504 -3.1503806698378325 0.031801889404327474 -0.38164587699823754 1.8821089785246707 1.0076659808072814 -0.6861219841306282 -0.360970920414145 0.44039527528140987 -1.0390197286975726 -1.4428551395749944 0.70325487840472 2.738810855558915 
-0.8089624876682338 0.8292267777468556 1.2803024389232773 -0.8298277788587669 -0.5459178811176266 0.1451670134412654 -0.4511845969687569 -0.9623425108495027 -0.14876644586588444 0.6279507527426141 1.8540897751150782 -0.33490042269925274 0.11097516580845941 -1.825109813726122 -1.6442005389806196 -0.1630297290170722 
-0.45746030127854026 1.4006161278747558 0.6804602719910464 0.20501164988552423 -1.8718384273074808 0.7144893928616264 0.8218045558393628 -1.2515144535061684 0.4403600939476002 0.9266153944421227 -2.166355824790454 -1.63123583618127 0.4530377421776787 -0.2930377873563816 0.8377693020512639 0.4203349133501384 
0.4647019624837216 -1.084349405776474 -0.7111911677650952 -1.6012982953295312 -1.3032293584925068 -0.8666180036346508 1.0642728301792084 -1.3063654959407605 -1.1140919194867973 -0.17786975366182137 0.8200538465249906 0.9771478489523873 1.3149412491156134 -0.9973238452524782 -0.41922406976624343 -0.7521507420503214 
-0.24713264341088545 0.9418296933662994 0.7597702690227265 0.19901852228867112 0.6835694913092074 1.2283901168460976 -0.5900240665138116 -0.5709179360049019 0.2500637482423553 0.22060364815338854 -0.13294908122464563 -0.5071865087919802 -1.56519675322265 -2.095453530068155 0.9328941795532155 -1.0186786940762214 
0.9694007558636359 0.25707081605282656 0.3790857744866337 1.5681841194853847 -0.9675351134612783 -0.9274367077212862 -0.8398057747197587 0.7875567335347553 0.020278000850744795 -0.4188092286037297 0.9943998401440247 0.5158655934069927 1.487524803277131 1.7252522709084182 -0.9242888074180905 -0.980583910609263 
0.5828569672202789 0.9918635414347633 -1.1547032305616167 1.5267818300136407 -1.1743083140450532 1.6282415564200983 -0.28005394059381117 -0.003660807441000278 -0.5887016731741719 0.847533390525396 -0.24151260856620083 2.703927303310921 -0.4180779369414836 -0.06742061614570666 0.5352156738051158 -0.32495576604517545 
0.8028062157924274 0.5331316658385725 0.49915616444584565 2.8761188970910974 -1.0979570334311028 0.6276604925891033 -0.7120005106546354 -0.7611119511632397 1.3662441899898055 -2.014943205962261 -0.1185642019430765 0.2130482292983193 1.0416680136194023 2.1741405694861484 -0.7507813274180004 0.30162692419780573 
0.09371504804497295 -0.681401764872492 0.05951480282517545 -1.14163714663142 0.6864397050468398 0.20935557628014012 -0.10985541445309137 -0.7787614759967694 -0.5287880748746646 1.4609279023608073 -1.513878225425962 -0.30870280690922963 0.3219065993038832 1.5239576937727406 0.607963276972624 -0.3344421336668674 
1.0293072438620794 0.10329010602907426 -0.616088617918 0.05924490769385737 -0.5918377342257488 -1.6390226805130106 -0.1393851399247124 -1.3394136063833662 1.4522610002055154 -1.0270469519467198 -0.3679121999468853 -1.2505937953323025 -0.23984870516350187 -0.6780408006219772 1.4269761525730602 -1.3545182718022335 
1.1569074402358748 1.3772399787598828 1.404591350614773 0.2872526190640394 -0.7675795290972743 -0.579479897399276 -0.5081541223840791 -0.3059385564215546 -0.1462941829766606 -0.4162683355093841 -1.2434739465026836 -0.7006384888123608 -0.7563098173187108 0.542275091905468 -1.2604894009629009 1.2490951204545677 
0.05830180080919931 1.4661855314071013 0.21870118539402175 -0.45451840012623174 -1.2407364594193253 -1.153060781356672 -0.23425368191429013 0.6255615163474081 -1.0415891311204775 -0.9473050719986842 -0.4802612278642777 0.5035301502610958 -0.7731371815048129 -0.1617001654092958 -1.5074644778078048 -0.07941026732165714 
0.294568937137415 -1.2122093391896884 0.7097024425846837 -1.2385117888717108 0.05552252164253487 1.3776061913205082 0.6564906440713854 1.3314860300869011 0.025067575704533548 -0.9643924655507696 -0.18704779316983602 0.3657562388779191 -0.8027652134984464 0.24567863151101446 -0.5943879602363955 0.03746331797445652 
-2.3817460656501637 -1.7123955764821663 -1.7191514649875153 0.3518694932371923 0.885143848242971 0.20118451074800808 -0.23626723592326324 -1.8431961274678406 -1.8158100282121237 -0.10242768714579578 -0.32878766067907556 0.9191372951187453 -1.4403286977507403 0.39771660936901576 0.041447745848457555 -0.04382525918184912 
-0.44967384179098563 -1.6049829385635195 -0.30267110361283484 1.164218103482718 1.8769295230733893 -2.1788686416419027 -0.6000391924738304 -1.526487909327675 0.8882965047230974 1.2224270523527794 2.0143495205454327 0.499809637208288 0.7052662066614334 0.03135073872635842 -1.0463871093536865 -0.7299810765972966 
-0.06861680367570344 0.6362443674993508 0.6151855914152663 -1.4235119359595745 -2.0237416171408174 0.23260680165987843 1.7430919417378137 -1.3384411979398658 -0.5833114159226199 -0.16693098512547766 -0.49957142541746724 -0.8690244130177042 -0.9834795436648819 0.9099649134268437 0.5203779194331672 2.0917506494081697 

0.8040354973740506 -0.8398264868840215 0.015383761748407122 1.0869892076042915 -3.1503806698378325 0.031801889404327474 -0.383899992171134 1.8814260649753742 1.0076659808072814 -0.6829449469922434 -0.360970920414145 0.4384135654956247 -1.0262129331940295 -1.4345516889386118 0.7148246455864418 2.738810855558915 
-0.8142687189612897 0.8177861135098787 1.3054803288986117 -0.8215300736338526 -0.5459178811176266 0.14539729763201165 -0.4435266561104465 -0.9560841077971829 -0.14876644586588444 0.6033097822593135 1.828067512574591 -0.33490042269925274 0.11097516580845941 -1.807990429802889 -1.6362721944623795 -0.1627570512150549 
-0.46301090275034307 1.4006161278747558 0.6804602719910464 0.20501164988552423 -1.8718384273074808 0.7255624142751539 0.8315397060136522 -1.2420228053808444 0.44634172378778997 0.9132070930622421 -2.1667188955011016 -1.6370821016742911 0.4530377421776787 -0.292151310886001 0.822437571334271 0.40431395895435046 
0.4506953588387092 -1.084349405776474 -0.7304525996920652 -1.5904201434514296 -1.3032293584925068 -0.8666180036346508 1.0732472016963759 -1.3232864891407512 -1.1305981103217775 -0.17527092529955668 0.8125107513835015 0.9771478489523873 1.3282624557860836 -0.9973238452524782 -0.4098224339411729 -0.7653701030663722 
-0.24713264341088545 0.9550856457243811 0.7597702690227265 0.19671208836695897 0.6835694913092074 1.2409808195494056 -0.5948558755479034 -0.5650155386222401 0.24752976907723948 0.2202218240259245 -0.13362217218296524 -0.5071865087919802 -1.5792831134920138 -2.0839849429406723 0.9328941795532155 -1.016502632821486 
0.9602699728416186 0.25707081605282656 0.38252550396045953 1.6004400429176535 -0.9675351134612783 -0.9314319075852623 -0.8398057747197587 0.7974836528003444 0.020278000850744795 -0.41328515979278324 0.9943998401440247 0.5135855382646175 1.4803050524863517 1.7252522709084182 -0.933174192646292 -0.9666585096436713 
0.5887023590007399 1.0004513287638945 -1.1547032305616167 1.5483206466297876 -1.1743083140450532 1.6059476025951631 -0.28005394059381117 0.003660807441000278 -0.5887016731741719 0.8624829824379976 -0.24992919344942807 2.703927303310921 -0.41088358779338446 -0.06711840850031052 0.546465789599582 -0.32550001463190414 
0.8028062157924274 0.53728713862503 0.4925111531936632 2.8617933575096153 -1.0979570334311028 0.6368041906275606 -0.7064462114615909 -0.7486806332211317 1.3662441899898055 -2.030348130829346 -0.11772962284192111 0.2130482292983193 1.0704057997306295 2.157661389851279 -0.7536632363370157 0.30209775683302303 
0.09371504804497295 -0.681401764872492 0.05951480282517545 -1.1360452917316688 0.6943410606752052 0.20907259546318077 -0.10985541445309137 -0.7958102924518915 -0.5287880748746646 1.4699723524368506 -1.513878225425962 -0.31114759971095257 0.32890425757238073 1.5239576937727406 0.616222417743519 -0.3344421336668674 
1.0357166437006842 0.10329010602907426 -0.616088617918 0.05924490769385737 -0.6011354979642607 -1.609710666125387 -0.1390158989576266 -1.352624938933395 1.407349098936852 -1.0153083223505535 -0.3684951811952562 -1.2697879182200613 -0.24372571330227225 -0.6780408006219772 1.422588908916903 -1.3594897628700289 
1.1569074402358748 1.3772399787598828 1.404591350614773 0.2955391123288283 -0.7476205470075495 -0.579479897399276 -0.5048338070652391 -0.31052536077228415 -0.14896962996560267 -0.4162683355093841 -1.2434739465026836 -0.7144747719288228 -0.7471037495829889 0.542275091905468 -1.2592432036192815 1.2250214350426523 
-0.05904689855441575 1.479255205809281 0.2151965468824788 -0.45451840012623174 -1.238081681058789 -1.1426005762995235 -0.23425368191429013 0.6238164284344148 -1.0280687883271435 -0.9467865665417897 -0.46981882065226155 0.49617900477003435 -0.7755898587169001 -0.1642844643709694 -1.5447162497823326 -0.08150257976020443 
0.29065278342350825 -1.2122093391896884 0.7123950971688192 -1.2385117888717108 -0.05609815803465343 1.3789569624352176 0.6482953103772598 1.3460441004694623 -0.025020692732296207 -0.9751425474482851 -0.1885399341193324 0.36642130435530446 -0.8027652134984464 0.25073896378227317 -0.5850727430349271 0.03684325192586544 
-2.4114635302921332 -1.7123955764821663 -1.669266180396983 0.36404352778062316 0.8919445743538293 0.19886839248802213 -0.23675207415736346 -1.8574307641996348 -1.7936891930165848 -0.1029520430126658 -0.3293293334352977 0.9205684639360063 -1.4443831838804768 0.4019756628266653 -0.041950318317155046 0.04494439554923509 
-0.4463400474099086 -1.5910282320229259 -0.30267110361283484 1.1625666435997772 1.8431331737596157 -2.1788686416419027 -0.6102083168430769 -1.4521203501638849 0.884569040605494 1.235018663218255 1.976794530819887 0.49184387159887366 0.7123427106092711 0.03005526484853756 -1.0362609231664035 -0.7409074070924452 
-0.0690765778179194 0.6299770207729753 0.5995525296049434 -1.4235119359595745 -2.0056054655874567 0.23260680165987843 1.7439214354204209 -1.3532690365533666 -0.5901676475254888 -0.16693098512547766 -0.49954612502905593 -0.8690244130177042 -0.9806491650949012 0.913210444130425 0.5132785515094528 2.0917506494081697 

0.77416115511935 -0.8323607534794727 -0.015606498501591438 1.051599312040649 -3.0974726181132546 0.0318452038728115 -0.38164587699823754 1.9095088376175107 1.0076659808072814 -0.6780038949612229 -0.36116445582275614 0.44614389412200495 -1.039275444012595 -1.4345516889386118 0.7173430930357149 2.566039376171275 
-0.8223914832561706 0.8292267777468556 1.2973172731963578 -0.8232440326637075 -0.5459178811176266 0.1451670134412654 -0.45502054932288777 -0.9590548593467721 -0.14760339708453418 0.6266161773587221 1.8316054787290743 -0.3306856873989668 0.10901255726683111 -1.8480668183831084 -1.667626337514555 -0.16301272607026582 
-0.45746030127854026 1.3848121012270147 0.6900429533085477 0.20927317790761044 -1.798728814639404 0.7028430348313185 0.8212647869153336 -1.252118995371422 0.44059703584179616 0.8982757663032954 -2.166355824790454 -1.6577852614810853 0.4528218326392892 -0.29263615284992434 0.820383390784962 0.4217290114266201 
0.46092060863273393 -1.0694287386388357 -0.717983410780393 -1.5619021170029874 -1.3147185702387196 -0.8703137847265328 1.0811898568688694 -1.2781383814195308 -1.1282808865214753 -0.1686223201256404 0.8045293354344745 0.963878675400932 1.3125708668340779 -0.9958624652708592 -0.4164436308109578 -0.7821168719074157 
-0.2574891837407303 0.9515054593955593 0.7676589681745212 0.20127433599034816 0.6884307949835826 1.2409808195494056 -0.5929061381584191 -0.5626057436166361 0.25275074015550425 0.2202218240259245 -0.13155733381836207 -0.5057558408353192 -1.5656727923546419 -2.09904401207132 0.9277388883532026 -1.0223815681380553 
0.9625695755238279 0.25759497879110327 0.37335333726758363 1.5611403612571182 -0.9878408454444125 -0.9266704504939126 -0.8450281134089523 0.7930361254391427 -0.020376349497232254 -0.4164484506866693 1.012200996843485 0.5086119315490469 1.4803050524863517 1.6970492179606274 -0.9266193262102458 -0.9701918969234665 
0.5790298681255348 1.0254624612317438 -1.1486045549207549 1.5257550591066023 -1.1790710733317655 1.5882440155682382 -0.28005394059381117 0.0036758458608195208 -0.5865440788357669 0.8735561137967418 -0.24151260856620083 2.6899959687262984 -0.4120386485980181 -0.06661667751998405 0.5418108604095264 -0.31690455660712014 
0.817935829321516 0.53728713862503 0.501448376895483 2.8921450449384296 -1.0883633333479994 0.6361510693650624 -0.7057725763063123 -0.7598164654210195 1.3795828609769694 -2.0370544709040512 -0.11772962284192111 0.2173193368514893 1.0639592542988008 2.0559086574812766 -0.7348097120783091 0.3131241425298371 
0.09485257747346683 -0.6568715568003088 -0.05951480282517545 -1.14163714663142 0.6992669589450836 0.2088709653773909 -0.10815467258703582 -0.7985630957135339 -0.5441535551029908 1.4954170262682043 -1.5130976541778096 -0.3145370044253289 0.32201107962332165 1.5677358736221327 0.6143276314699494 -0.3328785983750654 
1.0488134426699884 0.10475425981673124 -0.6232748929661477 -0.05892684682649259 -0.5984398140376166 -1.6552479647636782 -0.14046040422075387 -1.3609864633718953 1.4115414792631318 -1.0257458433921773 -0.3679121999468853 -1.2505937953323025 -0.23984870516350187 -0.6726673505810182 1.4353097375735264 -1.3511054798483249 
1.147663533298595 1.3638134632263579 1.4042921170961613 0.2872526190640394 -0.7503720375668733 -0.5755763632322416 -0.5081541223840791 -0.3034175307605924 -0.15055194073923042 -0.41953568356611404 -1.2525411823667365 -0.7076250127643077 -0.7538327512889733 0.542275091905468 -1.2592432036192815 1.2205476398680433 
0.06091485098845663 1.4471412849970984 0.22024174632907373 -0.4544280783516166 -1.2606011720727783 -1.1465385871584115 -0.242074077959723 0.6227195454382628 -0.9963539959656676 -0.9460277389137831 -0.4742723206942471 0.49832375865184736 -0.792396736562178 -0.16109152240899252 -1.4763407577999585 -0.0797510212192818 
0.29339166534589417 -1.2042110719495729 0.7002800087514552 -1.2385117888717108 0.05609815803465343 1.3776061913205082 0.6585997402632355 1.3314860300869011 -0.025086130097613592 -0.9865395872063988 -0.18624313994124186 0.3746194514728259 -0.799502155318027 0.2409706497877987 -0.5850727430349271 -0.03849479400959593 
-2.3851112413699163 -1.6869269190887348 -1.6952225779167447 0.3582552948815722 0.8905652774181992 0.20085957673284888 -0.2341582683808794 -1.8586443580006236 -1.7749435676001624 -0.10131408440304442 -0.3301027928718457 0.9447288632666049 -1.4630016168414037 0.4012642849863115 -0.04188648598092559 -0.044593613537889 
-0.44780471002257183 -1.5910282320229259 -0.3037534364916369 1.1933872150601976 1.8363754444511393 -2.1547843636800557 -0.6371436208444082 -1.5182423569635293 0.8946050393882361 1.2681272169500564 1.9863840130686963 0.5128995094768013 0.7111662543090741 -0.03060526361703347 -1.0306065985738888 -0.7308657840626969 
0.0679386158113566 0.6240454482675206 0.5934601185395367 -1.4528117179233024 -2.0159047674651545 0.23605212706868509 1.7430919417378137 -1.3532690365533666 -0.5945378954295882 -0.16693098512547766 -0.49740044644177484 -0.8360815214840804 -0.9857277470186958 0.9282419024444873 0.5203779194331672 2.0760628678058617 

0.8026251599529333 -0.8261297404688592 -0.01575325166470784 1.0745992817773666 -3.156591623481755 -0.0318452038728115 -0.39084292674543514 1.8853072078920519 0.9929335806491763 -0.6757578350012085 -0.35206040724351667 0.4409867777299294 -1.0399038987869602 -1.417844428766651 0.7130861641199602 2.6760058919870167 
-0.8223914832561706 0.815590987830457 1.276770064357377 -0.8119144426590393 -0.5459178811176266 0.14940711160258913 -0.4479182078759656 -0.9560841077971829 -0.1452552429479554 0.6266161773587221 1.8057406060296253 -0.3253078044941759 0.11276068327794139 -1.8107490675473175 -1.6571972483247555 -0.16174397022060416 
-0.45567373264575156 1.33495092105772 0.6697488181589993 0.20276928363995042 -1.8195646941898003 0.7144893928616264 0.8289185811451163 -1.252118995371422 0.44634172378778997 0.9307604908276522 -2.1667188955011016 -1.6466356157482795 0.4495389897431861 -0.2936761786888683 0.8231653312200183 0.41034039074441764 
0.47032817999449666 -1.084734332048124 -0.7057761881761422 -1.5990052049405845 -1.3115982979645135 -0.8755953382736475 1.0732472016963759 -1.2881068429821922 -1.1240770228247725 -0.17039742258026996 0.8000292938987911 0.958182623501433 1.2990707853098864 -0.993427509545358 -0.4140664727080523 -0.7879161219907295 
-0.2574891837407303 0.9550856457243811 0.7462832298876458 0.20023255441991053 0.6888495435392145 1.2406660956540505 -0.5908439366698789 -0.5626057436166361 0.25005368496083236 0.2202218240259245 -0.13104265368298373 -0.5001518940105466 -1.59161595421565 -2.0594853774067077 0.9218519009131773 -1.0223815681380553 
0.9602699728416186 0.25759497879110327 0.3749370884089556 1.5925616594988061 -0.9878408454444125 -0.9274367077212862 -0.8489911267684758 0.8069371194773833 -0.020220130626428637 -0.41191625272752525 1.007356530574851 0.5125190580188143 1.4803050524863517 1.7252522709084182 -0.9296579424567993 -0.958387909438689 
0.5740783484373151 1.012683973419506 -1.1547032305616167 1.5483206466297876 -1.2098015556581043 1.6097266144698241 -0.2824092462052259 0.0036562780112944036 -0.5948673528250538 0.8562274487318418 -0.24151260856620083 2.6608118750998777 -0.41190518876394033 0.06648572849749879 0.546465789599582 -0.32065160538258203 
0.7895649832261409 0.5327928318646664 0.5010443441070006 2.8575059275165504 -1.0979570334311028 0.6361510693650624 -0.70192278633854 -0.7598164654210195 1.3795828609769694 -2.0370544709040512 -0.11772962284192111 0.2173193368514893 1.0639592542988008 2.055684247998669 -0.7536632363370157 0.3035388811771099 
0.09239953763118468 -0.6640306799285185 0.057732960657104065 -1.1390681925544308 0.6864397050468398 0.21218056640368302 -0.10815467258703582 -0.8052889629953992 -0.5475254214749519 1.438147723485797 -1.5362990444417965 -0.31564848217634744 0.32554670483656223 1.5358288311239405 0.6337659015205053 -0.3328785983750654 
1.0565667413624578 0.10329010602907426 -0.6195426947790755 -0.0584453336150177 -0.6155958274794693 -1.6080136600340575 -0.13964163730514126 -1.352624938933395 1.4656780282095467 -1.0257458433921773 -0.3679121999468853 -1.2475645397466337 -0.24429841046021178 -0.6494158263970238 1.4353097375735264 -1.3522661394361781 
1.1549718342988593 1.3755317520235948 1.404591350614773 0.2872526190640394 -0.7553691999762976 -0.579479897399276 -0.5081541223840791 -0.3059385564215546 -0.15052108710626275 -0.41193306746096753 -1.2525411823667365 -0.7144747719288228 -0.7539065447106523 0.5534719403784882 -1.275114605300324 1.2250214350426523 
-0.06038433422176091 1.4582840093577725 0.2155096783799247 -0.447548925708958 -1.2473081443206306 -1.1441304297247419 -0.23267084406526414 0.6128243240557933 -1.020232516898202 -0.9502574511664206 -0.49507794595932125 0.4982083135518723 -0.7731371815048129 -0.1608156859550871 -1.5092616973548567 -0.07990479317287846 
0.29065278342350825 -1.230781846535192 0.7056272982376646 -1.2385117888717108 0.05600995944099373 1.4073727017794457 0.6304812163192627 1.33432376054376 -0.02540420976056665 -0.9674140066815433 -0.18624313994124186 0.3699306849926602 -0.80809121913706 0.244357341170731 -0.584109534246364 -0.038889060199792186 
-2.384076170575526 -1.7206430429330668 -1.702454028573421 0.36274990042773886 0.8901003930843028 0.20060231577204157 -0.23737901031501007 -1.8586443580006236 -1.8158100282121237 -0.10421845302636315 -0.3295951469345661 0.9447288632666049 -1.4600698930499536 0.4012642849863115 0.04217690065630037 0.044010285383509436 
-0.44694485682091656 -1.5910282320229259 -0.30203331680694634 1.1668071470871355 1.8458996070212979 -2.2038583382985357 -0.6273909375512208 -1.537473389614343 0.8822805164513806 1.256658978455795 2.0163836092827365 0.49688320669540703 0.6914711908420365 0.030122895474185462 -1.036255353032881 -0.7347728813376085 
0.0690765778179194 0.6299770207729753 0.5917866357748672 -1.44409032826802 -2.011121217153722 0.23605212706868509 1.7335578344813234 -1.3532690365533666 -0.5910880678522684 -0.16811776185548144 -0.5038118704696685 -0.8550643250750434 -0.9699894879713925 0.9244059455871713 0.5200229932009606 2.1308042362222968 

0.8040597890366116 -0.8143096218558088 -0.015606498501591438 1.051599312040649 -3.0974726181132546 -0.03236121613771312 -0.3890287300654964 1.896448365621171 1.005063220028144 -0.6907283075501585 -0.35512487098102896 0.4402474137694218 -1.039275444012595 -1.4345516889386118 0.7080556746963156 2.716111645030619 
-0.8223914832561706 0.8182285208648642 1.2997842569171572 -0.8232440326637075 -0.5459178811176266 0.1451670134412654 -0.45502054932288777 -0.9712142440217072 -0.1476363031369365 0.6314311615692951 1.8344468964724303 -0.32992146183254273 0.10901255726683111 -1.823811867038343 -1.7053580109987514 -0.16522977252247092 
-0.4488537549622129 1.3834122517988512 0.6765238360838616 0.20388557231519214 -1.798728814639404 0.7076849250323674 0.8212647869153336 -1.252118995371422 0.44059703584179616 0.9318457829288006 -2.166355824790454 -1.6400636115403513 0.456514946813275 -0.2887025893962495 0.822851727809759 0.4109142507402263 
0.46092060863273393 -1.0694287386388357 -0.724347273424797 -1.5619021170029874 -1.3172380013166685 -0.8706974453545906 1.0811898568688694 -1.3019258362040638 -1.1282808865214753 -0.1668630049180449 0.8045293354344745 0.963878675400932 1.3168475399983104 -0.983217510910451 -0.4164436308109578 -0.7880769562133103 
-0.24802537810846725 0.9550856457243811 0.7676589681745212 0.20063287214711195 0.6749274920288435 1.2379538806008212 -0.5900240665138116 -0.5626057436166361 0.24668089086924258 0.2202218240259245 -0.1307582303239921 -0.503913240338445 -1.59161595421565 -2.0863823977003277 0.9277388883532026 -1.0186786940762214 
0.9604284671806818 0.2611371182973875 0.3790857744866337 1.5862381314559455 -0.988572774554402 -0.9274367077212862 -0.8450281134089523 0.8095184993495539 0.02019588186685225 -0.41296798402485296 1.0287931626631006 0.5021458105266703 1.487524803277131 1.7389572082687337 -0.9266193262102458 -0.9823973450382729 
0.5790298681255348 0.9917722265116932 -1.1486045549207549 1.5257550591066023 -1.201722348389874 1.6059476025951631 -0.27766541416018686 0.003660807441000278 -0.5865440788357669 0.8582799654444528 -0.24151260856620083 2.6681678324299507 -0.4084534097118896 0.06899302664749747 0.5436212370961847 -0.31690455660712014 
0.8083387802476151 0.53728713862503 0.501448376895483 2.8649222757608444 -1.115637848874444 0.6430483470925312 -0.6998579772962789 -0.7486806332211317 1.3791347773077849 -2.014943205962261 -0.11772962284192111 0.21309885305815685 1.0639592542988008 2.1448337233197865 -0.7243827004869776 0.3131241425298371 
0.09235334700098342 -0.6679183799293485 0.05923909867279618 -1.1390681925544308 0.6942273474163113 0.21215876178749574 -0.10796154938766445 -0.7985630957135339 -0.5386187626523002 1.4865853306682364 -1.5270034955046496 -0.3145370044253289 0.3219065993038832 1.5411779721619434 0.6269663312991629 -0.3328785983750654 
1.036708627178952 0.10475425981673124 -0.6127216170204216 0.05815566883044352 -0.59896212650234 -1.6080136600340575 -0.14130118031050665 -1.3609864633718953 1.49592418237545 -1.009681286906763 -0.35044693873521643 -1.2505937953323025 -0.24429841046021178 -0.6621209307142323 1.4487350294968893 -1.3511054798483249 
1.147663533298595 1.4015102319578976 1.3982415726141502 0.2872526190640394 -0.7476205470075495 -0.579479897399276 -0.5056308526483378 -0.3059385564215546 -0.15020670505905362 -0.4273615437415959 -1.2494064464780004 -0.7020709459655615 -0.7619694102126918 0.5455943336882032 -1.2647880020934257 1.2250214350426523 
0.05995560831490788 1.4594402140397995 0.21804255737958647 -0.4544280783516166 -1.2147534119433046 -1.128299537526622 -0.23441288751578315 0.627783193620457 -1.0414953847640647 -0.9473050719986842 -0.473347124539862 0.49724671161095896 -0.792396736562178 -0.16109152240899252 -1.509320809193121 -0.08087787286061612 
0.29065278342350825 -1.2042110719495729 0.7056272982376646 -1.2464689534012414 0.05609815803465343 1.3776061913205082 0.6585997402632355 1.3314860300869011 -0.025086130097613592 -0.9710627024614977 -0.1885399341193324 0.36642130435530446 -0.799502155318027 0.2409706497877987 -0.5867680306445507 -0.038028692585100485 
-2.3851112413699163 -1.6923833350284168 -1.6952225779167447 0.36274990042773886 0.8919445743538293 0.20085957673284888 -0.2341582683808794 -1.8431961274678406 -1.8012269796889038 -0.10165460827464691 -0.32674713892438423 0.9224161819898068 -1.4443831838804768 0.40335582137243203 -0.041996546763989034 -0.044497840264794065 
-0.44780471002257183 -1.5910282320229259 -0.298671432176426 1.1625666435997772 1.8363754444511393 -2.1547843636800557 -0.602963177184835 -1.5428159810700768 0.8882965047230974 1.2525619370122032 2.017837889625292 0.49407226677359584 0.7265096106741978 -0.030409665224451113 -1.028853454392442 -0.7485732370429178 
-0.06804505032973282 0.6358557249004555 0.5959720402302012 -1.4528117179233024 -2.0159047674651545 0.23840159602130187 1.723415479604178 -1.3479072581423548 -0.5976137802797566 -0.16462166211233814 -0.4931919015853884 -0.8360815214840804 -0.9677308873207491 0.9219127122893029 0.5203779194331672 2.0860997671981654 

0.8040354973740506 -0.8141333004605437 0.015921588151889456 1.0615591746540551 -3.1503806698378325 -0.03220586309771152 -0.383899992171134 1.8935287376798877 1.0101239217612545 -0.6757578350012085 -0.3519594196131103 0.4452526780744703 -1.0330706491339738 -1.417844428766651 0.712903558858662 2.738810855558915 
-0.8119122943831443 0.8095567391275579 1.268511944278604 -0.8058447952350203 -0.5549367661108003 0.1451670134412654 -0.4502048273949097 -0.9560841077971829 -0.14634892983874284 0.6266161773587221 1.8340066646667499 -0.33490042269925274 0.11178076635664101 -1.823811867038343 -1.670212770749852 -0.16082819683532906 
-0.4568245813628016 1.33495092105772 0.6900429533085477 0.20937471069670366 -1.7871332236163364 0.7144893928616264 0.8289185811451163 -1.2420228053808444 0.44634172378778997 0.9273461729652186 -2.145664196143445 -1.6400636115403513 0.4530377421776787 -0.29263615284992434 0.8502198640776422 0.41034039074441764 
0.4577621894878144 -1.0641956931337713 -0.724347273424797 -1.5990052049405845 -1.3189599723140821 -0.8755953382736475 1.0732472016963759 -1.280011534969652 -1.1105317107645576 -0.17039742258026996 0.8200538465249906 0.9771478489523873 1.3282624557860836 -0.993427509545358 -0.412158945164666 -0.7722198982228099 
-0.24713264341088545 0.9668219216873759 0.7816883296187821 0.1967957287906409 0.6835694913092074 1.2409808195494056 -0.5913824040734016 -0.5626057436166361 0.24497664080674894 0.22029991627314569 -0.13009124533695127 -0.5126875967273371 -1.5687960674226613 -2.0594853774067077 0.9218519009131773 -1.0139758687038385 
0.9784988353037142 0.25390918313895605 0.3790857744866337 1.6004400429176535 -0.9638081743957235 -0.9310365404342917 -0.8349202403887465 0.7921131983601991 -0.020376349497232254 -0.4188092286037297 1.0225412609721238 0.5116791977006009 1.4803050524863517 1.700369066061489 -0.919255678661577 -0.9921747847801214 
0.5740783484373151 1.0166190472797152 -1.1547032305616167 1.5483206466297876 -1.184793107387655 1.6059476025951631 -0.28005394059381117 0.003635273798280502 -0.584423045157912 0.8626245703824941 -0.2449504397217974 2.700116201362467 -0.4132590790171569 -0.06899302664749747 0.5326302906987479 -0.3205398058801848 
0.8028062157924274 0.5311622347670373 0.5083003291586717 2.8902044661600903 -1.0979570334311028 0.6430483470925312 -0.6914022785282442 -0.7765529671284047 1.382260740988655 -2.0423165939087107 -0.11772962284192111 0.2173193368514893 1.064386739676126 2.157661389851279 -0.7536632363370157 0.3061354351643957 
0.09331356856145435 -0.6710495280887421 0.05951480282517545 -1.1272202253736803 0.6965915777978644 0.20736497777958704 -0.10815467258703582 -0.7905986311122982 -0.5397642583348926 1.4699723524368506 -1.5484797262149428 -0.31114759971095257 0.3293454121657883 1.5358288311239405 0.6337659015205053 -0.3328785983750654 
1.033788225374938 0.10329010602907426 -0.6062043643775524 0.05924490769385737 -0.5985846716765036 -1.633672369904455 -0.14165059924611662 -1.3544571009467363 1.4634433280621357 -1.011221855738958 -0.3679121999468853 -1.2158073807729444 -0.24429841046021178 -0.6780408006219772 1.4353097375735264 -1.3522661394361781 
1.1549718342988593 1.3772399787598828 1.404591350614773 0.283089955229217 -0.7553691999762976 -0.5851951442825353 -0.5058659789326301 -0.30860534897992536 -0.15052108710626275 -0.4221281840515508 -1.2525411823667365 -0.7006384888123608 -0.7539065447106523 0.542275091905468 -1.2604894009629009 1.2334425027469385 
-0.05816869728795618 1.4582840093577725 0.21804255737958647 -0.4524665318765853 -1.2723339728335856 -1.1393687926056708 -0.23859826511706636 0.6052188784675192 -1.015657578762298 -0.9502574511664206 -0.49507794595932125 0.4981743428063462 -0.789166624103719 -0.1617001654092958 -1.478161123936993 -0.08150257976020443 
0.29514515800865265 -1.2212364047964572 0.7123950971688192 -1.238780195262087 -0.05609815803465343 1.4024347148774945 0.6420596593504394 1.3314860300869011 -0.024834544584296146 -0.9751425474482851 -0.18624313994124186 0.3660838170005237 -0.80809121913706 0.2470495219292582 -0.5841031683329613 0.03746331797445652 
-2.379700832531133 -1.7206430429330668 -1.712217995190674 0.3518694932371923 0.8919445743538293 0.20118451074800808 -0.2359361748333735 -1.8495943878905974 -1.8158100282121237 -0.10430189697711366 -0.3301027928718457 0.9447288632666049 -1.4443831838804768 0.39557787411130413 0.04188648598092559 0.04494439554923509 
-0.44967384179098563 -1.5910282320229259 -0.30203331680694634 1.1880190492763074 1.8452466914928378 -2.2038583382985357 -0.6273909375512208 -1.5105111857904672 0.8822805164513806 1.256658978455795 1.9863840130686963 0.49688320669540703 0.7089078950418937 -0.030442296911617428 -1.036255353032881 -0.7347728813376085 
0.07036506947067947 0.6299770207729753 0.5995525296049434 -1.4235119359595745 -2.011121217153722 0.2294026499908293 1.7335578344813234 -1.3757008795060768 -0.5905875506966258 -0.16693098512547766 -0.5038118704696685 -0.8517596422766334 -0.9857277470186958 0.9084423949782408 0.5200229932009606 2.0708818360614214 

0.8110792657337508 -0.8193707996811158 0.015706043633463323 1.0578201595462586 -3.1279438701109 -0.03220586309771152 -0.38941267202957025 1.8853072078920519 1.0086139138227685 -0.6875218800491332 -0.35512487098102896 0.43810279130450785 -1.0330706491339738 -1.4345516889386118 0.7130861641199602 2.738810855558915 
-0.8366984418668564 0.8167803609048325 1.2574673638930622 -0.8232440326637075 -0.5459178811176266 0.14747092049089697 -0.44794876025768665 -0.9660287774573171 -0.14699742290280762 0.6272166704287131 1.8189769308786885 -0.338977752210364 0.1114485367875356 -1.823811867038343 -1.667626337514555 -0.1635523551376612 
-0.45063935320504184 1.3816016443848698 0.6804602719910464 0.20180162855861347 -1.8493111953612027 0.7108459522932403 0.8356853402024605 -1.2689490039688083 0.44634172378778997 0.9266153944421227 -2.1279865587215845 -1.6577852614810853 0.4458617375790153 -0.29162717479584244 0.8202056979105022 0.41034039074441764 
0.45363039573332087 -1.0797380258450482 -0.7218001022569888 -1.6518688727270745 -1.3054787610220702 -0.8755953382736475 1.0732472016963759 -1.3063654959407605 -1.1244341454905933 -0.1733603956098741 0.8045293354344745 0.963878675400932 1.3363001708983733 -0.9875362727125597 -0.4140664727080523 -0.7552978440814616 
-0.24459252286216718 0.9663668490985369 0.7747358588350352 0.19232482273088988 0.6874519286540642 1.2330445423804972 -0.5910046396052904 -0.5626057436166361 0.2467118954882539 0.2202218240259245 -0.13320033398843864 -0.5001518940105466 -1.57523520198787 -2.09904401207132 0.9104352378882158 -1.0186786940762214 
0.9602699728416186 0.25725617667731165 0.3822240827525966 1.579080792834369 -0.9638081743957235 -0.9274367077212862 -0.8398057747197587 0.8003973711189571 0.020220130626428637 -0.4200182401745911 1.0306175588552116 0.5116791977006009 1.4803050524863517 1.7221711367910257 -0.9207799720480024 -0.9845503934771602 
0.5711449355714665 1.020481532089381 -1.1547032305616167 1.5350729712724527 -1.1902344984309199 1.625496211058299 -0.28257583947967096 0.003712225390405618 -0.5814041653410348 0.8626245703824941 -0.24762912371893028 2.7009532403346057 -0.4148910559117547 0.06846164576641944 0.5326302906987479 -0.32441693377498126 
0.8083691083691285 0.5487728099778417 0.5104869641332693 2.9308046345412495 -1.0979570334311028 0.6387461567900342 -0.7036791441817403 -0.7557162199822979 1.382260740988655 -2.0370544709040512 -0.1183661275349977 0.21475765610579142 1.0639592542988008 2.240020661224609 -0.7507813274180004 0.3035388811771099 
0.0914493930913314 -0.6785687183136826 0.05951480282517545 -1.1588457153398608 0.6723734740890263 0.20970173546609022 -0.10984222523123648 -0.8019061651965447 -0.5296798996977827 1.4865853306682364 -1.5484797262149428 -0.31114759971095257 0.3293454121657883 1.5453110860620165 0.607963276972624 -0.33612759118732183 
1.0462976817904677 0.10329010602907426 -0.616088617918 -0.058588963612890385 -0.5944089109130992 -1.5886690889250668 -0.14339961668329057 -1.3706165748036436 1.4460927583793057 -1.0271247342489065 -0.3679121999468853 -1.2529616330760907 -0.24379402797223942 -0.6607349885264411 1.4534624905959073 -1.3522661394361781 
1.1824037666272325 1.3617884684714032 1.4055868696142495 0.2906567819854139 -0.7531116389689739 -0.5736972674765823 -0.5081541223840791 -0.31052536077228415 -0.15178903325236295 -0.4221281840515508 -1.2525411823667365 -0.7006384888123608 -0.7539065447106523 0.535429258810801 -1.275114605300324 1.2415800894160685 
0.06055525791867247 1.4590705324164392 0.21804255737958647 -0.45629474810471404 -1.2473081443206306 -1.1296547989413275 -0.23859826511706636 0.6180382617819933 -1.015657578762298 -0.9326216313747427 -0.4946980129644922 0.4982083135518723 -0.7768194952909494 -0.1617001654092958 -1.527145546006939 -0.08108801546455616 
