0.5925477342711581 -1.4524820086575725 -0.6657612133826597 0.19097212517062245 -2.4309138024248687 -0.572951255263151 1.54240471041046 -0.7487152170962568 0.49512602415580914 -0.5677068928807995 -0.8852900898303911 -0.7077336609056962 0.3695514301826982 0.0547568736420291 1.3819860216279483 -0.6422581522111822 
-0.6117120716282566 1.1187025496942655 1.6860489163442312 0.5964375219727086 0.7420338914574414 -0.6403470091266601 -1.543355232617643 0.461906520481577 0.43183350758266464 -0.5638347823568276 -0.6069103327566711 0.39556994890210967 -0.9598559197505806 0.03548061418735097 1.2744392369638822 0.18844164973607 
-0.19059830881774853 1.175919291633756 0.22689803968999855 0.9292155043427777 -0.5839733565857967 0.194896604314002 -1.112911915248836 -0.36783471020277486 -0.9743899409514974 -1.4145723698750294 1.3598870603779958 -0.4189951535386567 1.407270982117045 -0.43338214208598924 0.14072697068066178 0.8349286281865542 
-2.440126322443015 0.9574890508765767 0.07885960125536223 0.09469843747381511 1.3166159164662135 2.076053920189055 0.9342286188738991 -0.7282504979527619 -2.7543356691200307 -0.4359135695628145 0.7933475589915324 -0.9807668656648887 0.3768486359469851 0.2689401225869877 0.8983493608413821 -0.2884399882385478 
-0.185801105482339 1.065464182078964 2.16411117333683 -0.7086024820596484 -0.6597001167169863 -1.05990222042526 -0.5014976214407947 1.8130616216951896 -0.6497153118981813 0.1752456166588309 2.989400496032159 -1.0571193458521935 -0.13127274934566818 0.34957869968157 -0.5239253228108037 -0.044950207001389964 
1.965229005958541 0.5250543166394818 1.0693960769536668 2.0599074244079194 -0.1401333906637594 1.5012456239954202 -0.1288432559061544 -1.8712761523172896 -0.6142860089217774 1.1716347490567451 1.0921187229064337 0.2979970712503933 -1.0217766215646038 0.8302576434548887 1.164027227540066 -0.4536170113503408 
-1.6099877771535018 0.2112645385004284 -0.16223557835609706 0.41092463582001804 -0.8507446900881709 -1.1894532327991125 -1.396264767048876 -0.06925838394352246 0.9965680974344738 -0.2274698034018175 0.22291412679033398 1.6740567978872274 -0.4438096440970762 1.888210056192511 -0.6285485491958882 1.191372957785286 
-0.20878628520426987 -0.9907511341248649 0.10028092405939237 0.14723252324308914 1.701667031134295 0.9024879092989986 0.8667546013348466 1.3739266948645343 -1.622375722152587 1.1847670314913443 -1.315303132686186 -2.442441460412338 0.5923211664426676 0.26560690093890615 -0.20309954787290496 -0.19274839721664966 
-1.570337228156547 -0.442995628687672 -1.5657355207758943 0.38985405322215905 -0.6937369637430377 1.5131647434249744 1.2432309841368074 -1.1966258570361614 -1.7768034527175471 -0.8711405370861632 -0.34821175983069186 0.6071584975202982 -0.6130360009686173 0.3050339896585135 -0.23779986805738415 0.8243917973998265 
-0.8871396309610778 1.5881417473555441 0.29294163037390053 -0.6413712606077843 0.6339868324764681 -0.3287036373654585 -0.9772781544024604 2.3779456483211496 0.3530123593673504 -1.3374764049667816 0.8805346314859923 0.3687877992240268 1.7168265708259636 0.36972642330990885 0.736058333515643 -0.3116097706788807 
-0.003429688126991092 0.21807050299380215 -1.4835424086900622 2.2730219317161144 0.7592294784545436 1.1287016495544062 0.7502856284891569 0.24948030573719482 1.0464245343167418 0.32849549663794303 -0.1504664340719754 0.3482959311235088 1.0494239115781467 0.7526595283146121 0.6647940576416776 -0.8417035318129829 
1.1804847791514481 1.0241109577095524 -0.36850975460127067 -0.6564490075315348 0.0744277308143479 -0.42301677328634496 -1.1023750956227885 -0.4296307744619726 0.8371282775742839 0.17299843317758787 -1.048092791798525 -0.9244165967464241 -0.6060801787520261 1.044789044223792 -0.2008304586424657 -0.015970895937734007 
-1.0132213705394548 -0.12143404536911809 0.30110126590553843 -1.4172013165294897 0.06986430159590148 -1.2613715898802789 -0.454608058963458 1.3748624748034242 -1.0279695968559293 2.5337375873334427 1.6997488202559197 -1.2954040917983938 1.2017587016322517 -0.19710931719410235 -1.037480982491877 -0.7316268632534865 
0.2050281080444778 0.2731984905556829 -0.7846458312771076 -0.15079884521645356 -0.32579043773921573 -0.9413454236807529 1.0438486571370982 0.23219620842645344 0.6644253090338208 -0.22417730965841443 -0.3084487078123729 1.573175726923945 0.868641883503232 0.9842197300644032 -1.4104988090705672 1.0665710288160837 
-0.7400017544228903 0.42349931647357086 0.4049559310064299 -1.4204652071068704 0.832459821076223 1.2403112091764805 -0.5451805234683674 -0.693775108336694 -0.9071765687247465 1.014336436908527 -0.6860973720233735 -1.009395587556473 -0.5494317252160082 1.0592126558733503 -3.1693226336925044 -0.7692926841079237 
0.10334105152851288 -1.4293601812139272 -1.5635363654191698 0.15935321045580023 0.8284971216933765 0.14445355265140994 -0.3752475971114591 0.41591396316805795 0.8885322431119497 -1.4179149737324617 -0.9929210235539285 -0.5927217358964907 0.4061253555854441 -1.1074689605386794 0.4611536197540891 1.5501612010975205 

0.593479156507454 -1.4524820086575725 -0.6692054229859393 0.19097212517062245 -2.4511138880848833 -0.5906454981228765 1.5300665946837104 -0.7598655311004403 0.49512602415580914 -0.5849493866276096 -0.8849714030267795 -0.7152919334470729 0.3653221451553579 0.05429722881133691 1.3735126658168482 -0.6269919937874502 
-0.6044683571013343 1.1187025496942655 1.6659549886002472 0.5941744998529854 0.7315261900273925 -0.6429638087492371 -1.5407343373329359 0.46266194009696526 0.43183350758266464 -0.5657257174558584 1.1688856922752104 0.39402198948197104 -0.9754569516401109 0.03562583833181156 1.3073267581519703 0.1868139129976609 
-0.18920155243498413 1.1808110849352789 0.22689803968999855 0.9231849877799212 -0.5792959008571227 0.19566488251666148 -1.0965578012806032 -0.3627780027274877 -0.9822040260193907 -1.4145723698750294 1.326226137635119 -0.4236289679308013 1.3911219661346983 -0.43338214208598924 0.14139920931921526 0.836414813796788 
-2.4699813153118297 0.9415626934008763 0.07762944935825306 0.09575190613517877 1.3320382549042773 2.0448152688324344 0.9242243430860473 -0.7295419641604123 -2.7710102576106475 -0.4381923396388365 0.8116215475098251 -0.986153899592449 0.3737950621517677 0.2665324919229049 0.8983493608413821 -0.29092919432425673 
0.9608563833272796 1.071020284512171 2.149871658354331 -0.7157989257168985 -0.6597001167169863 -1.020579653570293 -0.49184916525163713 1.476986180790831 -0.6546719071862319 0.17549848643867416 2.9732792516463507 -1.0484593873602086 -0.13283025344253185 0.3523035012809304 0.12046008624367756 -0.044950207001389964 
1.9416482268915798 0.5325817126452637 1.0563351290402014 2.06572293247668 -0.1401333906637594 1.5023611452604015 -0.1305954728194116 -1.8712761523172896 -0.6055195754813757 1.1522000851259093 -0.8322498724773801 0.2922507840640859 1.3508043347761927 0.8412564634783645 1.1678343946495362 -0.45416900776009017 
-1.5003644507680414 0.2112645385004284 -0.16480031322082495 0.4203861190885815 -0.8372378085529991 -1.197063535983179 -1.3749735886036727 -0.06858791139910989 0.98202328138912 -0.2256064021896169 0.2261719028410941 1.6740567978872274 -0.4407189136399247 1.8787345647813682 -0.6249329962526128 1.215888446043408 
-0.21051712633816244 -0.985410932154163 0.10028092405939237 0.14616308924732 1.6819285728331086 0.9427190254820346 0.8667546013348466 1.6405225409259245 -1.6097082534762992 1.1645927405844456 0.07849910373700815 -2.4340715292663986 0.5979417197587029 0.2640083611175946 -0.20309954787290496 -0.19274839721664966 
-0.4171196586965848 -0.4366519565483726 -1.548846601723779 0.38985405322215905 -0.2821431753771334 1.5350834251280518 1.2432127257710426 -1.1955787221109968 -1.7711140869255722 -0.8816365561918543 -0.34968852027114417 0.6071584975202982 -0.6210981646854242 1.505984422949871 -0.24249930752877694 0.8243917973998265 
-0.9007159737898824 1.5914305644216877 0.29294163037390053 -0.6338518377268401 0.6339868324764681 -0.326819197303786 -0.9752063305090051 2.3779456483211496 0.3503304192821054 -1.3374764049667816 0.8898875395845898 0.3593496973173606 1.7229041167354635 0.36972642330990885 0.7260709417748314 -0.3116097706788807 
-0.0034487674619444516 0.2169297005790522 -1.483752824235579 2.2730219317161144 0.764319488454525 1.153516306259301 0.7493406311053269 0.2485075656551115 -1.0858271776670405 -1.7048732099171384 0.2351312032245448 0.34254592468064515 1.405674813992522 0.7429987969147447 0.6647940576416776 -0.8375627969261942 
-1.6876306412643718 -0.1525358339379546 -0.3625665441412722 -0.6639370934863296 -0.5460347929572904 -0.42301677328634496 -1.113500788961721 -0.4296307744619726 0.8584006393017561 0.17059006450568312 -1.0349001907997104 -0.9312324221356431 -0.615760312035218 1.0484821720212034 -0.20090115363970917 -0.01671083638633928 
-1.0132213705394548 -0.12300703431187149 0.3051626471084963 -1.4261527726338266 0.0690528581300938 -1.2475256661997385 1.2151685989657286 1.3865990987395171 -1.0171253819092732 2.5337375873334427 1.717265088795261 -1.2732213716612877 1.1873246162855093 -0.1942709322831181 -1.0556228504052418 -0.7294176957865653 
0.2050281080444778 0.27023990066824133 -0.7701624700636749 -0.15049270332529932 -0.3318977761004855 -0.9452990125834023 1.056804268739195 0.23363316332374917 0.6651993201975287 -0.22130030472674814 -0.3091449363606659 1.5489430719198918 0.8612102133595512 0.9884142605047747 -1.406608935870392 -0.3779490510758177 
-0.7400017544228903 0.42451926834825754 0.40727695755623383 -1.4164747723287672 0.8420276656769309 1.2379272652898732 -0.5418610187943448 -0.701863854878046 -0.9071765687247465 1.006703203111826 -0.6869953918816163 -0.9998535284953873 0.3328575978767245 1.066054198420148 -3.19086773458376 -0.7743567117318126 
0.10168248596618394 -1.4087035361371816 -1.5352227921106163 0.1619680656753023 0.8278829365356758 0.14336776194102024 -0.374555338190408 0.41591396316805795 0.9146918036523989 -1.4145170399893157 -0.9929210235539285 -0.600414907989309 0.4061253555854441 -1.107000252527209 0.4683719914476391 1.5290587635385446 

0.5745032847097343 -1.4524820086575725 -0.6692054229859393 0.03129431884021391 -2.4309138024248687 -0.5971324931579949 1.5355379194502226 -0.749599031105518 0.49512602415580914 -0.5764443849011467 -0.8900302702505966 -0.7152919334470729 0.3651243406748874 0.054505657120322695 1.3681786924149952 -0.6269919937874502 
-0.6134659428544784 1.1148267387188509 1.6336564607528532 0.5913027798572782 0.7343241909059265 -0.6398205667116345 -1.5548413801459788 0.4669952245332579 0.43183350758266464 -0.5617840618870125 1.1815256248597739 0.39402198948197104 -0.9830810026917406 0.03625162910274653 1.30259921908183 0.1868139129976609 
-0.18920155243498413 1.175919291633756 0.22689803968999855 0.9270677218843733 -0.5849038231795396 0.1997833499876667 -1.0807011994593052 -0.3734386961955023 -0.9913973789710038 -1.390189470640598 1.3698341134296017 -0.4277796612153811 1.4134623521451144 -0.4369034725802177 0.14539195643583452 0.8341665596631647 
-2.4699813153118297 0.9265646471551611 0.07769373955179418 0.0980621531852997 1.3090023442284535 2.076053920189055 0.9441088947010432 -0.7175069824366456 -2.8169369381597598 -0.43298155041077885 0.7867112475597958 0.6509521022952622 0.3753251523306264 0.27049019045027983 0.8912016040022125 -0.29421140647369165 
-0.18563582017809926 1.071020284512171 2.1510602022953407 -0.7002096092504242 -0.6609595210865112 -1.048417701452075 -0.4851330865382436 -0.31663320919773846 -0.6497153118981813 0.17003593897061356 2.9732792516463507 -1.0392234922476686 -0.12948890478838274 0.3514537919181537 0.11862795157394446 -0.044950207001389964 
0.19338354132527577 0.5292378672247623 1.0712825648406272 2.06572293247668 -0.14063910607904254 1.5418177503465367 -0.1305954728194116 -1.8712761523172896 -0.6247744087565156 1.1522000851259093 -0.849514763780796 0.2939460961993783 1.3508043347761927 0.8343885765037743 1.1772610123302392 -0.4528626804790944 
-1.6099877771535018 0.2112645385004284 -0.16223557835609706 0.41092463582001804 -0.8333418576143043 -1.197017892378771 -1.393934098220238 -0.06858791139910989 -0.09333053593581257 -0.21970612156338656 0.2269723711333717 1.713262671322145 -0.4407189136399247 1.8694325791700552 -0.6370443326964568 1.186379169406277 
-0.20878628520426987 -1.0003106029306974 0.10127911279124954 0.1458812627437471 1.6801141214192818 0.9234992266185656 0.7119823558617859 1.3680224578364255 -1.6097082534762992 1.183643100322146 -1.2862680506253927 -0.911015756541434 0.5964811450247043 0.2625840701029434 -0.20640374537275727 -0.19270369805662255 
-0.42319231560716836 -0.9704207787510306 -1.5536172297132544 0.3864399052256247 -0.6885432119766791 1.0176069719930094 1.2560170149948364 -1.1955787221109968 -1.7677986792824352 -0.8711405370861632 -0.3492796911964143 0.6071584975202982 -0.6169462712154752 0.3044858519922709 -0.23779986805738415 0.8160898312265585 
-0.8871396309610778 1.5914305644216877 0.29294163037390053 0.92182193311826 0.6339868324764681 -0.3193785381150232 -0.9949726478722613 2.3846231850284507 0.3503304192821054 -1.3532378842393273 0.8760884350905466 0.3689299306215272 -0.24882295670957003 0.36972642330990885 0.7371429126168596 -0.3116097706788807 
-0.0034615650095189544 0.21807050299380215 -1.4835424086900622 2.2730219317161144 0.764715150243825 1.168520057177627 0.7502856284891569 0.24686091542307942 1.0376012833300183 0.324540251923748 -0.14942128032368038 0.34643225440482067 1.0338428442912804 0.7480323758652176 0.6725791246164387 -0.8285051420440286 
-1.6909576174862535 1.0266560987572102 -0.3625665441412722 -0.6673432580816988 0.07420896333306476 -0.4264346319944459 -1.1023750956227885 -0.4296307744619726 0.8505630011031503 0.17328033422856248 -1.0558121630807398 -0.9244165967464241 -0.6294182067814866 1.0484821720212034 -0.20594604975528458 -0.016608795582830904 
-1.0350613291921626 -0.12143404536911809 0.30672744470850216 -1.4315017508012633 0.0690528581300938 -1.2613715898802789 1.2104590629397418 1.3865990987395171 -1.0356934195201841 2.5011871523243356 1.6997488202559197 -1.2770777218990705 -0.15983004128374542 -0.1942709322831181 -1.0684690809201718 -0.7320675752414836 
0.20356124829359673 0.2670219193493955 -0.7740180364793605 -0.15049270332529932 -0.33359774255957153 -0.9413454236807529 1.066491776177687 0.23003767653497834 0.6716984147783097 -0.22296636424419153 -0.3131593865652761 1.569815875498212 0.8612102133595512 0.9842197300644032 -1.406608935870392 1.0516201136248278 
-0.747723510222525 0.42421322148296925 0.4049559310064299 -1.4204652071068704 0.8440515385873629 1.2403112091764805 -0.5304095892469322 -0.6910372093644845 -0.9071765687247465 1.014336436908527 -0.684701825783556 -0.9975637250349441 -0.5404215577684645 1.0372909334896547 -3.19086773458376 -0.7575775266327616 
0.10168248596618394 -1.4222940395696497 -1.5352227921106163 0.16011598177837988 0.8168310031853729 0.14295504586354965 -0.37151856161197194 0.41827977963374846 0.8518886485057139 -1.4332391768895365 -0.9810706531714977 -0.6080103130341546 0.41379069969133303 -1.131567601140641 0.4555047213375969 0.7600809309917622 

0.5925477342711581 -1.4244065985253755 -0.6657612133826597 0.19097212517062245 -2.433609817398965 -0.572951255263151 1.54240471041046 -0.7487152170962568 0.49512602415580914 -0.578684365390295 -0.8852900898303911 -0.7077336609056962 0.3638630176360643 0.0547568736420291 1.3819860216279483 -0.634797628452595 
-0.6044683571013343 1.113717117608134 1.6860489163442312 0.5941093491684981 0.7315261900273925 -0.6429638087492371 -1.543355232617643 0.461906520481577 0.43183350758266464 -0.5680005503602372 1.1688856922752104 0.39402198948197104 -0.9754569516401109 0.03562583833181156 1.2744392369638822 0.1868139129976609 
-0.18920155243498413 1.175919291633756 0.22689803968999855 0.9292155043427777 -0.5812777649452557 0.194896604314002 -1.0943079370939244 -0.3628665057424829 -0.9743899409514974 -1.3943002513405576 1.3598870603779958 -0.4189951535386567 1.4293566567244471 -0.43338214208598924 0.14139920931921526 0.8303039112206257 
-2.440126322443015 0.965989125088386 0.07859136203263868 0.09575190613517877 1.3166159164662135 2.076053920189055 0.9242243430860473 -0.7376967815986452 -2.7543356691200307 -0.4359135695628145 0.7933475589915324 -0.9807668656648887 0.3768486359469851 0.2665324919229049 0.8983493608413821 -0.2934738484575676 
-0.1885602229611011 1.065464182078964 2.16411117333683 -0.7157989257168985 -0.6597001167169863 -1.05990222042526 -0.5014976214407947 1.8130616216951896 -0.6497153118981813 0.17518493961818504 2.989400496032159 -1.0338124888461795 -0.13229340919216867 0.34957869968157 -0.5239253228108037 -0.044950207001389964 
1.9416482268915798 0.5250543166394818 1.0693960769536668 2.0599074244079194 -0.14176593611790506 1.5012456239954202 -0.1288432559061544 -1.8712761523172896 -0.6055195754813757 1.1514799931074102 -0.8322498724773801 0.2922507840640859 -1.0217766215646038 0.8412564634783645 1.1678343946495362 -0.45416900776009017 
-1.6099877771535018 0.21289002653310451 -0.16480031322082495 0.41092463582001804 -0.8372378085529991 -1.197063535983179 -1.396264767048876 -0.06990788323545029 -0.09324282644472909 -0.2274698034018175 0.22218999768555608 1.6740567978872274 -0.44208009625349526 1.888210056192511 -0.6186049242666181 1.191372957785286 
-0.20730610790285595 -1.0023969745909238 0.10028092405939237 0.14744154036591628 1.701667031134295 0.9148330108642864 0.8599884140227534 1.6330969390996088 -1.622375722152587 1.1847670314913443 -1.3240363333295069 -2.442441460412338 0.5923211664426676 0.2640083611175946 -0.20309954787290496 -0.19274839721664966 
-0.4171196586965848 -0.442995628687672 -1.548846601723779 0.38985405322215905 -0.2821431753771334 1.5350834251280518 1.2432309841368074 -1.1966258570361614 -1.7768034527175471 -0.8759360965265129 -0.34968852027114417 0.6071584975202982 -0.6210981646854242 0.3050339896585135 -0.23896351958989662 0.8243917973998265 
-0.8871396309610778 1.5881417473555441 0.29294163037390053 -0.6413712606077843 0.6339868324764681 -0.3255136084160952 -0.9772781544024604 2.3779456483211496 0.35297987176160495 -1.3374764049667816 0.8898875395845898 0.37243580050028074 1.7168265708259636 0.36879558824394343 0.7150435897154873 -0.3116097706788807 
-0.003376606753669391 0.21807050299380215 -1.4835424086900622 2.2730219317161144 0.7592294784545436 1.1287016495544062 0.7493406311053269 0.24514555556852216 1.0498484648472504 -1.7048732099171384 -0.1504050031840488 0.3482959311235088 1.0494239115781467 0.7429987969147447 0.6647940576416776 -0.8417035318129829 
1.1804847791514481 1.030791177055537 -0.3625665441412722 -0.6564490075315348 -0.5453209139795416 -0.42301677328634496 -1.1023750956227885 -0.4296307744619726 0.8601163771700225 0.17299843317758787 -1.0349001907997104 -0.9312324221356431 -0.6060801787520261 1.044789044223792 -0.20572614508919204 -0.015970895937734007 
-1.0276300825517248 -0.12143404536911809 0.30110126590553843 -1.4172013165294897 0.06986430159590148 -1.2613715898802789 -0.454608058963458 1.3748624748034242 -1.0279695968559293 2.5337375873334427 1.717265088795261 -1.2954040917983938 1.2017587016322517 -0.1942709322831181 -1.031327768969604 -0.7316268632534865 
0.2050281080444778 0.2731984905556829 -0.7724722411381943 -0.14963454206949794 -0.3318977761004855 -0.9452990125834023 1.0438486571370982 0.23363316332374917 0.6651993201975287 -0.22417730965841443 -0.3084487078123729 1.5489430719198918 0.868641883503232 0.9884142605047747 -1.406608935870392 1.0665710288160837 
-0.7400017544228903 0.42523222372405356 0.4049559310064299 -1.4204652071068704 0.832459821076223 1.2403112091764805 -0.5304095892469322 -0.701863854878046 -0.9071765687247465 1.006703203111826 -0.6941702666783028 -0.9998535284953873 0.333294768731257 1.0592126558733503 -3.19086773458376 -0.7743567117318126 
0.10168248596618394 -1.4103086696771656 -1.5352227921106163 0.15690482894505742 0.8261419101993175 0.14280266332861327 -0.3752475971114591 0.41591396316805795 0.8959767532577773 -1.4179149737324617 -0.9885193618744997 -0.5942514828847139 0.4061253555854441 -1.107000252527209 0.4512410063884873 1.5095474654798968 

0.5958488595978926 -1.4524820086575725 -0.6759060516628645 0.19097212517062245 -2.4279539761654116 -0.572951255263151 1.5564730227688817 -0.7487152170962568 0.7772523752564106 -0.5778734746211402 -0.8900302702505966 -0.7226194392883384 -0.2975894991262698 0.054737027104826294 1.379151584273847 -0.6302915118280663 
-0.6044683571013343 1.1191283778816137 1.6860489163442312 0.5960734200646618 0.7432907824342708 -0.6471561937718739 -1.5326986058860697 0.4669321287796476 0.43183350758266464 -0.5442015182113398 1.1868484911989525 0.39737452517524147 -0.9999108437865527 0.0349642454000683 1.2643693434535297 0.1847360846719879 
-0.18920155243498413 1.1908299132020426 0.22377870666776264 0.9270677218843733 -0.5925990295280612 0.194896604314002 -1.08545274653344 -0.36508490361918755 -0.9707032014110686 -1.4145723698750294 1.3528792775384795 -0.4236289679308013 1.4134623521451144 -0.43338214208598924 0.13855742111622227 0.8263153250759576 
-2.5026883252537613 0.9479778383126447 0.07651112650241948 0.09657906995196425 1.3103064069831265 2.141584457334342 0.9311389996575214 1.14390605256962 -2.824075369260531 -0.44278799428741583 0.7924235597350604 -0.9807668656648887 0.45734262221853217 0.26305441536921664 0.8846845400171325 -0.29351321783497036 
-0.18563582017809926 1.071020284512171 2.1238711688375758 -0.7089895025339837 -0.6492687518430792 -1.0307640670259086 -0.49166586099074794 -0.31793586643224325 -0.6497153118981813 0.17741035034297953 2.990467716009771 -1.0484593873602086 -0.13176011796480436 0.34957869968157 -0.5207144124763455 -0.4968256198665987 
1.9891360850047173 0.5292378672247623 1.0712825648406272 2.0593441169395983 -0.1400575677819963 1.468403803911186 -0.12842457155879022 -1.8838456785350648 -0.6232168126898199 0.9428799606564048 1.107509395850158 0.2775474641735915 1.3323271269254617 0.8417366154745549 1.1737176621747418 -0.4637373025106566 
-1.607334187939206 -0.9511249071251998 -0.1640502719969109 0.41646025863389974 -0.8377034041376342 -1.178639783175314 -1.3732005544744772 -0.06921756341231948 -0.09395844128454772 -0.22767264994654052 0.22286332770760575 0.6466695077045822 -0.4407189136399247 1.8909544735020616 -0.6209541164729958 1.2062346067401164 
-0.21051712633816244 -0.9789194315826008 0.10118422285816504 0.14415211682198606 1.6590710493918313 0.9243240401524451 0.8667546013348466 1.619646099354951 -1.6097082534762992 1.1630630117117706 0.08246618583071841 -2.442441460412338 0.6038438149772737 0.2625840701029434 -0.5220534741750411 -0.19385926349498578 
-0.41188656682189473 -0.9721886005295219 -1.5536172297132544 0.389085510177049 -0.6898183451590502 0.09980957243736244 1.263433036413245 -1.2022546310451165 -1.7768034527175471 -0.892496342578472 -0.34968852027114417 0.6071584975202982 -0.6221847961361365 0.3044858519922709 -0.23779986805738415 0.8243917973998265 
-0.8871396309610778 1.613276785095854 0.29018433088174683 -0.6413712606077843 0.6339868324764681 -0.3268044239776459 -0.9924682324078558 2.3712613825148545 0.353225978825158 -1.3532378842393273 0.8578923081778888 0.36948879053267913 -0.2444879456764208 0.3713880185367933 0.715672525097504 -0.3147340657713631 
-0.0034926218237309936 0.2171171865026829 -1.453028675641515 2.2054741181510797 0.2509082158801786 1.1631040432753126 0.7587639397765853 -0.04447583626966182 -1.0901911841266205 0.33117154086506134 -0.1504050031840488 0.3482959311235088 1.0338428442912804 0.7417736971540106 0.6647940576416776 -0.8390388306612173 
-1.6876306412643718 1.016938278901297 -0.36543901160838693 -0.6673432580816988 -0.5460839964421472 -0.4264346319944459 -1.1023750956227885 -0.41702786042478224 0.8268695567378778 0.17299843317758787 -1.0596420084514617 -0.9266170373389049 -0.6121797326027142 1.0609002747436251 -0.20513969087534883 -0.016695157534540848 
-0.9817910664558194 -0.12135409803119866 0.3087684091684399 -1.4172013165294897 0.0690528581300938 -1.2475256661997385 1.2288043653130911 1.369803829745145 -1.0408528441451645 2.5182132457894415 1.6913928694021105 -1.2954040917983938 1.190501259718322 -0.19239135201006324 -1.0556228504052418 -0.7316268632534865 
0.20356124829359673 0.2707277535713394 -0.7804127674201368 -0.15272670126539956 -0.33359774255957153 -0.9617566919006163 1.0456799990964318 0.2334027561818304 0.6712575016741354 -0.2236327730928805 -0.3084487078123729 1.569815875498212 0.8612102133595512 0.9731453043931653 -1.406608935870392 1.0763484756746984 
-0.747723510222525 0.4170693107346039 0.4049559310064299 -1.435193574344201 0.8420276656769309 1.2451173898474541 -0.5321061884805276 -0.6852395838892166 -0.9151864593444692 1.010450561342823 -0.6851792115799796 -0.985283347521346 -0.5419226984098681 1.0501089213198571 -3.19086773458376 -0.7579549339210833 
0.10168248596618394 -1.395444772324143 -1.5438285186779677 0.16107227363468507 0.8241308428177694 0.14238240365696309 -0.3774246956593367 0.6040615055688123 1.2187516927397979 -1.4334191175189739 -0.9708175746183589 -0.6038743916372656 0.41141193511624896 -1.1074689605386794 0.4569554610840129 1.5405826630217772 

0.593479156507454 -1.4524820086575725 -0.6710363941112393 0.03037818644667212 -2.4309138024248687 -0.5906454981228765 1.531724302303958 -0.7505045661524191 0.7691452597414545 -0.5764443849011467 -0.8836320307231191 -0.7152919334470729 0.36536433586494055 0.054737027104826294 1.3904095019785132 -0.6302915118280663 
-0.6009646740163961 1.1395680798207375 1.6841187329459422 0.5870693236564559 0.7343241909059265 -0.6522424242279297 -1.520008315409842 0.468353728434072 0.43183350758266464 -0.5617840618870125 1.1815256248597739 0.3962236523864421 -0.967670366028303 -0.403904872412916 1.2625849930403974 0.18743508032538134 
-0.18917450481515513 1.1983647934486668 0.22430524126604118 0.9408086217794615 -0.5878736722359034 0.19228573825503967 -1.0965578012806032 -0.36043343248935317 -0.9822040260193907 -1.4145723698750294 1.3658884151689745 -0.4236289679308013 1.4165112987926494 -0.4291834099827167 0.14139920931921526 0.8310063082093863 
-2.4699813153118297 0.935954117158281 0.07697348494282169 0.09650182402048128 1.3103064069831265 2.069175108107942 0.9286871164769485 -0.7295419641604123 -2.824075369260531 -0.43915412370398754 0.8051203653331462 -0.9993489547058074 0.3850500250133755 0.27011058533165605 0.8983493608413821 -0.29092919432425673 
-0.18563582017809926 1.071020284512171 -0.632364100326131 -0.7132172640192238 -0.6690518975307217 -1.012824528976357 -0.49184916525163713 -0.31793586643224325 -0.6497153118981813 0.17549848643867416 2.9732792516463507 -1.0392234922476686 -0.13253825479525183 0.34360769916078815 0.12046008624367756 -0.044322094945484794 
1.9416482268915798 0.5343344634559035 1.0712825648406272 2.1142251475286957 -0.1395555754068995 1.5072988956186253 -0.12740987007022003 -1.8895948003165577 -0.6192104080943062 1.1494202597157814 -0.8409948709172628 0.293323355468015 1.3323271269254617 0.8412564634783645 1.1538230263655205 -0.4528626804790944 
-1.6028991006404667 0.2112645385004284 -0.16524610505158965 0.41528627285279 -0.8333418576143043 -1.1894532327991125 -1.3823972562053115 -0.06911483171088462 -0.09333053593581257 -0.22224062168652872 0.22349607050760037 1.6841046180041135 -0.4407189136399247 1.917234838878038 -0.6250892520760863 1.2062346067401164 
-0.20878628520426987 -0.9955107481814631 0.10028092405939237 0.1445709257948257 1.701667031134295 0.9389003729415901 0.7005697895075851 1.3680224578364255 -1.6254061729081632 1.1645927405844456 0.07863392777250168 -2.4239104295907548 0.6085750484175809 0.2625840701029434 -0.5220534741750411 -0.19274839721664966 
-0.41368124779857457 -0.44399874659836835 -1.5459097490275284 0.389085510177049 -0.6785638307253696 0.09976531946801576 1.2432309841368074 -1.2022546310451165 -1.7518469200337627 -0.8855365443109956 -0.34968852027114417 0.6011342830347416 -0.6249991169913933 0.3050339896585135 -0.23779986805738415 0.8386375979109583 
-0.8871396309610778 1.5585800379391435 0.29294163037390053 0.92182193311826 0.6339868324764681 -0.3274491630507721 -1.0074053258097084 2.370292933759268 0.3492651564308098 -1.3301149967300796 0.8698096308715468 0.364930537161962 1.7117546681061047 0.37537761371371 0.7221649759119235 -0.3116097706788807 
-0.0034487674619444516 0.22291424590717326 -1.4835424086900622 2.2562318354750364 0.7519992896925205 1.138792251259814 0.7571669387313208 0.24686091542307942 1.0376012833300183 -1.715822900457992 0.24021921833997786 1.2631466401995184 1.405674813992522 0.7476311926347563 0.6647940576416776 -0.8338349604082694 
-1.705559242265862 1.0322253751755257 -0.3625665441412722 -0.6673432580816988 0.07543749439758202 -0.4224380057690728 -1.1023750956227885 -0.4296307744619726 0.8565630255696539 0.17328033422856248 -1.0358980284853379 -0.9133763543611771 -0.615253697706601 1.026295455603522 -0.20572614508919204 -0.016695157534540848 
-1.000237090758234 1.3135813063617376 0.3051626471084963 -1.4092675817904294 0.0690528581300938 -1.2644760809144167 1.2401136131781898 1.3865990987395171 -1.0353480588122983 2.5681891484557697 1.7404610585965485 0.9108541562317108 1.213471489043014 -0.1942709322831181 -1.0556228504052418 -0.7316268632534865 
0.2050281080444778 0.2776538583323015 -0.7804127674201368 -0.15036115776844156 -0.33310640638173894 -0.9413454236807529 1.056804268739195 0.2369810937821932 0.6576330834370255 0.919003944303207 -0.30672473182746435 1.5586379199768243 0.8606425802050667 0.9790582619279379 -1.3953787224520788 1.0665710288160837 
-0.7438767010795596 0.43058552675524775 0.4049559310064299 -1.4626833354348283 0.8420276656769309 1.2403112091764805 -0.5432713440906984 -0.705065243522756 -0.9071765687247465 1.007824160546927 -0.6803662067855758 -0.9922929393789885 0.32915570296229685 1.066054198420148 -3.124591396266505 -0.7692926841079237 
0.10334105152851288 -1.4049988120317614 -1.5116500143895497 0.15940617573338772 0.817885563936533 0.14405561934268843 -0.3752475971114591 0.41591396316805795 1.2187516927397979 -1.4504723550577392 -0.9615935030341901 -0.6080103130341546 0.41454223477294727 -1.0966108724464307 0.45474731882384606 1.5405826630217772 

0.593479156507454 -1.4524820086575725 -0.6692054229859393 0.19097212517062245 -2.4511138880848833 -0.5834290354795786 1.5300665946837104 -0.766921222100171 0.49512602415580914 -0.5849493866276096 -0.8900302702505966 -0.7271714681061289 0.3653221451553579 0.05429722881133691 1.3735126658168482 -0.6269919937874502 
-0.6044683571013343 1.1187025496942655 1.6556587946750168 0.5941744998529854 0.7315261900273925 -0.6427879921736384 -1.5407343373329359 0.46266194009696526 0.43183350758266464 -0.5657257174558584 1.1688856922752104 0.39402198948197104 -0.9787871139077671 0.03562583833181156 1.3073267581519703 0.1868139129976609 
-0.18920155243498413 1.1808110849352789 0.2289115597798226 0.935213853879847 -0.5792959008571227 0.20230819764563035 -1.0965578012806032 -0.3627780027274877 -0.9661586933923351 -1.4145723698750294 1.326226137635119 -0.419149649301744 1.4134623521451144 -0.4363034835881144 0.13855742111622227 0.836414813796788 
-2.4699813153118297 0.9415626934008763 0.07697348494282169 0.09575190613517877 1.318028683869887 2.0448152688324344 0.9242243430860473 -0.7295419641604123 -2.824075369260531 -0.4381923396388365 0.8116215475098251 -0.986153899592449 0.3701848716404986 0.2665324919229049 0.8907471888386068 -0.29092919432425673 
-0.18280326862184082 1.071020284512171 -0.6199704346677993 -0.7157989257168985 -0.6597001167169863 -1.012824528976357 -0.49184916525163713 1.4648829835788404 -0.6497153118981813 0.17247608100816464 2.9732792516463507 -1.0484593873602086 -0.13283025344253185 0.3523035012809304 0.12046008624367756 -0.044950207001389964 
1.9416482268915798 0.5325817126452637 1.0563351290402014 2.06572293247668 -0.1401333906637594 1.5023611452604015 -0.13057086239715446 -1.8712761523172896 -0.6055195754813757 1.1522000851259093 -0.8322498724773801 0.765387977645523 1.347670851679094 0.8412564634783645 1.1678343946495362 -0.45416900776009017 
-1.5003644507680414 0.2112645385004284 -0.16480031322082495 0.4203861190885815 -0.8372378085529991 -1.197063535983179 -1.3749735886036727 -0.06858791139910989 0.98202328138912 -0.22811683500059593 0.2261719028410941 1.6740567978872274 -0.4407189136399247 1.8871455597782347 -0.6249329962526128 1.215888446043408 
-0.20878628520426987 -0.985410932154163 0.10028092405939237 0.14616308924732 1.6819285728331086 0.9427190254820346 0.8667546013348466 1.6405225409259245 0.4476167656674068 1.1796710824016061 0.07934860754507572 -2.4340715292663986 0.5979417197587029 0.2640083611175946 -0.20309954787290496 -0.19274839721664966 
-0.418461647374382 -0.44399874659836835 -1.548846601723779 0.3904129635499465 -0.2781793496025892 0.09980957243736244 1.2432127257710426 -1.1955787221109968 -1.7711140869255722 -0.8816365561918543 -0.34968852027114417 0.6071584975202982 -0.6047137332912272 1.5000129341122357 -0.23779986805738415 0.8243917973998265 
-0.9007159737898824 1.5914305644216877 0.29294163037390053 -0.6245466798185313 0.6339868324764681 -0.3326349110807585 -0.9893273437211827 2.3779456483211496 0.3503304192821054 -1.3532378842393273 0.8805346314859923 0.3593496973173606 -0.25105678452123636 0.36972642330990885 0.7260709417748314 -0.3116097706788807 
-0.0034487674619444516 0.21427593182677523 -1.4655750077094263 2.2730219317161144 0.764319488454525 1.1631040432753126 0.7568042442476083 0.24686091542307942 -1.088812952346905 -1.7048732099171384 -0.1504050031840488 0.34485264155599477 1.405674813992522 0.7622859977967233 0.6647940576416776 -0.8375627969261942 
-1.6876306412643718 -0.1515634776829612 -0.3625665441412722 -0.6639370934863296 -0.5460347929572904 -0.42301677328634496 -1.113500788961721 -0.4296307744619726 0.8584006393017561 0.17328033422856248 -1.0358980284853379 -0.9312324221356431 -0.615760312035218 1.0484821720212034 -0.20090115363970917 -0.01671083638633928 
-1.0132213705394548 -0.12300703431187149 0.3051626471084963 -1.4261527726338266 0.06986430159590148 -1.2475256661997385 1.2151685989657286 1.3865990987395171 -1.0171253819092732 2.5337375873334427 1.731016009923138 -1.2954040917983938 -0.15983004128374542 -0.18907157870825053 -1.0556228504052418 -0.7294176957865653 
0.20370948755156318 0.27023990066824133 -0.7684594632040249 -0.15220946950297098 -0.33014804780385304 -0.9452990125834023 1.066491776177687 0.23003767653497834 0.6628917023056894 -0.22296636424419153 -0.3091449363606659 1.5489430719198918 0.8612102133595512 0.9884142605047747 -1.406608935870392 -0.3779490510758177 
-0.7400017544228903 0.22398369958758158 0.40727695755623383 -1.4164747723287672 0.8420276656769309 1.2379272652898732 -0.5390222514176328 -0.701863854878046 -0.9071765687247465 1.0111602879718764 -0.6860973720233735 -0.9998535284953873 0.3328575978767245 1.066054198420148 -3.19086773458376 -0.7628584223127604 
0.10168248596618394 -1.442261488227153 -1.5352227921106163 0.1619680656753023 0.817885563936533 0.14336776194102024 -0.37151448362586514 0.41591396316805795 0.8890643465162231 -1.3977139925935156 -0.9929210235539285 -0.600414907989309 0.4061253555854441 -1.107000252527209 0.4683719914476391 1.5290587635385446 

0.5925477342711581 -1.4244065985253755 -0.6657612133826597 0.19097212517062245 -2.433609817398965 -0.572951255263151 1.54240471041046 -0.7487152170962568 0.49512602415580914 -0.578684365390295 -0.8852900898303911 -0.7077336609056962 0.3638630176360643 0.0547568736420291 1.3819860216279483 -0.634797628452595 
-0.6044683571013343 1.113717117608134 1.6860489163442312 0.5941093491684981 0.7315261900273925 -0.6429638087492371 -1.543355232617643 0.461906520481577 0.43183350758266464 -0.5680005503602372 1.1688856922752104 0.39402198948197104 -0.9754569516401109 0.03562583833181156 1.2744392369638822 0.1868139129976609 
-0.18920155243498413 1.175919291633756 0.22689803968999855 0.9292155043427777 -0.5812777649452557 0.194896604314002 -1.0943079370939244 -0.3628665057424829 -0.9743899409514974 -1.3943002513405576 1.3598870603779958 -0.4189951535386567 1.4293566567244471 -0.43338214208598924 0.14139920931921526 0.8303039112206257 
-2.440126322443015 0.965989125088386 0.07859136203263868 0.09575190613517877 1.3166159164662135 2.076053920189055 0.9242243430860473 -0.7376967815986452 -2.7543356691200307 -0.4359135695628145 0.7933475589915324 -0.9807668656648887 0.3768486359469851 0.2665324919229049 0.8983493608413821 -0.2934738484575676 
-0.1885602229611011 1.065464182078964 2.16411117333683 -0.7157989257168985 -0.6597001167169863 -1.05990222042526 -0.5014976214407947 1.8130616216951896 -0.6497153118981813 0.17518493961818504 2.989400496032159 -1.0338124888461795 -0.13229340919216867 0.34957869968157 -0.5239253228108037 -0.044950207001389964 
1.9416482268915798 0.5250543166394818 1.0693960769536668 2.0599074244079194 -0.14176593611790506 1.5012456239954202 -0.1288432559061544 -1.8712761523172896 -0.6055195754813757 1.1514799931074102 -0.8322498724773801 0.2922507840640859 -1.0217766215646038 0.8412564634783645 1.1678343946495362 -0.45416900776009017 
-1.6099877771535018 0.21289002653310451 -0.16480031322082495 0.41092463582001804 -0.8372378085529991 -1.197063535983179 -1.396264767048876 -0.06990788323545029 -0.09324282644472909 -0.2274698034018175 0.22218999768555608 1.6740567978872274 -0.44208009625349526 1.888210056192511 -0.6186049242666181 1.191372957785286 
-0.20730610790285595 -1.0023969745909238 0.10028092405939237 0.14744154036591628 1.701667031134295 0.9148330108642864 0.8599884140227534 1.6330969390996088 -1.622375722152587 1.1847670314913443 -1.3240363333295069 -2.442441460412338 0.5923211664426676 0.2640083611175946 -0.20309954787290496 -0.19274839721664966 
-0.4171196586965848 -0.442995628687672 -1.548846601723779 0.38985405322215905 -0.2821431753771334 1.5350834251280518 1.2432309841368074 -1.1966258570361614 -1.7768034527175471 -0.8759360965265129 -0.34968852027114417 0.6071584975202982 -0.6210981646854242 0.3050339896585135 -0.23896351958989662 0.8243917973998265 
-0.8871396309610778 1.5881417473555441 0.29294163037390053 -0.6413712606077843 0.6339868324764681 -0.3255136084160952 -0.9772781544024604 2.3779456483211496 0.35297987176160495 -1.3374764049667816 0.8898875395845898 0.37243580050028074 1.7168265708259636 0.36879558824394343 0.7150435897154873 -0.3116097706788807 
-0.003376606753669391 0.21807050299380215 -1.4835424086900622 2.2730219317161144 0.7592294784545436 1.1287016495544062 0.7493406311053269 0.24514555556852216 1.0498484648472504 -1.7048732099171384 -0.1504050031840488 0.3482959311235088 1.0494239115781467 0.7429987969147447 0.6647940576416776 -0.8417035318129829 
1.1804847791514481 1.030791177055537 -0.3625665441412722 -0.6564490075315348 -0.5453209139795416 -0.42301677328634496 -1.1023750956227885 -0.4296307744619726 0.8601163771700225 0.17299843317758787 -1.0349001907997104 -0.9312324221356431 -0.6060801787520261 1.044789044223792 -0.20572614508919204 -0.015970895937734007 
-1.0276300825517248 -0.12143404536911809 0.30110126590553843 -1.4172013165294897 0.06986430159590148 -1.2613715898802789 -0.454608058963458 1.3748624748034242 -1.0279695968559293 2.5337375873334427 1.717265088795261 -1.2954040917983938 1.2017587016322517 -0.1942709322831181 -1.031327768969604 -0.7316268632534865 
0.2050281080444778 0.2731984905556829 -0.7724722411381943 -0.14963454206949794 -0.3318977761004855 -0.9452990125834023 1.0438486571370982 0.23363316332374917 0.6651993201975287 -0.22417730965841443 -0.3084487078123729 1.5489430719198918 0.868641883503232 0.9884142605047747 -1.406608935870392 1.0665710288160837 
-0.7400017544228903 0.42523222372405356 0.4049559310064299 -1.4204652071068704 0.832459821076223 1.2403112091764805 -0.5304095892469322 -0.701863854878046 -0.9071765687247465 1.006703203111826 -0.6941702666783028 -0.9998535284953873 0.333294768731257 1.0592126558733503 -3.19086773458376 -0.7743567117318126 
0.10168248596618394 -1.4103086696771656 -1.5352227921106163 0.15690482894505742 0.8261419101993175 0.14280266332861327 -0.3752475971114591 0.41591396316805795 0.8959767532577773 -1.4179149737324617 -0.9885193618744997 -0.5942514828847139 0.4061253555854441 -1.107000252527209 0.4512410063884873 1.5095474654798968 

0.586319883837902 -1.4524820086575725 -0.6759060516628645 0.19097212517062245 -2.4511138880848833 -0.5600332716824121 1.5289453161978224 -0.7316988623736421 0.4974047084766093 -0.5764443849011467 -0.8852900898303911 -0.7301818257794844 0.3674240323764355 0.054505657120322695 1.3735126658168482 -0.6360928045515822 
-0.5951388143859224 1.1177505671526378 1.6547957098012844 0.5960734200646618 0.7432907824342708 -0.6495923086155085 -1.5473434456137387 0.4537402486124258 0.43183350758266464 -0.5617840618870125 1.1815256248597739 0.39402198948197104 -0.994554159511976 -0.40722051490867905 1.2645086827500738 0.18596258194665807 
-0.18920155243498413 1.1908299132020426 0.2267055028534517 0.9377286826369737 -0.5878736722359034 0.20230819764563035 -1.0965578012806032 -0.3734386961955023 -0.9661586933923351 -1.3996569047544114 1.3684647571917286 1.8108967017392157 1.4134623521451144 -0.4291834099827167 0.14139920931921526 -0.5072620799623768 
-2.469938608487732 0.9385756500099607 0.07726450089273541 0.09551600833436082 1.2956670088956832 2.076053920189055 0.9286871164769485 1.14390605256962 -2.824075369260531 -0.43964625309310457 0.8051203653331462 -0.9944500864735532 0.3850500250133755 0.27011058533165605 0.8893945717193806 -0.29421140647369165 
-0.18280326862184082 1.059026980519766 -0.632364100326131 -0.7132172640192238 -0.6597001167169863 -1.012824528976357 -0.49166586099074794 1.476986180790831 -0.6564282378792279 0.17247608100816464 2.9531055558629524 -1.0484593873602086 0.21052301626779668 0.34957869968157 0.12046008624367756 -0.045154913075005076 
0.19220768699284593 0.5292378672247623 1.0712825648406272 2.1142251475286957 -0.1400575677819963 1.5221473418607934 -0.1305954728194116 -1.887160284926754 -0.6142860089217774 1.1494202597157814 1.107509395850158 0.2979970712503933 1.3515206657437007 0.8343885765037743 1.188851201781793 -0.4584632174432927 
-1.6028991006404667 0.2112645385004284 -0.16223557835609706 0.40482497694834296 -0.8372378085529991 -1.1913588801578796 -1.3732005544744772 -0.06816806396280654 -0.09439475414169672 -0.21989101774714245 0.22450095227129852 1.6588563814560955 -0.4407189136399247 1.8871455597782347 -0.6327532756751313 1.2062346067401164 
-0.20878628520426987 -0.985410932154163 0.10028092405939237 0.14403227114047107 1.701667031134295 0.892567614865122 0.7035522656756173 1.3608724308708324 0.4476167656674068 1.17964486392017 0.08111552040934655 -2.442441460412338 0.6085703020361317 0.26252769506939894 -0.20309954787290496 -0.19056940700170505 
-0.4269146289605783 -0.43257148270152207 -1.5388341436462096 0.3904129635499465 -0.2781793496025892 0.10266019216110306 1.2613170631637638 -1.1966258570361614 -1.7768034527175471 -0.892496342578472 -0.34968852027114417 0.6071584975202982 -0.6047137332912272 0.2997575422941453 -0.23960850473961645 0.8277763920917333 
-0.8871396309610778 1.5806177630438283 0.29018433088174683 0.9254902048293068 0.6386933982664382 -0.3274491630507721 -0.9772781544024604 2.3655685392545838 0.3503304192821054 -1.3301149967300796 0.8695663539606739 0.3644819090020421 -0.24882295670957003 0.36981980255113167 0.7260709417748314 -0.31786098298699683 
-0.0034931477332205718 0.2171171865026829 -1.453028675641515 2.179580131552457 0.2509082158801786 1.1631040432753126 0.7408980968614663 0.24284064588965124 -1.088812952346905 0.3299782496948346 -0.1504050031840488 0.3482959311235088 1.405674813992522 0.7526595283146121 0.6647940576416776 -0.8390388306612173 
-1.7475556996823993 -0.1515634776829612 -0.36543901160838693 -0.6584813555123122 -0.553460380153431 -0.4264346319944459 -0.3380154482177635 -0.43081567228279977 0.8414469865493709 0.17357517695194727 -1.0358980284853379 -0.9332303733867309 -0.6075007987205653 1.026295455603522 -0.20544005802970633 -0.016100463567273928 
-1.0132213705394548 1.3135813063617376 0.3051626471084963 -1.4092675817904294 0.07018887445983686 -0.6450296827598672 1.2401136131781898 1.3865990987395171 -1.0533957818001791 2.556301853567041 1.7359906229961024 -1.2954040917983938 1.2250914865423226 -0.19174895625541363 -1.0556228504052418 -0.7344629454878622 
0.20356124829359673 0.2683542584285031 -0.7811044839448431 -0.15128672251191605 -0.33014804780385304 -0.9413454236807529 1.056804268739195 0.2369810937821932 0.6644253090338208 -0.2263757254708403 -0.3084487078123729 1.569815875498212 0.8612102133595512 0.9788781394792727 -1.406608935870392 1.0516201136248278 
-0.747723510222525 0.42421322148296925 0.40849962969605774 -1.4438374188804586 0.12556034814774567 1.2451173898474541 -0.5390222514176328 -0.6676705102445422 -0.9211824664319226 1.0142899841494775 -0.684183274769358 -0.985283347521346 0.3292736438688207 1.0771981495757155 -3.1757716949905794 -0.7628584223127604 
0.10044301471780612 -1.4450865742845613 -1.5331085414334393 0.15539517894772167 0.821167450576708 0.14503331497274813 -0.3724823408019263 0.6040615055688123 0.8958741563893211 -1.449517447906679 -0.9708175746183589 -0.6080103130341546 0.41554456381939003 -1.1074689605386794 0.4555047213375969 1.5405826630217772 

0.5925477342711581 -1.4524820086575725 -0.6657612133826597 0.19097212517062245 -2.4309138024248687 -0.5906454981228765 1.54240471041046 -0.7598655311004403 0.49512602415580914 -0.5677068928807995 -0.8852900898303911 -0.7077336609056962 0.3695514301826982 0.05429722881133691 1.3819860216279483 -0.6422581522111822 
-0.6044683571013343 1.1187025496942655 1.6860489163442312 0.5964375219727086 0.7420338914574414 -0.6403470091266601 -1.543355232617643 0.461906520481577 0.43183350758266464 -0.5657257174558584 -0.6069103327566711 0.39402198948197104 -0.9598559197505806 0.03548061418735097 1.2744392369638822 0.18844164973607 
-0.19059830881774853 1.175919291633756 0.22689803968999855 0.9231849877799212 -0.5839733565857967 0.194896604314002 -1.112911915248836 -0.3627780027274877 -0.9819236672021556 -1.4145723698750294 1.3598870603779958 -0.4189951535386567 1.407270982117045 -0.43338214208598924 0.14072697068066178 0.836414813796788 
-2.440126322443015 0.9574890508765767 0.07885960125536223 0.09469843747381511 1.3166159164662135 2.076053920189055 0.9236203595927733 -0.7282504979527619 -2.7543356691200307 -0.4359135695628145 0.7933475589915324 -0.9807668656648887 0.3768486359469851 0.27271063659434197 0.8983493608413821 -0.2884399882385478 
-0.185801105482339 1.065464182078964 2.16411117333683 -0.7112677397314487 -0.6597001167169863 -1.05990222042526 -0.5014976214407947 1.8130616216951896 -0.6497153118981813 0.1746562440278712 2.989400496032159 -1.0571193458521935 -0.13127274934566818 0.3523035012809304 -0.5239253228108037 -0.044950207001389964 
1.965229005958541 0.5250543166394818 1.0679118213626175 2.0599074244079194 -0.1401333906637594 1.4929198890318003 -0.1288432559061544 -1.8712761523172896 -0.6055195754813757 1.1522000851259093 1.0921187229064337 0.2979970712503933 -1.0217766215646038 0.8302576434548887 1.1734304954466286 -0.4536170113503408 
-1.5003644507680414 0.2112645385004284 -0.16223557835609706 0.41092463582001804 -0.8507446900881709 -1.1894532327991125 -1.3749735886036727 -0.06925838394352246 0.9965680974344738 -0.2274698034018175 0.22291412679033398 1.6740567978872274 -0.4438096440970762 1.888210056192511 -0.6290987117722103 1.191372957785286 
-0.20878628520426987 -0.9907511341248649 0.10028092405939237 0.14723252324308914 1.6819285728331086 0.9427190254820346 0.8667546013348466 1.3739266948645343 -1.6097082534762992 1.1847670314913443 -1.315303132686186 -2.442441460412338 0.6047966410340665 0.2640083611175946 -0.20309954787290496 -0.19274839721664966 
-1.5489886633478345 -0.442995628687672 -1.5657355207758943 0.38985405322215905 -0.2821431753771334 1.5350834251280518 1.2432309841368074 -1.1955787221109968 -1.7711140869255722 -0.8711405370861632 -0.34821175983069186 0.6071584975202982 -0.6210981646854242 0.30242867404600443 -0.24249930752877694 0.8243917973998265 
-0.9007159737898824 1.5881417473555441 0.29294163037390053 -0.6413712606077843 0.6339868324764681 -0.3287036373654585 -0.9752063305090051 2.3779456483211496 0.3530123593673504 -1.3374764049667816 0.8805346314859923 0.3687877992240268 1.7168265708259636 0.36972642330990885 0.736058333515643 -0.3116097706788807 
-0.0034487674619444516 0.2169297005790522 -1.4835424086900622 2.2730219317161144 0.7592294784545436 1.1287016495544062 0.7502856284891569 0.24643749954675176 1.0464245343167418 -1.7048732099171384 0.2351312032245448 0.3482959311235088 1.054010789195662 0.7526595283146121 0.6647940576416776 -0.8417035318129829 
1.1804847791514481 -0.1525358339379546 -0.36850975460127067 -0.6564490075315348 0.0744277308143479 -0.42301677328634496 -1.1023750956227885 -0.4296307744619726 0.8371282775742839 0.17059006450568312 -1.048092791798525 -0.9244165967464241 -0.6008244213013273 1.0436558785644507 -0.2008304586424657 -0.015970895937734007 
-1.0132213705394548 -0.12143404536911809 0.30110126590553843 -1.4172013165294897 0.06986430159590148 -1.2766233766687565 1.2151685989657286 1.3748624748034242 -1.0171253819092732 2.5337375873334427 1.6997488202559197 -1.2732213716612877 1.2017587016322517 -0.1942709322831181 -1.037480982491877 -0.7316268632534865 
0.2075166940310084 0.27163822061203463 -0.7809340429316848 -0.15079884521645356 -0.3318977761004855 -0.9413454236807529 1.0438486571370982 0.23219620842645344 0.6644253090338208 -0.22417730965841443 -0.3091449363606659 1.573175726923945 0.868641883503232 0.9842197300644032 -1.4104988090705672 1.0665710288160837 
-0.7400017544228903 0.42349931647357086 0.4049559310064299 -1.4204652071068704 0.8420276656769309 1.2379272652898732 -0.5487335555011994 -0.693775108336694 -0.9071765687247465 1.006703203111826 -0.6860973720233735 -1.007322462447467 0.3328575978767245 1.066054198420148 -3.1693226336925044 -0.7692926841079237 
0.10334105152851288 -1.4087035361371816 -1.536435334546611 0.15935321045580023 0.8278829365356758 0.14445355265140994 -0.3752475971114591 0.41591396316805795 0.8885322431119497 -1.4145170399893157 -0.9929210235539285 -0.5927217358964907 0.4061253555854441 -1.1074689605386794 0.47129168477340455 1.5501612010975205 

0.5925477342711581 -1.4244065985253755 -0.6657612133826597 0.19097212517062245 -2.4458846948480875 -0.572951255263151 1.54240471041046 -0.7487152170962568 0.49512602415580914 -0.5677068928807995 -0.8852900898303911 -0.6975999221345794 0.3634602415944263 0.0547568736420291 1.3819860216279483 -0.6422581522111822 
-0.6168629159943033 1.1187025496942655 1.6637753281780558 0.5964375219727086 0.7315261900273925 -0.6403470091266601 -1.543355232617643 0.461906520481577 0.43183350758266464 -0.5638347823568276 1.1688856922752104 0.39556994890210967 -0.9598559197505806 0.03548061418735097 1.2744392369638822 0.18844164973607 
-0.19059830881774853 1.1980143722237406 0.22782309895347794 0.9292155043427777 -0.5839733565857967 0.194896604314002 -1.112911915248836 -0.3628665057424829 -0.9888427031325009 -1.4145723698750294 1.3598870603779958 -0.4236289679308013 1.407270982117045 -0.43338214208598924 0.14050658398559235 -0.5072620799623768 
-2.440126322443015 0.9574890508765767 0.07885960125536223 0.09575190613517877 1.3110330393339866 2.076053920189055 0.9342286188738991 -0.7282504979527619 -2.7543356691200307 -0.4359135695628145 0.7933475589915324 -0.9807668656648887 0.3723453153994778 0.2689401225869877 0.8983493608413821 -0.2884399882385478 
-0.185801105482339 1.065464182078964 2.16411117333683 -0.7086024820596484 -0.6597001167169863 -1.05990222042526 -0.5014976214407947 1.8130616216951896 -0.6497153118981813 0.1752456166588309 2.989400496032159 -1.0398359757891076 -0.13282126962237542 0.34855529032920207 -0.5239253228108037 -0.044950207001389964 
1.965229005958541 0.5387330756596278 1.0693960769536668 2.0599074244079194 -0.14176593611790506 1.5012456239954202 -0.12992400150594446 -1.8712761523172896 -0.6055195754813757 1.1716347490567451 -0.8322498724773801 0.2922507840640859 -1.0217766215646038 0.8302576434548887 1.1526410042950614 -0.4536170113503408 
-1.6099877771535018 0.2112645385004284 -0.16223557835609706 0.4139209416126036 -0.8507446900881709 -1.1894532327991125 -1.396264767048876 -0.06925838394352246 0.9965680974344738 -0.2274698034018175 0.22291412679033398 1.6740567978872274 -0.44208009625349526 1.888210056192511 -0.6285485491958882 1.191372957785286 
-0.20878628520426987 -0.9907511341248649 0.10028092405939237 0.14723252324308914 1.701667031134295 0.9024879092989986 0.8667546013348466 1.3739266948645343 -1.622375722152587 1.1847670314913443 -1.315303132686186 -2.442441460412338 0.5923211664426676 0.26560690093890615 -0.20309954787290496 -0.19274839721664966 
-1.570337228156547 -0.442995628687672 -1.5657355207758943 0.38985405322215905 -0.6937369637430377 1.5131647434249744 1.2709361101572738 -1.2122514952769505 -1.7768034527175471 -0.8645664749123386 -0.34821175983069186 0.6071584975202982 -0.6130360009686173 0.3050339896585135 -0.23779986805738415 0.8243917973998265 
-0.8880269426494148 1.5881417473555441 0.29294163037390053 -0.6413712606077843 0.6433625314320657 -0.3287036373654585 -0.9772781544024604 2.3779456483211496 0.3530123593673504 -1.3374764049667816 0.8805346314859923 0.3687877992240268 1.7168265708259636 0.36879558824394343 0.736058333515643 -0.3116097706788807 
-0.003429688126991092 0.21807050299380215 -1.4835424086900622 2.2730219317161144 0.7592294784545436 1.1631040432753126 0.7502856284891569 0.24948030573719482 1.0464245343167418 0.32849549663794303 -0.1504664340719754 0.3482959311235088 1.0494239115781467 0.7526595283146121 0.6727749807545236 -0.8417035318129829 
-1.6973978551386568 1.0241109577095524 -0.36850975460127067 -0.6564490075315348 0.0744277308143479 -0.42301677328634496 -1.1119390389810284 -0.4296307744619726 0.8364252707244639 0.17299843317758787 -1.049091198389403 -0.9244165967464241 -0.6060801787520261 1.044789044223792 -0.2008304586424657 -0.015849087696764023 
-1.0276300825517248 -0.12143404536911809 0.30110126590553843 -1.4172013165294897 0.07017263520209892 -1.2613715898802789 -0.454608058963458 1.3748624748034242 -1.0279695968559293 2.5641233209570813 1.6997488202559197 -1.2954040917983938 1.2017587016322517 -0.1942709322831181 -1.031327768969604 -0.7316268632534865 
0.2050281080444778 0.2731984905556829 -0.7846458312771076 -0.14963454206949794 -0.32579043773921573 -0.9413454236807529 1.0438486571370982 0.23219620842645344 0.6644253090338208 -0.22417730965841443 -0.3084487078123729 1.5489430719198918 0.868641883503232 0.9925553628819739 -1.4104988090705672 1.0665710288160837 
-0.7405874458095117 0.42421322148296925 0.4049559310064299 -1.4204652071068704 0.832459821076223 1.2403112091764805 -0.5451805234683674 -0.701863854878046 -0.9071765687247465 1.006703203111826 -0.6941702666783028 -1.009395587556473 -0.5494317252160082 1.0592126558733503 -3.19086773458376 -0.7579549339210833 
0.10334105152851288 -1.4103086696771656 -1.5352227921106163 0.15935321045580023 0.8284971216933765 0.14445355265140994 -0.3752475971114591 0.4099424032897613 0.8550582178829732 -1.4179149737324617 -0.9885193618744997 -0.5942514828847139 0.4061253555854441 -1.1074689605386794 0.4512410063884873 1.57038347644737 

0.5844856450820618 -1.4524820086575725 -0.6657612133826597 0.19097212517062245 -2.4309138024248687 -0.572951255263151 1.54240471041046 -0.7487152170962568 0.49512602415580914 -0.5667847829306527 -0.8852900898303911 -0.7077336609056962 0.3695514301826982 0.0547568736420291 1.3819860216279483 -0.6422581522111822 
-0.6117120716282566 1.1187025496942655 1.6860489163442312 0.5964375219727086 0.7420338914574414 -0.6403470091266601 -1.543355232617643 0.461906520481577 0.43183350758266464 -0.5638347823568276 -0.6069103327566711 0.39556994890210967 -0.9598559197505806 0.03548061418735097 1.2744392369638822 0.18844164973607 
-0.19059830881774853 1.175919291633756 0.22689803968999855 0.9292155043427777 -0.5839733565857967 0.194896604314002 -1.112911915248836 -0.36783471020277486 -0.9743899409514974 -1.4145723698750294 1.3598870603779958 -0.4189951535386567 1.4035789930352434 -0.43338214208598924 0.14072697068066178 0.8349286281865542 
-2.440126322443015 0.9574890508765767 0.07885960125536223 0.09469843747381511 1.3166159164662135 2.076053920189055 0.9406021737219036 -0.7282504979527619 -2.7543356691200307 -0.4359135695628145 0.7933475589915324 -0.9807668656648887 0.3768486359469851 0.2689401225869877 0.8983493608413821 -0.2884399882385478 
-0.1843112041387334 1.065464182078964 2.16411117333683 -0.7086024820596484 -0.6597001167169863 -1.05990222042526 -0.5014976214407947 1.8130616216951896 -0.6497153118981813 0.1752456166588309 2.989400496032159 -1.0571193458521935 -0.13127274934566818 0.3498513307615177 -0.5239253228108037 -0.044950207001389964 
1.965229005958541 0.5250543166394818 1.0693960769536668 2.0599074244079194 -0.1401333906637594 1.5012456239954202 -0.1288432559061544 -1.8644562178639321 -0.6142860089217774 1.1716347490567451 1.0921187229064337 0.2979970712503933 -1.017221624888242 0.8302576434548887 1.164027227540066 -0.4536170113503408 
-1.6099877771535018 0.2112645385004284 -0.16223557835609706 0.41092463582001804 -0.8507446900881709 -1.1894532327991125 -1.396264767048876 -0.06925838394352246 0.9965680974344738 -0.2274698034018175 0.22291412679033398 1.6860500872474058 -0.4438096440970762 1.888210056192511 -0.6285485491958882 1.191372957785286 
-0.20878628520426987 -0.9907511341248649 0.10028092405939237 0.14723252324308914 1.701667031134295 0.9093799970085656 0.8667546013348466 1.3739266948645343 -1.622375722152587 1.1847670314913443 -1.315303132686186 -2.442441460412338 0.5923211664426676 0.26560690093890615 -0.20309954787290496 -0.19277311779894193 
-1.570337228156547 -0.4356978965652766 -1.5657355207758943 0.38985405322215905 -0.6937369637430377 1.5131647434249744 1.2432309841368074 -1.1962272855860845 -1.7768034527175471 -0.8711405370861632 -0.34821175983069186 0.6071584975202982 -0.6130360009686173 0.3050339896585135 -0.23779986805738415 0.8243917973998265 
-0.8871396309610778 1.5881417473555441 0.29294163037390053 -0.6413712606077843 0.6339868324764681 -0.3287036373654585 -0.9772781544024604 2.3779456483211496 0.35477754547306833 -1.3374764049667816 0.8805346314859923 0.3687877992240268 1.7168265708259636 0.36972642330990885 0.736058333515643 -0.3116097706788807 
-0.003429688126991092 0.21807050299380215 -1.4835424086900622 2.2730219317161144 0.7592294784545436 1.1287016495544062 0.7502856284891569 0.24948030573719482 1.0464245343167418 0.32849549663794303 -0.1504664340719754 0.3482959311235088 1.0494239115781467 0.7526595283146121 0.6647940576416776 -0.8417035318129829 
1.1804847791514481 1.0241109577095524 -0.36850975460127067 -0.6564490075315348 0.0744277308143479 -0.41633420975770896 -1.1023750956227885 -0.4296307744619726 0.8371282775742839 0.17572636088056992 -1.048092791798525 -0.9244165967464241 -0.6060801787520261 1.044789044223792 -0.2008304586424657 -0.01592688151891596 
-0.9988399778632121 -0.12143404536911809 0.30110126590553843 -1.4172013165294897 0.06986430159590148 -1.2613715898802789 -0.4616928245689342 1.3748624748034242 -1.0279695968559293 2.5337375873334427 1.6997488202559197 -1.2954040917983938 1.2017587016322517 -0.19710931719410235 -1.037480982491877 -0.7316268632534865 
0.2050281080444778 0.2731984905556829 -0.7715774338206012 -0.15079884521645356 -0.3305874902844101 -0.9413454236807529 1.0438486571370982 0.23219620842645344 0.6644253090338208 -0.22417730965841443 -0.3103114386810133 1.573175726923945 0.868641883503232 0.9842197300644032 -1.4104988090705672 1.0665710288160837 
-0.7400017544228903 0.42349931647357086 0.4049559310064299 -1.4204652071068704 0.832459821076223 1.2403112091764805 -0.5451805234683674 -0.693775108336694 -0.9071765687247465 1.014336436908527 -0.6778506209799432 -1.009395587556473 -0.5494317252160082 1.0592126558733503 -3.1693226336925044 -0.7589014700040931 
0.10334105152851288 -1.4293601812139272 -1.5635363654191698 0.15935321045580023 0.8284971216933765 0.14445355265140994 -0.377824587537486 0.41591396316805795 0.8885322431119497 -1.4179149737324617 -0.9929210235539285 -0.5927217358964907 0.4061253555854441 -1.0896730087810875 0.4611536197540891 1.5501612010975205 

0.5925477342711581 -1.4524820086575725 -0.6657612133826597 0.19097212517062245 -2.4309138024248687 -0.572951255263151 1.54240471041046 -0.7487152170962568 0.49512602415580914 -0.5677068928807995 -0.8852900898303911 -0.7077336609056962 0.3695514301826982 0.0547568736420291 1.3819860216279483 -0.6422581522111822 
-0.6117120716282566 1.1187025496942655 1.6860489163442312 0.5964375219727086 0.7420338914574414 -0.6403470091266601 -1.543355232617643 0.461906520481577 0.43183350758266464 -0.5638347823568276 -0.6069103327566711 0.39556994890210967 -0.9598559197505806 0.03548061418735097 1.2744392369638822 0.18844164973607 
-0.19059830881774853 1.175919291633756 0.22689803968999855 0.9292155043427777 -0.5839733565857967 0.194896604314002 -1.112911915248836 -0.36783471020277486 -0.9743899409514974 -1.4145723698750294 1.3598870603779958 -0.42562143682209735 1.407270982117045 -0.43338214208598924 0.14072697068066178 0.8349286281865542 
-2.440126322443015 0.9574890508765767 0.07885960125536223 0.09469843747381511 1.3166159164662135 2.076053920189055 0.9342286188738991 -0.7282504979527619 -2.7543356691200307 -0.4411379226233837 0.7893837782209058 -0.9807668656648887 0.3768486359469851 0.2655766716626988 0.8983493608413821 -0.2884399882385478 
-0.185801105482339 1.065464182078964 2.1698617033135617 -0.7086024820596484 -0.6597001167169863 -1.05990222042526 -0.5014976214407947 1.8130616216951896 -0.6497153118981813 0.1752456166588309 2.989400496032159 -1.041440057963403 -0.13127274934566818 0.34957869968157 -0.5239253228108037 -0.044950207001389964 
1.965229005958541 0.5250543166394818 1.0693960769536668 2.0599074244079194 -0.1401333906637594 1.5012456239954202 -0.1288432559061544 -1.879865490646987 -0.6142860089217774 1.1716347490567451 1.0921187229064337 0.3013158387642002 -1.0217766215646038 0.8302576434548887 1.164027227540066 -0.4536170113503408 
-1.6099877771535018 0.2112645385004284 -0.16223030806601133 0.41092463582001804 -0.8507446900881709 -1.1894532327991125 -1.396264767048876 -0.06925838394352246 0.9965680974344738 -0.2274698034018175 0.22291412679033398 1.6740567978872274 -0.4438096440970762 1.8598882154944927 -0.6285485491958882 1.191372957785286 
-0.20878628520426987 -0.9907511341248649 0.09909941344603874 0.14723252324308914 1.701667031134295 0.9024879092989986 0.85697334869903 1.3739266948645343 -1.622375722152587 1.1847670314913443 -1.315303132686186 -2.442441460412338 0.5923211664426676 0.26560690093890615 -0.20309954787290496 -0.19063723513557043 
-1.570337228156547 -0.442995628687672 -1.5657355207758943 0.38985405322215905 -0.6963815415562595 1.5131647434249744 1.2432309841368074 -1.1773589228508166 -1.7717214247956241 -0.8815528165099308 -0.34821175983069186 0.6071584975202982 -0.6130360009686173 0.3050339896585135 -0.23779986805738415 0.8243917973998265 
-0.8871396309610778 1.5881417473555441 0.29294163037390053 -0.6413712606077843 0.6339868324764681 -0.3281443338942774 -0.9772781544024604 2.409252438335135 0.3561492908605936 -1.3374764049667816 0.8889869347344591 0.3687877992240268 1.7378764781104172 0.36972642330990885 0.736058333515643 -0.3116097706788807 
-0.003429688126991092 0.21807050299380215 -1.4835424086900622 2.2730219317161144 0.7592294784545436 1.1381455365157622 0.7502856284891569 0.24948030573719482 1.0464245343167418 0.32849549663794303 -0.1504664340719754 0.3482959311235088 1.0394819305552834 0.7420832760348026 0.6647940576416776 -0.8417035318129829 
1.1804847791514481 1.0241109577095524 -0.36850975460127067 -0.6564490075315348 0.0744277308143479 -0.42301677328634496 -1.0962035504575165 -0.4296307744619726 0.8371282775742839 0.17299843317758787 -1.048092791798525 -0.9244165967464241 -0.6060801787520261 1.044789044223792 -0.2008304586424657 -0.015970895937734007 
-1.0132213705394548 -0.12143404536911809 0.30110126590553843 -1.4172013165294897 0.06986430159590148 -1.2613715898802789 -0.454608058963458 1.3748624748034242 -1.0279695968559293 2.5337375873334427 1.6997488202559197 -1.2954040917983938 1.2017587016322517 -0.19710931719410235 -1.037480982491877 -0.7316268632534865 
0.2050281080444778 0.2731984905556829 -0.7846458312771076 -0.15079884521645356 -0.32579043773921573 -0.9413454236807529 1.0438486571370982 0.23298382070493742 0.6705587827713989 -0.22417730965841443 -0.3084487078123729 1.573175726923945 0.868641883503232 0.9842197300644032 -1.4104988090705672 1.0772611916117083 
-0.7400017544228903 0.42349931647357086 0.4049559310064299 -1.4062806496973896 0.832459821076223 1.2403112091764805 -0.5451805234683674 -0.693775108336694 -0.9071765687247465 1.014336436908527 -0.6860973720233735 -1.009395587556473 -0.5494317252160082 1.0592126558733503 -3.1693226336925044 -0.7692926841079237 
0.10334105152851288 -1.4293601812139272 -1.5635363654191698 0.15935321045580023 0.8284971216933765 0.14445355265140994 -0.3752475971114591 0.41591396316805795 0.8885322431119497 -1.4179149737324617 -0.9929210235539285 -0.5927217358964907 0.4061253555854441 -1.1074689605386794 0.4611536197540891 1.5501612010975205 

0.593479156507454 -1.4524820086575725 -0.6692054229859393 0.19097212517062245 -2.4511138880848833 -0.5834290354795786 1.5300665946837104 -0.766921222100171 0.4893260447654533 -0.5849493866276096 -0.8900302702505966 -0.7077336609056962 -0.29512523469637436 0.05429722881133691 1.3735126658168482 -0.6269919937874502 
-0.5949689307800294 1.1187025496942655 1.6556587946750168 0.5941744998529854 0.7315261900273925 -0.6427879921736384 -1.543355232617643 0.46266194009696526 0.4382583960450705 -0.5657257174558584 1.1688856922752104 0.39402198948197104 -0.9787871139077671 0.03562583833181156 1.3073267581519703 0.1851262168237874 
-0.18920155243498413 1.1808110849352789 0.2289115597798226 0.9214407747863869 -0.5792959008571227 0.20230819764563035 -1.0965578012806032 -0.3627780027274877 -0.9661586933923351 -1.4145723698750294 1.326226137635119 -0.419149649301744 1.4134623521451144 -0.4291990008692591 0.14019855888873836 0.836414813796788 
-2.4699813153118297 0.9479778383126447 0.07697348494282169 0.09575190613517877 1.318028683869887 2.0448152688324344 0.9242243430860473 -0.7295419641604123 -2.824075369260531 -0.4381923396388365 0.8116215475098251 -0.986153899592449 0.3701848716404986 0.2665324919229049 0.8907471888386068 -0.2875602072111361 
-0.18280326862184082 1.071020284512171 -0.6199704346677993 -0.7157989257168985 -0.6673162393588911 -1.012824528976357 -0.49184916525163713 1.8130616216951896 -0.6497153118981813 0.17247608100816464 2.940145318101341 -1.0484593873602086 -0.13127274934566818 0.34413766922950195 -0.5199258967369513 -0.044950207001389964 
1.9416482268915798 0.5288720434244554 1.0563351290402014 2.06572293247668 -0.1401333906637594 1.5023611452604015 -0.13057086239715446 -1.8820140131679002 -0.6074641616846376 1.1522000851259093 -0.8322498724773801 0.7766013803085573 1.347670851679094 0.8302576434548887 1.1678343946495362 -0.45241798379561715 
-1.5003644507680414 0.2081993345356041 -0.16480031322082495 0.4162573005629899 -0.8372378085529991 -1.197063535983179 -1.3749735886036727 -0.06925838394352246 0.98202328138912 -0.2274698034018175 0.2261719028410941 1.665484836403516 -0.4407189136399247 0.9884081384442633 -0.6249329962526128 1.215888446043408 
-0.20878628520426987 -0.985410932154163 0.10028092405939237 0.14723252324308914 1.6819285728331086 0.9427190254820346 0.7005697895075851 1.6405225409259245 0.4476167656674068 1.1796710824016061 0.08045314000911713 -2.4554295920922833 0.5979417197587029 0.2640083611175946 -0.1997547932272831 -0.19274839721664966 
-0.418461647374382 -0.4456026811219671 -1.548846601723779 0.3906178570579221 -0.2781793496025892 0.09980957243736244 1.2267566482814298 -1.1955787221109968 -1.7711140869255722 -0.8816365561918543 -0.34968852027114417 0.6071584975202982 -0.6047137332912272 0.3044858519922709 -0.24249930752877694 0.8243917973998265 
-0.8888669188681111 1.5914305644216877 0.29294163037390053 -0.6343583336912417 0.6339868324764681 -0.3326349110807585 -0.9893273437211827 2.3650034842253076 0.3503304192821054 -1.3532378842393273 0.8805346314859923 0.3705150961695349 -0.25105678452123636 0.36630629374394585 0.720065168470286 -0.3116097706788807 
-0.0034615650095189544 0.21807050299380215 -1.4655750077094263 2.2730219317161144 0.7564497237869655 1.1631040432753126 0.7568042442476083 0.24770847009127758 -1.088812952346905 -1.7048732099171384 -0.1504050031840488 0.34485264155599477 1.405674813992522 0.7622859977967233 0.6647940576416776 -0.8375627969261942 
-1.6876306412643718 -0.1515634776829612 -0.3625665441412722 -0.6639370934863296 -0.5460347929572904 -0.42301677328634496 -1.1130539445439285 -0.4296307744619726 0.8371282775742839 0.17196422464687883 -1.0358980284853379 -0.9312324221356431 -0.615760312035218 1.0484821720212034 -0.20090115363970917 -0.01681191130135588 
-1.023797663713279 -0.12300703431187149 0.3051626471084963 -1.4261527726338266 0.06986430159590148 -1.2475256661997385 1.2151685989657286 1.3865990987395171 -1.0185004232962827 2.5070164260197285 1.731016009923138 -1.2954040917983938 -0.15983004128374542 -0.18907157870825053 -1.0712657670672534 -0.7294176957865653 
0.20370948755156318 0.27501176175998177 -0.7684594632040249 -0.15220946950297098 -0.33014804780385304 -0.9437967827319381 1.040160507358612 0.23003767653497834 0.6628917023056894 -0.22296636424419153 -0.3091449363606659 1.569815875498212 0.8612102133595512 0.9842197300644032 -1.406608935870392 -0.3779490510758177 
-0.7400017544228903 0.22398369958758158 0.40490223200120806 -1.4204652071068704 0.8420276656769309 1.2379272652898732 -0.5390222514176328 -0.693775108336694 -0.9071765687247465 1.0123084539491682 -0.6860973720233735 -0.9998535284953873 0.3329219075470821 1.0718197076889027 -3.19086773458376 -0.7628584223127604 
0.10168248596618394 -1.442261488227153 -1.5352227921106163 0.16057723389033957 0.817885563936533 0.14336776194102024 -0.37724544544586813 0.41591396316805795 0.8628740971716067 -1.4007871615251783 -0.9929210235539285 -0.600414907989309 0.4061253555854441 -1.1074689605386794 0.4683719914476391 1.5405826630217772 

0.5993029352528586 -1.432228946157817 -0.6657612133826597 0.19097212517062245 -2.4511138880848833 -0.572951255263151 1.54240471041046 -0.7487152170962568 0.7651533840007105 -0.578684365390295 -0.8856979362128229 -0.7077336609056962 0.3638630176360643 0.0547568736420291 1.3861496329617693 -0.6364209112220095 
-0.6117120716282566 1.1187025496942655 1.6665792058953566 0.5941093491684981 0.7367868765738964 -0.6403470091266601 -1.5703677131090927 0.461906520481577 0.43183350758266464 -0.5617840618870125 -0.6077483113140908 0.39556994890210967 -0.9754569516401109 0.03548061418735097 1.3186969849104284 0.1868139129976609 
-0.19231991972370777 1.16868646468024 0.22796217739302893 0.9292155043427777 -0.5812777649452557 0.19530756983260716 -1.0965578012806032 -0.36043343248935317 -0.9593669827189044 -1.437813024454178 1.3794027083460936 -0.4236289679308013 1.4175297877367712 -0.43338214208598924 0.14139920931921526 -0.5023865074623304 
-2.4691868921025093 0.9741880767468747 0.07885960125536223 0.09583994911378046 1.3320382549042773 2.076053920189055 0.9342286188738991 -0.7326961924645651 -2.7285052449926206 -0.43498125585977504 0.7930313395030972 -0.9807668656648887 0.37402626624322227 0.2659442314213909 0.8754578588482562 -0.29240989732870987 
-0.1885602229611011 1.0546802297796873 2.1620036372218947 -0.7157989257168985 -0.6597001167169863 -1.05990222042526 -0.4901656642526164 1.8130616216951896 -0.6558392664204935 0.17317594277599918 2.989400496032159 -1.0571193458521935 -0.12975090041341086 0.34808937319075856 -0.5199258967369513 -0.044950207001389964 
0.19220768699284593 0.5258259475344926 1.0693960769536668 2.06572293247668 -0.1401333906637594 1.5012456239954202 -0.1305954728194116 -1.8698808900937214 -0.6142860089217774 1.1494202597157814 -0.8322138457153812 0.7595855039144273 -1.0217766215646038 0.8302576434548887 1.164027227540066 -0.4536170113503408 
-1.6099877771535018 0.2112645385004284 -0.16223557835609706 0.41092463582001804 -0.8372378085529991 -1.1787914892835671 -1.396264767048876 -0.06907151654689363 -0.09387894152237236 -0.22081042341014195 0.22349607050760037 1.6815758642815222 1.1684069305676592 1.8821626022222615 -0.6092697842221387 1.1810913685270472 
-0.20926472065155907 -1.0023969745909238 0.10028092405939237 0.14744154036591628 1.701667031134295 0.8995709091050099 0.720182422001693 1.6330969390996088 0.44606137508161586 1.1847670314913443 0.0799471218005403 -2.442441460412338 0.5937775433751215 0.2657349858707534 -0.20309954787290496 -0.19274839721664966 
-1.570337228156547 -0.442995628687672 -1.5657355207758943 0.3906178570579221 -0.2821431753771334 0.09980957243736244 1.2432309841368074 -1.1966258570361614 -1.7661739638953833 -0.8664153894046954 -0.3469109444599286 0.6071584975202982 -0.6116714661735929 0.3044858519922709 -0.24249930752877694 0.8243917973998265 
-0.8880269426494148 1.5914305644216877 0.2852014683796982 -0.6429443487161444 0.6398381399032145 -0.3222177442269485 -1.006956492532334 2.381987407001683 0.35297987176160495 -1.3206890835280196 0.8805346314859923 0.37243580050028074 1.7019039160047749 0.37596022916313604 0.7150435897154873 -0.31407540062754924 
-0.003442190695247763 0.2171171865026829 -1.500568596184806 2.2730219317161144 0.7592294784545436 1.138285877108793 0.7493406311053269 0.24686091542307942 1.0498484648472504 0.3300023427250991 -0.15455820225823505 0.3482959311235088 1.0494239115781467 0.7526595283146121 0.6568424773658222 -0.8417035318129829 
1.1804847791514481 1.030791177055537 -0.36850975460127067 -0.6639370934863296 -0.5460839964421472 -0.4268870661114837 -0.3380154482177635 -0.4296307744619726 0.8546108135163674 0.17299843317758787 -1.0248529614712087 -0.9312324221356431 -0.6226621847451497 1.0550810377484259 -0.20572614508919204 -0.01671083638633928 
-1.0276300825517248 -0.12416910904947623 0.30110126590553843 -1.4172013165294897 0.06844967695156498 -1.2613715898802789 1.2404866158062553 1.3748624748034242 -1.035078771920965 2.5337375873334427 1.717265088795261 -1.2429421161011776 1.2017587016322517 -0.1988769155741329 -1.0267249792272617 -0.7316268632534865 
0.2050281080444778 0.2731984905556829 -0.76069556161674 -0.15049270332529932 -0.33014804780385304 -0.9676978211716942 1.0438486571370982 0.23086310172551228 0.659131289403382 -0.22417730965841443 -0.3084487078123729 1.569815875498212 0.8699212454529437 0.9842197300644032 -1.4089918281901863 1.0665710288160837 
-0.7362979090816113 0.42421322148296925 0.4049559310064299 -1.4350083256936421 0.832459821076223 1.2403112091764805 -0.5304095892469322 -0.6826494663259386 -0.9071765687247465 1.014336436908527 -0.6860973720233735 -1.009395587556473 0.32915570296229685 1.066677945144059 -3.1918198881492006 -0.7465912037142276 
0.10334105152851288 -1.4293601812139272 -1.539603178824395 0.16011598177837988 0.824220884353283 0.14257634316848236 -0.3741709124634124 0.6131770283019171 0.8958741563893211 -1.3992616203892043 -0.9708175746183589 -0.5955194288303296 0.4061253555854441 -1.1074689605386794 0.4512410063884873 1.526449878235455 

0.5852947404448647 -1.4524820086575725 -0.6759060516628645 0.03129431884021391 -2.4142348286549895 -0.5742172184785923 1.5279082011542862 -0.7546960719621026 0.7772523752564106 -0.5932974271147047 -0.8762071299283894 -0.7152919334470729 0.3651243406748874 0.05538621023395831 1.3563503934667727 -0.6269919937874502 
-0.6207906667973999 1.129794574504124 1.6589242145733825 0.6011766861595149 0.7420338914574414 -0.6471561937718739 -1.5722300284452677 0.45968880826335135 0.4354254320750754 -0.5510452311956205 1.1798529783191165 0.39402198948197104 -0.9592777209069986 -0.40938314956326627 1.2643693434535297 0.18596258194665807 
-0.18954865443079102 1.1799691901700404 0.22995071846134912 0.9292155043427777 -0.5796358673134083 0.194896604314002 -1.0903872234134366 -0.36043343248935317 -0.9822040260193907 -1.4145723698750294 1.3536392094969325 1.7954944909979613 1.4175297877367712 -0.43020316498438754 0.140199582969464 -0.5089542701036094 
-2.452449432225389 0.9385756500099607 0.07885960125536223 0.09549816797133119 1.3166159164662135 2.031063572183736 0.9242243430860473 -0.7295419641604123 -2.7543356691200307 -0.4343999806188474 0.7876193995214208 -0.986153899592449 0.3824132604443141 0.2655520084887235 0.8983493608413821 -0.2983966088642387 
-0.18280326862184082 1.0765167803224376 -0.6303811857770317 -0.7157989257168985 -0.6597001167169863 -1.0356080111423025 -0.4901656642526164 1.8130616216951896 -0.6552523345780916 0.17660700549308866 2.9732792516463507 -1.0320043146436142 -0.13127274934566818 0.3526581829225186 -0.5114251420270708 -0.044950207001389964 
0.19220768699284593 0.5249996889442442 1.0869088953939137 2.0599074244079194 -0.13779824229330695 1.4966430484047357 -0.1305954728194116 -1.887160284926754 -0.9601934820355748 1.1617675416849769 -0.8519741643173403 0.765387977645523 1.3323271269254617 0.8241913687513704 1.164027227540066 -0.45113219259385995 
-1.607715344673814 0.2112645385004284 -0.16154936270825654 0.41646025863389974 -0.8398293305443976 -1.1691858665169357 -1.3749735886036727 -0.06858791139910989 1.0103515848314175 -0.22178866391686827 0.22349607050760037 1.6815758642815222 -0.4464777332779248 1.8539637087288154 -0.6249329962526128 1.1812406776887145 
-0.21051712633816244 -0.9752022158693506 0.0993157536021484 0.1436608933127684 1.7316397019815686 0.8788545559964288 0.6914813778992419 1.3796716907060744 -1.6238225215344393 1.1796710824016061 0.07983068820900756 -2.403376130857184 0.6100509852144529 0.2657349858707534 -0.20309954787290496 -0.19274839721664966 
-0.4240774873671144 -0.4553425326188757 -1.565104629426623 0.388077251298518 -0.2821431753771334 1.5252783218530075 1.2561462864590833 -1.1966258570361614 -1.7768034527175471 -0.892496342578472 -0.3469109444599286 0.6071584975202982 -0.614996959899475 0.30564204643483195 -0.24249930752877694 0.8368462764920047 
-0.8980106256804677 1.5667608848150627 0.29018433088174683 0.9310157395597514 0.6339868324764681 -0.32415798567807974 -0.9726251459091679 2.4021334686266753 0.35586234831696534 -1.3415582251557494 0.8698096308715468 0.35964919951748003 1.7168265708259636 0.36972642330990885 0.7150435897154873 -0.3143638734886195 
-0.0034430685627342725 0.21387444600929784 -1.4835424086900622 2.2693578744112033 0.764319488454525 1.1631040432753126 0.7471281020004036 0.24948030573719482 -1.0800343703471 0.3300023427250991 -0.1509486018613253 1.2840411475591826 1.0494239115781467 0.7526595283146121 0.672482455622549 -0.8338349604082694 
-1.694701175095099 1.0241109577095524 -0.3692346090064525 -0.6610374096096622 -0.5460839964421472 -0.4235513444138473 -1.1023750956227885 -0.4296307744619726 0.8414469865493709 0.17299843317758787 -1.0446058188342346 -0.9266170373389049 -0.6033601913522624 1.0646185488348574 -0.20572614508919204 -0.01635828387783313 
-1.01554274232357 -0.1231533350730308 0.3051626471084963 -1.4172013165294897 0.06986430159590148 -1.2551640229150922 1.2491182296132035 1.3748624748034242 -1.035078771920965 2.556301853567041 1.7023857761577128 -1.2698773806583457 1.2205754377036588 -0.1942709322831181 -1.0556228504052418 -0.7394233976731175 
0.2050281080444778 0.2697205501625587 -0.7804127674201368 -0.15049270332529932 -0.33014804780385304 -0.9569853559362208 -0.39871648469610016 0.2369810937821932 0.6467452561187944 0.9341746425802039 -0.31085344189857256 1.5672554334458404 0.868641883503232 0.9788781394792727 -1.4064206280514437 1.0626244069230812 
-0.7400017544228903 0.22381465408628382 0.4049559310064299 -1.4438374188804586 0.8420276656769309 1.2323218073998463 -0.5451805234683674 -0.6987409609410824 -0.9071765687247465 1.014336436908527 -0.6860973720233735 -0.9949143872562333 -0.5425547938193142 1.066677945144059 -3.2124085762411636 -0.7579549339210833 
0.10334105152851288 -1.4312123333815987 -1.5352227921106163 0.16011598177837988 0.830892782073801 0.14445355265140994 -0.3752475971114591 0.6141210401068594 0.85239844281802 -1.429082803204874 -0.9773092209343274 -0.5927217358964907 0.3938756116796264 -1.1074689605386794 0.4683719914476391 1.5501612010975205 

0.5925477342711581 -1.4524820086575725 -0.6759060516628645 0.19097212517062245 -2.4279539761654116 -0.572951255263151 1.54240471041046 -0.7487152170962568 0.49512602415580914 -0.5677068928807995 -0.8927421047616525 -0.7077336609056962 0.3695514301826982 0.0547568736420291 1.3861496329617693 -0.6422581522111822 
-0.6044683571013343 1.1187025496942655 1.6860489163442312 0.5960734200646618 0.7432907824342708 -0.6403470091266601 -1.543355232617643 0.461906520481577 0.43183350758266464 -0.5638347823568276 -0.6069103327566711 0.39556994890210967 -0.9754569516401109 0.03510021648807032 1.2643693434535297 0.1847360846719879 
-0.18920155243498413 1.175919291633756 0.22689803968999855 0.9292155043427777 -0.5839733565857967 0.194896604314002 -1.112911915248836 -0.36783471020277486 -0.9743899409514974 -1.4145723698750294 1.3528792775384795 1.7954944909979613 1.407270982117045 -0.43338214208598924 0.14072697068066178 0.8349286281865542 
-2.440126322443015 0.9574890508765767 0.07885960125536223 0.09469843747381511 1.3166159164662135 2.076053920189055 0.9391726295442977 -0.7282504979527619 -2.7543356691200307 -0.4359135695628145 0.7933475589915324 -0.9807668656648887 0.3768486359469851 0.2689401225869877 0.8983493608413821 -0.2884399882385478 
-0.185801105482339 1.065464182078964 2.16411117333683 -0.7089895025339837 -0.6597001167169863 -1.05990222042526 -0.5014976214407947 1.8130616216951896 -0.6497153118981813 0.17294777098727054 2.989400496032159 -1.0571193458521935 -0.13127274934566818 0.34957869968157 -0.5303743278620391 -0.044950207001389964 
0.19220768699284593 0.5250543166394818 1.0693960769536668 2.0599074244079194 -0.1401333906637594 1.5012456239954202 -0.1288432559061544 -1.8712761523172896 -0.6142860089217774 1.1716347490567451 1.107509395850158 0.2979970712503933 -1.0217766215646038 0.8302576434548887 1.164027227540066 -0.4536170113503408 
-1.6099877771535018 0.2112645385004284 -0.1640502719969109 0.41092463582001804 -0.8441913917615964 -1.2039433244049333 -1.396264767048876 -0.06990788323545029 -0.09324282644472909 -0.2274698034018175 0.22291412679033398 1.6544817808716343 -0.4438096440970762 1.888210056192511 -0.6360532249210475 1.1904273653126787 
-0.20878628520426987 -0.9907511341248649 0.10028092405939237 0.14723252324308914 1.681407275193915 0.8943765589525524 0.8599884140227534 1.6330969390996088 -1.622375722152587 1.1847670314913443 -1.315303132686186 -2.4253370683625004 0.5839981560447222 0.2625840701029434 -0.20309954787290496 -0.19274839721664966 
-1.570337228156547 -0.442995628687672 -1.5536172297132544 0.38985405322215905 -0.6898183451590502 1.5131647434249744 1.2432309841368074 -1.1966258570361614 -1.7768034527175471 -0.8664153894046954 -0.34821175983069186 0.6071584975202982 -0.6221847961361365 0.3044858519922709 -0.23912389879961796 0.8243917973998265 
-0.8880269426494148 1.613276785095854 0.29294163037390053 -0.6413712606077843 0.6339868324764681 -0.3222177442269485 -0.9772781544024604 2.3779456483211496 0.3530123593673504 -1.3374764049667816 0.8805346314859923 0.3687877992240268 1.7168265708259636 0.36972642330990885 0.736058333515643 -0.3147340657713631 
-0.003429688126991092 0.21807050299380215 -1.5073124146780361 2.2440348167088215 0.7483001532692021 1.1287016495544062 0.7502856284891569 -0.04447583626966182 1.0464245343167418 0.33117154086506134 -0.15133462290886526 0.3482959311235088 1.0494239115781467 0.7526595283146121 0.6647940576416776 -0.8417035318129829 
1.1861587784799976 1.030791177055537 -0.36850975460127067 -0.6564490075315348 0.0744277308143479 -0.42301677328634496 -1.1023750956227885 -0.4296307744619726 0.8371282775742839 0.17299843317758787 -1.048092791798525 -0.9244165967464241 -0.6178859480288493 1.044789044223792 -0.20768899169927135 -0.015970895937734007 
-1.0132213705394548 -0.12143404536911809 0.30110126590553843 -1.4172013165294897 0.0706279992863145 -1.2613715898802789 -0.454608058963458 1.3748624748034242 -1.0279695968559293 2.5337375873334427 1.6997488202559197 -1.2954040917983938 1.2017587016322517 -0.19710931719410235 -1.037480982491877 -0.7316268632534865 
0.20356124829359673 0.2731984905556829 -0.7846458312771076 -0.15049270332529932 -0.32579043773921573 -0.9413454236807529 1.0438486571370982 0.23219620842645344 0.6644253090338208 -0.22417730965841443 -0.30608291504011315 1.573175726923945 0.868641883503232 0.9842197300644032 -1.4104988090705672 1.0763484756746984 
-0.7400017544228903 0.42349931647357086 0.4049559310064299 -1.4204652071068704 0.832459821076223 1.2403112091764805 -0.5248575943598748 -0.6874314659203284 -0.9071765687247465 1.014336436908527 -0.6860973720233735 -1.0106384418193741 0.32915570296229685 1.0592126558733503 -3.19086773458376 -0.7692926841079237 
0.10334105152851288 -1.4293601812139272 -1.5438285186779677 0.15935321045580023 0.8284971216933765 0.14280266332861327 -0.3752475971114591 0.41591396316805795 1.2187516927397979 -1.4179149737324617 -0.9929210235539285 -0.5927217358964907 0.40826794735682476 -1.1216421429580257 0.4611536197540891 1.5501612010975205 

0.5958488595978926 -1.4524820086575725 -0.6692054229859393 0.18949802009132763 -2.4309138024248687 -0.586778936990524 1.54240471041046 -0.7487152170962568 0.7772523752564106 -0.5857034288974696 -0.8852900898303911 -0.7141698648738494 0.3674036184689564 0.0547568736420291 1.3833074230677962 -0.622130686868266 
-0.6057082601665789 1.129794574504124 1.6665792058953566 0.5938440249546348 0.7432907824342708 -0.6403470091266601 -1.543355232617643 0.461906520481577 0.43183350758266464 -0.5638347823568276 1.1905712620622386 0.39797611537148675 -0.9930199140553044 0.03562583833181156 1.2766310257328772 0.1851262168237874 
-0.18920155243498413 1.1863630340745204 0.22689803968999855 0.9270677218843733 -0.5846212483558819 0.19566488251666148 -1.1043573015805805 -0.3546401673126655 -0.9865857233343581 -1.4481756467572615 1.3764521421072464 -0.42361919052522995 1.4301718986901695 -0.42640937601261136 0.14169417685564165 0.836414813796788 
-2.440126322443015 0.9461131238117123 0.07852393067498915 0.09469843747381511 1.3166159164662135 2.076053920189055 0.9342286188738991 -0.7282504979527619 -2.8459030338184377 -0.6238387155484276 0.7933475589915324 -0.986153899592449 0.380481997151037 0.2671286014855294 0.8931160099282182 -0.29114072861598217 
-0.18679011835271317 1.071020284512171 2.1553192153245657 -0.7157989257168985 -0.6611257869825495 -1.015818782199991 -0.49184916525163713 1.476986180790831 -0.6497153118981813 0.17770390076592163 2.999202636880416 -1.0571193458521935 0.2092228515286756 0.34957869968157 -0.5199258967369513 -0.044950207001389964 
1.965229005958541 0.5250543166394818 1.0735582964067814 2.06572293247668 -0.1401333906637594 1.5012456239954202 -0.1305954728194116 -1.887160284926754 -0.6161510948573631 1.1494202597157814 -0.8600583962849419 0.28676050514696255 -1.0217766215646038 0.8302576434548887 1.1776720553474511 -0.45416900776009017 
-1.5163529719290099 0.2058815170682975 -0.16223557835609706 0.410502850235816 -0.8372378085529991 -1.197063535983179 -1.396264767048876 -0.06786938514986793 0.9965680974344738 -0.22081042341014195 0.22598493402266132 0.6466695077045822 1.1684069305676592 0.9884081384442633 -0.6285485491958882 1.2062346067401164 
-0.21051712633816244 -0.985410932154163 0.10184496886882662 0.1445709257948257 1.6844577850606821 0.9427190254820346 0.720182422001693 1.3739266948645343 0.4445036735173038 1.1847670314913443 -1.309168181898803 -2.377453503159803 0.6038438149772737 0.26560690093890615 -0.20309954787290496 -0.19274839721664966 
-1.570337228156547 -0.45059586364403964 -1.532978039344765 0.389085510177049 -0.6779093969944362 1.5131647434249744 1.2432309841368074 -1.1966258570361614 -1.7538957069294439 -0.8821820143303015 -0.34968852027114417 0.6009181576094766 -0.614996959899475 0.3044858519922709 -0.23978588101241755 0.8240179870162216 
-0.9007159737898824 1.591609928717144 0.29294163037390053 -0.6347873060735065 0.6339868324764681 -0.3287036373654585 -0.9772781544024604 2.415399627149811 0.3530123593673504 -1.329436485603287 0.8805346314859923 0.36130702858290636 1.7168265708259636 0.36972642330990885 0.736058333515643 -0.3101454684810605 
-0.0034487674619444516 0.21807050299380215 -1.4766363774113018 2.2730219317161144 0.2509082158801786 1.153516306259301 0.7358017296696161 0.24686091542307942 1.0464245343167418 -1.7048732099171384 -0.1504664340719754 1.2730403329995108 1.0473849243665587 0.7526595283146121 0.6647940576416776 -0.8338349604082694 
-1.6876306412643718 1.0071315957388915 -0.36850975460127067 -0.6673432580816988 -0.5475967566700953 -0.4217887469308137 -1.101318135550884 -0.4296307744619726 0.8371282775742839 0.17130335801212704 -1.0250401521109658 -0.9266170373389049 -0.6060801787520261 1.015332160324998 -0.2008304586424657 -0.05935036629135042 
-1.0132213705394548 1.3135813063617376 0.3051626471084963 -1.4092675817904294 0.0690528581300938 -1.2613715898802789 1.1984489389417676 1.3748624748034242 -1.0171253819092732 2.528672814913645 1.717265088795261 -1.2954040917983938 1.089956304122032 -0.1942709322831181 -1.037480982491877 -0.7249570753762505 
-0.016800441855393495 0.27501176175998177 -0.7846458312771076 -1.1546073064798748 -0.33014804780385304 -0.945612671183763 1.066491776177687 0.22870661174024212 0.6621777204025564 -0.22417730965841443 -0.3152317645512237 1.5824705464832889 0.868641883503232 0.9842197300644032 -1.4104988090705672 1.0714221004009408 
-0.7475934973803767 0.4248723929865994 0.4049559310064299 -1.435193574344201 0.8420276656769309 1.2400790744072525 -0.5425573286818682 -0.7021557137304201 -0.9071765687247465 1.006703203111826 -0.6869953918816163 -0.9998535284953873 -0.5494317252160082 1.0592126558733503 -3.19086773458376 -0.7692926841079237 
0.10205256550799853 -1.4163553231463397 -1.5352227921106163 0.15936023159885956 0.8241308428177694 0.14596682595600555 -0.3699708530478062 0.41591396316805795 1.2187516927397979 -1.4145170399893157 -0.9929210235539285 -0.5927217358964907 0.4061253555854441 -1.1192976967108819 0.45877487756060814 1.5501612010975205 

0.5925477342711581 -1.4524820086575725 -0.6674011545159774 0.19097212517062245 -2.4511138880848833 -0.565341140031411 1.54240471041046 -0.7464653988374375 0.7693107945193823 -0.5677068928807995 -0.8887652781400233 -0.7226194392883384 0.3695514301826982 0.0547568736420291 1.3563503934667727 -0.6302915118280663 
-0.5981850487035196 1.140562932478317 1.7149314549358674 0.6027139750228566 0.7343241909059265 -0.6471561937718739 -1.5407343373329359 0.461906520481577 0.43183350758266464 -0.5548963876869135 -0.6069103327566711 0.39556994890210967 -0.9754569516401109 0.03469922079200663 1.2766310257328772 0.18946089352655981 
-0.18678480315572765 1.1791216204839072 0.22689803968999855 0.9292155043427777 -0.5751074842175848 0.194896604314002 -1.0965578012806032 -0.3660383571744509 -0.9743899409514974 -1.3943002513405576 1.3598870603779958 -0.4189951535386567 1.4134623521451144 -0.42638905381157227 0.140199582969464 0.8349286281865542 
-2.4708733705927854 0.9576508185484027 0.07762944935825306 0.09469843747381511 1.3166159164662135 2.076053920189055 0.9242243430860473 -0.7295419641604123 -2.7543356691200307 -0.4381923396388365 0.7880834435389086 -0.9807668656648887 0.37871077411489573 0.2666575678213395 0.8983493608413821 -0.29421140647369165 
-0.1910831870631804 1.065464182078964 2.16411117333683 -0.7137840562627238 -0.6597001167169863 -1.009656513971811 -0.5014976214407947 1.8130616216951896 -0.6497153118981813 0.17660700549308866 2.9732792516463507 -1.0338124888461795 -0.12983230525803344 0.34957869968157 -0.5192304362101078 -0.4982345783791837 
0.19382332147783252 0.5250543166394818 1.0693960769536668 2.0599074244079194 -0.14453110611329598 1.4834394850749475 -0.1305954728194116 -1.8712761523172896 -0.6099574853267262 1.1494202597157814 1.0921187229064337 0.3013113406126246 -1.0217766215646038 0.8412564634783645 1.172192502281174 -0.4536014065847912 
-1.5896120856254219 0.2112645385004284 -0.16304726407867923 0.41092463582001804 -0.8314512762064882 -1.1894532327991125 -1.3749735886036727 -0.06911483171088462 1.0103515848314175 -0.2274698034018175 0.22218999768555608 1.6990522897670286 -0.4424860243750205 1.888210056192511 -0.6287837908152483 1.191372957785286 
-0.20878628520426987 -1.011748288943078 0.10028092405939237 0.14616308924732 1.6805284406169803 0.9389003729415901 0.8667546013348466 1.3472824200187858 -1.622375722152587 1.1847670314913443 -1.3240363333295069 -2.403376130857184 0.5923211664426676 0.25994701571156326 -0.5225347873376358 -0.19144212207417746 
-0.4196219009460873 -0.4452552692300895 -1.5657355207758943 0.389085510177049 -0.6769511755785617 1.5131647434249744 1.232836308490115 -1.1966258570361614 -1.7768034527175471 -0.892496342578472 -0.34968852027114417 0.6069838107396263 -0.6177555629131392 1.505984422949871 -0.24249930752877694 0.8243917973998265 
-0.8871396309610778 1.5914305644216877 0.29294163037390053 -0.6413712606077843 0.6339868324764681 -0.3255136084160952 -0.9772781544024604 2.3538757955349388 0.3530123593673504 -1.3160135697372233 0.8751806184819592 0.35964919951748003 1.7168265708259636 -0.9116123597549748 0.7354755068922608 -0.3147340657713631 
-0.003376606753669391 0.21807050299380215 -1.4835424086900622 2.2730219317161144 0.7592294784545436 1.1509571596265258 0.7584689690995514 0.24514555556852216 -1.0957622777948968 0.32849549663794303 0.24080887478667137 1.2840411475591826 1.0589422223056904 0.7429987969147447 0.6647940576416776 -0.8417035318129829 
1.189226458694304 1.030791177055537 -0.3625665441412722 -0.6564490075315348 0.07543749439758202 -0.42301677328634496 -1.0975670172892813 -0.42530334066430847 0.8371282775742839 0.17299843317758787 -1.048092791798525 -0.9406864677870583 -0.6060801787520261 1.044789044223792 -0.20695140594082803 -0.015737811474112445 
-1.0132213705394548 -0.12143404536911809 0.30110126590553843 -1.4172013165294897 0.06986430159590148 -1.2613715898802789 1.243196688874863 1.369803829745145 -1.0148474256191446 2.5337375873334427 1.7412395510455514 -1.2954040917983938 1.0829176042042508 -0.1956031230588392 -1.0228952632576838 -0.7316268632534865 
0.2050281080444778 0.2731984905556829 -0.7804127674201368 -0.14912990840853443 -0.32813633698176103 -0.9529148265422942 1.0438486571370982 0.23363316332374917 0.6644253090338208 0.9249632349791336 -0.31695846327321364 1.5672554334458404 0.8612102133595512 0.9842197300644032 -1.4241131378779 1.0665710288160837 
-0.7392090967095248 0.42523222372405356 0.4049559310064299 -1.435193574344201 0.8337231872834203 1.2403112091764805 -0.5304095892469322 -0.6848449678785866 -0.9071765687247465 1.014336436908527 -0.6777770620841032 -0.985283347521346 -0.5377718516384604 1.0440536352999639 -3.1693226336925044 -0.7692926841079237 
0.10014435212650176 -1.4103086696771656 -1.5635363654191698 0.15935321045580023 0.8284971216933765 0.14083580302208995 -0.3752475971114591 0.6131505861384615 0.8885322431119497 -1.4179149737324617 -0.9854653343389258 -0.6073550114223227 0.41554456381939003 -1.0966108724464307 0.4512410063884873 1.5501612010975205 

0.5745032847097343 -1.4524820086575725 -0.6692054229859393 0.19389150531103116 -2.4309138024248687 -0.6031674123920602 1.5355379194502226 -0.7487152170962568 0.49512602415580914 -0.5677068928807995 -0.8849714030267795 -0.7077336609056962 0.3695514301826982 0.0547568736420291 1.3805941529240227 -0.6433001051726589 
-0.6134659428544784 1.1187025496942655 1.6860489163442312 0.5913027798572782 0.7455363386266293 -0.6403470091266601 -1.543355232617643 0.461906520481577 0.43183350758266464 -0.5600584318661728 -0.6069103327566711 0.39402198948197104 -0.9830810026917406 0.03548061418735097 1.2744392369638822 0.18844164973607 
-0.19059830881774853 1.175919291633756 0.22689803968999855 0.9292155043427777 -0.5839733565857967 0.1997833499876667 -1.112911915248836 -0.36783471020277486 -0.9743899409514974 -1.4145723698750294 1.3598870603779958 -0.4189951535386567 1.407270982117045 -0.43338214208598924 0.14539195643583452 0.8341665596631647 
-2.440126322443015 0.9265646471551611 0.07885960125536223 0.09469843747381511 1.3166159164662135 2.076053920189055 0.9242243430860473 -0.7175069824366456 -2.7543356691200307 -0.4371559551279086 0.8116215475098251 -0.9807668656648887 0.3753251523306264 0.2682686058994836 0.8912016040022125 -0.2884399882385478 
-0.185801105482339 1.071020284512171 2.16411117333683 -0.7002096092504242 -0.6609595210865112 -1.05990222042526 -0.4851330865382436 1.8130616216951896 -0.6497153118981813 0.1752456166588309 2.989400496032159 -1.0571193458521935 -0.12948890478838274 0.34957869968157 0.11862795157394446 -0.044950207001389964 
1.965229005958541 0.5250543166394818 1.0693960769536668 2.0599074244079194 -0.14063910607904254 1.5012456239954202 -0.1288432559061544 -1.8712761523172896 -0.6247744087565156 1.164857607128604 -0.849514763780796 0.2979970712503933 -1.0217766215646038 0.8343885765037743 1.1772610123302392 -0.4536170113503408 
-1.6099877771535018 0.2112645385004284 -0.16223557835609706 0.41092463582001804 -0.8507446900881709 -1.1865119252070695 -1.396264767048876 -0.07034723512787035 -0.09427027666027588 -0.22780393776789004 0.22291412679033398 1.6740567978872274 -0.4438096440970762 1.888210056192511 -0.6285485491958882 1.191372957785286 
-0.20878628520426987 -0.9766556764975569 0.10028092405939237 0.1492034599517906 1.701667031134295 0.9234992266185656 0.7119823558617859 1.3739266948645343 -1.622375722152587 1.1698233389166959 -1.315303132686186 -0.911015756541434 0.5923211664426676 0.26560690093890615 -0.5337176829613397 -0.19274839721664966 
-1.570337228156547 -0.442995628687672 -1.5657355207758943 0.38985405322215905 -0.6736146350635698 1.5131647434249744 1.2592866803894867 -1.1966258570361614 -1.7768034527175471 -0.8711405370861632 -0.34821175983069186 0.6071584975202982 -0.6130360009686173 0.3044858519922709 -0.23779986805738415 0.8160898312265585 
-0.8809027885826543 1.5881417473555441 0.2974564720834049 -0.6413712606077843 0.6339868324764681 -0.3287036373654585 -0.9772781544024604 2.3779456483211496 0.3503304192821054 -1.3374764049667816 0.8760884350905466 0.3687877992240268 -0.24882295670957003 0.37277803262037484 0.7371429126168596 -0.3116097706788807 
-0.003429688126991092 0.21807050299380215 -1.46262875616988 2.278269092857536 0.7639126524013289 1.153757975200725 0.7493406311053269 0.2506694279081528 1.0464245343167418 0.324540251923748 -0.14955088030196498 0.3482959311235088 1.0494239115781467 0.7480323758652176 0.6647940576416776 -0.8417035318129829 
1.1706820993886375 1.0108617087205227 -0.3625665441412722 -0.6673432580816988 0.0748512616492121 -0.42730990855044587 -1.1023750956227885 -0.4296307744619726 0.8371282775742839 0.17299843317758787 -1.0558121630807398 -0.9244165967464241 -0.5961460198963161 1.044789044223792 -0.2008304586424657 -0.015970895937734007 
-1.0260919346568118 -0.12143404536911809 0.30568668078471284 -1.4172013165294897 0.06986430159590148 -1.2433126587980277 1.226954900990102 1.3865990987395171 -1.0279695968559293 2.5337375873334427 1.6997488202559197 -1.2954040917983938 -0.15983004128374542 -0.19710931719410235 -1.037480982491877 -0.7320675752414836 
