1.233918136238495 -0.36803025482331714 1.4264659312099826 -2.1543201132540877 0.4678934241827873 1.0921546214719426 1.775622661056191 0.392573215696926 0.6268942515755794 1.0107192185592009 0.06092586127509523 1.6497069237010336 0.8805599310414018 1.2530048215350034 0.7693550429031858 -0.6550930352928218 
-0.34343137663417717 -0.2946532077856398 -1.2306603799729607 -0.43425392490529735 -0.038084345062732616 1.529424353054398 -0.24276799789239603 2.1260132562286262 1.0442885816986103 2.611672650144845 -0.5698556638637267 1.5360956733454743 0.9018972031206633 -0.04023143055628168 1.697995673457291 -0.1089930110928063 
-0.026672377099018957 0.2561591013610436 0.10585012160787075 1.4811074704495275 -0.119005727915532 0.9061016706908605 0.6181839390436216 1.261510704659622 0.4515103585208549 -0.06800713039222413 0.12270815845448231 1.7160926876071352 -1.3989662998450236 1.2483432660663887 -0.5716197926946105 0.7242971298085086 
0.039960658806831 0.19497522689676386 -0.2382729105607653 0.5228114775921294 1.1821097734019086 -0.8944135586519211 1.303295262075696 1.3671927534395805 0.9211948473505758 -0.25819012383373424 1.4175701555946614 0.09978096749999138 -0.7502593545249927 -0.43509840403029615 1.5261074363243474 -0.31298084412974214 
0.6014982871213953 -1.528398014329676 -0.8843481855051355 0.5549177307506935 0.040857449546835005 0.1903397783902358 0.306733484813128 0.6149519166093427 -0.29499919328994517 0.25518099591711285 0.3181228266609174 -0.329725114675526 -1.3525231920376894 -1.4323814964662518 -0.7929848714913438 -0.6642028485928512 
0.09977109835587404 -1.2457660520961382 0.6176452275451481 -0.45368104724977 0.7467003033449502 -1.1474036632717861 0.5917295872649303 -1.596043167567193 0.962082911344701 -0.3546500284215705 1.6871528304596466 1.1680660906221292 -1.0531996221865167 0.9917118089424775 0.2776077978280276 -1.815086854813193 
-0.2806316885973151 -0.1858937356634785 -0.3919612654328623 -0.7595867937167473 -0.3935417804620093 -1.0813394054246717 -0.11727098890728177 -1.1117342729874387 0.20449302536685737 0.35403318970183845 1.6364929209937444 -0.8199286506224246 0.15000636805013853 -1.0028430088227231 0.18955266772939824 -0.5010471132252824 
0.596379702646008 -0.3732381489971295 -0.6364812410146505 -1.3143368423017816 0.6730458584111962 -0.9442898115663462 1.4833796653539555 1.4103508722237306 0.459336171196074 0.08139663929767824 0.6758175942930194 1.1174204256858786 0.4068185223514543 -0.20349855814597154 1.6793654526067319 -0.6482752855606158 
-3.2345486410508104 -0.4215202917568123 0.8725535332859505 -1.1928817694674212 -1.2578407893606423 -1.542938027956547 -0.24124735634883318 -0.8905885590415877 0.36871070851650695 2.884750511343902e-05 -1.1172769371228608 0.21237941441680042 0.029752523096023987 0.19521513266034615 -0.0013176174787049998 1.8774645107387908 
-2.229385843120941 -0.1448199381435845 -0.8847819656835256 1.8531065806368823 0.6049937342348264 0.8471221762570358 -1.778611495905762 0.6312990423583473 -0.3204894019195633 -0.4703297921554385 0.21257156923674794 -0.12905415612491522 -1.0454701208066053 0.5961525627858856 -0.6364937545372251 0.3282463269894295 
-0.5907487881179678 -0.08152565435690615 -0.46045627763995145 -1.6861063554137266 -0.8991673016599899 1.2521530837898893 -1.8694131187660201 -2.049679496021122 2.4197773335104826 -0.5869819152537246 1.4504890352389452 0.5367946617653557 0.9343657132196449 -0.17558595372499197 -1.5381991944490288 -2.283228191493873 
0.19493175350780884 0.22749099046948965 -0.2633877273911543 -0.6091432246167451 0.805936223637091 -0.3468988261335386 -1.1963931033635777 0.7255854257898534 -0.3280934007660131 0.12281906109140765 0.6454465357699558 -2.960690128821973 -1.018906614895805 -0.6709987564891331 0.008720480153949007 -0.17927990408552422 
-0.2671592954498623 0.30362066403466154 1.5054563848223537 0.6763825589017304 -0.23253004611078132 0.24943115793625847 -0.18662035600508384 -0.5851902864580005 -0.34242548542793577 0.06274852901844326 -1.3224800290735022 0.5991891052552539 0.005365334699492344 -0.8000175073443153 -0.27531225956742517 -0.601518664295344 
0.02358813954219801 0.25603491706314585 -0.33965308676055556 -0.45240765952280054 -0.39485704906297125 0.12734734535820472 -0.4194323194836847 -0.1754801437512382 -0.7934337720725434 0.6334348941311617 -0.8638940518208279 1.4651923959469582 -0.44509080184565053 0.5913530000006911 0.5077015767655564 0.35693359427809734 
1.006950840569642 0.9726811821051957 1.3289517662327264 0.9604333786292643 -0.21805843679047146 0.008466168021145313 -0.36829581081462825 0.7901595206654505 0.8871977483236233 0.09088895328711794 1.3402721476870474 1.9191926840242175 -0.1928124741516098 1.095300929695274 0.32769021773470647 -0.017466252443717526 
0.7993826573273312 -0.6631685370924322 -1.3418690578575831 -0.2242451928274597 -0.9023718093830765 0.28554480695667894 -0.2385466020541099 2.903076601366877 -0.07351053804141498 1.6171542582113072 -1.1481081814926086 -0.833909167842583 0.2049197550024616 0.8103502862251657 0.36146340615277683 -0.456091430643005 

0.486665786283894 -1.0686031946767873 -0.6195214587040984 0.09340579710622328 1.2126489381165944 0.4564743492297705 1.510959051705037 0.392573215696926 0.7664950196890992 0.47678594674134056 0.06092586127509523 0.5892295125153539 0.6730820707175017 1.2530048215350034 1.88209646227408 -0.04733737604304387 
-0.4956599137524473 -0.2946532077856398 -1.2306603799729607 0.7987871223815736 1.1616541862836194 0.5326703736095139 -0.7484207330546859 0.4551100302470356 -1.3860778530501023 -0.29210686488350873 -0.5698556638637267 -0.8960999677956659 -0.3348428838284031 -1.3353250185031813 0.9482861836121451 -0.1089930110928063 
-0.026672377099018957 -1.1815306481979635 0.8964373942279835 1.4811074704495275 -0.8274363415471806 -0.8356956174535787 -0.300734533919112 0.049611274090053975 0.4290017668747731 -0.14027758624454403 0.12279749198598235 1.7160926876071352 0.16635020758026942 0.6912470594298534 0.0390747341791784 -0.8143005060970121 
0.039960658806831 -1.7820395793074602 1.1281378680439373 1.279372769941208 0.7218881332400772 0.444346162821321 -0.8703578516885085 0.6093978952912927 0.5802616610468998 -0.8475041743519826 -1.3297067760970882 -1.1059224122948836 0.3142532906182257 -1.4074988479726929 -0.8644542903843926 -1.2038688326414924 
0.9486034762809739 -0.9160047988792187 0.8324397527363918 -0.0582203558473181 -0.3787327559292902 -0.38009124380542064 0.306733484813128 0.6149519166093427 0.5787964330027382 0.25518099591711285 0.15185057184209333 -0.9942500341980913 1.1412240565643859 0.5057221358836002 1.2095714917323561 -0.25481790440796603 
-0.7556145645910466 -0.38544394274709787 -1.4827012675871245 2.0101427351574372 0.6441734288733764 -0.2174403277356548 0.6696934384746271 -0.43951699751295537 1.268897233377557 -1.5609346228638066 0.529694228730667 0.34854912344884964 -1.4086558473808195 -0.029863930092123635 0.12046763327703236 1.441045901136874 
-0.6569075507187458 -1.3909573472031178 -0.15443427393077097 0.09354668082110602 -0.3935417804620093 2.3477472566167403 -0.11727098890728177 -1.0644190861816212 0.9616544696890721 0.30270246151012975 -1.1631213006603802 -0.8199286506224246 -1.4745499821016348 -0.9663934620434596 0.5286137855968577 0.7221103671444357 
1.0731731663375472 0.7973981674688071 0.6426159084112959 -0.3153373476124676 0.6730458584111962 -0.9442898115663462 -0.047385071245908524 -0.5189629319326756 0.691617640594274 0.05578935443289148 2.6315096015439026 -0.52116668404669 -0.7115116758117149 0.6039614113911318 1.6793654526067319 0.32653147454237774 
-0.27400656460201434 0.921149886173678 1.099828061140562 -1.1520640743329755 -0.5552272291511144 0.29518937477858914 -0.8592206241733596 -0.16652161308645358 -0.764687141095252 2.884750511343902e-05 -0.38417646481510304 0.46222064405954644 -0.9910267550163214 -0.25545234777124365 -1.4667415684747183 0.2635128245856823 
-2.229385843120941 0.7891129477394149 1.0618364811596737 -0.9197011499091259 0.5262823769043249 0.8471221762570358 0.761639621357663 -1.3292942949040205 0.07268600250180354 -1.2706065818777104 -0.2650484812436833 0.5102116203325741 -0.12177958465772871 2.0805193978939096 -0.28214085186825333 1.4235636273949401 
1.1234490739175904 1.2256947663793218 -0.7254366853249375 0.4348350838646781 0.03997384902057819 -0.33617830339024335 2.1484775566818897 0.9814431359264412 2.4197773335104826 -0.5869819152537246 0.4266604750608182 0.5367946617653557 -0.12427814568718312 1.0389125973305275 0.7307681100578667 -0.09865133092004921 
-0.39941935681154367 -0.07038799355027318 1.8620446986993873 -0.6091432246167451 0.6537405347480691 0.06803905864952244 -0.18030107540587154 0.46558323296261656 0.7421118741646651 -0.9894439279405592 -0.17651146010391397 0.9015789006215597 0.9138780762947902 -0.6709987564891331 -0.20236423013475954 1.3617865886439038 
2.05158447346532 -0.9526864127933943 -0.8187044832724121 0.06158048798573873 -1.3265752884832585 -0.25667353437871543 -0.6816826232066393 -1.5387370657467456 -1.3440491336301896 0.566057673562097 -1.7360320421331124 -0.40891143443830985 0.40986427676968895 -0.14356149667738174 0.24093908097926556 -0.20911104718061418 
0.7221202124302144 -0.9981229101419616 0.8574761978426108 -1.0816575992837048 -0.9097791619276182 0.22196606067867478 0.6280773197890258 0.9056375159411638 -0.07365443581220224 -1.8856703094529677 1.6617797625782924 -0.15537790424016462 -0.5720770938945373 0.47544173054341804 -0.5636723762374966 0.8554459380878333 
-0.6967571788817744 0.9726811821051957 -0.7239974631511911 0.3978152250287741 0.14670092051853956 0.09241859351522373 1.1227942542045979 0.3137916091568102 -0.9113131004155707 -1.367551124622005 -1.9726236799061427 0.5129573394697331 -0.9080386319339019 0.6245868913831333 -0.2629075761811274 1.0859382073872328 
-0.2345612480630685 -1.2862922474816247 -0.798439761126503 -1.1525257195288559 -0.8852582846919645 -1.0995587237768072 0.9250695642575819 -0.9777912479335632 0.09281310411901367 -1.8255486663450917 0.46187261749561953 -1.088429487586623 -0.6628005415617585 -0.6864721537816368 1.1102503504838508 -0.456091430643005 

0.486665786283894 -1.0686031946767873 -0.6195214587040984 0.09340579710622328 1.2126489381165944 0.4564743492297705 1.510959051705037 0.392573215696926 0.7664950196890992 0.47678594674134056 0.06092586127509523 0.5892295125153539 0.6730820707175017 1.2530048215350034 1.88209646227408 -0.04733737604304387 
-0.4956599137524473 -0.2946532077856398 -1.2306603799729607 0.7987871223815736 1.1616541862836194 0.5326703736095139 -0.7484207330546859 0.4551100302470356 -1.3860778530501023 -0.29210686488350873 -0.5698556638637267 -0.8960999677956659 -0.3348428838284031 -1.3353250185031813 0.9482861836121451 -0.1089930110928063 
-0.026672377099018957 -1.1815306481979635 0.8964373942279835 1.4811074704495275 -0.8274363415471806 -0.8356956174535787 -0.300734533919112 0.049611274090053975 0.4290017668747731 -0.14027758624454403 0.12279749198598235 1.7160926876071352 0.16635020758026942 0.6912470594298534 0.0390747341791784 -0.8143005060970121 
0.039960658806831 -1.7820395793074602 1.1281378680439373 1.279372769941208 0.7218881332400772 0.444346162821321 -0.8703578516885085 0.6093978952912927 0.5802616610468998 -0.8475041743519826 -1.3297067760970882 -1.1059224122948836 0.3142532906182257 -1.4074988479726929 -0.8644542903843926 -1.2038688326414924 
0.9486034762809739 -0.9160047988792187 0.8324397527363918 -0.0582203558473181 -0.3787327559292902 -0.38009124380542064 0.306733484813128 0.6149519166093427 0.5787964330027382 0.25518099591711285 0.15185057184209333 -0.9942500341980913 1.1412240565643859 0.5057221358836002 1.2095714917323561 -0.25481790440796603 
-0.7556145645910466 -0.38544394274709787 -1.4827012675871245 2.0101427351574372 0.6441734288733764 -0.2174403277356548 0.6696934384746271 -0.43951699751295537 1.268897233377557 -1.5609346228638066 0.529694228730667 0.34854912344884964 -1.4086558473808195 -0.029863930092123635 0.12046763327703236 1.441045901136874 
-0.6569075507187458 -1.3909573472031178 -0.15443427393077097 0.09354668082110602 -0.3935417804620093 2.3477472566167403 -0.11727098890728177 -1.0644190861816212 0.9616544696890721 0.30270246151012975 -1.1631213006603802 -0.8199286506224246 -1.4745499821016348 -0.9663934620434596 0.5286137855968577 0.7221103671444357 
1.0731731663375472 0.7973981674688071 0.6426159084112959 -0.3153373476124676 0.6730458584111962 -0.9442898115663462 -0.047385071245908524 -0.5189629319326756 0.691617640594274 0.05578935443289148 2.6315096015439026 -0.52116668404669 -0.7115116758117149 0.6039614113911318 1.6793654526067319 0.32653147454237774 
-0.27400656460201434 0.921149886173678 1.099828061140562 -1.1520640743329755 -0.5552272291511144 0.29518937477858914 -0.8592206241733596 -0.16652161308645358 -0.764687141095252 2.884750511343902e-05 -0.38417646481510304 0.46222064405954644 -0.9910267550163214 -0.25545234777124365 -1.4667415684747183 0.2635128245856823 
-2.229385843120941 0.7891129477394149 1.0618364811596737 -0.9197011499091259 0.5262823769043249 0.8471221762570358 0.761639621357663 -1.3292942949040205 0.07268600250180354 -1.2706065818777104 -0.2650484812436833 0.5102116203325741 -0.12177958465772871 2.0805193978939096 -0.28214085186825333 1.4235636273949401 
1.1234490739175904 1.2256947663793218 -0.7254366853249375 0.4348350838646781 0.03997384902057819 -0.33617830339024335 2.1484775566818897 0.9814431359264412 2.4197773335104826 -0.5869819152537246 0.4266604750608182 0.5367946617653557 -0.12427814568718312 1.0389125973305275 0.7307681100578667 -0.09865133092004921 
-0.39941935681154367 -0.07038799355027318 1.8620446986993873 -0.6091432246167451 0.6537405347480691 0.06803905864952244 -0.18030107540587154 0.46558323296261656 0.7421118741646651 -0.9894439279405592 -0.17651146010391397 0.9015789006215597 0.9138780762947902 -0.6709987564891331 -0.20236423013475954 1.3617865886439038 
2.05158447346532 -0.9526864127933943 -0.8187044832724121 0.06158048798573873 -1.3265752884832585 -0.25667353437871543 -0.6816826232066393 -1.5387370657467456 -1.3440491336301896 0.566057673562097 -1.7360320421331124 -0.40891143443830985 0.40986427676968895 -0.14356149667738174 0.24093908097926556 -0.20911104718061418 
0.7221202124302144 -0.9981229101419616 0.8574761978426108 -1.0816575992837048 -0.9097791619276182 0.22196606067867478 0.6280773197890258 0.9056375159411638 -0.07365443581220224 -1.8856703094529677 1.6617797625782924 -0.15537790424016462 -0.5720770938945373 0.47544173054341804 -0.5636723762374966 0.8554459380878333 
-0.6967571788817744 0.9726811821051957 -0.7239974631511911 0.3978152250287741 0.14670092051853956 0.09241859351522373 1.1227942542045979 0.3137916091568102 -0.9113131004155707 -1.367551124622005 -1.9726236799061427 0.5129573394697331 -0.9080386319339019 0.6245868913831333 -0.2629075761811274 1.0859382073872328 
-0.2345612480630685 -1.2862922474816247 -0.798439761126503 -1.1525257195288559 -0.8852582846919645 -1.0995587237768072 0.9250695642575819 -0.9777912479335632 0.09281310411901367 -1.8255486663450917 0.46187261749561953 -1.088429487586623 -0.6628005415617585 -0.6864721537816368 1.1102503504838508 -0.456091430643005 

0.6041341599209505 -1.1276011415974043 -0.9481948952308245 1.4377866250814386 -0.834223995897026 1.5553332798531891 -1.0127702809682073 -1.578871907549043 0.6979657175325381 -0.9272677418044015 0.9572454316058682 -0.039309506254241205 -0.9823870399716002 1.4045867801794663 0.257767723639802 1.5061722849357686 
-0.34343137663417717 0.8160250440821283 -1.70305827424402 0.9021404327641886 1.1616541862836194 0.9241967784004508 0.3456345343102722 -1.4080620264303187 -0.7419124789318857 -0.29210686488350873 -0.5698556638637267 -0.6499593486562932 -0.8416497257586463 -1.0310242544376693 -0.529960957783412 0.3538370956391887 
0.6174330074304089 0.2567156738741862 0.691182993326619 0.615859332655019 0.011395402616920059 -0.8356956174535787 0.9042314615515828 0.5603569633098812 -0.18792565234090858 -0.4821666724556202 0.501885234240491 -0.7419168423141462 1.7872916160566896 0.6912470594298534 0.42130569212469016 0.8594603800311829 
1.3414161244621314 -0.2631616431507172 1.337228924148218 -0.1927784000949814 -0.20568143775450315 -0.204967797374081 -0.8834299058445291 -0.2635685863181331 -0.44014727259823594 0.07143989789513162 -1.6923695952312763 -0.10940941836189669 -0.6705505533699518 0.9084286465024874 -0.17869485297162838 0.5971673221256237 
0.6014982871213953 -0.1547375276782063 -0.9044910120701904 -1.8672665670678292 1.190873647076016 -1.9728361630238649 0.27741543818061803 -0.22872132513928267 -0.29499919328994517 0.25518099591711285 -0.4861896914151139 0.06365527428025358 -1.257242289532152 0.5057221358836002 -0.7929848714913438 -1.9252657075946464 
0.8296713707808453 -3.548759510214808 -1.4827012675871245 0.6584292007758774 0.6441734288733764 -0.1599342296881319 1.6151734227546373 -1.449694044197371 1.3144848708921313 0.074581812373243 -0.19989480834273626 0.8012575108022747 0.42304254193411006 1.7813756772419889 1.4671481978958756 0.025183543944988503 
0.0016250726455670093 -1.3909573472031178 -0.15443427393077097 -0.340603116134093 -0.3935417804620093 0.19080570142170333 0.170373349058506 1.184155987655219 0.20449302536685737 -0.16351021942487776 0.1920050404336639 -2.1439851386196063 -1.4134545773425335 1.3470163459309792 0.8888542848038349 -1.160509319027112 
-1.9230681562726308 -0.3732381489971295 0.6426159084112959 -0.3153373476124676 1.9046530898383673 -1.9407710178447717 0.3065938460118049 -1.7038095068782695 0.691617640594274 1.2727214672217426 -0.8247070510368082 -0.28907912798773167 -0.19476722211323488 0.3326479513789575 1.6793654526067319 0.12050612388913295 
1.2547688759673339 1.0991204493168112 -0.9621686115267393 1.058956306388965 -0.5552878833532564 0.29518937477858914 -0.8592206241733596 0.7317625654414609 -0.6552722203608219 2.884750511343902e-05 -0.38417646481510304 0.3884196086649501 2.1278803195636313 -1.3737438797405597 -1.8860306203397714 0.2635128245856823 
-0.7452883935712599 -0.1448199381435845 0.07448806338402135 0.3202465853474368 0.6049937342348264 -0.11134409857918426 0.761639621357663 -0.157099669328435 -0.3204894019195633 0.6413522476982492 1.1543238257441641 0.5102116203325741 -0.6151517617177804 0.5961525627858856 0.7199494842362377 0.3282463269894295 
0.7145270815677116 -1.9011046363491408 1.002424906299991 -0.3091346351215582 0.08287156847310961 0.5832253784452114 0.45375448618554376 0.21610795901492583 -0.1576085067650043 0.4683740336529366 1.4504890352389452 0.5024178190824299 0.9909864756229988 0.9562216727792219 0.8705767141204833 -0.46528886066161995 
-0.22522956939870664 0.22749099046948965 -0.668534919808302 -0.6091432246167451 0.3588425350988217 1.047924821405029 0.5254637895086615 0.46558323296261656 -1.3685179958471911 -0.0008994953424333888 -0.6436840596846333 -2.328525756542472 -0.1506837068617579 -0.41498266556899976 -0.07403042291623951 -0.717716471069379 
0.7507193378306035 -0.9228995279806548 0.18599680594321577 -0.6935745981381768 -1.3265752884832585 0.7262280642134104 -0.06392421413001027 0.33685350964101357 -0.34242548542793577 -1.0618931796453777 -1.1577396379603415 -0.5173312683787582 -0.37178946467198465 0.5028910412018209 0.24093908097926556 1.0363110941139875 
-0.02495604064320177 -1.5084912555233172 0.36164203481209595 0.07627812012175735 -0.9097791619276182 0.5772365041346482 -1.3045946398158146 -0.7334720316884219 -0.07365443581220224 1.3915300149668213 -0.864679909769714 -0.269053366871674 -0.5720770938945373 0.47544173054341804 0.7623167212236548 -1.6125974164739574 
-0.730583277166057 0.32847949756180933 0.06399752817536852 -0.6167118776267618 2.2822098341039583 -0.05492084749878708 -0.36829581081462825 0.7901595206654505 -0.9113131004155707 -0.5370915820366681 -0.4332567283166239 -2.1879223915507233 -2.170107345292459 0.6245868913831333 2.0615486367083107 1.0859382073872328 
0.8949313854477502 0.15737243549192956 -1.1790868040687719 -1.9704751607380364 0.031050765168143948 -0.09490920635912106 0.9250695642575819 -0.9777912479335632 0.7990607766352246 -1.8255486663450917 -0.8239908773185455 -1.088429487586623 -0.6883722777139553 0.8176977118223261 -0.525323437563304 0.4919580480365945 

-0.2553265948149603 0.12718297837707837 -1.3280051529859136 1.9104500750874054 1.469623994963726 1.0921546214719426 1.510959051705037 -0.20276868661587433 0.7664950196890992 -0.463620479787614 -0.38378356978125006 1.073188249435364 0.8295314664332487 1.2530048215350034 0.1822638505042119 -0.35964504093017147 
-0.31556296245659143 1.1451248564724243 -0.0681327270735057 -0.8716179087782844 -1.4198851763816305 -0.36356887379424524 0.7512005761570627 1.1554592626948093 -0.08085930516573558 0.6639387270228024 -0.3195387397540023 1.5360956733454743 -0.8401918177300048 -0.703081595362342 0.3705747169671157 -1.589934169917456 
0.01606260634473367 1.9615142103389411 0.10585012160787075 2.1759528855795036 0.3864405488320626 -0.29850346317181575 -0.890853345084318 -0.41682094882459264 0.8899634150392893 1.7398051497774965 -0.09367704405075293 1.0188140210341956 0.6437885406252069 1.2483432660663887 1.3594355042520532 -0.7008355681457898 
1.3414161244621314 0.19497522689676386 0.10157263268337625 0.5228114775921294 0.2375019390629247 1.9217355659673099 0.04632248468475069 -0.5241238203173074 0.1365000611813444 0.03640772027246734 0.3269303912430384 -0.4305919849439806 -0.7506356479742186 -0.9523285206734619 -0.5027683343971573 -0.8624756871759178 
1.1262911712814603 -0.5009909414190471 -1.078223920623112 0.4697026594420233 -2.6604887256499743 -1.9728361630238649 0.8116284698244397 -0.22872132513928267 -0.29499919328994517 0.25518099591711285 -0.4861896914151139 0.7533397908615312 -1.0452297899566843 0.7310246094196062 -0.7929848714913438 1.5764963058547412 
-0.19600583341186348 -1.2457660520961382 -0.8131921021656957 2.2629838796401085 0.7467003033449502 -0.1599342296881319 -0.42495646894847566 -0.43951699751295537 -0.4695739036656196 -1.5609346228638066 0.2894281095318743 1.1680660906221292 -0.08469404393619641 0.3660080557534957 -0.16684121019836878 -1.815086854813193 
-1.771789993093664 -2.8622532273020815 0.3599108750379878 2.7059487676034704 -0.3935417804620093 -1.0987069602789774 1.1409032226443518 -1.0644190861816212 0.4039957966423798 -0.39057957739150595 0.5743646180817176 0.06828226286025676 -1.4745499821016348 0.9784967511689393 0.18955266772939824 -0.32047606164427495 
2.0723612504588202 -1.3178220989389167 0.1832692920655724 0.2408400991430337 -0.41948933394642174 -0.7644667462520054 1.455718696869259 1.6215333073565568 -0.15940412912982535 0.5533180589834665 0.6758175942930194 -1.0232418217263668 0.4068185223514543 0.776012863429918 0.8875631647697166 -0.022568140979492002 
-0.42135366503234184 0.2864056855495865 -0.2666655197159781 0.05077750342615767 0.5085929399371661 0.3720653167072075 -0.09927281279880293 -0.4575075044975551 0.5408264501908516 -0.15287365996508648 0.7997435678127803 -1.3783940573036044 0.5129426999855534 0.17490383195081044 -0.0013176174787049998 2.3790818330127808 
-1.365954832401565 -0.20119596963245742 1.091347866238707 2.0023795938668116 0.5262823769043249 -1.124743770560602 0.3713820679088105 -1.043892822089272 -0.3204894019195633 -0.2892248182841344 0.13418645063906567 1.0509830461778762 -0.6151517617177804 0.9039708903364766 0.35038734116538384 -0.2552087326417636 
0.4378587900013355 2.341109770636499 0.750663238686267 0.4348350838646781 -1.1452217174218249 0.17383764165736576 -0.7068085143463572 -0.19487018267618245 -0.19043697930924947 -0.8760347084953933 -0.31540356693960375 -1.8140635543408652 -0.13875290009450084 -0.304815752293781 -1.5381991944490288 -2.283228191493873 
-1.4894654831031515 -1.3120458930095347 -0.036049556546880704 1.044044650390779 0.7139888364880891 -0.3622751765882117 -0.18030107540587154 0.46558323296261656 -0.6422896934203914 1.9587110396583807 -0.17651146010391397 -0.584734942010811 0.13321904974889714 -2.141569942759279 0.14491701603211185 -0.17927990408552422 
-1.1420106600943538 1.2875566180040376 1.812520792270706 0.7597982452521369 -1.3265752884832585 0.24943115793625847 0.41340843380503295 -0.9214522521937009 -0.07992227428235431 0.06274852901844326 0.47184550696208427 -0.30950418848512956 -0.866158907962989 -0.778414418192131 0.7996532877454952 1.3403784752727659 
-0.5097234678483948 0.5284157495715914 0.3937748070389058 0.07627812012175735 2.300578544545992 -2.390913919715658 -0.5603338532412825 -0.9561571109671584 -0.7934337720725434 0.23885082852873316 -1.0268037866122162 -0.057386744117993445 -0.5720770938945373 0.5913530000006911 -0.0895127734938952 1.7451977587888574 
-0.32400218056260977 0.9726811821051957 0.8350782378418444 -0.13415413363283768 -1.3699912651626158 1.7237727483136707 -0.9240635027053663 -1.3162541737621625 -1.3385466935179657 0.3376810994411945 1.3402721476870474 0.3507832693247499 1.03137331956087 0.05845919981363144 1.0166704257076211 -0.9298114080009744 
0.1993771172968117 0.43516671973745064 0.9348710741394064 -0.10799411765346525 1.966339642737621 -1.6500272762660857 0.690064002938474 -0.9777912479335632 -0.6397655655788308 1.6171542582113072 -2.147908608531327 -1.913432106044532 -1.461245799307766 -1.8045943087458847 1.4113622803354169 1.4628571570986504 

0.6036500541317509 -0.9005429580122907 1.4468905557336371 0.5466749271307677 1.2126489381165944 1.0921546214719426 0.14857362104478597 0.392573215696926 0.7664950196890992 -0.463620479787614 1.9295467166186253 -1.6024961452356392 1.6926371187768499 -1.5401920225869703 0.7693550429031858 1.9910248088784677 
-1.3475511442160069 -0.8190700110256367 -0.7154167607199197 0.9021404327641886 0.6248517175790018 -1.4176379731628608 -0.7484207330546859 0.801286985981892 -0.4959849378858507 -0.8671008758222598 -1.4029856135536916 0.699016345609335 -0.6705539058906537 0.26448441884165985 0.9482861836121451 0.14064123680344293 
1.0087079746159309 1.433429604909938 0.10585012160787075 -0.3437761826564832 -0.7590977290694648 0.3883667739116066 -0.5003580659410555 0.4199319926829446 1.4604806024242611 -0.16637332034393154 -1.5179018545988672 1.0188140210341956 -0.30131803152676573 1.2247036961313125 1.3594355042520532 0.5961256146227792 
0.24109319876467084 -0.2631616431507172 -0.47087015931278786 -0.1378376804303467 1.7275506316705749 0.7994907185268258 -0.8834299058445291 -1.2943370333438529 -0.6110796258909358 -0.6568341576903993 -2.0523228060177265 -1.1059224122948836 -0.6515624890249743 0.49197864754855486 0.999241176455898 -0.8673098478306731 
0.061311153890014014 -3.006073318406947 -0.5928643733740168 -0.8648669371355365 -0.3787327559292902 -0.38009124380542064 0.23582733232951356 -0.22872132513928267 -0.6710303456049451 0.25518099591711285 -0.4861896914151139 -0.9942500341980913 0.19895119335029693 1.2956420652577296 0.5055212063250549 0.060083600941572744 
-1.6100506995415884 -0.3741598115734535 -0.7260894806543855 -0.4149620594190005 0.7318074608158057 -0.3299017605770628 1.6151734227546373 -1.4237994878490021 0.29349209306768137 -1.5609346228638066 -0.8107585310662733 -1.1631877395487846 2.4066071994749128 -0.1273731332472266 -0.5353260341615388 -1.815086854813193 
-1.2976108634335872 -0.0158352272119514 -0.32906605582197435 0.18501405716731253 -0.9372108968433288 -1.576254608560232 -0.11727098890728177 -0.6513153453984701 0.20449302536685737 -0.39057957739150595 0.8486688762775157 -0.5327089056797351 0.056589636604878174 -0.9663934620434596 0.18955266772939824 -1.160509319027112 
-0.0188306436133512 -0.3732381489971295 0.09044487523412664 0.05262113674539844 1.8441739612016035 -0.11960636959976033 1.455718696869259 0.7221683725318991 -0.32559255061638304 0.08139663929767824 1.09010668690685 -0.28223463083847905 1.5975671063478982 -0.34198720214238165 -1.0020472923709267 -1.5905837077201919 
-3.2345486410508104 0.38763489769283516 -0.9621686115267393 -1.012696815064306 0.06621701178303159 0.6628416449556566 -0.8592206241733596 0.7317625654414609 -0.125153832904518 -1.9310881279486558 -1.8280188834656428 0.5101384329118162 0.029752523096023987 -0.25545234777124365 0.4987614351820448 0.3864435514315722 
-2.229385843120941 -0.20119596963245742 1.3724940204678577 0.7660000573301032 -1.5533091624431719 0.8471221762570358 1.091480527005683 -0.5546651724912057 0.15101065282429976 -1.3325002455031232 -0.5440492705030631 0.47623034806569664 -0.6115355144662384 -0.6343054809530287 -1.3835972328254478 0.3282463269894295 
-1.8458825335659685 1.2256947663793218 0.7713908416355457 -1.6861063554137266 0.08287156847310961 2.3357359490460503 -1.2027005545743479 -1.237237466149525 2.4197773335104826 0.5989624976335857 1.4504890352389452 0.5367946617653557 -0.12427814568718312 -0.17558595372499197 0.7307681100578667 -2.283228191493873 
-1.4894654831031515 0.22749099046948965 -0.036049556546880704 -0.6091432246167451 -0.5559442417699126 2.09044557197883 -0.28995222981752844 0.9185218519710622 -0.23370909249467187 -0.0008994953424333888 -1.2435272159174824 -0.44673445136958556 -0.24975901432739178 0.9763835023620712 1.3578796845493812 -2.8872836948971563 
2.05158447346532 0.843082371051724 -0.4734862563356343 1.7923251526554653 -0.16327920339719312 1.2932287649775163 -1.6485829703382742 0.6236310610851468 -0.34242548542793577 -0.5936296202160882 -1.0902582528775222 -0.40891143443830985 -0.06650348896148342 -0.14356149667738174 -0.12407339438782845 0.23141123980556427 
-0.05852999692749899 1.5228722088457618 0.3937748070389058 0.8289852313021869 -0.5875453059555312 -2.390913919715658 0.4809569897943844 2.00095202778038 -1.7495151513333556 0.9610251607490699 0.9645455257315976 -0.283998602106431 -0.44739363519620495 0.7228499466806787 0.19875530998157245 0.8554459380878333 
1.0539210049114598 -0.00031101612626590036 0.014385574563618926 0.3978152250287741 -1.3699912651626158 0.008466168021145313 -0.36829581081462825 0.3137916091568102 1.0282055078625356 -0.2841676899482171 -0.4332567283166239 -2.1879223915507233 -0.9080386319339019 -0.01362890464522228 2.0615486367083107 -0.017466252443717526 
0.754233990181048 0.12670627758785025 -0.47727484496320605 -0.3947934817634724 -0.9023718093830765 1.9887344082843144 0.942046764973037 -2.8281446120872276 1.447459304860399 -1.8255486663450917 -0.21971828104903304 -0.833909167842583 0.2049197550024616 -0.620257260320672 1.1102503504838508 -0.456091430643005 

-2.0350041266320336 0.46428992432651595 -1.3940225639774773 -0.8256832091806137 0.4678934241827873 -1.3681676962488953 -0.08495435224696121 -0.7901225976103832 0.2947335886784518 -0.2935364435857731 0.9572454316058682 0.5892295125153539 0.5690863107134319 -2.161645908157526 0.7775300315904591 1.6673323832248137 
-0.8203637639988922 1.3007850887284427 -1.5513630891643981 -0.43425392490529735 1.5674010414033885 0.7504761018566537 -2.139051324522516 0.6676689087623044 -0.7419124789318857 2.611672650144845 0.769614331136117 1.5360956733454743 -0.517337942759251 0.26448441884165985 -0.21526011381232 0.3538370956391887 
-0.026672377099018957 0.7835234031570403 0.10585012160787075 -2.2060171742588444 0.3864405488320626 -0.8356956174535787 -0.5461934329799237 -1.1882208957945313 -0.990177076069815 0.24131937072370171 -0.5269628663424382 0.213805668224581 0.33864928994574295 0.6912470594298534 0.0390747341791784 1.991737677928539 
-1.218423978479595 0.22794788299021915 0.27056388509252555 -0.17065093658279765 0.43596617464436616 1.5537118085593593 -0.610458172194444 -0.6859573113909635 0.8345116281072028 0.03640772027246734 0.2279708567320627 0.09978096749999138 -0.6515624890249743 -0.395532384534432 1.5261074363243474 0.4685152674151982 
-2.72916494234494 -0.1547375276782063 -1.078223920623112 0.5481778823252692 -0.4440977556993997 -1.2037000282895296 0.8116284698244397 0.5255834255670948 2.152636992893122 -0.523196365091717 -1.0407908773958199 -0.329725114675526 0.28312179818428845 0.9405552654097887 -1.9500190491580127 1.0247337822206088 
1.3948596174821 -3.548759510214808 -0.5169287608448075 -1.0061043534561933 0.3404286991499151 -1.1069424212396546 0.6696934384746271 0.12002929921269945 0.5404692342361733 0.43581415212481367 -0.5141959806411616 0.7642617370523087 0.2512295351495015 -0.029863930092123635 0.337790242925982 -0.098810833347319 
0.9956937524988532 -1.334399397301993 -0.32906605582197435 -0.340603116134093 -0.17673092778497937 -1.2217713300691284 -1.3319050757566213 0.11039970853544473 0.20449302536685737 1.782429849982395 0.9186970119048867 -1.3464547414548909 1.6587369437813182 -0.9663934620434596 1.2407820601070008 -0.32047606164427495 
-1.9230681562726308 -0.8402062856883963 1.8987128868033663 -1.3143368423017816 0.6730458584111962 -0.8141093378971004 -0.050573313212040866 0.48018133889151177 -0.15940412912982535 -0.32269547268074084 0.9374933935346063 -0.52116668404669 0.4068185223514543 0.6080332046140614 0.3764993549800024 0.531333648526275 
1.2547688759673339 -0.8756158148944796 -0.39619443044795066 0.6966934936606685 0.08317583525829142 0.29518937477858914 -0.5794078593041951 -1.7452717283794958 -0.2223182417370146 -0.4153945413637002 0.870645668085842 0.6258061535953685 -1.0458080967094818 0.6530564277082883 -0.06639600189673577 -0.5107408148517288 
-0.7452883935712599 0.7713838799643524 1.0618364811596737 1.5162318767124472 0.16780726687505437 -1.0267382795146671 0.5652080633033708 -0.9601709628306241 -0.46642396797243235 -0.4703297921554385 0.13418645063906567 0.5102116203325741 -0.12177958465772871 -1.5941467519650032 1.781435841312197 1.1884945110551188 
1.1234490739175904 1.2256947663793218 0.2640970743198181 -0.3091346351215582 -0.17729543503715237 0.17383764165736576 -1.2027005545743479 2.621792115816295 -1.2670239750914312 0.2568391887017666 -1.0598690942312603 -0.39009144084728387 0.9343657132196449 -0.49087985910626003 0.6450311026918448 -0.46528886066161995 
0.5040243962768617 -0.6492062025661207 -0.036049556546880704 -0.6091432246167451 0.6537405347480691 0.17001376939391563 -0.16069166349899797 0.46558323296261656 -0.22810446045771993 0.03786721141519655 -0.17651146010391397 -1.3536943315752636 1.0126674292606384 0.9763835023620712 0.265503895962264 -0.717716471069379 
-0.7717204271697833 0.30362066403466154 0.20576774916755966 -0.6935745981381768 0.9195144827966485 1.2932287649775163 0.9079026209508172 0.33685350964101357 -0.6199439426584308 1.421270580651053 -0.3039041214751897 0.6457941149171055 -0.06650348896148342 -0.5957024464687309 -0.10564787891696795 -0.7724428006729479 
-1.168852881623984 -0.08826152143725564 0.3937748070389058 -1.0816575992837048 0.08822415792969464 -1.682739115547132 -1.3045946398158146 -1.928938276773291 -0.07365443581220224 0.23885082852873316 0.37953218974385 -0.269053366871674 -0.5720770938945373 0.7228499466806787 -0.0895127734938952 0.8554459380878333 
-0.366790351715987 1.1377215105164595 0.8350782378418444 -2.5850735530042694 -1.3699912651626158 -1.3555067371623726 1.1227942542045979 0.3137916091568102 0.25172316647477566 0.6483972895591731 -0.4332567283166239 0.39129836886979746 -0.544503151056781 2.499399979851414 2.0615486367083107 1.0695952926975072 
1.059216574089566 0.897627503223163 0.9071828431815436 -0.6758801708522522 0.0895112536716369 -1.6500272762660857 -0.14577848784608732 -0.5480866238177076 0.09281310411901367 -1.8255486663450917 0.46187261749561953 -0.833909167842583 -0.381024734444686 -0.7066163635555137 -1.563547838841805 -0.30095114794319305 

1.4737903090559996 0.46428992432651595 -1.0032572277245162 -1.5822403380036918 -1.601956613347235 1.0921546214719426 -0.4465721441529647 2.3206217000136946 0.9157074627590769 0.515915180552147 -1.57672635143487 0.2165963065773487 -1.1194658163165703 1.4045867801794663 -0.9343694479336351 0.840936406100623 
-0.8203637639988922 1.3821688043504403 -0.6284477745038333 -0.19845008309815368 0.6248517175790018 0.05341120114629933 -0.19163048686902326 -1.4080620264303187 1.9027158184185777 -1.121920173618078 -0.5698556638637267 -2.007383759442039 -0.8416497257586463 0.34403625167164975 0.9482861836121451 0.6367790558875878 
-0.026672377099018957 0.2238738449759671 0.07145492286238601 1.4811074704495275 -0.8974834751132225 0.3883667739116066 1.95985075756481 1.0387363756765988 0.8899634150392893 -0.814261485920907 -0.09057462067493999 1.7160926876071352 0.3177607930809781 1.2247036961313125 0.42130569212469016 -0.33593286549240187 
1.3414161244621314 -0.3680267837568024 -0.2382729105607653 -1.99061286082685 0.371246361738272 1.3589651284804678 1.0589294564989393 0.4206637383514066 0.8345116281072028 0.2792346667735799 -2.4230383007640395 -1.1059224122948836 0.8358033196416423 -0.9523285206734619 -0.8644542903843926 0.4685152674151982 
0.9486034762809739 0.35138646048701466 -0.7158737043174681 -0.18530409230532435 -1.4468657377493748 -0.38009124380542064 -1.2569869078772367 0.6149519166093427 0.6075047048616377 -1.068768882654451 -0.4861896914151139 -0.329725114675526 -1.257242289532152 1.4272857598638613 -0.8006932607764179 -0.6642028485928512 
-0.4488587173897686 0.7297110554109625 2.5422549679551047 -0.2802478452291376 0.8226167682014901 -0.11704477329024399 1.4160756202766072 0.12002929921269945 0.5616659241769448 0.41468826757410515 0.9667035258756724 -1.756613671246705 -1.0531996221865167 -0.2667290322335839 -1.3776524365242204 -1.0239608400209297 
-1.771789993093664 0.23999540064045022 -0.9441289969134578 -0.7731414043159918 0.1425948707778992 -1.0987069602789774 0.170373349058506 -1.0644190861816212 -0.763736385446261 -0.16351021942487776 -0.7965388377328646 -0.8199286506224246 0.5409357617972226 -0.1661847011865348 0.8965188459971006 -0.7913665774802221 
0.596379702646008 -1.819679770665911 -0.6364812410146505 0.2408400991430337 0.3691527913979484 0.09837809672419369 -0.5899739710572457 -1.7038095068782695 0.7727998084617574 0.08139663929767824 0.6758175942930194 -0.52116668404669 0.4068185223514543 -0.20349855814597154 1.3861327544647322 2.5136850312080186 
1.0819839792183183 -0.33270717612039535 0.17409756101710855 -1.012696815064306 0.08317583525829142 1.3860710823733904 0.329026343779742 -0.9664443922424549 -0.6817828253936279 2.884750511343902e-05 -1.8280188834656428 0.21237941441680042 1.5495621772831716 -0.021417986137109674 1.5050064997744623 -1.8612336552938444 
-0.7452883935712599 -3.1513150722349743 1.0618364811596737 1.5162318767124472 0.858441805507848 0.5217649364580257 0.4329675439328315 -1.043892822089272 0.34817834250303614 -1.2706065818777104 -0.25669346789565134 0.47623034806569664 0.869750914712247 0.2805605366468671 -0.28214085186825333 -0.2552087326417636 
-0.0034121763238247464 -1.9011046363491408 0.15723047597918297 -1.3797001641449809 -1.1452217174218249 -0.038511363893535856 -0.7677133759791744 0.5081656282357069 2.4197773335104826 0.3899831245809417 -0.570420175247697 -1.8140635543408652 0.9902398465041315 -1.434193785930465 0.6749201002025228 -1.615298093570329 
-0.15775033329870833 0.22749099046948965 -0.6230218385923416 0.31109242914099167 0.3588425350988217 -0.637285738879607 -0.8543009734324389 0.46558323296261656 2.760799845569196 2.3923579258593355 -1.2435272159174824 0.06423902263970467 0.11959219348203555 -0.6709987564891331 -0.7579489593228663 -0.3492633512334258 
-0.8979913425826441 0.004222724337579645 1.0443690534198433 -0.6935745981381768 0.8234021263398076 0.40894219905693735 0.41340843380503295 1.5475378680205851 -0.5155221430136633 0.06274852901844326 1.5796940081933133 -0.40891143443830985 -0.06650348896148342 -0.22106900611816968 0.5982428577098791 -0.7535973709884288 
-0.05852999692749899 -0.9981229101419616 0.3937748070389058 -1.0676692009761155 -0.9097791619276182 0.22196606067867478 -1.3045946398158146 -0.9561571109671584 -0.552531065096034 0.23885082852873316 -0.8638940518208279 -0.4136250469544893 -1.617271097485046 1.0164440087013622 0.84020760889604 1.7451977587888574 
1.8021943895229966 0.7617754411191635 -2.1828987763649477 -0.4463456463789921 0.3114617564767454 0.6547477731157149 0.6771093061561266 -0.25815607752711595 0.8018604303730789 0.5375756959280567 -0.4332567283166239 0.3507832693247499 -1.1995346038403634 0.6933319231133758 -1.7047300345740748 0.0027765058460465647 
1.6499923421760665 0.897627503223163 -2.4131112746958525 -0.12469556953243734 -0.8852582846919645 -0.5560642896829503 -0.1498761112372587 0.905358461274455 1.447459304860399 -0.952258585280462 1.3652652321043726 -1.088429487586623 0.2049197550024616 0.6493054347917229 1.1102503504838508 1.6762870826109124 

-1.5891203596728396 -1.0686031946767873 1.4468905557336371 -0.927339388009084 0.4678934241827873 1.0921546214719426 0.5111317917098166 0.392573215696926 0.7664950196890992 -0.035210433757635516 1.9295467166186253 0.5892295125153539 -0.5551526530420015 -0.0920306569910694 -1.9838753259875388 -0.35964504093017147 
0.1599766220902352 -1.500090690228866 -1.2306603799729607 0.8289461837996153 0.790369715287475 0.5326703736095139 0.8702121057153395 -1.4080620264303187 -0.6818971204873723 2.611672650144845 -0.5698556638637267 1.5360956733454743 -0.517337942759251 -0.6797975527794864 0.9482861836121451 -0.9810274805622587 
0.01606260634473367 0.2567156738741862 0.21275038556490647 -0.3437761826564832 0.3864405488320626 -1.5012933011469374 0.8202998257120259 0.5603569633098812 0.8899634150392893 -0.34040907723579134 -0.5626301779256443 -0.7693082165968512 -0.30131803152676573 0.5886393116430985 0.42130569212469016 -1.1093624576995373 
1.3414161244621314 -0.5003592585756275 0.06951062370327243 -1.5434339643039414 3.603845114735062 0.7994907185268258 0.7698381530070155 -0.5716680506491404 -0.44014727259823594 -0.6588958039667869 -2.0523228060177265 -1.1059224122948836 -0.6515624890249743 -0.9523285206734619 -0.2984466885144149 -0.8673098478306731 
0.9486034762809739 0.16111554158838445 -1.078223920623112 0.3996647657387136 -0.37225212666732344 -0.38009124380542064 1.1077845449997594 0.7398758922017311 0.5807837257908303 0.25518099591711285 -1.0407908773958199 -0.329725114675526 1.6227388833121428 0.5057221358836002 1.557500186287124 -0.8095621945295941 
1.0319878423869848 -1.7651758560288415 -0.8842295373125386 -1.0061043534561933 -0.5664219993911925 0.17378562091707353 0.6696934384746271 -0.43951699751295537 -0.7701998422082265 -0.8027178667238261 -1.23243934356244 0.35473833460943716 -1.0531996221865167 1.7813756772419889 -1.3413677164667739 -1.815086854813193 
0.9956937524988532 -0.2682434645101047 1.14961988255493 -1.0900245244451738 -0.6232173889492226 -1.1788895777843706 0.170373349058506 0.47450339105100686 0.20449302536685737 -0.16351021942487776 0.32977583613744726 -0.5327089056797351 -0.11543575735394286 -1.091315434987724 1.2407820601070008 -1.9461583437616812 
0.596379702646008 0.832845779886007 1.8987128868033663 -0.3153373476124676 0.6730458584111962 -0.8141093378971004 1.455718696869259 0.48018133889151177 -1.537887106694303 -0.32269547268074084 0.6758175942930194 -0.52116668404669 -0.16599805065007026 -0.20349855814597154 0.8875631647697166 0.12050612388913295 
1.2547688759673339 2.0377023356804354 -0.9621686115267393 -1.012696815064306 0.08317583525829142 0.29518937477858914 -0.8592206241733596 -0.8905885590415877 0.5408264501908516 -0.15287365996508648 -1.8280188834656428 0.08009749900478386 1.1270434971709267 -1.3737438797405597 1.5050064997744623 0.40881083505144905 
-0.8246636889924104 0.24175461720933097 1.0618364811596737 -0.14377816698314994 0.6049937342348264 0.1356899598887999 0.761639621357663 -0.157099669328435 -0.3204894019195633 -1.2706065818777104 -0.6509941209273051 -0.20783305026896345 -0.6115355144662384 0.706601136413441 -0.30663370781925975 -1.663932117359133 
0.7157393796429807 0.20359065812148688 -0.1272204509638305 0.4348350838646781 0.08287156847310961 1.3803936472901 -1.2027005545743479 0.21610795901492583 1.422764338898922 -0.5869819152537246 0.4266604750608182 0.0085519180863076 -1.173898588798678 2.1093827201418427 0.7307681100578667 -0.013231519040484693 
-1.4894654831031515 -0.31506776997564157 -0.6230218385923416 -0.6091432246167451 0.550589723931092 -0.3468988261335386 -0.17386125842255448 0.46558323296261656 -0.6422896934203914 -0.0008994953424333888 0.9996850269776899 -1.1098474873015125 0.9138780762947902 -0.6709987564891331 0.14491701603211185 -0.717716471069379 
0.6828436306744383 0.03052873975212774 1.5054563848223537 -0.6935745981381768 0.9195144827966485 -1.6653104537159575 0.7024265871241818 0.33685350964101357 -0.34242548542793577 -0.3965786745246352 0.40593697466316175 -0.2342362355470694 0.18951964381655276 0.994337241601548 1.8343486758171705 0.23141123980556427 
-0.02495604064320177 0.5284157495715914 0.3937748070389058 -1.1770619318530124 0.047267325288292666 0.12734734535820472 0.6280773197890258 0.11178851666496752 0.7689588507502296 -1.5501632617836545 -1.0268037866122162 1.4651923959469582 -0.44509080184565053 1.6708316183334337 0.13916409546625896 -0.14881827013008153 
1.8021943895229966 0.5487216609427866 0.8350782378418444 -0.13415413363283768 0.32184852854066304 -1.3555067371623726 1.1227942542045979 0.3137916091568102 -0.9113131004155707 -0.7699579964112545 -0.4332567283166239 -0.4164663805303756 -0.8995933396807783 0.05845919981363144 -0.5157859986400184 -0.0417472737098397 
1.6499923421760665 -0.8196254011000315 -2.1054580424143787 -1.1525257195288559 -1.397081533007608 0.23689488134215522 -2.3158247732653523 0.905358461274455 0.09281310411901367 -0.30739261251712985 -0.8239908773185455 -0.0892298303023507 -0.4440432714828346 -0.620257260320672 -0.648824199344346 -0.456091430643005 

0.30464265796085627 -1.1297271756147134 1.560722865960604 1.3715975317420035 0.4678934241827873 1.0921546214719426 0.7034972703688898 0.36560007361460006 0.6268942515755794 -0.7136677209983032 -1.147803525289195 -1.834359987517994 -0.21008726801435212 2.1360219442139425 0.1822638505042119 1.9910248088784677 
0.46261858920781956 -0.2946532077856398 -2.2187728749740474 -0.904218746780072 -0.030919249251674653 0.5326703736095139 -1.1251167177306558 -1.4080620264303187 -1.3860778530501023 -0.29210686488350873 -0.5698556638637267 -1.9675883385012038 -0.3348428838284031 -0.6797975527794864 1.697995673457291 0.924028864981596 
0.27628531106724247 0.2567156738741862 -1.4480062174627175 1.4811074704495275 0.3864405488320626 -0.8356956174535787 -0.7952303577792258 1.6084454149671243 0.8899634150392893 0.24131937072370171 1.3903625734778375 1.0188140210341956 -0.8520876537545939 0.6912470594298534 0.0390747341791784 -0.5484021543871348 
0.9928313542854231 -0.3238165902421482 0.12348100962636525 -0.1378376804303467 3.603845114735062 0.444346162821321 -0.8834299058445291 -0.2635685863181331 0.5376767914485645 -1.4359886884801285 -2.0523228060177265 0.8983908985761093 -0.7622280138379844 -0.43509840403029615 -0.8644542903843926 0.4685152674151982 
2.019745314475197 -0.8680662224687699 -1.078223920623112 0.9366427049065221 -1.4468657377493748 -2.7934084073105407 0.8116284698244397 -0.22872132513928267 2.152636992893122 -0.12180247948677589 0.943563083386945 -0.14777193720081797 0.34175270478216785 0.5057221358836002 -1.019311802097898 -1.9252657075946464 
0.09977109835587404 -0.18600440968388907 0.34119195827520094 1.2810811304256267 0.6441734288733764 -0.29572682789515786 1.6151734227546373 -0.43951699751295537 -0.4695739036656196 -1.5609346228638066 0.984685635145431 -0.3131174164050188 0.3136278211140678 0.3660080557534957 0.7981688995396039 1.0684183068438573 
-1.7205770658317774 0.3263004145801015 -0.8333864305642645 0.7225158586698984 -0.3935417804620093 1.438701499711613 -0.8127632006977452 -1.4794983366763137 0.08701779587795332 -0.16351021942487776 0.5993544825846021 -2.1439851386196063 -1.4745499821016348 -0.24800773311563232 0.8888542848038349 0.3806928789178546 
0.550120615909839 -1.3601760384888688 0.6426159084112959 2.339154089268205 -0.20896676876773676 1.373138148865731 -0.3591109356199724 0.48018133889151177 -0.15940412912982535 -1.4492435184422137 0.6758175942930194 -0.28907912798773167 -0.2239344904146248 -0.20349855814597154 -1.7023913339513108 2.5136850312080186 
1.2547688759673339 1.0991204493168112 -0.5673533973788076 0.9300532253921588 0.5085929399371661 -1.0613120723211031 0.3697314779544081 -0.8905885590415877 -2.029015119921163 -1.3805762039028133 -0.5695444835565199 0.46222064405954644 0.1555430657460786 -0.02998760482534297 -0.8642063101340411 0.40881083505144905 
0.33136063995799026 -0.3205132304103323 0.07448806338402135 -0.14377816698314994 0.858441805507848 -0.4402080283496187 0.761639621357663 -1.043892822089272 -0.536261112056422 -0.35609425820299373 -0.2650484812436833 -1.8931990818611117 -0.14498925226235224 -0.7995044220106972 -1.0758354218963107 0.3282463269894295 
1.1234490739175904 -0.6771411753482691 -0.7254366853249375 -0.4776860803796809 -0.7903544624776239 -1.025085476441466 -0.7068085143463572 -1.1365682658010847 -1.0541950195073786 0.2568391887017666 0.4266604750608182 0.5367946617653557 -0.12427814568718312 -0.17558595372499197 0.7307681100578667 -0.28591992143665657 
0.9752931104236893 -1.3120458930095347 1.4024860562035268 0.9534408052236547 0.6537405347480691 0.17001376939391563 -0.030167726177902202 0.46558323296261656 0.5087527152635245 1.9587110396583807 0.9996850269776899 -0.7482383609004155 -0.2214449469353004 1.4896625116789912 0.9531246839239561 -0.717716471069379 
-1.8556843568411743 0.843082371051724 0.3198663693677952 0.7597982452521369 0.9352964487353929 -0.9089673875264935 -0.3780095139314174 0.0020950686418014343 1.6185495858615948 -0.593936733228414 1.1547472829611534 0.16904588240753732 0.2311301636111049 -0.26012529912447846 -0.12407339438782845 1.3403784752727659 
-1.168852881623984 -1.7076693747632747 -0.2623262581008002 -0.45240765952280054 -0.5875453059555312 0.22196606067867478 0.6280773197890258 -0.7334720316884219 0.09120729237806172 0.23885082852873316 -0.047388760435580574 0.6313134496971732 0.6016213310074058 1.1986179819611489 0.9753571781653595 0.8554459380878333 
0.10218306690376625 0.32847949756180933 -0.6416296325744799 0.3978152250287741 0.32184852854066304 1.3353602786772873 1.1227942542045979 -0.5440107957702366 0.3827583003996428 -1.367551124622005 -0.4332567283166239 -0.6825948331237892 -0.9283203162306224 0.05845919981363144 2.0615486367083107 -0.017466252443717526 
1.6499923421760665 0.897627503223163 0.9071828431815436 -0.10799411765346525 -0.9023718093830765 -0.8796392926014858 0.9250695642575819 -0.4023064636356759 -0.6397655655788308 0.2767304245900797 0.46187261749561953 -0.833909167842583 0.5104026472139651 -0.7030139148432224 -0.5816080512266909 -0.456091430643005 

-0.8084148468607384 -0.7566625364228219 -0.7459441551541641 2.6884856316338204 0.2741360682570828 -1.6600292892629223 -2.3543575972654285 1.6500753334232976 0.7280700489747108 0.19584495715149228 -0.7132691868410985 1.6449241431619785 0.8461010781260649 -1.4145212954157056 -1.2740502782263166 -0.7843553774334256 
1.2808386378942556 -1.5666031556099165 0.7424282379866459 -0.6455729170948012 -0.43125658458910276 -1.9304278683371263 1.4100308836415492 2.027348793243344 0.7640470866389656 1.419068492855523 0.7787840896116051 2.129764169313473 1.6472979921744584 0.3003183028778358 0.8288877519810417 -1.3574540659756564 
2.440546029240827 -0.43268144834806843 -0.7818267137289575 -1.7124587141701255 -1.2179080835941594 1.079623662462877 -0.5486377143975089 1.061665354610483 -1.3747444055335176 0.029735044655544437 0.5623717546094956 -0.35942324464143155 0.5054165148537 -1.6200139188100586 0.8345215221118861 0.06097280397078895 

-2.5999875461020143 -0.29662448894035737 1.968839861492062 2.6884856316338204 -1.0090583936416482 -1.6033789128956137 -2.3543575972654285 1.6500753334232976 -0.6440523526659736 -0.27763713824622854 0.4349744849142088 1.7026690940679006 0.8720758674565887 2.2322581440676426 -1.3329838464994543 0.24489540159373094 
0.9765480950893992 -1.2401348043698586 0.20722958252106752 -0.8013166925116368 -0.43125658458910276 0.07295405024292662 -0.46947828377607154 2.027348793243344 0.3362593298789627 1.9157091702267635 0.7787840896116051 0.830054884229136 -0.26257069284584833 -0.6678359169175665 -0.38348527913664493 0.4642426558896016 
2.7477263259294245 0.12336587148070842 -0.2597390028658027 -1.7124587141701255 0.02966224559710453 1.079623662462877 -1.0331040518008419 0.7476592205155327 -0.990978049824768 0.09512147457162778 2.1357173617710514 -0.35942324464143155 -0.7298175322009343 -2.050707821546233 0.8337235689218827 0.02374247100440248 

-2.5999875461020143 -0.29662448894035737 1.968839861492062 2.6884856316338204 -1.0090583936416482 -1.6033789128956137 -2.3543575972654285 1.6500753334232976 -0.6440523526659736 -0.27763713824622854 0.4349744849142088 1.7026690940679006 0.8720758674565887 2.2322581440676426 -1.3329838464994543 0.24489540159373094 
0.9765480950893992 -1.2401348043698586 0.20722958252106752 -0.8013166925116368 -0.43125658458910276 0.07295405024292662 -0.46947828377607154 2.027348793243344 0.3362593298789627 1.9157091702267635 0.7787840896116051 0.830054884229136 -0.26257069284584833 -0.6678359169175665 -0.38348527913664493 0.4642426558896016 
2.7477263259294245 0.12336587148070842 -0.2597390028658027 -1.7124587141701255 0.02966224559710453 1.079623662462877 -1.0331040518008419 0.7476592205155327 -0.990978049824768 0.09512147457162778 2.1357173617710514 -0.35942324464143155 -0.7298175322009343 -2.050707821546233 0.8337235689218827 0.02374247100440248 

-0.3757684873672286 -1.8710875604449937 -0.9456296854585553 -0.03922223552692438 -1.0090583936416482 0.5151505856461546 -2.3543575972654285 -1.320276801785578 -0.6440523526659736 0.19584495715149228 -0.1623562590944473 -1.6473367342216543 0.8720758674565887 0.849303783279226 -1.357313521683399 0.18743523462609946 
-0.23276336124935004 -1.2401348043698586 1.0389733525354659 -0.6455729170948012 0.9465738677267698 -0.387532177144002 1.027386530555724 -1.118132238171324 -0.12446849416790699 0.7641837606412972 0.7787840896116051 2.129764169313473 0.5257850929034292 -1.2047038813187925 0.5697420135619118 -0.39105043739285517 
2.7477263259294245 -0.7023350629411623 -1.240918210821962 -1.3872089310243487 -1.2179080835941594 1.079623662462877 -0.5617131480636397 -0.46843894926318963 -1.3747444055335176 0.998591017223525 0.309647742260881 -0.46386455729251513 0.22008435748431995 -0.4488988598762024 0.08799459916794523 0.02374247100440248 

-0.3757684873672286 -0.29662448894035737 -0.09101744894062828 2.6884856316338204 -1.0090583936416482 0.5151505856461546 -2.3543575972654285 -2.2027878070548015 0.24503536921380126 0.19584495715149228 1.3345413475642902 1.7026690940679006 0.7189028730151288 1.8039689033963517 -1.3329838464994543 0.18743523462609946 
-1.2141465686121022 -1.2401348043698586 0.20722958252106752 -0.759594178708236 -1.9521326102991763 0.5536467362124005 1.3688577239366693 2.027348793243344 0.7172553737875439 0.548613294665056 0.48736962609310824 2.129764169313473 0.5056043552520167 -0.3885305696428161 0.5697420135619118 -0.39105043739285517 
2.440546029240827 0.1237166351188049 0.23235306579468365 -1.7124587141701255 -0.15061163601550823 0.9963687204720724 -0.005150721866500177 1.3968992484684706 -1.7840130290757903 0.09512147457162778 2.1357173617710514 -0.35942324464143155 0.22008435748431995 -2.4416382630366757 0.8337235689218827 0.02374247100440248 

0.20529900257681885 -0.7566625364228219 -0.9456296854585553 -1.432093282101043 -1.0090583936416482 -0.38980297709357453 -0.7012021447989578 1.3787081212386272 0.06544356583632086 0.19287420698240537 -0.7132691868410985 -0.07288615712775358 -1.098990443423372 -0.013069878396784864 0.09129272172139265 0.24489540159373094 
-0.23276336124935004 -1.2401348043698586 -1.3253668376442447 -0.759594178708236 -1.9521326102991763 0.5536467362124005 0.641975482548659 2.027348793243344 0.3362593298789627 1.9157091702267635 1.1040074928948769 1.6025085902735927 0.2709056262297541 0.3003183028778358 0.5697420135619118 -1.3574540659756564 
2.440546029240827 0.7423666888565662 -0.7781729726721357 -1.7124587141701255 -1.2179080835941594 0.9439276567213785 -0.5617131480636397 0.22566458065950676 -1.3747444055335176 -0.2640072665653479 2.1357173617710514 -0.008867404731061757 0.5054165148537 -1.6200139188100586 0.3084343159702811 0.02374247100440248 

-2.5999875461020143 0.91834592583304 -0.3107373412993899 1.93748742676439 0.2741360682570828 -0.38980297709357453 -0.31325057220861524 1.0816132243048626 0.6645176877327907 -0.14652743234472448 -0.20308796812446184 0.7475941435569398 -0.29786428289742545 0.39001835849817146 0.09129272172139265 1.493735819962606 
0.19916136703074155 -1.2401348043698586 0.20722958252106752 -0.759594178708236 -0.03547041486741178 0.45711120330274646 1.4100308836415492 2.027348793243344 0.7640470866389656 1.7472158345732294 0.761737109535442 2.129764169313473 0.5056043552520167 0.1830259077055011 0.8288877519810417 0.029886753222433785 
1.2868501384505853 -0.7991373186593628 -0.2597390028658027 -1.7124587141701255 -1.2179080835941594 0.6700133829316061 -0.5917888890429748 0.7476592205155327 -0.6553109169187673 -0.14378121946432293 0.3529309642266986 0.1640813766247952 -1.2340699861345135 -2.050707821546233 0.2767515333461042 0.02374247100440248 

-1.2193656224592242 0.7757584235504424 0.23476759554039794 2.6884856316338204 -0.6839461683196616 -0.20589431669086575 -0.2863702356453187 0.2523832724740295 -0.10416824144443286 0.19584495715149228 1.5495315386767703 -1.1495436915642923 -0.8115729222927703 -0.8046340554735706 0.2835779753639998 -0.4609794997768517 
-0.5123287867910616 -1.2401348043698586 0.5502269831016442 -0.8850845180934538 1.4832134166297288 0.5536467362124005 0.3782664877071104 0.28931039957305477 1.1605780272881105 1.6583283361171812 0.7787840896116051 0.830054884229136 0.5056043552520167 -0.5126748253747075 -1.6346126338719726 0.29501384751894166 
1.2868501384505853 -0.7023350629411623 -1.162538123430261 -1.644628376519138 1.298056001107311 1.079623662462877 0.08303182525110858 0.43595513925938884 -0.6553109169187673 0.36812131754295474 0.2554034505591092 -0.46386455729251513 0.2892734862645095 -1.6710811433097343 0.8337235689218827 0.06097280397078895 

-0.3757684873672286 -0.7566625364228219 -1.0532880165176601 -0.03922223552692438 1.3855857260755933 -0.3027354030703201 -0.500481469434352 -2.2027878070548015 -0.5596078844604713 0.19584495715149228 -0.43578717423778074 0.4069244973909809 0.7189028730151288 -0.2594101699279425 1.0736078829049693 -0.7843553774334256 
-0.23276336124935004 -1.5666031556099165 0.20722958252106752 -0.759594178708236 -0.43125658458910276 -0.17016292023131785 -0.46947828377607154 -0.49669705491802324 1.1479259409832459 1.6583283361171812 0.7787840896116051 2.129764169313473 0.2517078226107091 0.5922816252987793 -0.06107273552031135 -1.3574540659756564 
2.440546029240827 -0.7023350629411623 -0.7781729726721357 -1.644628376519138 -1.2179080835941594 0.22759525750598988 0.5035689072891824 -0.46843894926318963 -1.5146968941378305 0.09512147457162778 0.5623717546094956 -0.46386455729251513 0.5054165148537 -2.050707821546233 0.8337235689218827 -0.06641986895100478 

-0.6237756195748916 -0.29662448894035737 -0.7459441551541641 0.35039111622988417 -2.8658135739936568 0.3446626864670281 -2.3543575972654285 1.6500753334232976 -2.300276090348282 -0.1306853258833929 1.096917677739808 0.6235217072552944 -0.3374733517762738 0.39001835849817146 0.3024432414268792 -0.3282064262404894 
0.09197190375858981 -1.5666031556099165 0.16906005970163465 -0.6455729170948012 -0.3493908379483524 0.13009100432846635 1.6837946009681761 2.027348793243344 -0.20613303612159029 0.484248616636759 0.7787840896116051 2.129764169313473 0.5056043552520167 0.5593670747516292 0.5697420135619118 -1.0262817371773614 
1.4959544454936884 -0.7023350629411623 -0.5650907308511122 -1.644628376519138 1.7418918150462177 1.079623662462877 -0.5617131480636397 1.061665354610483 -0.990978049824768 0.23224722698002576 0.8620856599789131 -0.6325542745532428 0.5054165148537 -0.4488988598762024 0.3084343159702811 0.02374247100440248 
